{"classifier": "mlp_classifier", "n_inputs": 784, "optimizer": "adadelta", "loss_function": "mse", "layers": [["dense", {"units": 10, "activation": "sigmoid", "weights": [[-0.04466797369992751, -0.06271509510278013, -0.04828190417305515, 0.020058648172182624, 0.0047310798876105346, -0.009684715330408607, -0.06790690229575189, 0.011238752372324226, -0.033016036367523885, 0.011197762413388013, -0.019536026002275653, 0.0037867562805791915, -0.02988203932870711, 0.03490144760872103, 0.019718763176926078, -0.013038196204254471, 0.0333975877467295, -0.006556098489087904, -0.024299961408369822, 0.013718544971937807, -0.0020916298543857113, -0.004277361443390968, 0.04546357521988386, -0.009180020088059432, 0.012141712164299996, 0.016862091979465713, 0.05607505383842037, 0.007079085579967984, 0.01663686905384313, -0.009657723398462442, 0.031631021139708004, 0.009167795509757297, -0.022246513872922195, 0.01655566324392934, 0.0037861741781078464, -0.18213825565769326, -0.4539524908763013, -0.28496777449285016, 0.1646800386177566, 0.09212957038083544, 0.11346021884942724, 0.7527037991760698, 0.6165514690357191, 0.8779896839968123, 0.567684496208892, 0.31116971179014025, 0.5023437819382064, 0.3587936723584843, 0.28151767327887944, 0.2697113643773001, 0.5339994528258454, 0.10508309026640356, -0.09489908023159963, -0.030364713481494228, 0.011423896619569968, 0.11129853196552009, 0.029899574601958183, 0.036625502988930136, 0.004809537969102651, -0.05061418634801374, -0.023610977508617754, -0.08147426270164558, -0.37529092316754503, -0.6670640542001564, -0.8676513470133446, -0.49703039747877337, 0.011871050363974603, 0.5221068574791401, 0.6993639051322578, 0.7524353407546761, -0.027290616680755022, 0.4238096984071797, 0.04622941758374132, -0.09860836073853473, 0.8273022610093148, 0.44937199294660457, 0.3419482043077101, -0.37260976570716714, -0.17546440788566026, -0.2650643517353442, -0.4488922105051729, 0.034459147853578447, 0.17588971155221683, -0.03737223473787393, -0.0396952710003643, -0.018188160746675997, -0.12182488163080164, -0.17477893912079004, -0.25387691098282644, -0.48977354362503794, -0.5805698342103672, -0.7568928345296525, -0.27166949269596047, 0.1801648725187868, -0.012886719144177152, 0.29399173869464157, 0.4443737366954097, 0.24664135463574627, 0.1561744883140496, 0.5770257015483343, 0.7052482080415785, 0.4623236700842702, 0.12163059547711005, -0.20007094095475558, 0.3395815828401237, -0.8040691572679626, -1.142317312392381, -0.8557555583780101, -1.2586505505920496, -0.32656212590346073, -0.0061504157750417905, 0.009578943332880492, -0.006307309711594972, -0.035270313304508874, -0.138611408787368, -0.18249265447205207, -0.17281285222076842, 0.244262258326039, -0.16029656388931257, -0.49786631962213246, 0.3605118012030264, -0.5504097356323424, -0.5954022039615594, -0.45363440529842847, -0.19209173975089855, 0.45071832985973437, 0.8473397052015704, 0.8659318983574427, 1.0228697143221155, 0.7253800277441272, 0.2047334368442928, 0.22175036925122996, -0.936630843468623, -0.45114720494982613, -0.8537692688672659, -1.300301812731672, -0.6967555696296532, 0.13528226823229578, 0.0708648105122495, -0.05451927089895098, 0.01052814003135266, -0.057581789385271524, 0.025386451881347014, -0.12475494279966536, 0.3110875697061511, 0.6163102945133223, -0.23734180673771973, 0.32651441677855975, -0.24871620889027113, -0.6153178952141765, -0.05669890240643699, -0.28226642573789246, -0.684482834361658, -0.33070356120856936, 0.5298337713192328, -0.1055567703611067, -0.16232733102900504, -0.43264669216041013, -0.5378970025911602, -0.34529283775283187, -0.7386192386042307, -0.2159634954295244, 0.03474677798273547, -0.6825360978994373, 0.010933878715940341, 0.8223092890828265, 0.17285651620621728, 0.03904159238729223, 0.03787358378327145, 0.015084229144102075, 0.17429120195620026, -0.0032178770796575094, 0.39913474615119915, 0.5516504599046345, 0.6340642715809196, 0.6726568111767527, -0.19719661385532974, -0.3857198496275842, 0.01566265105247741, 0.2850894172849212, -0.9026141332431392, -0.1580354200218676, 0.3511390462327381, 0.6300114225015518, 0.07245026319029546, 0.04335163378422807, 0.13544672473658192, 0.4760332144410413, 0.39125617450401046, 0.18574533569186277, -0.26623274106593636, -0.11294384412440012, 0.30098274784001117, -0.13420703059993, -0.09113577028959742, -0.05011595901141632, 0.08991009717767925, 0.010384332338951882, -0.06693817378371551, -0.04648913471227565, 0.16299097520887965, 0.8477421465161277, 0.9861568798673989, 1.2108491933876546, 0.32508792146448107, 0.004077171913317856, 0.026874081718704743, -0.0517278364711149, -0.22738764393846012, -0.20427338778372084, -0.9906761745611851, -0.4541280760028769, 0.16586673013582823, 0.08128124742266837, 0.5432079729719501, 0.40073177636663504, 0.3318631986298243, 0.16383562883526356, -0.4142583358151516, 0.7459473327362504, 0.1755621103546407, -0.4442147628108764, -0.1398695599483742, 0.07159186905721432, 0.06486812425833856, -0.05788852166654943, -0.2050243719979988, 0.25945701769296803, -0.01642609370989589, 0.5441876254311426, 0.15653027490970176, 0.7440148832361425, 0.5475053740588153, 1.1199577952543542, 0.524846965904439, 0.8956619185606501, 0.635758046220078, -1.56375656689166, -1.966377380458648, -0.7260039154652611, 0.1876713430216037, -0.2268725274508944, 0.868474500119249, 0.10888940525861719, 0.5210470710899592, 0.5133004270465431, 1.0636433137617511, 0.9377576663692393, -0.21132983320619667, -0.7250661242277476, -0.1435160478453416, -0.020440996304444473, 0.0235257484196699, -0.015670671253109666, -0.1461855040092306, 0.058860912247907245, -0.20836659618551795, 0.45373485157921606, 0.17832257361330586, 0.23558176117518848, 0.9537307053524507, 1.6231184537087222, 1.373748261093751, 2.0897952472753625, 1.3329261863081088, -0.7213322749361599, -0.005637477077120458, -1.1874261772039287, -0.7221118674679158, 0.08663267539480457, 0.4714047115548521, -0.4199536726375403, -0.2093490885946017, 0.14546299828676584, 0.3474238533928582, 0.3054532190165838, 0.3405340799646349, -0.5893440345582663, -0.2261596782593299, 0.04582217775148016, -0.07686535426103777, 0.0366265353866983, 0.20573316313370935, 0.09788385742478166, 0.11927058325934557, -0.0074317755356639115, -0.134836591535715, 1.0790100561552292, 1.279680025240093, 1.0038327663855067, 0.9237385827501294, 0.8630738406518269, 1.0749610478921345, 0.6338903038232679, 0.8177578445407894, -0.9853652168788212, -0.6447736670222913, -0.07394211393124538, -0.08365788060094899, 0.39558970084420175, 0.6241528619386624, 0.5034560524474738, 0.3086036310825253, 1.239960420724566, 1.092736693332427, -0.35308583520440856, -0.15223050939945987, 0.027670990163508928, -0.02060725086258827, 0.012221449915205478, -0.10462177413139052, -0.35465092591747976, -0.16023872988708962, 0.28886616100208, 0.4369163724707959, -0.20510630529963725, 0.4058253081837531, -0.05277536877614703, -0.004903483484214568, -0.15215016854277777, 0.9243677649961907, 0.7858798589688667, 0.7634854199096772, -0.10624240394594439, 0.7140048677940019, 0.3436729475371729, 0.2339800240674672, 0.26193362867177605, 0.07515757831987417, 0.2812445535747042, 0.4023352317446719, 1.2598678637837868, 0.4820981411197499, -0.15486940570890936, -0.0026949847298776363, 0.028344763707374734, 0.014609438308004064, -0.0031230519277722474, -0.16934720678744378, -0.6287838656172904, -0.23040163885974324, 0.2803985994077746, 0.1609884366881803, -1.0475500621307978, -0.9683082820944778, -0.38363098599042544, -0.3782633174936953, 0.12706685192888412, 0.8319111860031211, 0.7597117217604116, 0.27142994746690907, 0.4998302294485831, 0.4130242645795326, -0.3850768669646882, 0.05314621338180664, 0.2294507458032975, 0.4759771465060566, 0.06438313495503706, -0.6672221726794306, -0.31657647284197576, -0.5550492939566192, -0.28061961526899537, -0.033861206319642366, 0.020251064470088724, -0.023346366101815657, -0.01774615834470213, -0.3644535402056627, -0.9889062089096716, -1.1596811558965519, -1.135215114239249, -1.394420197903029, -1.183302939709797, -0.8892973384391729, 0.35571611976257383, -0.03399249429738868, 0.9064296783783692, 2.370895430230119, 1.0065899195165016, 0.5208964023948541, 0.9044381116813353, 0.43254864233595164, -0.13673266298993342, -0.6133397469987453, -0.3480560433950527, -0.09811076477993713, -1.122561526703593, -2.10659964464, -1.635606943776234, -0.9026514988711779, -0.21511994774560714, -0.04059838790862488, -0.03760377440555196, -0.0022445095201639497, -0.0536702391630768, -0.44615857704890743, -1.2806181174715823, -1.604088269497454, -2.228690481172476, -1.855782602360255, -0.6080733430387312, -0.30254232210020804, -0.16121666005759866, 0.6160215629298823, 0.7686919986047733, 1.1359937642540157, 1.2360816961546979, 0.3722336965670173, 0.37906928752392394, -0.37251616107191377, -0.4914412059801769, -0.8380401144832166, -1.112093247582335, -0.7826979157427922, -1.511852943721039, -2.3635054805015594, -2.275892507367818, -1.1068830906011642, -0.34716171319038536, 0.013703669412033413, -0.003727614916118867, -0.03684033141670945, -0.08325269620482553, -0.7275101667464238, -1.7381590551896298, -1.1870885088611491, -0.728083949809027, -0.4878579449398594, -0.48528016568612786, 0.012399554345788155, 0.3042110542571757, 0.4558440273076563, 0.5961078174279889, 1.217347132236121, 0.1418167851312261, -0.30831306649458273, -0.04994873732328442, 0.06553630804944398, -0.84337284562127, -0.6387584647162428, -0.5126159771955465, -1.3208006048228227, -0.7529149309549802, -1.50563901959576, -2.324270216265399, -1.6925213588451704, -0.6408787417342265, -0.06488428002254444, -0.07358766509272335, 0.023536386467287777, -0.07555506199461504, -1.4333648616451875, -1.573911959817093, 0.17347737389127668, 0.8695283838063175, 0.6508739999700074, 0.7541494725750738, 0.24421448487947778, 0.4946015291501995, -0.34760430930414743, 1.0910500175293056, 1.263536290421751, 0.06900263320287177, -0.5251530258542182, -0.2966157450663918, -0.68609391938453, -0.40396248367259807, -1.4406196671321545, 0.038147108005432945, -1.0247321228467634, 0.03310275356283863, -0.1530513353278156, -2.300889291028249, -2.282524851934831, -0.8880666132665629, -0.05589706141735207, -0.03707987771712305, -0.03650720110071923, -0.20955982984918375, -2.3217944511877344, -1.895847475723762, 0.888580268151823, 2.186137203628357, 1.7893285183053067, 0.9057822265952039, 0.6810355934012373, 1.0741651570963178, 0.9329065969294907, 1.6673036937842614, 0.4312701846067585, -0.6714425678381689, 0.06698449414929505, -0.14483002003870574, -0.6869819086197045, 0.3087704737406474, -0.7744409922580526, -0.46587606666855597, -0.5856453988911374, -0.004022279116415604, -0.0983612970687734, -2.735721179495692, -3.030940811115547, -1.044397680915557, -0.08336069893694756, 0.007231047537032814, 0.04026018862288134, -0.3440227292236957, -2.489109815597177, -1.9025501407403023, 0.8693062036794398, 1.9094232751815952, 1.0440492421312242, 0.30425830409380544, 1.0062350207122974, 1.9842594267551203, 1.6124477425838855, 0.726382850766005, -0.1570323263930145, -0.10366295601323317, -0.25089817443059154, -0.23066347933860326, -0.8128705589696245, -0.29475139100353703, -0.454507781274228, 0.15866203494462575, -0.7880774382617315, 0.0029885025217987913, -0.30844753871490643, -3.5514112528510813, -3.495206709176128, -1.2723854141746085, -0.0880365359417146, -0.08842344486920713, -0.0011006533578413699, -0.2241264737068512, -1.8336225015884777, -1.288603832690033, 0.458553710385047, 0.6396385943286829, 0.22388307879215621, 0.430132944062827, 0.8803914775305206, 1.1611452901697663, -0.09463983977957718, -0.15018447047329486, -0.6804810745818773, -0.412018778791596, 0.12923621551346534, 0.7307256731414098, -0.8901029092605005, -0.3271706298740768, -0.49883932931206326, 0.10044765961083951, -0.5186703428338664, 0.10978060072631468, -0.20862853544524887, -3.5839232729094177, -3.417536796056134, -1.0971974804544204, -0.002588099883763433, 0.05688986959775387, -0.04301492304258474, -0.12094469363869136, -0.7757941298688029, -0.0027639487145937505, 0.5822716545404366, -0.4477064827955024, -0.42854931731183643, 0.7192937980407805, -0.019743852610228665, -1.53343823238871, -0.792134305543763, -0.17116162550465472, -0.4191425134960283, -0.5737215785091649, -0.07663451912592877, 0.1751226671703534, -0.3273612188017428, 0.3490662234231647, -0.5163931119975311, 0.3393082070639777, -0.1804097969477248, 0.43687507837864054, -0.6890607187216504, -3.542689371054849, -2.6604218575458236, -0.6389092941893422, -0.03406976518758674, -0.06990435873299446, 0.07096726842409262, -0.005275421533629399, 1.1603138805752902, 1.3145974821636963, 0.5437561541181418, 0.11247888550187114, -0.2528099492434372, 0.06560592597302535, -1.0883354891146884, -1.5864726549604393, -0.23893278244256955, 0.946841416090522, 0.7027919087833352, -0.5893575696114591, -0.7305097175686268, -0.24716113098515238, 0.08062965416424317, -0.8051414593545724, -0.9996831887818192, -0.3065132198448291, -0.3964818127253149, -0.46201405356175884, -2.410554840619291, -3.7209692724133276, -1.9226411640485692, -0.29782748761143557, -0.012696160891620865, -0.010002147951806985, -0.04963673584566693, 0.21332986727582512, 2.2189019454424885, 1.142470460161805, 0.5063029392065178, 0.32358970097255385, -1.2087364480512681, -1.2303899633361732, -0.38165691645956856, -0.6313887459344752, -0.2637313679936608, -0.5269544870395757, 0.34238317766566245, -0.32377238347215453, -0.26608384759429904, -0.5902540672797909, -0.9002329116368732, -1.0923406555275836, -1.2319616862730032, -1.4636097969587376, -0.1436863195996337, -1.8164188039155458, -3.951334013752128, -3.3157056066859734, -1.5530821900030256, -0.3313385096470274, -0.04060928257668526, 0.008652304752585592, -0.023219152883211313, 0.21002743077692404, 1.27709279125686, -0.09869616213139112, -0.40493185161901707, -0.06044490114962322, -0.3303302971141431, -0.6167156839088415, 0.7381732109231607, 1.2955055155417536, 1.7926934372297565, 2.2789495001769344, 2.584803783218, 2.309372215201107, 1.80031744418143, 0.8008975681962879, 0.554964921143412, 0.8567291686182493, -0.5455135572498503, -0.15851357432526597, -0.18377241700660704, -2.869573167103974, -3.887825071961149, -2.902003312590334, -1.482912473402276, -0.41734716397969074, -0.13864394152769813, -0.05524480147633759, 0.0077051619546764285, -0.09897298948254855, -0.5475913759781784, -0.5648383718193464, -0.3894004615477706, -0.31931140986972906, 0.9838524801833407, 0.43816532515473744, 1.3936491787564067, 1.2078395200080745, 0.8915268065142822, -0.3574797684623652, 0.40924762375877477, 1.567481743923427, 1.864873152428964, 1.1771424393069518, 0.9740224754500106, 1.058868935832041, 1.0739337909554094, 0.8743739909126644, -0.5446777200604749, -2.394122179433584, -2.28505732369775, -1.6958319482143136, -0.8765439102093296, -0.2868057112277262, -0.12419798595530744, 0.029743513810261038, -0.013364657995703176, -0.07570503712437777, -0.4730917187953971, -0.8631406137264264, 0.05930682202950524, 0.7000882862542384, 0.6598143256442662, 0.6762420890087977, 0.21782960335310486, -0.27900895058289665, 0.10141641651825735, 0.14678276020924777, -0.5826946478456475, -0.8045847151429313, 0.07064431591194395, 0.5676222255254383, 1.6781329379270893, 1.701341950759644, 1.177122915401238, 0.6573760663826242, -0.22810580627211335, -0.7234475927817539, -0.5415725798344048, -0.4069818405103921, -0.23133486139080053, -0.07554345210737821, 0.012846293221705185, 0.021789721160896638, -0.03390531480825024, 0.038551008356797575, -0.18596703652297877, -0.20672076548522475, 0.5365590167789571, 0.9737080690750405, 0.8350631702237631, 0.6296864764349348, 0.5540808337282667, 0.45823326647391055, 0.9776549979950783, 0.9405293796335776, 0.7818639645680615, 0.5457992268848291, 0.057323169048326, 0.3017183840741461, 0.745937055874189, 1.0178488081069903, 0.3332174176533369, 0.11554088143714247, -0.004091016941379994, -0.10797982586483967, -0.08930183701597941, -0.06434579883135126, -0.0018280525485129414, 0.011520813792730034, -0.05215008729752781, 0.036023384249245366, 0.03475244185708612, -0.062385660107960504, -0.04351759848374484, -0.023236834568222363, 0.025840422473081975, 0.010308337794323906, 0.01891132472827141, 0.06406551238575003, 0.008177063974167146, 0.0014569305101927272, -0.020858348735350352, -0.07941185767618056, -0.016867963921583573, -0.030876033937895786, -0.02419050492769372, 0.007272945764539603, 0.04137613984100127, 0.01387132447005767, 0.02478542758338248, 0.03456883154091824, 0.005737707340655356, -0.029426277794160148, 0.03188826902521052, -0.015609231839627074, -0.016709718283934215, 0.008211000934643697, -0.04908807034254798, 0.03967429172044245], [-0.009487889822191172, -0.0023409926266015624, 0.00523213074414769, 0.0015482731362237705, 0.013353343863127271, -0.03441643666315051, 0.011061979682338526, 0.048798018552337334, 0.006622677879679642, -0.02419201461246518, -0.006325890173452459, 0.010557648757193583, -0.04802265945797193, -0.003256509133277282, -4.0343132435779834e-05, 0.033376822585274475, -0.10514839427217429, 0.04349320046187629, -0.0198444019778881, -0.010052562139480213, 0.01644350965619187, -0.013860717003848957, 0.0322809191473754, 0.017530031938153164, 0.048454018631358224, -0.01942000615476583, -0.04308158597350796, 0.05408187322392793, -0.005581519267397642, 0.003453090283778689, -0.03454027393288687, 0.014755577333871521, -0.045765770358514875, -0.17408284272964022, -0.2697119469289507, -0.3925322406243269, -0.28569838610395026, -0.3159985397406119, 0.10919968906693736, 1.120754834928682, 1.6497054612026978, 1.0489802602396603, 0.918820007093057, 1.7167083074542184, 1.605147028172004, 1.2132274355701742, 0.998316734213266, 0.6636307077059892, 0.29839829219994396, -0.4008566746197935, -0.37047889111988486, -0.05786129611074017, -0.012440661852265875, 0.04282236029386821, -0.05748806671333063, 0.007894217775924542, -0.03611598548084634, 0.018668749236840535, -0.024627133367072486, -0.15852098095445652, -0.23048001283989128, -0.6771451169213503, -1.1067395789443404, -1.3840506978504903, -1.2236881119378595, -0.9656950110583621, -0.413578219215522, 0.9315008323325418, 1.9570883199034703, 1.9345472487864572, 2.18942214542301, 2.046727959168857, 1.8156185931684448, 0.31450657213212707, 0.38087626222791987, 0.14366179389316158, 0.43606620780180066, -0.5780525557797513, -0.782993736285727, -0.8732872979083733, -0.5020120272639161, -0.09155085689939019, 0.06225465021920352, -0.0024390330229466014, -0.019312551205725777, 0.055750849131584845, 0.025398206774987487, -0.3475234298995857, -1.0157812953463594, -2.068690989173822, -2.751414129113541, -2.0398693405182753, -1.7378261909001511, -1.5551967832211226, -0.47737073402317537, 0.6156968626808538, 1.4158989583956574, 1.7506345219799497, 2.2925879720678513, 2.1096648846678696, 2.1345962910386103, 2.080491549255549, 1.8518217141632665, 1.1161194425161565, 0.00035495876351637783, -0.6783410718795218, -0.8162735033636216, -1.1566255251129838, -1.020533299793999, -0.1560352602380868, 0.05756614565245088, 0.004835856358473057, 0.004947899728860662, -0.013272169968171876, -0.12840526510924397, -0.7424741089248362, -1.7265928268906974, -2.9037083861217194, -2.349696791649502, -0.9714019015525411, -1.12726280129821, -0.9695977156408984, -0.16862136342167974, -0.3066468804633863, -0.05862990946993965, 0.8018885804999296, 1.944147475594004, 3.5563175999897076, 2.5057546786393763, 1.480495923396917, -0.3355847904888233, -0.12142803377036349, -0.5715186972887887, -0.1489361773894688, -0.5983873214677597, -0.7319293291829323, -0.7418598823841901, -0.14322254556045846, -0.04577264970009449, -0.014665377310953564, -0.007242950715806539, -0.015038395691737408, -0.49937946580345266, -1.422096145902275, -2.1572189548355345, -2.2433794997447887, -0.8784794667296265, -0.4730776190707646, -1.3305072182765014, -0.9205205871358375, 0.3151242904319289, -0.5174926291742207, 0.03480916365039413, 0.31047789968974454, 0.7222736253099636, 0.7182510140760174, -0.36534741755282457, -0.15773614868333682, -1.0327519387184354, -0.7275204791913655, -1.3116141775979928, -0.42251842137788803, -0.29055273319106395, 0.0021316163855974275, -0.17986476455265277, -0.15260708519015434, -0.09961869093842772, -0.007095195889166186, -0.05254120901160434, -0.07451096970795258, -0.4060050414637902, -1.0196776023228262, -0.976484594376412, -0.19261496313208248, 0.2665167595389567, 0.3922764187213047, -0.2024129287578401, -0.6878974661504702, -0.5948269612131415, -0.30124499653994447, 0.22470177255504487, 0.6466384345136984, 1.5318561760428069, 0.7059075731550424, 0.1519219813302256, 0.034286081146357214, -0.3434699216355754, -0.22142611999755551, -0.6584782272734709, -0.8811268194790708, -0.5117417798367673, -0.05950125334178101, -0.4629433324540172, -0.3564684225006358, -0.07984203731354078, 0.002618520260755245, 0.03968310592080276, -0.006450427155442617, -0.2739021760997144, -0.4342591741007722, -0.04195202317621689, 0.6264007422029636, 0.028405108677552308, 0.7773647325303364, 0.8316101138784249, -0.3350926477396923, -0.0671779278253531, 0.11855497618180341, -0.42693480740656625, -1.2226416245091754, -1.3644552918679236, -2.4427781232412165, -0.6087939154306146, -0.30032056970527793, -0.3067119767166767, 0.24162851637354216, 0.13562087573211562, 0.19461378552384573, -0.3152242077534975, 0.6231555781559324, 0.08686280420838896, -0.28544760069973124, -0.1433887529415046, -0.017271017450529842, -0.0034183088273316573, -0.07865284830399047, -0.3133312344786488, -0.2191247550247191, 0.6814683915771981, 0.9159918737343911, 0.3934432840092679, 0.7058868468128644, 1.128716995216558, 0.5014166428979081, -0.014053395446843, -0.1877491891535693, 0.4080523374310805, -0.7579440261251271, -0.8149314216404198, -0.5758816231409403, 0.24110104566979548, 0.12242543866189876, -0.19943899199099152, -0.01576244304166172, 0.33840630199909977, 0.5436004893208408, 0.26992989984944404, 1.2485620920770852, 0.391698398379068, -0.07273987425949444, -0.13813959870064896, 0.023060246380037716, 0.005703220831371061, -0.143785597690831, -0.026567306547936848, 0.14748322489891938, 0.7754850792496706, 0.3958414959146355, 0.48870473019234195, 0.42512980458922633, 1.0473575875883545, 1.175824273005539, 0.734558447428013, 1.0072689714932694, 2.2125476312616015, 1.9211979238680992, 2.4441186723338917, 0.8648592610493898, 0.23745952388296665, -0.18018583157112178, 0.6785474389312677, 0.7347313761623261, 0.6480575921333335, 1.3932459456039825, 1.4147158307940115, 2.1908292783534398, 0.2976984957453303, -0.4106472760535623, -0.17015691250459042, 0.013467210456711445, -0.009400284635457959, -0.04121707134728926, 0.14659867278627992, 0.11859232438446213, 0.5795446846321778, 0.0030897947103295112, 0.5076862981080549, -0.11561337878721394, 0.7101926956128853, 1.0372210200563245, 0.49451126805724055, 0.6364516456693189, 0.5634708065208054, 1.214925284845049, 1.3206985370884137, 1.1889565755359295, 1.3307434710525106, 0.15778651331560972, 1.4535267918969392, 1.44148772163475, 1.67947278502193, 2.5292387420837708, 1.70371700213753, 1.7376490308879298, -0.016235501339461264, -0.6125384091651698, -0.0787282360094171, -0.058910343274535364, -0.05020958649696283, -0.01943839559276462, -0.17314840673304743, -0.1595713493872305, 0.2880500161275008, 0.18983065721855938, 0.1167366974440493, 0.6379010885711516, 0.4240899531928116, 0.6093861038166135, 0.3073064303333035, -0.05702279606854202, 0.5490923139182214, 1.5907925068073316, 0.9022696773990959, 0.7702015758495968, 0.6832892164746154, 0.5479228181198165, 1.2641583634085256, 1.0719672244005436, 1.407214380570255, 1.547244369102082, 0.7248343764305702, 0.4343567342855358, -0.8783820683136699, -0.6505622973050608, -0.028017075431137486, 0.022974832046913474, 0.005763055704210276, -0.017064455284282225, -0.48065806635135194, -0.6110301586096749, 0.37982724433231774, 0.5365602877329646, -0.13223824323360445, 0.728539520759899, 0.686931124034727, 0.6454337610212189, 0.5855897335595451, 0.8861870996906801, 1.3051786822768097, 1.1222276414951968, 0.9316162233486317, 1.2232449503427696, 1.5166504572351431, 0.6359883665109207, 0.5734641955313095, -0.07588474196539072, 0.17770319751681388, -0.2858081042963615, -0.949025979016236, -1.4098829548027105, -1.3353049421956733, -0.3987104050112898, -0.02642968393638064, -0.0230087633906957, 0.022387445450246336, -0.07343119663344215, -0.5203062084719525, -0.9927821286220664, 0.057509144989993294, -0.12500671424105428, 0.0914663498345311, 0.3299081746432408, 0.36576775830964403, 0.2730397772477167, 0.16714262669071642, 0.24063049956708366, 0.22456773155241647, 0.03151474701206516, 0.5597625980141367, 0.20956829874691296, 0.6672220489026607, -0.41520678282401086, -0.33344055541437595, -0.5742998670306361, 0.06549288030146345, -0.6967159038582115, -1.7616441572781594, -1.9246796558054116, -1.2606243897944531, -0.43581918580287704, -0.01762092647236378, -0.013086508981045372, 0.007842057151854608, -0.03156869841084032, -0.5369607798343502, -1.1810875034445354, -0.7591461429342199, -0.4789566740278321, 0.05829754539889458, 0.10075672550355537, -0.050514061322260745, 0.32570400748816075, 1.3597175592900064, 1.1626254763087223, 0.1004339538091943, 0.07910664094781217, 0.12293907251128236, 0.8698377076839254, 0.17335115436217843, 0.49806960559089314, -0.23154916836273068, -1.1363391747805829, -1.496947720932585, -0.8236270345173095, -1.5028280287510283, -1.352345624457401, -0.892289065121898, -0.2432831569607666, -0.005083869862666323, -0.026057563823128682, 0.015183673916721244, -0.12856240444435216, -0.6208640135754142, -0.9218737097794292, -0.7543835659372259, -0.6173115419418009, -0.5868114946366283, -0.06620104946827572, 0.24662503142804082, 0.3459236525489879, 0.8732547123060155, -0.12711464637820377, -0.21497342627003574, 0.13114510235613114, -0.21774315983577977, 0.162116373453097, -0.39359375990819506, 0.047433826426175205, -0.2689120232528202, -0.32598646143406945, -1.438051198260826, -1.2254302118992635, -1.1906849936314543, -0.6393474097229902, -0.560085790259579, -0.16524282326818807, -0.04384704278980967, 0.03750431043830027, -0.06894889415387272, -0.08010490176424367, -0.7150304626895838, -0.9577396840534533, -0.5920945203129888, -1.0520020407213204, -0.6002281826214265, 0.07189705739831811, 0.7407279239563174, 0.3277611911736314, 0.44887445527175496, 0.11389099321662537, -0.003061335788988875, -0.12537174370787926, -0.667802792014757, -0.09207368656939892, -0.2311746002913402, -0.5748863357339232, -0.17324024679617467, -0.09519099804580004, -0.8087201771570318, -1.0216827035820562, -0.8580497368384291, -0.5909732698751529, -0.3684067894013028, -0.1275416506653531, -0.04620080156053261, 0.01375422863123818, -0.02827715383476081, -0.10352634988500797, -0.5340502050620922, -1.1877501849630252, -1.2847039077806643, -1.8805067914971412, -1.656253146944584, -0.6219462061542821, 0.3864959418607461, 0.4538321134694178, 0.16498694168430902, 0.2487959403469069, 0.1122862363096186, 0.6887119615633654, 0.14094752238805236, -0.4360237198959566, 0.26133855326893546, -0.17558898011161533, -0.21846366518618826, -0.172529995991655, -0.23876451502240864, -0.2916021616071849, -0.6642078944489821, -0.5291933289379026, -0.5844140713490203, -0.1886610246888073, -0.040405436260935484, 0.023865069366073268, 0.0035435059911319905, -0.14961168077101694, -0.565438720127054, -1.1267000930442328, -1.735956220773968, -2.6994674196342605, -3.337092432671204, -3.5539233921524107, -3.29092506192451, -2.5157170739516967, -1.3399170870264723, -0.948856274152234, -1.0981606040594247, -0.5233347848175229, -1.4661862289223715, -0.5617537413820741, 0.13105701531733593, -0.011210024995817676, -0.6125351195665488, -0.748370265832592, -0.24211922852471063, -0.2719755847231004, -0.5550012704191767, -0.3914507351258427, -0.8347078569120144, -0.44224758121617114, -0.11020108970427983, 0.017809374596762535, 0.017880968067571255, -0.06647584512793739, -0.6391126099863241, -1.4164287875728578, -2.1486700972451795, -2.930371286894858, -3.2598708210544456, -3.481017263284983, -3.4496537951824875, -3.367835946863984, -2.5159853851290443, -2.081533718698154, -1.8150505903650744, -0.8819368876276922, -1.4179117376579529, -0.4555864994635995, -0.00408382475909891, -0.36490739041563897, -0.7311235611641288, -0.4681617757735525, -0.46597811671558304, -1.213612034200141, -0.6011573648876314, -0.5041041425266148, -0.888813183456254, -0.3438369354826172, -0.004987701612340337, 0.029819270825224627, -0.042383580708497244, -0.02269017927635268, -0.5260846154401673, -1.6621604055527968, -2.3998407768123218, -2.479515888649359, -1.9269683177416759, -1.5943567148002609, -1.2929525294325561, -1.2809152248897477, -0.16917497529985745, -0.9784366351426634, -1.3267231533340855, -0.007017153898095901, -0.3885044990315159, -0.8878098465580813, -1.0696077833710769, -0.5765802691493519, -0.7126083905019966, -0.6902939479622018, -0.8743978531883492, -1.0002256058401258, -0.22720777769732753, -0.23534080202241778, -0.5315125058423588, -0.2660095902494199, 0.005021352349217064, 0.034593890747683785, -0.014416983011075581, -0.08907581644613867, -0.5278454058944232, -1.5116462815870713, -1.7961707491941583, -1.2275023024841878, -0.484038090609123, -0.12272546182634117, -0.6649358361317336, -0.03809439540344503, 0.14514855036423965, -0.9982678257218804, -0.6931729534570459, -0.40422647547588325, -1.3091787202627796, -0.9767383678222359, -1.629086049819391, -0.5907659381879112, -1.0669913868159095, -0.9274955511642452, -0.9645381370339182, -0.8537252755810617, -0.28745625123031915, -0.29545426056114865, -0.23355781338783232, -0.3015536022785886, -0.04015574938506368, 0.005191010788724218, -0.01463934034949882, -0.06896046719779411, -0.551183687360643, -1.3624196946042557, -1.1330879697999845, -0.5277511573523076, -0.10473805725204104, -0.24108317632577772, -0.5244128265689164, -0.6153407413386669, -1.2897701957949161, -1.6491808718612557, -1.0205465386483081, -1.7941228623900345, -1.3852979832547527, -1.1351583289049565, -1.5367668588017553, -0.5657956744396462, -1.2276653029275306, -1.3412468233853982, -0.9422938407935291, -0.9885590677263408, 0.16155156643889418, -0.13060931914525362, 0.06123421076563254, -0.20850197574032103, 0.02221624461878618, -0.010662472306788325, -0.02567411943350199, -0.0022048761940203793, -0.43185300267425203, -0.9086036746485779, -0.8651238940827852, -0.7287853055797702, -0.6424155472679736, -0.6553621749098786, -0.7434058413337055, -1.2909773739207258, -0.824005450265042, -1.024458895998496, -1.3597115335381236, -1.867235229776078, -1.174525391579901, -0.9623466218061362, -1.8975561311211966, -0.7765021910177488, -1.2613765639321404, -1.1170995920046929, -0.626058500800282, -0.1533935036078924, 1.3018650170636812, 0.6640451874747858, 0.34855864570404926, -0.04270688337193449, -0.018902771767846306, 0.022191148842027768, 0.03394663099698431, 0.047361599139546184, -0.04861362134973558, -0.2520892005628113, -0.4578320665618977, -0.09996753102395736, -0.6805865330338539, -1.4376136002159499, -1.3195572618181841, -1.1771612441289812, -1.1969862582576627, -0.9619342294381723, -0.5960484722653799, -1.153525635442827, -1.0580887027472927, -0.8535937105695641, -1.2218449555992583, -0.6506975879043136, -0.6141310860806347, -0.7529545055696355, 0.13284002152613572, 0.45332026757221205, 1.6918765687089317, 0.8925394235297923, 0.36617248265701036, 0.061784053810367, 0.07065514500455054, -0.03667179965444784, 0.014742390541364288, 0.024563276317165875, 0.11849594437377849, 0.05775602949921772, 0.1000904280406255, 0.35850547958587126, -0.004561110304467405, -1.2143965442399032, -0.922549460163567, -0.74049165606438, -0.3660061088455293, -1.108897465226347, -1.1478275757516243, -1.2297442313829563, -1.478522980084042, -1.5425654016706307, -1.228087102386871, -0.5338624526209912, -0.8195533286261172, -0.5109187719940078, 0.22466615442684243, 0.1695729787614701, 0.9318108900175747, 0.1994291759277086, 0.08702816143271458, 0.03366971235524797, 0.019103330965099023, -0.057365615835111156, -0.021349749771420738, 0.10411399456415135, 0.011007370933442687, 0.08602536031402083, 0.021780273051580118, 0.45276116097199637, 0.513520919556519, 0.06136625932077439, 0.235682454010325, 0.47172157780113494, 0.5949332862390234, -0.17396080678923337, -0.22980723746717158, 0.33446885772001744, 0.15851660647157645, 0.008594232437669368, 0.0012769974115982253, 0.02852108652180968, -0.004586822977060133, -0.152359625184641, -0.030008525363427973, 0.013283128883827482, 0.15035855305416093, 0.00846390732742525, 0.052126939024198155, 0.024164560032580433, 0.052779650774621156, -0.02341327873833896, -0.02525417261615739, 0.037120969440490106, 0.0569101576165033, -0.018191483512787578, 0.014577300426394355, 0.0005197772699775032, 0.006379508133961799, -0.0268547529493006, -0.04806877462313621, -0.01191578937091588, 0.053778577960509694, -0.03762902701673001, 0.003992115608094176, 0.023158307567209505, 0.018263482423166343, -0.06172200868834267, -0.03412995892730967, -0.015667505475541632, 0.02916415772862263, -0.009940232847837311, 0.002075729084499876, 0.028110571301089137, 0.013739179639243924, 0.027164620572221115, -0.008170737300500894, -0.026550788008064357, 0.021387355303677233, -0.006586467100811387], [-0.06682405720904977, 0.07310696058271522, -0.08147986245222687, 0.021271564570129874, 0.00773753534770365, -0.06002684768606149, -0.021138127900136895, 0.06463288080898084, 0.01039976340671862, -0.02338630722542296, -0.07625403876290052, -0.0010953436522848918, -0.021591711507290244, -0.018525459375121227, -0.01277173838633296, -0.014268793094992632, 0.02747846682504161, 0.002126263796823427, -0.0053166146506756305, -0.014984350421528679, 0.05452231832403948, 0.01918153607632683, -0.020108625672911048, -0.006880884056108592, -0.06835264217002732, -0.007059844577287241, 0.030209056074441794, 0.03975073599449156, -0.048420113335277924, -0.02483098745778204, -0.014835008573973527, -0.02592445602282931, -0.038043613054780816, 0.03534926132903889, -0.011192764045262845, -0.0023999099322205074, -0.06525888935335196, 0.039889935604793356, -0.018425903393777816, 0.04689595817457359, 0.08794786152208886, 0.03529549561624429, 0.0036855632335671363, 0.0809240170735787, 0.14093461299464613, -0.002103281699255995, 0.05530052469546325, -0.08406257799448102, -0.5917504275312018, -0.3893771084627432, -0.3344882112940033, -0.13334580635734852, -0.28537917009966673, -0.1710247365094926, -0.03814569824103103, -0.024412830692680517, -0.03725276633824034, 0.013500512305939818, 0.00822469172230437, -0.14901331186859204, -0.19718551379898028, -0.2946129196086928, -0.1975406517663868, -0.1940686126299075, -0.0586762948801201, -0.002851804675167384, -0.16858078197847134, -0.22130238666894078, -0.12004366475906227, -0.41513280606136616, 0.14902363484734993, 0.5046948698277034, 0.006697568038530243, -0.3141435305549032, 0.2180700064278479, -0.0846677853291104, -0.5954578162102842, -1.1529657323115243, -1.0356108196094815, -0.49420362669692075, -0.6065572731821052, -0.6324992065266641, -0.041100810140531234, -0.0023544623954162556, -0.04891862784324222, 0.0905675184886162, -0.017858404212879, -0.3183160993027302, -0.5316389302688692, -0.8315934583071086, -0.8416779418117556, -0.8147168702517431, -0.7092562450900473, -1.1395825130295296, -1.031282875267014, -0.7850674254555482, -0.645066036250277, -0.6855302253199237, -0.45640018133364935, 0.005485102640325057, -0.512945969078653, -0.5293016067643809, 0.6717406310689462, -0.3344456009535392, -0.24573967961643914, -0.5037863292712402, -0.6504485592354051, -0.6275066211752612, -0.18688828424032944, -0.6799542053711389, -0.29059378583963424, -0.0003536034285470506, 0.05706920117579369, -0.08362323760137579, -0.13227722733510588, -0.6966431262540635, -1.0400416723489807, -1.4490069020120404, -1.285781426717909, -1.1843456094003257, -1.1960458677811578, -1.3855780225721221, -0.9592181145926255, -0.8837913475076287, -0.9371885689947133, -0.7916702268412911, -0.9415300546149874, -0.3512925302117201, -0.35055334691764156, -0.6532662802495732, -0.5009909910239313, -0.5706568804512729, -0.26671281976047573, -0.2426253019984956, -0.042728402391528815, -0.7950637901161887, -0.7353608882320214, -0.8242748704453234, -0.09494418360419597, -0.07561034227753224, 0.044103428600620484, -0.06764437676448037, -0.39758980205212313, -1.0534914609473343, -1.4064901330085, -1.5176632634650504, -1.3160617828399745, -1.0880692824113958, -1.1226528570820304, -1.0963361625591026, -1.1589526114843216, -1.351929995516439, -0.8267711803801661, -0.688641965518655, -1.064757007786169, -0.3926830278092664, -0.9897279039376592, -1.315167686057176, -0.6084700238378945, -0.8839406550886294, -0.5308068819926679, -0.3784894239732364, -0.08649062646633218, -0.971613096148592, -1.32976996242335, -0.9849484450515427, -0.07265015631517047, 0.005505424002720426, -0.030707514354287625, -0.0013372871296549375, -0.4079251399238706, -1.2424835311700801, -1.5464554923371108, -1.3208497533296077, -1.021988854744854, -0.9570539519049449, -0.744205155024576, -0.7986186189463015, -0.7575441873336586, -0.8783068472460154, -1.0342938681751679, -1.2868922851401696, -0.7282636601694148, -0.4825117865167095, -1.54605367820311, -0.983618367271595, -0.7266608721099663, -0.6863603172516272, -0.10589288349781364, 0.2153144393419423, -0.0831910672714703, -1.3637428615706717, -1.3826599463261178, -0.5536563842476829, -0.07398545151622733, -0.016453159071119168, -0.021563669926947467, -0.037618984676272255, -0.6106534761339931, -1.5312117980648774, -1.500267679984773, -0.8979295313303424, -0.8251970574241306, -0.8668531025511675, -1.2554442380823776, -1.0318822361703046, -0.5422417042933775, -0.6731396483438341, -1.1197883389380758, -1.4307469574995146, -0.843768523613108, -0.6771894902237199, -0.9520809620652332, -0.18580457198640898, 0.09399533446950284, -0.275612247016784, -0.11485955210050437, -0.8829746780655449, -1.581307908302819, -2.0899409565086833, -1.2694628439307878, -0.2555107380334073, 0.007461336246177035, 0.008245719885361087, -0.03194759160219898, -0.06183830535426386, -0.7980079254439475, -1.6506647086708357, -1.4306955597013258, -0.9688921613542109, -0.8631945118242071, -0.9973897123865125, -0.8906921519036426, -1.4491705522949483, -1.1538309517892065, -0.9238817440820106, -1.0297533751527232, -0.7656425882581511, -0.5688982672440172, -0.7499366131177785, -1.035944617037678, -0.8873039999412188, -1.0263096085415009, -1.7755695829875013, -3.138777736951426, -4.6149925144410116, -4.167518911945181, -3.173177873926849, -1.7512204486381764, -0.5569016450682722, 0.05889290885319895, -0.021283607743299383, -0.06272504563562274, -0.15000762608842563, -1.2164019851581493, -1.8967204056182319, -0.9217018082110416, -0.9596553131388659, -1.094280055555388, -1.0803244623301511, -0.6706476526065259, -0.8657377287210889, -0.8019768499955423, -0.7523402292626441, -1.181006134936407, -1.075075313292954, -0.8253326276356305, -0.5448291797673886, -1.240881011047523, -1.9765116548471666, -2.796202870581381, -4.251165432498543, -5.365377494114324, -5.582832033225487, -4.46897201579927, -3.358541117147504, -2.0218000008770023, -0.702861171074592, -0.08622243292289253, -0.004731859762214439, -0.027427918277064752, -0.09094413297049393, -1.1680800100599364, -1.1372932465467291, -0.31842753593823936, -0.6096321661639845, -0.6295074095035493, -0.7680914352691502, -0.3388299971459978, -0.37029711855133574, -0.4652627219977634, -0.8165964848255568, -0.7506389497422657, -0.6778042919179476, -0.8450514050603486, -0.6475040479461361, -1.0398710657014858, -1.5139109810048896, -2.4810545805373607, -2.6213025253000533, -2.043152083656786, -1.6935550580810468, -1.9580277441419873, -2.0144877418589218, -1.7141609037867376, -0.7122216172913083, -0.02404545295298514, -0.01263918161025912, 0.024911804392991146, -0.23765035680341565, -0.6433219019663523, 0.06072957183397421, 0.35910280932055383, -0.06504339411821672, -0.03650116363925654, 0.5289113378943666, -0.17697367865211902, -0.21686969961318295, -0.376256047457081, 0.11911948925620303, 0.16900718409449714, -0.2361588948237132, -0.6593197609818368, -0.33582859254704484, -0.4036582023352687, -0.2987884719617828, -0.9824580247351647, -0.2018040270672463, 0.5915542806794645, 0.758522820914349, 0.15958243730012642, -0.16207800405009617, -0.6829064908363848, -0.32871247391850245, 0.03456546933947581, -0.027840741007027266, -0.05659182132265638, -0.09463175812872264, 0.10020660997280544, 0.9876853282453109, 1.0347502444306769, 0.88928933070229, 0.42137111233909486, -0.10139378193146303, -0.012783024423809615, 0.2556494986906701, 0.41369408950142034, 0.6168322216340868, 0.32299928846722226, 0.10322725182215485, -0.2781391673121205, -0.6655218213072964, -0.7695842179467547, -0.7216692691874577, -0.2353285934992111, 0.22745638767724172, 0.2980866196919281, 0.7035248172061886, 0.74427536991109, 0.8084402871109614, 0.21262612916639054, -0.27053826430846867, -0.0754761293064849, -0.02785000717568668, -0.03246121063916779, -0.06171453280836765, 0.32846851451888837, 1.0040369444739181, 1.1098397791924937, 1.002550603260245, 0.9399175612381285, 0.4442531548776718, 0.4700561973801401, 0.7662741661843623, 0.1558238817675304, 0.18879013611196854, -0.29251247965558475, -0.14843266822403545, -0.6190792313297075, -0.768568940263942, -0.6068339915469783, -0.01943877908384839, 0.18576782385938065, 0.056021342374440335, -0.08331778811342383, 0.7061917984468409, 1.1265635064909572, 1.0487675375235184, 0.2987520528631526, -0.33378960717564465, -0.15848070352887617, -0.022343992716346607, 0.026191351878751573, -0.011307573820949667, 0.30618661757634563, 0.7241903294609296, 0.919539966373566, 0.48609395501630515, 0.5039832648830648, 0.1618675733730397, 0.5156886453865714, 0.34677053208758873, -0.07180394855859472, -0.3814540009606428, -0.2533513788923164, 0.39267364191387755, 0.2208464119456269, -0.24063328394862984, -0.11047022639240654, 0.5864164689535614, 0.1694823329456053, 0.009820387834329264, -0.2072027549591615, 0.3890524890466892, 0.5160026223449087, 0.2542938667126839, 0.09668201783406068, -0.4760280831987323, -0.14537751293344464, 0.019415101466734763, -0.04952437905210602, -0.05768994459730773, 0.08753806691209394, 0.21716604635884218, 0.7332686830860051, 0.36694176319727817, 0.47121390549909725, 0.7780807773608922, 0.6851375959669886, 0.6390515962729496, 0.30540204993383807, 0.2643696758561297, 0.45880558407251515, 0.36495653737072703, 0.5284553910659222, 0.5575446548087944, -0.011768590611568831, 0.004125871497739766, -0.29617475416645195, 0.06482055610649072, 0.44879348889770077, 0.2663012113198893, 0.4265285689819177, 0.20222467005401115, 0.010620440814221822, -0.7938413588520545, -0.27187936444282657, 0.018281042229505037, 0.035530572722115586, -0.1286409620785734, -0.310743472566591, -0.18786081529728157, 0.13698756713449275, 0.08506173977104811, 0.6626934453587657, 0.6888377182861818, 0.22130376256476772, 0.692067692005621, 0.691724793182351, 0.48874596618654614, 0.38593524312481314, 0.427638095252835, 0.45403086312725277, -0.056358318583993525, -0.2598152424673591, 0.34928848611416907, 0.188551874735325, 0.42197256545757483, 0.95996627953098, 0.24474302242901255, 0.6851894122095331, 0.5781977236160137, 0.29078337593795206, -0.6759509461493924, -0.3648679595161966, -0.01668710294407926, 0.014618519928651619, -0.24816402803218793, -0.854129389840623, -0.5115218296980437, 0.4441371469123004, 0.6195312644051741, 0.8894736991902602, 0.6162394946674785, 0.38840066744487284, 0.4059484695339049, 0.4260125456224295, 0.2625397550377193, 0.4678923180950409, 0.5548188248570244, 0.46979309580392686, 0.36798540389993706, 0.19351938641506894, 0.1824186473922206, 0.03987163150113806, 0.2566153645566255, 0.42291845831279506, -0.22174289304660513, 0.4023910010385898, 0.36598767483568634, 0.5199313564523164, -0.3121142026729518, -0.18770422143010856, -0.03905973145535614, -0.03327226621816723, -0.1749192044555238, -0.993239983422758, -0.7685508375173986, 0.4250386294457656, 0.41713754871497405, 0.6097044058591472, 1.0468181446792484, 1.2476314106471686, 0.8135657276684439, 0.7999328989817732, 0.35625245129335564, -0.08958474137303916, 0.269667763656152, 0.20244881311486623, -0.22039849807826825, -0.04805121319016833, 0.4394103284514364, 0.25277528534395155, 0.255726141321362, 0.29927252930916826, -0.11404156601163785, 0.21201766939406583, 0.5032159641027114, -0.0006055379578668825, -0.38005610680759544, -0.14871844929564468, 0.00046180427935470334, -0.060404964529120156, -0.1017002451564165, -1.1953376647923826, -1.0814819424052702, 0.2935583923044892, 0.4420396587289927, 0.3654434301014348, 0.9125496617116496, 1.2562802910998785, 0.9471874298631053, 0.6451970867051873, 0.37305053716846415, 0.43216959694996776, 0.36361931375287515, 0.18922318693147688, 0.35204344855536746, 0.28648216392255543, 0.725254959515681, 0.7954297174166287, 0.21648086787337242, 0.13545946912903, 0.16563566901784998, 0.17328820809568288, 0.44640073978425227, -0.14388468984411418, -0.14088645280875875, -0.004909390822594441, -0.004886383754767153, 0.010833549267681132, -0.059376188379196594, -0.8603999709746828, -0.9321313613447634, 0.2825218354212247, 0.46150442477193265, 0.08219093327427696, 0.2768246131808312, 0.8986545393742106, 0.9300249600248042, 1.4987268063845647, 1.2815521615374388, 0.3108886080723851, 0.05379227190705647, 0.5656090649032404, 0.2584431905800255, 0.15486406962280178, 0.377085945819111, -0.09452064457540445, -0.19508251262418527, -0.2852263168624982, -0.22663295593791205, 0.02486318800355423, -0.27608916366331787, -0.24360057184538095, -0.11321994849042738, 0.041857430055594, 0.01667878739891595, -0.02421654535418782, -0.04325940235000437, -0.79904054944344, -0.7224547043224063, 0.13256307950760732, 0.36937999629831647, -0.28264512660642177, 0.1323488256973158, 0.3768218129952346, -0.023668269978429524, 0.6799935712922852, 0.6751606771884199, 0.10493663669993022, 0.8211123039173774, 0.8989474093260615, 0.6292594017501619, 0.8330632506354168, 0.8548243912090678, 0.1427490290083234, 0.010054115665151206, 0.003876220491093602, -0.16689774502104474, 0.10616036126980094, -0.13391467334785842, -0.3033501297182997, -0.07865216209560712, -0.028352940880380612, 0.05868605424562445, 0.01760200240859673, -0.1441987837603119, -1.0540276869275473, -1.1740251942947775, -0.19168442560914448, 0.30237815809495516, -0.26113660391130117, 0.1793964518608491, 1.0194451633081791, 0.4125182222349367, 0.775441336845443, 1.0639728554893415, 0.6569640664486005, 0.5914351193624374, 0.36236668021002183, 0.32917107937074114, -0.011984182505715986, 0.07091109666693554, -0.07918288221417115, 0.4249252574345152, -0.06221826320567284, -0.32464797940100676, -0.3767431155375038, -0.23185117883313455, -0.4666075921063015, -0.22207925985565846, -0.014004679722060024, 0.034524982752840695, -0.045774644864457946, -0.03097762758054961, -0.7491162887486627, -0.9313405804020685, -0.0770069852046892, -0.11438121962772207, 0.32938166346585135, 0.2534136192681326, 0.8062115881881278, 0.405634686971454, 0.7619998549460929, 1.1148064590049886, 1.3541193301938912, 1.6048205488611893, 1.8974630355702171, 1.5490661931479675, 0.5363737370669799, 0.5401634994064222, 0.9680143001355442, 0.3192496768360421, -0.17497871091795422, -0.39222824718679267, -0.8769369014745895, -0.596677142718718, -0.6250857230100723, -0.23383840422247265, -0.05209127668921114, -0.002851802118718415, -0.02812312840688336, -0.00484522660815806, -0.2097430484541756, -0.4056622135644883, 0.15639608732329766, 0.06726798960384914, 0.17560412258893673, 0.39469385229003223, 0.5263221356850323, 0.7306348564335102, 0.6892747347548737, 0.804374073744117, 0.9763794361809109, 1.3573866440810856, 0.9245818893075591, 1.344429528104321, 0.908281790100385, 1.0264102583425976, 0.22294175943120093, 0.18032024896903678, 0.015668506035947414, -0.5774488059753503, -0.8187123164318167, -0.4918102853329176, -0.3482119945893735, -0.1301403912551869, 0.03199154808213297, -0.040092558423697466, -0.037655695088728715, -0.02490951554421536, -0.04584658975414787, -0.023817600709269277, -0.1320094422843841, 0.1272886068975837, 0.5226866189603301, 0.3055849895853579, 0.9018295479512876, 0.4545059999001978, 0.523105660432039, 1.055848687324338, 0.4006037578025466, 0.1546206787439143, 0.13678253558543188, 0.5776419634257368, 0.5610188870683619, 0.566642698215756, 0.6324691931786497, 0.3592329816672218, -0.08122133929381509, -0.4912177433448321, -0.38538011984735304, -0.1931989199475943, -0.09190202607995901, -0.011205027023821167, -0.04853991714697389, -0.04037491778368416, -0.03548661057862219, 0.010897760197079782, 0.030421580577686826, 0.011520403983516487, 0.013295060700089413, 0.16919024828564586, 0.16722882778557988, -0.03065462168519273, 0.08320697302831986, -0.014855595793961018, 0.024586418930449747, 0.07697421925844321, -0.0786388207276369, -0.17501812323664004, -0.09502160235919184, -0.030138825582283067, 0.0054990147588522085, 0.03640312092747096, 0.08330907089365125, 0.003107027389465922, 0.006019309176060925, -0.16977246695547688, -0.07192690568483641, -0.04801004921675776, -0.0681393381968011, -0.0625440233294194, -0.01095043110462269, -0.009311485839249461, -0.014822285762178804, 0.030310032969634314, 0.04199587838616417, -0.02931303457354545, -0.02480738372760367, 0.03940630105727308, 0.052056180643085044, 0.032410397802900164, 0.008003371459302617, 0.013684962630383232, 0.027545526881779487, -0.05191365165453234, -0.10197480373450471, 0.0028056715061108347, 0.0064908510470462815, -0.024133848342688516, -0.039444686206452084, -0.04350649237227392, 0.012960115711177169, -0.017613890673022502, -0.029520906470965898, 0.032543298276803294, -0.07950210350470296, -0.0259938597818006, 0.02616936510969418, 0.018730481661048178, -0.050993326067016606, 0.06114841406211586], [-0.06481740597468957, 0.05919409857345147, -0.002103766095248642, -0.012007690925055096, 0.05296390156298556, 0.06702037145317659, 0.03977410075963157, -0.08070929925591608, 0.020755558391324397, -0.027635700674298446, 0.024582417176257913, 0.05136949928387539, -0.02163554967683114, 0.023132323615460238, -0.04600664635535892, 0.016440160889075413, 0.06762002542688295, -0.009848538896970866, -0.028894363309500737, -0.04120662461332943, -0.010388711215282677, -0.019547502637244335, -0.020108417164163766, -0.00899188269429597, 0.05432425208370871, -0.03697293153280547, -0.008888164186848319, 0.03809276002263622, 0.019566755791949702, -0.0761646465530572, 0.06387222282353977, -0.022949420277104452, -0.096376735786367, 0.021322251136094678, 0.030023583892403102, -0.1007001441543469, -0.3489251874931332, -0.27900325919598373, -0.005006040060495967, 0.4170428672954847, 0.6085992229990276, 0.2145246527692256, -0.04932571706972086, -0.14148900863879035, -0.0918543590700872, -0.1624574476847509, -0.18907584953155385, -0.10506943407791777, 0.44468175163959284, 0.36622530877344694, 0.06262528247245235, -0.031016365089321478, 0.029928222615453255, -0.027485946698970126, -0.0057166029021765066, -0.054352455984842986, 0.03032002100187674, -0.04410377934326358, 0.013270996777648657, -0.15351337200546528, -0.06736959999923664, 0.07572469771709768, -0.09520383841340112, -0.14679217055954918, -0.14340703932022045, -0.0880845441093338, 0.13212931838366607, 0.43012106281539825, 0.44817293510768164, -0.1204470713271547, -0.4045562630699268, -0.1974578670685785, 0.03618589618403775, -0.11806036797495299, -0.07182200393371975, 0.046007974024300895, 0.6721364148256471, 0.3681423042901096, -0.5012890916571029, -0.7696115772233831, -0.6346070993071646, -0.14569795006336017, 0.04007860638729996, 0.017832896517698028, -0.01077340708641331, 0.12701974436796284, -0.1303189519397159, -0.3570913169276781, -0.2634889792053132, -0.578337811393877, -0.5295128196968102, -0.043316181699086596, -0.038377234185482716, 0.1465141549726247, 0.4234401562380793, 0.12684398315995746, 0.11495777949886643, 0.6021181964989518, 0.6133110692207948, 0.4124310072106423, -0.0014011702771153745, 0.02557562932496982, -0.053926244464043545, -0.20865809756698991, -0.6419285071293251, -0.2022961041596492, -0.9033034976984227, -0.866560225542765, -1.3631191956472142, -0.8365085023451713, -0.22455331745078727, 0.030104121770863974, 0.043497093876894107, -0.1110738416571828, -0.2468692818635271, -0.4001391064048421, -0.4808677117636356, -0.1412256594746518, 0.35106421048247766, 0.07442323130777849, -0.07476422164179543, 0.4485542570869528, 0.36290795523701147, -0.016494842309777272, 0.627940851039946, 0.7748866702840105, 0.2865567593206438, -0.09933052452462444, 0.2747745556043009, 0.1520080464093504, -0.43571341947002035, -0.09573468517004101, -0.6530878163468935, -0.5489559890311378, -0.5803583023881306, -0.2343704434562365, -1.0341689129320206, -0.5887900504835418, -0.2645918396606932, 0.00015706613085804757, -0.049335074657756293, -0.04480769508212011, 0.015170876549990242, -0.2540780564841188, -0.6112725548303726, -0.2932219677425986, 0.1778301149989481, -0.17395182553134472, 0.07108324848632629, 0.038737921065260944, 0.4614827420409913, -0.021544505974614804, 0.33827449760091605, 0.5404937407536479, -0.2790882557883769, -0.7672921040746207, 0.0495612120381187, 0.29694925408422385, -0.6955356413132021, -0.3174009545761413, -0.31911200951702695, -0.1733053711808951, -0.6144297694514378, 0.3248474118234846, -0.16632915584914273, -0.5132353467114917, -0.1533681157483966, -0.06915348179150235, 0.020977530345642238, -0.036639529025316996, 0.07652338281641424, 0.07534226108663594, -0.7406938963471761, -1.1435245765070694, -0.3618382516852785, -0.6818414209623068, -0.1402028008929262, -0.5829083822960601, -0.393347545729174, 0.03201266245263811, 0.6182139400161317, 0.13372720164459426, 0.6123142479411654, 0.42661734169839427, -0.5857050633647785, 0.08731470635264782, -0.2590904942548931, -0.18281990568974127, -0.04783830979651237, 0.6462879118806287, 0.35674109509012075, 1.0604886246107181, 0.05359502293636069, -0.688870068248646, -0.14827721743207686, 0.016074622105623586, -0.04594008535526821, -0.02653775870925112, 0.06402199999069254, -0.13439561572471356, -0.507644913557205, -0.5548698845928705, -0.23253086987113858, 0.05162663334201009, 0.48342090235307594, 0.6826822083069904, 0.24774077105159725, 0.1865587337754452, 0.32365621495112784, -0.3317440064615139, 0.1799155758818776, 0.2801485393934353, -0.40350328861661605, -0.06616090609681569, 0.19045929656949723, 0.014542331762814525, -0.166087911790349, 0.7156772323627127, 0.9994488937993186, 1.1644991492972172, 0.9217755378466903, -0.17279192363429746, -0.12802077598733322, -0.01128814766060816, -0.02774921957280557, -0.11986345692560395, -0.03353195201031259, -0.09275218070170187, -0.1999378590008031, -0.1538134547159435, -0.06649546723072564, 0.02830499613422963, -0.6758090456366677, -1.013444360776687, -1.184935901155626, -1.4269566116773063, -0.9841422447386368, -0.2517474174313261, 0.4702562150381976, 0.8681209557890814, 0.5858087789695136, 0.5720589035902995, 0.3066893047581344, 0.30228059209667657, 0.4874298972385033, 0.39940381281274034, 0.8421150014409599, 1.6042565217555413, 2.140097806086333, 0.9468361110942687, 0.020850782013159663, 0.009902521448945437, -0.032247613076967906, -0.08465565705076336, -0.05096201058739746, -0.15286510534891673, -0.6018318836527768, -0.8093847569067155, -1.2187612576548679, -1.755715338214913, -2.6128028954099802, -1.997506255082282, -1.1815710168526794, -1.758071528163171, -1.173453007531781, 0.9028543656699296, 0.9963973632944454, 1.7811651546062388, 1.2136729819511274, 0.38872322060020303, 0.1975130945922121, 0.6802268239215663, 1.0138819274980575, 0.6732340368112004, 1.2464260428864629, 1.702246410855469, 2.1173756017494476, 0.9509535033061189, 0.06029912714917556, -0.026094223556520094, -0.09469709137185989, -0.08998597236864578, -0.17243554751626117, -0.5779111904642344, -1.4017564215887575, -2.1458341537246297, -2.7127539976220394, -2.4414508125239114, -2.0115812364161583, -0.6519816873140831, -0.7631134399787926, -0.8811636546321605, -0.5331983668617142, 0.8224943021955434, 0.6178214656659865, 1.1305783457777938, 0.7926041151700862, 0.7837885517351436, 0.6747132636806243, 0.7869537367690197, 0.5322943413247108, 0.039187484530927734, 0.42832956804695277, 0.5039482309393003, 0.20390294531229577, -0.06812336786499022, 0.0023342073810594184, 0.014518965801477044, -0.05931219691176447, -0.05061465038678057, -0.29393796846863735, -0.9496148739195449, -1.6278301658182859, -1.7139450328528794, -1.626867648796481, -1.3657302395300783, -0.11375130451978249, 0.023816189243870807, -0.5957124920318476, -0.5876748505215985, 0.45669977362654796, 0.9907932166890464, 0.4929410970145589, 0.753809251281175, 0.21725815350579475, 0.6976711975415457, 0.15348378724714287, 0.47592293114906264, 0.3940043922911458, 0.5612983033003416, -0.003628430982944226, -1.4503992591509136, -1.9244040337261052, -0.7716282934777591, 0.01106353595229167, -0.03143046511752932, -0.02332967722789415, 0.039363262467040964, -0.23909647190855332, -0.9006319408664566, -1.1279404857282405, -0.7537217487687411, -0.3551675985938766, -0.041001158391219546, 0.2964694611266499, -0.1240554066177552, -0.8442627120819205, -0.6419340782839987, 0.7837222065907193, 0.8917541776176772, 0.4528852396404825, 0.5192486733496338, 0.5176682068569469, 0.5654553113538442, 0.09286423814139277, -0.055376375973323747, 0.11525341270690742, 0.29337645068189305, -1.0231394708251411, -2.5004740123023947, -2.6797455791912435, -0.9155005146789905, 0.0308163573219767, -0.04220072377582799, -0.06996589101859639, 0.0014108019130247124, -0.13623204416183288, -0.47633187837386803, -0.7142043731227437, -0.3872073551383648, 0.09806107604962226, 0.4893805448190033, -0.0130503420341175, -0.9435623407943494, -0.8190745326978184, -0.7164516211333017, 0.5733059660087811, 0.6990710758878667, 0.569230790842576, 1.2876208555651134, 1.2016689512358358, 0.9488741571020725, 0.5803719200513782, 0.5040451170426705, -0.22178143302082962, -0.44389928634765213, -1.774959966877862, -2.0848334288178543, -1.7396482521573677, -0.513029913685013, 0.0013699528574796858, 0.0875641093488653, 0.023770402598827838, -0.036133208279060365, -0.06999717951911788, -0.03130650205224205, 0.0147015435227698, -0.47376600794262946, -0.4263030002516565, -0.09936347363824054, -0.5264470264509744, -0.4676683492909021, -0.8776640854575446, -0.8170015153128571, 0.5086005876227596, 1.2030292484528793, 0.7799376708094343, 0.9103838939885567, 0.8156572530991597, 0.46095262167554224, 0.18748001204476272, -0.1770819736306791, -0.6756782498594028, -0.8383821326434516, -0.4954531204801783, -0.49296207631861516, 0.2016854242227309, 0.12450148642920113, 0.1207812968624861, 0.029382241774916776, 0.005571048830084047, -0.007176117147413402, 0.18560117495279563, 0.4619793601727904, 0.1318264369076228, -0.8577765249262508, -1.2176741797044175, -0.7125792618728405, -0.3579177946066764, -0.19985994068940005, -0.6543601450718902, -0.015783806844865876, 0.9320094172678204, 1.3915328925072117, 1.3088678943891088, 0.8068348474406943, 0.18892937262790144, -0.6940778303653196, -0.9937965395545978, -0.42651083277714813, -0.31982745540533675, -0.25217646542382766, 0.8115199564859743, 1.2706605102751733, 1.5449714203544258, 0.719958471555535, 0.12461463870607666, 0.005238293305558836, -0.005240989719834938, -0.06923136688411359, -0.2364427479972076, -0.23363550289323443, -0.6221797362799806, -1.5386433562235358, -1.8461463464578611, -1.6114635313257488, -0.9531536588663609, -1.038579209843751, -1.0145700070878945, -0.5932328521626821, 0.9527851589058692, 1.982372822490285, 1.1715963164217804, 0.681276055959667, -0.21328751492274162, -0.15306416947232515, -0.12095604241472116, 0.08913671181223785, 0.4379880645738284, 0.758953093965669, 1.3431116362822602, 1.4943241278671824, 1.497779106657616, 0.9206346500862008, 0.17223135224513988, 0.023465429673645465, 0.053216095240959695, -0.09396163290568438, -0.6839004295018036, -0.49367890391600916, -0.33551624947712966, -0.8162963706507611, -1.4952205809676884, -1.223795924814102, -2.095708106904056, -3.0399018585309525, -3.687255389648411, -4.19599003039224, -4.022102954681376, -3.3411515315471947, -2.517516607349267, -1.1242564794376242, -0.6855169738364374, 0.09599687508514178, 1.15366037180956, 0.7942127341327444, 1.163106786568754, 1.1529121515723322, 1.3233805257411015, 1.0638982857251733, 1.300751006819635, 1.177009259918608, 0.2220030254898156, -0.009845983662710733, 0.010317548363156796, -0.07477889195405328, -0.5953084421452793, -0.6838314971660897, -0.1766119792575528, -0.21532213404799735, -0.2013857508433365, -0.4669422633625728, -1.2500416959476432, -1.888574113069813, -2.4613112757230047, -4.507983730547392, -6.317661542785605, -6.596010045518874, -4.576087216760656, -2.4106916322070133, -0.5908428033988963, 0.01890421948049321, 0.38682127038300246, 0.5161491845742808, 1.165966487639963, 0.6691895877491554, 1.0601751258093783, 1.095249986467795, 1.1093708490309557, 1.0209434801876958, 0.25036958766083006, -0.004263956077696241, -0.026995778734417518, -0.025200138875100996, -0.5989216179914706, -0.4223678813709864, 0.01965154193509825, -0.32609205957007054, -0.4369563213547122, -0.18249075540456705, 0.18179075717950635, -0.26445674336561115, 0.4350364534214222, -0.12209629053076042, -0.84578534166163, -1.4159521691827088, -1.2738595946260256, -1.555399243754879, -0.5942270366260294, -0.7454861710379131, 0.13969908384625265, -0.14928290260884636, 0.582116566851159, 0.5518962745487446, 0.5709920286870996, 0.9784288502121841, 0.8159858147810823, 0.7079629526425014, 0.039892327431944104, 0.03646690261460031, 0.053612013987053606, -0.05586970494817138, -0.3881986413656323, -0.6825082249192466, -0.3551831573249408, -0.5609349609703667, -0.7055480800792326, -0.6843286924688015, -0.3883797631863706, -0.3858956568829082, 0.6468488226324317, 0.9611537832997954, 1.2845373092094725, 0.8469075817185829, 0.22434581282459343, -0.45024365520786663, 0.07031957810673176, -0.5931735111855976, -0.05555894427505941, -0.44290790428635285, -0.42116185693448105, -0.05803529307940909, 0.29308033024427776, 0.6221372234127303, 0.25758833797513664, 0.21081157237966203, -0.016998085667315293, -0.003976901063432735, -0.009345484295102874, 0.03248504616372763, -0.17604922055908362, -0.8984426181783238, -0.41600022943391357, -0.35713945631052796, -1.0521030283835344, -0.32021403071692117, 0.009905892556419296, -0.1892045847630612, 0.11640655533128377, 0.8937019334026767, 0.8828787922045906, 0.4655401045478335, 0.25141331461018485, -0.2401321913735177, -0.4707749204399794, -0.2091456375994738, -0.07272995113880656, -0.17725051874994519, 0.14095627554447943, 0.07988109318200895, 0.349643641118092, 0.537748283913303, -0.2140213848465723, -0.16247806627214958, -0.05779896775328372, 0.10875877751759083, -0.03305666872071879, -0.10410607760253411, -0.10162062425313682, -0.26160547051352495, -0.2993264134693681, 0.22182923824632356, -0.37990884449541085, -0.09565747575300547, 0.25960930495431805, 0.2502003222755965, 0.4289246298756801, 0.43880618567379254, 0.4894570406163951, 0.5646652140106276, 0.6920722310140006, -0.15840999600364375, -1.0985559111319887, 0.3804631944893273, -0.6530507524932503, -0.6379420953676762, -0.28091526292431446, 0.2437477204855222, 0.27735417993081507, 0.23797592953342933, -0.4588442884364201, -0.3185537390423282, 0.057024481812430014, -0.003679570845086647, -0.027307308677936296, -0.04837845000721337, 0.1504058342019338, -0.15722775689270752, -0.23497086083214508, -0.1868941207473849, 0.1105984094306577, 0.272019903977254, 0.7413346401477158, 1.1809714059001792, 0.9367071519608199, 0.5679102110558967, 0.5146350525029814, 0.43465693992984744, 0.7569614827291367, 0.35134142152304926, 0.027794186253900944, 0.3414112066503433, -0.5808369583983198, -0.5495253465194724, -0.4262898083007351, -0.6652012674846052, -0.9310677199313601, -1.1624538161563813, -1.0673663508741098, -0.3727250005355863, -0.08179731352880579, 0.04993730005172738, 0.06079582431013565, 0.02242237930261022, -0.058208976157357074, 0.0035457847438195448, -0.3662839472051285, -0.4762125731212008, 0.17832811490379386, 0.9764983071029252, 0.7909900746191022, 0.4719298724052517, 0.7243443964543929, -0.1335346704109713, 0.5038029162669199, 0.5373568992963981, 0.5197182735289053, 0.3398068247141301, -0.006393656225059984, 0.16563925430504864, -0.512023047918472, -0.8099295453644932, -1.2874271509638877, -1.334911686203984, -1.4631623785101322, -1.4102881651317756, -1.01066342876859, -0.45072618536689707, -0.07781840965814132, 0.009558977511728376, -0.037178596639882724, 0.05221734020044776, -0.06604814648609734, -0.09629873207180763, -0.20340561692171055, -0.26303571930742164, 0.2390355547734736, 1.025091888933182, 1.0193698295720972, 0.3163385064852575, 0.7898079929063428, 0.34613684957343244, 0.1745932238106153, -0.1469912273718303, 0.21692520816406843, 0.48829260102615335, 0.5503289311548609, 0.14720562603466664, -0.2742406061243707, -0.12569888311837835, -0.43627814265900355, -0.6906334612660444, -0.9283627654804881, -0.8675840864070707, -0.4827140966373803, -0.12102704599099151, 0.03508262805233314, -0.03005487383710744, -0.06273957261570341, -0.023360532920002678, -0.01282144786649561, 0.014948097358163305, 0.012910392389519644, -0.03319172633409808, -0.11815607533870227, 0.06216936580421107, 0.19318652571227066, 0.1190743667735289, 0.023851911952349213, 0.19088063297091581, 0.2834935854471687, 0.5870839304130844, 0.41835857949383565, 0.3430480395777191, 0.454009716982113, 0.1843430921274892, -0.008960555935000733, 0.02636883058970595, 0.011195406266247411, -0.2106859425581999, -0.21568384212227174, -0.17413466554127718, -0.0606280519738655, -0.009708832316978609, 0.01185384233049321, -0.014619853144296407, -0.003322681855869647, 0.037694197306261674, 0.0629035981996527, 0.0209036768318461, -0.01426656594670693, 0.05187915886737375, -0.044024016845008666, -0.00623526908750089, 0.01909715931202526, 0.014697559992888383, -0.023599550930110742, 0.07278202734545507, -0.009205340931849059, 0.03028590185731021, -0.01120347362452383, 0.004758819028343382, 0.022008707190435677, 0.09824869155549609, 0.03698529957441982, -0.02971999487174206, -0.022607383620957804, -0.047254273075022904, 0.056805389014862574, 0.04302288922068402, 0.05277253872858718, -0.006559669965106128, 0.023523437273722223, 0.05633987061550587], [0.011063427445571726, 0.008744912329985963, 0.03598685351896257, 0.022593958931576688, 0.048140666566339, 0.06908462353686043, 0.002347723260465444, -0.04302793683726635, 0.009693556703276906, 0.03787122745609051, 0.04773657083058216, -0.008647938419023268, -0.04614149385012315, -0.02191735525923393, -0.0035085825691494564, -0.09514533097080358, -0.0019737919532315813, 0.07474660956694407, -0.010978385582979979, 0.0012278113087769173, -0.0060410632233529596, 0.012512221166470707, 0.013974153737210943, -0.017604911410219994, 0.015333543331261442, -0.011210106423661758, -0.02081483682694696, 0.033526768561521696, 0.03800102345407265, -0.03606447943887211, -0.01086528558590082, -0.007698336591706695, 0.14595378208432103, 0.15956736220795575, 0.1777208513726391, 0.19309200120832387, 0.0821395512981324, 0.1525926431190615, 0.11098025757288447, -0.04357051139620493, 0.09373457295893728, 0.20818489497223314, 0.06985588432682073, -0.08225130938418934, -0.09969760446858465, 0.044525349854999265, 0.17551569061196132, 0.27073483506901297, -0.41771253525859714, 0.021197948646029054, 0.013464480353159614, -0.050445665843708826, -0.16795618850380906, -0.12824931018092212, -0.07117205050020005, 0.059368837855183335, 0.006419118540037712, 0.06596806503347681, 0.10042786954085474, 0.29298167007920856, 0.4921457225176989, 0.7757874757766463, 1.0388655657066326, 0.9388478850386441, 1.1861950443776705, 1.4211535092357404, 1.3349682511339813, 0.7415723392143441, -0.2845778628261112, -0.45325014800047214, -0.40672316425885696, -1.123390159494966, -0.3487575378316817, 0.18552099370482947, 0.43577449578180144, 0.24897237186947524, 0.03775362204847606, 0.4463436385226313, 0.34125292437748483, 0.25528339143662454, -0.0006869172825746343, -0.1466373533073249, -0.11695055152225774, 0.023517578618356398, 0.0499793899213857, 0.13969812109389507, 0.2692006566229814, 0.5439984024073783, 0.7851373252954919, 1.4117184878008566, 1.6880563008677816, 1.3543566007755032, 1.619901643754055, 1.761057240782454, 1.317423847529144, 0.9464257607051303, 0.5965990620639233, 0.0038177509205916185, 0.007214463270335457, -0.7851907985493801, -0.2517579177386245, 0.5211233915692332, 0.14227635510090028, -0.05530619671386432, 0.5963632201437306, 0.591754852760717, 0.9967486581110693, 0.8357465510851827, 0.31161540033702817, -0.07685354360223112, -0.14223365367702462, -0.04005553539658323, -0.04234296214934373, 0.08726898417376205, 0.3775814577791352, 0.9344787234151897, 0.9134989925575713, 1.0882167654427046, 1.3975250100310748, 0.9021954380514089, 0.9220079876882722, 1.1865015631166012, 1.560113512662407, 1.460849918723355, 1.5944129830371199, 1.2027595469928059, 0.786264656946553, 0.5640181017246979, 0.3568763401946677, 0.8873844060431463, 0.961241729063818, 0.3879833455939798, 0.7558290795957495, 0.6737265160585169, 1.0855559274192788, 0.7585289309891472, 0.6367342154249058, 0.015808604710568244, -0.08623204838844796, -0.013598079043714567, 0.08558429699025999, -0.033258879241943706, 0.3348796029598483, 1.152554287872847, 0.7781367371450264, 0.9074750819353995, 1.043845919631369, 0.7202343190398577, 0.7260985717081934, 1.3532946471923435, 1.2572984134274754, 0.9129361740286962, 0.1254993499571798, 0.49120905829069567, 0.329614817169219, 0.04642087973074888, -0.08886095553860397, 0.3446634398759315, 0.4143600862811404, 0.6112993467781821, 0.8094888329314146, 0.48380639208578086, 0.13698049952444347, 0.7523049263662736, 0.7678743407929323, -0.08148324582652457, -0.16632833716228884, -0.023586293169275296, 0.0037629917889320194, 0.016079250272510937, 0.38547231956674416, 0.9465833565587897, 0.261534844982568, -0.1150638168005167, 0.3122297862873282, 0.20071012353759876, 0.06845825144575393, 0.6244469072705838, 1.076633435922353, 1.0242469158896126, 1.0078009431385562, 1.3315715976087301, 1.1273159054919382, 0.6710735569186004, 0.5572517637571068, 0.6585906136056364, 0.51507140635367, 0.5298362063014296, 0.5820973423522668, 0.33518997167441555, 0.09686749423056452, 0.4984319652077574, 0.5036553821422417, -0.1660516211323817, -0.06454680597199686, 0.016235465554131943, -0.0025912506521805962, 0.02504363979228954, 0.11479221101954683, 0.03756140547363418, -0.22708478125680376, -0.04854743429321724, 0.3302371243608432, 0.04011308796554156, -0.33837097023437723, 0.4651874835226507, 0.369889687078983, 0.8747376486191603, 2.1066587324866743, 2.9141794968738886, 1.8119476165589268, 1.5697214482708357, 1.278347252207044, 0.8287525867426115, 0.35868601983139176, 0.7530627952386755, 0.6311948860211234, 0.2491301320101005, 0.36646266436622715, 0.28502701530810426, 0.24932176610689538, -0.26673313569384255, -0.11717983853863928, -0.03747897986339581, 0.022575538237111795, -0.07237443515818752, -0.32143935679119673, -0.27358636085458315, -0.4385878254829464, -0.4235201611790812, -0.2780669414317865, -0.012567863258976228, -0.4157020975463324, 0.38866260497329225, 0.42428840569470144, 0.38734845134340584, 0.41104557991351953, 0.005314949283978647, 0.12438799673793079, 0.6342897182277113, 0.9671945717913343, 0.7382947144443961, 0.4963316418010242, 0.8470063280557658, 0.5667654985813041, 0.2724530033899944, 0.22368291645224775, -0.054099517200378755, -0.06177005085950323, -0.42570076414078295, -0.019690382789705637, -0.0003152909414361076, 0.0029799519160814804, 0.054545204418396845, -0.6637597038731249, -0.5836935102547222, -0.914108355312288, -0.7611832279784684, -0.543903126996627, -0.1503034903093843, 0.0937685475011821, -0.44744558024178843, -0.17354676490099422, -0.4162470780696147, -3.012485032007125, -4.005372465380371, -1.296354065822233, 0.18823306615735122, 0.7347591805552298, 0.7384605811186702, 0.5084892701490302, 0.2132740155264851, 0.04827822700206323, -0.23048739496708215, -0.2864400595682549, -0.2959744796982058, 0.04973832523227628, -0.16345405346093156, -0.02575589626000523, -0.0025326311441653104, -0.024377197007555574, -0.00959490803773876, -0.6469192536124341, -0.3959127104354755, -0.7642219106433038, 0.07783489360510673, -0.07203804635405432, -0.4965772932281453, -0.15393123565288105, 0.19035104737733868, 0.8992710407796832, -1.5178819038663507, -5.570103328474734, -3.9500560109676295, -0.49325563809275896, -0.12995689769975002, 0.05350001882157293, 0.09562366067901645, -0.12020835317639376, -0.5697586222267714, 0.23651067144491944, 0.10093330451921201, -0.28371463645332773, 0.12020945401838332, 0.3684044487159224, 0.12524124641360754, 0.043649355989306714, -0.010862076066064421, -0.006895292863685006, -0.03752465935187817, -0.4082033022316368, -0.3506585431573566, -0.5570362851275668, -0.1725127708870042, -0.08888347596173547, -0.6364917168305002, -0.3826589607717954, 0.2534259237466955, -0.1767155636051744, -3.3890404834686088, -4.101852320162388, -0.9798472173031406, -0.3098579620576559, -0.25581241199152327, -0.08001710560481011, -0.19482152326862937, -0.17115668978079115, -0.187831783769356, 0.3466803452774876, -0.12748361276243328, 0.38056900338298555, 1.1605997721248706, 1.0282004636615558, 0.4088894305550858, 0.005018534429644749, 0.013687596037809082, 0.009362292597657106, 0.0029976161683522287, -0.299045273054086, -0.48689898076814625, -1.0677581948280737, -0.7028433297061036, -0.08963569918116358, -0.663265937756299, -0.436137976539472, -0.3995339825640475, -1.9494213637878124, -3.382894106650683, -1.3887658852266036, -0.4818367932600609, -0.18864253951599083, -0.4627336898040175, -0.19115671222656913, 0.1353278312382806, 0.46527254578613675, 0.014271522120305944, 1.0029089862173224, 0.9162824461515505, 1.5352231350276357, 1.9360861965885166, 1.3728325259092784, 0.5148371461257472, 0.03989110428947545, 0.005717899326830225, 0.00570139380826565, -0.07394062717409208, -0.5013041609301631, -0.7840910995893356, -1.0630288398117838, -0.6026667793502659, -0.6253817984537144, -0.727800941473554, -0.741551839673335, -1.6802740201112392, -2.627858402990819, -1.455859995052566, -0.026840404500185967, -0.7960323761277063, -0.49952634115933164, -0.6181250742583934, -0.2274734632850462, 0.4199654937547944, 0.806449111057852, 0.0357559133447628, 0.6971305894938306, 1.0084175714838866, 1.1990073976880737, 1.3846957217546307, 0.9692127028096069, 0.4391358708652113, -0.001312084576415744, 0.01559497776691359, 0.05532799342078323, -0.03406466441722846, -0.4070814639342495, -0.5763220436573928, -0.5970447900531486, -0.359712252016033, -0.47773488621726967, -0.4976692967488608, -1.1647572569469837, -1.9017657589054915, -1.5240616002907095, -0.15722521366380818, -0.3891422673433026, -0.5629550490729495, -0.47368724858708383, -0.3731206627722894, -0.14147172025521657, 0.05123710013764417, 0.4157694715831087, 0.34586848362010975, 0.47894270667014577, 0.44597253201648784, 0.560695766255468, 0.652727254304044, 0.31798514685288454, 0.10901053591493948, 0.030414680732904358, 0.014997954162154449, -0.04671266648366003, -0.024558100394282936, -0.40113399851978265, -0.5522761134166988, -0.6399829356312442, -0.7234924655858032, -0.9927569888244308, -1.3576122287130856, -1.6075506897774208, -1.4831132930194673, -0.48138272345116834, -0.1604416856141202, -0.13150813442004788, -0.1554963832720245, -0.16202202136067284, -0.2552137101694747, -0.45305565482763394, 0.10025791440210349, 0.5054210217054524, 0.09195852495986703, 0.1373249312776361, 0.0819848965382662, 0.28178331976512244, 0.26411517444955707, 0.013130011735765144, -0.005963275949592805, -0.02219606932444326, 0.0008617577040548922, -0.012513437559960903, 0.0048325480927647714, -0.34517688734587226, -0.6849581509888483, -1.0496322329577665, -0.7331482181238167, -0.9409833104203128, -1.4721280580304492, -1.4931641369305895, -0.49363012901889525, -0.27719329309396334, -0.715966747100103, -0.10946680301033802, -0.13575622471221135, -0.16699589026693196, 0.069800700488855, -0.1859859450999582, -0.18700126440432357, 0.03220659635281685, -0.2500722640986501, 0.0500064876719891, -0.41908984638481483, -0.33097727552930734, -0.3668074744263971, -0.2346668443163563, -0.10359726001133523, 0.07184529483663647, -0.022547623296616366, -0.00014957180350883454, -0.05300433008963154, -0.48659168194559044, -0.738061504082292, -1.073327934542733, -1.4457190836782, -1.4250580267135562, -1.1540550918502552, -0.44040793044781207, -0.6180517930655652, -0.22442110986372885, -0.07171004998287642, 0.16893345182368208, 0.5659729577578111, -0.02490032013243376, -0.10870756752151156, -0.1804656607475677, -0.5635043619100542, -0.46845510055173883, -0.5286632989410616, -0.5246313063064627, -1.100644110342624, -1.1991272474071875, -1.063159244196919, -0.8954746948381269, -0.3679486463634345, -0.05517061302400096, -0.04678103975620582, -0.018872414239489054, -0.03446449094891856, -0.6235484006553876, -1.0929441155711785, -1.4693006484375912, -1.6778760351799185, -1.5307845134641735, -0.26536938327518683, 0.27202742062099433, -0.20394570458829483, 0.3403574075819276, -0.21848308719303727, -0.6421990425891938, 0.3324601345359379, 0.09596811186992915, -0.5276248357927085, -0.8489741081827092, -0.7205698531819661, -0.674750467629155, -0.8639201223083044, -0.7777606781737837, -1.4437171135246185, -1.2075367454239754, -1.183749691244234, -1.0599350427754073, -0.5604963083070794, -0.03018607927428336, 0.05900507700053694, 0.027322066301492948, -0.09807223068618086, -0.8107237972227104, -1.4721745336661776, -1.7977495450349137, -1.4388646343090514, -0.7534456173267542, 0.0028527493854283545, -0.07748966746597277, 0.034111184104056454, 0.3367990738481092, -0.3877600371933045, -0.5602628339358287, -0.08876312000802553, -0.32098587573262144, -0.9569357032662613, -0.7956978660205135, -0.6843490840663765, -1.1926343776654769, -1.234612058752702, -1.3296962368162666, -1.239441575661227, -1.1886565934694266, -1.3255369168169793, -0.9658833317958545, -0.42121313247416975, -0.03120513415759835, -0.015255139558679812, 0.025143462033461968, -0.06345148361267373, -1.2137949584327805, -2.053052431191071, -1.7977396047944205, -1.0219057531361344, -0.9077179878642139, -0.4309796879590072, -0.425724565485421, -0.38793721368685924, -0.31108932597800315, -0.34420534996184915, -0.5116399852161274, -0.5447214375142988, -0.6707703854481478, -1.2173504182353072, -0.7752287515049819, -0.7660074352391556, -1.2011739535739483, -1.504581866381943, -1.5357496984272903, -0.9232234643001488, -1.2455248339359433, -1.2986484022405291, -0.8968174401394812, -0.24671470807040763, 0.03232057572853626, -0.012553078890280248, 0.045127175545535164, -0.16643103450705288, -1.5949492925608213, -2.458209434580782, -1.8192285008362448, -1.431635750679482, -1.0257732915743552, -0.5360298581636714, -0.7624740281827419, -0.8909758177473955, -0.8436022722773641, -1.1723153501941055, -1.1101535130027913, -0.46936095460955773, -0.36908554467613275, -1.1301252674340412, -0.9219868336340226, -1.6114550327765487, -1.2799494074933657, -1.1990332540340352, -1.214305315397073, -0.703255354655574, -1.134729620719005, -1.2378680744762747, -0.9603885243470898, -0.27887971986245225, 0.00042855931016079723, -0.00986806713118095, -0.004191187618506669, -0.13192691913720053, -1.2923043516339814, -2.0109245277625893, -1.4868746858854804, -0.9665495823159853, -0.9863837428488641, -0.8628230754572976, -1.1010605388027752, -1.5336834710493186, -0.9229466382554361, -1.5108064631201263, -1.049932614134658, -0.9673433646301465, -0.6377512092696581, -1.5733299082369634, -1.1065638377072482, -1.7519178313396717, -1.3028631686708636, -1.0029233285709138, -1.0822272644371425, -0.8585338555453628, -1.4222140120460558, -1.2926743233575038, -0.9020626912730104, -0.34737222309116633, -0.006234735456830166, 0.025383091451517365, -0.003025632470008687, -0.07638931531838104, -0.8617650939857172, -1.1905950567300798, -1.309921099901179, -0.9567614275533869, -0.7726273085071885, -0.8752709323221981, -1.486954266169533, -1.5627250677470792, -1.543584652765043, -1.5694136518712531, -1.1020509945535277, -1.419015464892172, -1.1234977961201424, -1.47473877098081, -0.8274632848538513, -1.24501798439466, -1.0645904940554043, -1.1143947352161685, -1.5541387170442216, -1.5263719726491412, -2.1277392700626803, -1.604597888609557, -0.8879053469424277, -0.28685518334406584, -0.03556357214697673, 0.04572491310489937, -0.06362000026303001, -0.11079367658687066, -0.1713918410263992, -0.35467173773801214, -0.7612105518787506, -0.9033669927062505, -0.7582812130152926, -0.5014461231832049, -0.6669910781594491, -0.8637059918740507, -1.238401772929074, -1.566678427655668, -0.9178615372025942, -1.21408115841699, -0.8959823788175766, -1.1352511105308998, -1.0955133381049655, -0.9497062352800628, -1.0031398859482283, -0.9836471837136411, -1.2301160246441551, -1.1732301614025316, -1.4957568917074848, -1.358969348366657, -0.6665537953822965, -0.17520398011786203, -0.06772115679533394, -0.015991649323213484, -0.04909589373448847, 0.0425640548698988, 0.09957323731015459, 0.060898919088641625, 0.007975795169486974, -0.2138811365450712, -0.5219578665174558, -0.1278849402948377, 0.2917784193134183, -0.13787942932106945, -0.023609012708659352, -0.26357587772343216, -0.5710064530664204, -0.802123482671303, -0.26755629079390864, -0.5008260476184062, -0.7965765014318658, -0.4856747100611215, -0.553877048618509, -0.26684450564432033, -0.2509899982601552, -0.0828033244625041, -0.42145797992403733, -0.6210974147241115, -0.3075674244284832, -0.17518861777587053, -0.028027251293947994, -0.005088741185432758, -0.02443721690552161, 0.020111469483023902, 0.08742651330623093, 0.0958802641454495, -0.11045810039609451, -0.017719642799199783, -0.10843213872128558, -0.08139025024981043, 0.013851968473400552, -0.14992530754007924, -0.22690669276125458, -0.1266842907734693, -0.08711018822982626, 0.056255009512942634, 0.5133970266734404, 0.08371773902326601, -0.21988986545214392, -0.12249274435677356, -0.01331755093820355, 0.023547995649808213, 0.08338161092845885, 0.18311430943930349, -0.07227722147397227, -0.11002767693450259, 0.017759481014091135, -0.03360104809450227, -0.008052543162373232, -0.01985251070509149, -0.054000215665815456, -0.055554038377147334, 0.0062190963179634485, -0.024014970610993856, 0.012411229966826247, 0.017189672773781806, 0.026458748904162947, 0.02212738157416698, 0.008894902181530856, 0.0360101438233112, -0.06932516372963113, -0.007892031158987565, -0.0012265370342180995, 0.03082865112478466, -0.040073815228280865, -0.017090962976743007, 0.007548590710077716, 0.007807240937671862, 0.011010787308444955, -0.012614101084070696, -0.029777907076053465, 0.04584066011378285, 0.005962124922012297, -0.031027866821044536, 0.06207959127124436, 0.04144315098602043, 0.02390658972872549, -0.012768145144609432], [0.011974073106809563, 0.049235588639183245, -0.025516206334871873, 0.035444976922426326, 0.008388269725480874, -0.012432651992669269, -0.03444680550251975, -0.024052579818376985, -0.015496277227960245, -0.04487261205055718, 0.014354539516445407, -0.04269844864390503, -0.017599463596127428, -0.07870150901883323, -0.008310309326234645, -0.03763731211633936, -0.06305767409967762, -0.05137009043913995, -0.009978591544325306, -0.03744552935507493, 0.03415099726364977, -0.015237619355757256, -0.031780665928693115, 0.01813826754845224, -0.0052157386892770895, 0.06476534833516771, -0.03187568618689477, 0.006779157766863495, 0.018356989848169417, 0.04009494955529228, -0.03794596138567474, -0.03906602767914867, -0.026234783820604277, -0.004669511808811458, -0.08766151362437288, -0.08815721007876483, -0.039825405634268875, 0.055125938296700074, -0.2628519216243098, -0.35957401730411137, -0.23327999032542734, -0.3966298140101602, -0.3005367892799828, -0.03744050229558097, -0.25279477468379197, -0.516610028853563, -0.12587484710259536, -0.568138772459036, -0.6105531894059253, -0.555703753366787, -0.5006023316048952, -0.5064304458156443, -0.27892480892969557, -0.12887752142893832, -0.19108841857559994, -0.0012281864916590661, 0.04013249664188325, 0.025915549618397895, -0.02578765385061476, -0.025536550862560778, -0.034740321636484106, -0.09278836511356532, -0.2753593049020095, -0.39741592077545596, -0.4949277922982577, -0.40390103917676795, -0.6346600213105816, -0.5648262152567175, -0.2092100271542343, -0.28502904076862945, -0.7019672536404363, -0.38417084867067003, -0.5848183454244549, -0.4940328487781942, -0.5504197941897261, -0.6292237309152319, -0.7417010491971786, -0.6649433891022373, -0.7411173877283317, -0.6813478525678179, -0.2927640041051316, -0.23376838587726728, -0.1489639931142035, -0.005074628786727861, -0.052183106297205656, -0.054609644722814966, 0.0013272620451138864, -0.025473653976093948, -0.21159444303115388, -0.29422290309755667, -0.5938673125132827, -0.9943776718719196, -1.081056866336111, -1.2712162441203148, -1.039396748038391, -0.8115649964889141, -0.8033987532666297, -0.7063707702452964, -0.9530449656051282, -0.3854249031175254, -0.8661334205807172, -0.5240139203959437, -0.541760168016736, -0.24226675906284392, -0.8055283850304873, -0.8396682691875195, -0.3777655302268982, -0.2385513548757254, -0.00038755765912736056, -0.36163904921342965, -0.22592305244688482, -0.042587517922446735, -0.03420517754637744, -0.03339786740684313, -0.020235951896114882, -0.13955997201437276, -0.27702246841614264, -0.522502858776991, -0.8044808093392367, -1.3092841753426696, -1.3819803771254102, -1.1711934538623123, -0.5496747030087458, -0.713737083528613, -1.0203807608671822, -1.4172019893911267, -1.1032684806870883, -0.41853172665889343, -0.646278191468204, -0.8972797295214485, -0.42371706207739274, -0.09519631174211046, -0.09189736736113885, -0.34016648951773487, 0.3788145985490428, -0.03069806960488889, -0.2364479841999085, -0.9047458161715838, -0.31696004020944984, 0.060835427560910774, -0.036265982500175084, -0.013178975495023199, -0.16225506800527503, -0.3634763503094486, -0.5163395542437019, -0.6611066847009318, -0.973536446352189, -1.3742075258484927, -1.2506216321395023, -0.709942836089237, -0.09346587780786986, -0.33128264478742525, -0.23104542061562522, -0.6452012000697782, -0.5104855905486717, -0.6672396687302838, -0.5201163517540933, -0.2526440899184621, 0.2502515342481267, -0.1719774935674921, 0.32547742893113235, 0.17741965238154128, 0.26512496009802894, 0.003196635886646796, -0.9972001944584558, -1.5751384624477145, -0.4106978689712376, -0.02620768175303549, -0.0433127704404512, -0.05583583055380788, -0.2532473326340871, -0.5648363927235968, -0.7962269348236088, -0.8183269366288116, -0.9812156846643899, -1.2483735855061238, -1.2110319442781365, -0.4068129292437631, -0.1339450672332522, -0.7644233089095749, 0.04527835719964549, -0.4042435117313862, -0.3616929047574051, -0.677958968198763, -0.1580619696747781, -0.37375318540087155, 0.018333628473903563, -0.13838385065932396, 0.09625133580660662, -0.2184169178599265, 0.22431063099336235, -0.1042074321248091, -1.3747931441808534, -1.8094510810799525, -0.21013143408200993, -0.012027216170817423, 0.006232568776269776, -0.011558486857158021, -0.2812436044372877, -0.6878235831628718, -0.9297081645317772, -0.6934327432120563, -0.793094107426138, -1.1832419721022998, -1.3980596983181313, -0.1725411981594562, -0.2926869407363371, -0.48619141980725183, -0.10063990086438522, -0.1514322962295746, -0.3329806674411993, -0.5168286339567151, 0.19153122897620783, -0.16244432396384076, 0.15941639526059248, -0.2899318720849428, -0.41765204362192726, -0.4912359303893776, 0.1636165966593772, -0.31070218863880955, -1.8058792312836307, -1.7442898367480129, -0.18988685758127907, -0.003351521148997303, 0.037142658374561766, 0.025439942909685598, -0.19913111262608094, -0.44038385949524916, -0.5518769903075238, -0.5173333296755604, -0.7500519591393873, -1.0066566076943295, -1.2934084336185496, -0.5243053880105001, -0.4564926148152181, -0.10189129129515878, -0.28532484508235606, 0.4349866338292643, 0.62588565470859, 0.38896010521607355, 0.11172093284073038, 0.19963607649339926, 0.035984046563895526, -0.049146278210999796, -0.5380750746504348, -0.3919422280475073, 0.18106247393147612, -0.5865945771854459, -1.3608848545434804, -1.0694239207296399, -0.014721249615764419, 0.04074258862248588, 0.002382085866897807, 0.07791523463014831, -0.13224505507548437, -0.20487270572903762, -0.3400186350197848, -0.22930313263236954, -0.7101824563911077, -0.7129106277826146, -1.1496662981393244, -1.0812598509903661, -0.9590292143254442, -0.3020152395648333, -0.3656579119198297, -0.04778334734061059, 0.5020692223421283, 0.359699233322916, 0.18345890550990024, 0.06252297089394895, 0.21226119790391956, 0.29024334513348804, 0.30395416939958636, -0.31418038389262, -0.3348831718523617, -0.998155913240549, -0.8585730511674554, -0.49085321594161657, -0.04368258358252567, -0.01614178248215014, -0.009230198796550522, -0.12695972606531672, -0.22336121245535237, -0.2296358578511141, -0.22225502676574174, -0.25241993873603924, -0.6318174925935927, -0.6066028281955711, -1.0016853066831721, -1.5045738184848734, -1.2502368795186756, -0.5125349014014758, 0.12542423608787698, -0.15414197182601136, 0.14327512302675535, 0.39743082769279503, 0.13826480722977208, -0.10525321460672524, 0.03770525186435171, 0.09711468659868114, 0.0013349839925139422, -0.8546252179485369, -0.7035707337535909, -0.5962602797165982, -0.2934923311461698, -0.13622602378338433, -0.02376004283387476, -0.020823308177525864, 0.06237000754172687, -0.10537948612327282, -0.25047890077083607, -0.2431066033796264, -0.26178682870874365, -0.3632738451998072, -0.5422476521926423, -0.7201259886094011, -1.081508441887221, -1.999582286376103, -1.5379741119245065, 0.3344334905721255, -0.11345913390094851, 0.2520128361266253, 0.7726469339045621, 0.9971096235779018, 0.49506757153471076, 0.1211913436152296, -0.12342486050320922, 0.2504707677693534, -0.2923246646193871, -0.6315872854374632, -0.5925846046536865, -0.5136483383566719, -0.23157700530481667, -0.06683961552997562, -0.04284662738545542, 0.029381192947405464, 0.04131618033366213, -0.03639487908675627, -0.16319712500917302, -0.19927912368710626, -0.30625739653710643, -0.39442595171431744, -0.4683633464207695, -0.6261602230135911, -1.256626761325619, -2.462692921185818, -1.241882980800884, 0.590847881473601, 0.06607321008290495, 0.987585677108461, 0.7442511766721148, 0.23250310407272676, 0.44242967475171585, 0.22298765743816193, 0.23057666394708354, 0.3000337736578821, -0.5308610730667119, -1.0095042652047375, -0.4300065681129441, -0.23800505670774352, -0.13315336147551646, -0.015499777020346297, 0.05544964985361126, 0.05521802276141987, 0.028656695042988838, -0.00921308456359326, -0.14887897468005631, -0.25850515298402393, -0.2671003646809201, -0.3559515967761629, -0.5237943012217506, -0.7833246563708, -1.4847332889261928, -2.8018425582815136, 0.16534504594699015, 0.3779884783649152, 0.27766857413832724, 0.529181450512108, -0.01049832413314491, 0.1871998342796488, 0.5603639285203692, 0.3880941803063051, 0.39838695409403996, 0.6867169553111937, -0.6746675017545358, -0.9708848657944883, -0.43506319461907034, -0.154941717749872, -0.24243186498334635, -0.024353160726584996, -0.08770551619621607, 0.027151668458026162, 0.024963319516422732, -0.06452212040056923, -0.2892933792606037, -0.4573890386223252, -0.3475699376812903, -0.4686103393095182, -0.6447446517135588, -1.0493057119855018, -2.0034616991052587, -2.311561922912087, 0.5983589053190881, -0.056435670559394364, 0.2005810546374992, 0.2331911850090452, 0.1614090913122584, 0.33710122256459124, 0.5515225160773141, 0.314743307275192, 0.8507030029431745, 0.28741969066058287, -1.2471372915634777, -0.9545459699481712, -0.3599891514393118, -0.16043174404352992, -0.08447084199370442, 0.024736608605001924, 0.004559432349238716, -0.01929214310195093, -0.04338203038754336, -0.12109162076461062, -0.4261764249467106, -0.5229215927418316, -0.4033867350410343, -0.55329379622126, -0.9217677381797895, -1.2750801201330493, -1.4254863420721027, -0.7793051990952201, 0.6164346075440609, 0.14997603415345453, 0.3508409249280381, 0.42019130992158393, 0.006879170864132857, -0.027261046186963737, 0.6705778247740666, 0.27606051181807884, 0.2927849584771293, -1.1704942991963883, -1.568893018411206, -0.8468170380620048, -0.23075136172080538, -0.17255166559250953, -0.04191800799657253, -0.08230025591081479, -0.0016304113848811016, 5.363628557067848e-05, -0.00941501418924599, -0.1730198030351425, -0.8173644342085368, -0.9667645528427208, -0.6878289570222599, -0.5102413721552653, -0.6925507209637732, -0.7685316570834361, -0.12627375295015641, -0.37464839494405705, 0.33772141757005575, 0.16593683534872616, 0.043827311092138825, 0.04079658507071663, -0.3447569910525306, 0.023199990284526285, 0.28870767627290633, -0.34307321054863155, -0.6011574722775344, -1.748243505105992, -1.4179205231070244, -0.6573271437023191, -0.3403795387575369, -0.18759186553053103, -0.1844646444094513, -0.10588599821737324, -0.032218385259612806, 0.03583558043329593, 0.020420769952545076, -0.18899262821725002, -1.2341888050669245, -1.4494606672257375, -1.2412181087787981, -0.8030405553330322, -0.6035161516729997, -0.12165618433248247, -0.2600650407280114, -1.113568869748846, -0.1642059145677393, 0.4488676390154612, 0.40880481210815434, 0.43061099822090726, -0.03908221004277179, 0.19814237458015116, -0.6034299792470434, -0.8486423632019733, -1.0735702774282017, -1.3208709814243205, -1.0304929512283925, -0.4102683393666237, -0.2852736734372362, -0.34615530645413295, -0.16628750665836722, -0.13177314994856845, -0.038050645388465816, -0.032844255060868084, 0.02142788281967584, -0.15734650781708714, -1.3155032739834647, -2.080231465520338, -1.5878852539798214, -0.4527535724225924, 0.11350067285993923, 0.17273654830361795, -0.861135029849121, -1.278045763230424, -0.3115556530223203, 0.17587043706280478, 0.31449172629294575, -0.11988125654050272, -0.19572937811269364, -0.22098987244583368, -0.5003279179881955, -0.5702848211968807, -1.288504513701187, -1.097598217912541, -0.832250043009782, -0.36077012825407234, -0.3135307755747453, -0.30083770946380006, -0.1761179251964643, -0.06455474652240678, -0.022692226684467482, -0.026113768974264186, -0.010381783635544845, -0.17985073118273842, -1.3615696894233436, -1.9415278124820343, -1.3579594824674013, -0.19864960238659451, -0.18784954730818457, 0.14277380270003007, -0.5951126523551714, -0.3900046900578627, -0.3374443195769066, 0.38958864650491304, 0.11786999053191835, 0.36082979083844635, -0.04941171234631272, -0.3452230869339833, -0.7393570270332658, -0.3707413610825395, -0.48806644699316565, -0.9648844514351446, -0.8939161696811669, -0.500587206433049, -0.2551893081207452, -0.2197719475895239, -0.20372774816065836, 0.021068982411639584, -0.025730714096703713, 0.0008108881226731226, 0.004711148289777827, -0.11238401848536783, -1.407384802606543, -1.7706965432523725, -0.9108531370699727, -0.15515472703065217, -0.5197899583312121, -0.5289895923558816, -0.36969440463856656, -0.040527110907640496, -0.649238590976982, -0.1847255229771812, -0.0006801387133872988, 0.5034003384445357, 0.14286616344160769, 0.4483250799478047, -0.3654926013260264, -0.3805103631716147, -0.3329563531501908, -1.1169499748124165, -1.060115648069987, -0.6716762933126836, -0.3105624251891399, -0.33744835751516, -0.2359646445179538, -0.039438669986292356, 0.01618136178989081, 0.0010329773875966607, -0.01866744239609074, -0.10538834105621804, -1.5206468877272816, -1.356182070853563, -0.4437470148778077, -0.19990375923405412, -0.41856045136999864, -0.16277178200612816, -0.07051011175074742, -0.421763911520145, -0.40110684800541957, -0.5984286305880994, -0.1972781798926512, 0.12703492905179709, 0.30833719587713526, 0.287828643152149, -0.30238870076149466, -0.46860795428164315, -0.288542471237579, -0.8577978528110828, -1.09068860905312, -0.636908306872853, -0.3743919165812378, -0.35958998490144134, -0.20995409042616772, -0.07240195369895247, -0.07563914586067381, -0.004289525555493768, -0.0235701131057648, -0.21972584051190794, -0.9907700308039034, -0.8076091412838091, -0.23083451690674503, -0.07652467978062984, -0.3903295646024348, -0.13985493828508455, -0.6338585797939155, -0.21281762762319487, -0.01630318393429336, -0.3191102099557363, -0.3942309451072445, -0.1739808097022958, 0.035546981984606665, 0.13300836489426712, -0.1569717183402433, 0.00892074654716671, 0.4520449802966798, -0.40986086875490085, -0.9246398900664685, -0.5259226131223501, -0.2637271756775154, -0.10355559611080917, -0.15800530318945108, -0.0019052988362245576, 0.03817179385196716, 0.03608874979141799, -0.020683696440886072, -0.030198352961562473, -0.2932584288315781, -0.15711453488658156, 0.2373550911061079, -0.19843808283012843, -0.36851474237567233, 0.08112719094553653, -0.6392724940096767, -0.4829101900748318, -0.5734079446925232, -1.0050294394820227, -1.2126833250358422, -0.4630827679508563, -0.22625165457260116, 0.08696924965392808, 0.48576050477636856, 0.8789915332034619, 0.892304827412489, -0.11425619347336319, -0.7266942155912025, -0.5277257727436814, -0.2114444171924356, -0.16875068961258596, -0.12965531697106134, -0.03600547341480743, 0.03869926823036226, 0.026122496476662368, -0.006001938769485097, -0.07414338922271048, -0.030835194027952734, -0.038420628002255555, -0.08120929033704712, -0.321391861885927, -0.18445716046394345, -0.4582133442882341, -0.5551256295517345, -0.5470376928304721, -0.43617373981152585, -0.41289945897830826, -0.5736385461713329, -0.5455354950336861, -0.7186761204808672, -0.19830499168754734, 0.5691230659786349, 1.0557600519079267, 0.9687338314188245, -0.3621024545185087, -0.6269033829551455, -0.4359157743511737, -0.20060706599832537, -0.11363236457523498, -0.027224902934275482, 0.0443997062559329, -0.023069844535804688, -0.02680995818149197, -0.06304247961039965, -0.021753647681697193, -0.019355679350796642, -0.11185029056573721, -0.2912332244828413, -0.5550317008295534, -0.4184599112699432, -0.3038581203900784, -0.7801261975419652, -0.5471437320856058, -0.11176553381594118, -0.3868245717493955, -0.25021599897579894, -0.6874951661891332, -0.8148423434827555, -1.0130501139991133, -0.7259755842637682, -0.13316417647164655, 0.08486785855106385, -0.3927428384609758, -0.32051350066806333, -0.1432317720512093, -0.0458681832055036, -0.14451465172341416, 0.030382373912459817, -0.08447229379784628, -0.026113504390027013, 0.009319086786615187, 0.014941906961203058, -0.0024126409921138826, -0.09229534044732254, -0.1820001632671617, -0.3103043346863782, -0.40474423864377607, -0.406219654520335, -0.12381302367499207, -0.35583170611265774, -0.3096074843289683, -0.2860938527757378, -0.16028393931571733, -0.19546492722970907, -0.4330509590855803, -0.47383504931780523, -0.2852573968135142, -0.5331587416065877, -0.43691668235549946, -0.09858832925888224, -0.03368858341510033, -0.015408086894535785, -0.08127959526624881, -0.01767832793434807, -0.02102871476294559, 0.002964248929235994, 0.04111831703850954, -0.04830127366957665, -0.037598734818652085, -0.04620880226896288, -0.027810149455557927, -0.04291663162768312, -0.023916335597596306, 0.04533066512782115, -0.016455696688483068, 0.022476822789214493, 0.004707238781262124, -0.02791126619872676, 0.021112981778553946, 0.044826341062531604, -0.01547459372770685, -0.017724394889733344, 0.01804870935337064, 0.00691418727702541, 0.0043308672879737095, -0.05419819026411557, 0.06576295068082169, 0.04946065800241301, -0.0005453116189100617, -0.005780699772522606, -0.005011288514285653, -0.03312956270082116, 0.07224525646262958, 0.01121743476276688, -1.1952330322024796e-05, -0.03510713729957401, 0.019084690630886195], [-0.08830984172812509, 0.017772833487413528, 0.06850510034709849, 0.059770694532437975, -0.006736796609840201, 0.006787315813245186, -0.0080410351140606, -0.09530988747277559, -0.015361524035605013, -0.03259242553828031, 0.018230967171187176, -0.022549278358372636, 0.026366300978552866, -0.05055481016589729, -0.008838021649425138, -0.04436086347194568, 