{"classifier": "mlp_classifier", "n_inputs": 13, "optimizer": "adadelta", "loss_function": "mse", "layers": [["dense", {"units": 80, "activation": "sigmoid", "weights": [[1.629262610200037, 0.30623433221558244, 0.4807593371068145, -1.529652919681351, 0.04787728520713168, 0.09900096896448132, 0.711151777903634, -0.625101991066988, -0.2244024119293416, 0.804862897333003, -0.8274839036798217, 0.5531299508346761, 2.1352621484600234], [0.9637025760450151, -0.18584424524925644, 0.07695046526324241, -1.3033349328693677, -0.2249899502102055, 0.43284398482584285, 1.1298722732725095, -0.5180006903655615, -0.09416268801724642, -0.23120074811060284, 0.025188347964356456, 0.8614402433673056, 1.4214398746958699], [1.9359742144065624, 0.46486943775957223, 0.7855051039481176, -1.1295748205192169, 0.11103546452101624, 0.08630901215711119, 0.15314636895470515, -0.5881389205233342, -0.6201017213141663, 1.632270707464699, -0.848864714685176, 0.06946311971498208, 2.255965785001895], [-0.3973459465408968, -0.09779159742059881, -0.5272571269334143, -0.2927917692939444, 0.015190438438361865, -0.39183936641543227, -0.5083964123731851, -0.42978887607120464, -0.3866854473130868, -0.09209583866922347, -0.6074502197162045, -0.5043249873085899, -0.34419418336747876], [-0.6447090045369124, -0.12797412960116789, -0.34650763806371676, 0.38179509273609846, -0.21577060970563605, -0.28907629481955605, -0.5613056506173805, -0.05921118454597989, -0.022041445682095137, -0.07699104450495277, -0.33595575564835783, -0.6272947238386111, -0.9485362891583844], [-1.1813946592795097, -0.5447451120196994, -0.8353769487836792, 0.9265773122436007, -0.28580418779799704, -0.13652384169936538, -0.10598590410829338, 0.15638891324152548, 0.2387379047600983, -1.0505284431533162, 0.40151502714665976, -0.1530429169270469, -1.6157114336155607], [0.3630259047937287, 0.022238375932513637, -0.19197736648650782, -0.5758784545549427, 0.0364506211246209, -0.4023686531112012, -0.43117418161143856, -0.6046894887690724, -0.5664546818232997, 0.2712200735136811, -0.44059859271607316, -0.5476113112646315, 0.5018363004337434], [-0.1406354583899687, -0.35887452430747596, -0.4923075992054055, -0.7932714567022269, -0.312245007559774, 0.1864672593897743, 0.6111714085659585, -0.25340468327332255, -0.10174154939995242, -0.4938469511052702, 0.33740168014851246, 0.44626276270312853, 0.46072704300442346], [-0.14488151482095082, -0.4360544694602533, -0.4891929265084761, -0.6886439901344623, -0.3995608039076453, -0.043327386986620677, 0.5670908397409321, -0.43015746987869735, -0.11335291795612504, -0.7696408362248948, 0.2866241838610191, 0.6931351814802578, 0.03989825551857916], [-0.3457886280170289, -0.21952651224711606, -0.4618092171946349, -0.40024328970078915, -0.277114247229437, -0.442438161323887, -0.5007617564453427, -0.4535055024981059, -0.019265426144704136, -0.219775438542562, -0.3048894844612542, -0.5837979776330838, -0.11572825645566737], [-0.2564000976599635, 0.4252516559904823, 0.13096104474301268, 0.5344902593205821, 0.11138328493915232, -0.7428951341188322, -1.1044529820661781, 0.3423387441518605, -0.4939650079060149, 0.7478935054356121, -0.9839952307528667, -0.9934446705395966, -0.6712218759636287], [-1.0680684414207255, -0.5774827057811291, -0.629435462594897, 0.5928765219632439, -0.17647135104570713, -0.2507835159671717, -0.23320513954164176, 0.18591049588719133, 0.22050597578425557, -0.924822992842207, 0.6547009032517744, -0.21118984174179817, -1.2573287371249322], [-0.6244163946240391, -0.12047738981834845, -0.38207403007109836, 0.2530148282073149, -0.10877731228750905, -0.3781480548948658, -0.6939910824733994, -0.10054436296353778, -0.18018321640085255, -0.09452237317963078, -0.19298465501856207, -0.5410386858754194, -1.1407509769898792], [-1.4120772068501242, -0.5709733860066799, -0.6912706163222958, 0.39271530896510687, -0.4527506819517837, -0.17360406997332362, 0.30809632506499707, -0.013743252302964627, 0.3923519636009535, -1.2486765425929067, 0.8152374688900109, 0.32219356547495354, -1.250601924112612], [0.19056847489173528, 0.02594357628566959, -0.060915841989278664, -0.14795653240966133, 0.01245853892611214, -0.40293582604938566, -0.713737477442761, -0.20926581737309488, -0.5399011570397403, 0.6587944963170469, -0.8100946356869781, -0.6492587142545756, 0.17306982785541203], [-0.06257717867085372, 0.5294648870635194, 0.24363564968118698, 0.6507201446998286, 0.04443183073424722, -0.8386883791944897, -1.6524041997121017, 0.22039118295676946, -0.6233157323305727, 1.281954928045493, -1.1263444347318952, -1.3056160604850373, -0.784638319533903], [0.6358852243307119, 0.35821866233518457, 0.3924000893776394, -0.10995068437918207, 0.12565737997262172, -0.44289255296771185, -0.9876939919082999, -0.22153739131729658, -0.4913396345605678, 1.2649262499360967, -1.0492579242059685, -0.8781343377821321, 0.6576058594633957], [-0.5598363103693222, 0.3881515870844105, 0.1439444787751171, 1.0665542518115907, 0.21861454877904776, -0.5612805089646361, -1.448942648768112, 0.567536784173183, -0.42576165422543705, 0.6894450691982291, -0.8099398817898086, -1.279212341126627, -1.0812495176806787], [-1.273889771284323, -0.7208308968006969, -0.6802464526392851, 0.2654533122292871, -0.10065379158268407, 0.1700088664791776, 0.1995184460804812, -0.15152279778635502, 0.3305716689152986, -1.0631990771603257, 0.68587649855008, 0.04173655438513004, -1.2961155402393079], [0.11432921025642521, 0.33117690969219526, -0.021238814911693944, 0.2878331204115048, -0.06645558026692039, -0.6311857701949225, -1.2657976395282122, 0.052119479525258694, -0.27529629453312215, 1.1159875345137091, -1.0121105717740766, -1.1331949112611037, -0.3824592110432571], [0.6510986927039044, 0.7515287220256834, 0.1820290512090057, 0.10695131734882242, 0.08426056900693751, -0.8069240628131, -1.6113369655798646, 0.03506492901984236, -0.5871097733626622, 1.753595747179905, -1.2454667988963215, -1.1894618338989793, 0.35008882553684567], [-0.9228364915777426, -0.05732118007510899, -0.46460532504612323, 0.6762031665389509, -0.06167892023653187, -0.15528604061954765, -0.5767783909663081, 0.1219782915385852, -0.022705822507577265, -0.27487760836724057, 0.08992016775003192, -0.6168746665168531, -1.219166751739083], [-0.7445446824773344, -0.6939577278442508, -0.6113221469536635, -0.260374518331707, -0.40990023038239976, 0.3170963292282781, 0.5264245929922226, -0.2944103407004463, 0.20492763756266918, -1.027263938816485, 0.3683557635841919, 0.6296344078631131, -0.6203264765190006], [-0.40805627859259186, -0.03519973784815438, -0.31870548388665787, -0.16325229139434455, 0.002223013422314818, -0.3222939799784162, -0.8039534658451124, -0.058677794536248586, -0.3312397515887568, 0.08425614347116674, -0.40265654785652777, -0.8370217392170243, -0.2846903892071605], [1.4456126258582696, -0.09836149240267428, 0.4726373245637698, -1.6043524089223755, -0.09476135822778868, 0.2738527834025356, 0.8681656994210046, -0.8528884565263406, -0.3760439965039744, 0.49101784684900185, -0.43293747914528014, 0.7669866799857047, 1.9822074903751623], [-0.8942814997831671, -0.2803974650171678, -0.36327861620558294, 0.5763505314601731, -0.24994554984205505, -0.24093208878514427, -0.47476442757205983, 0.17773272510288657, 0.14895903697467172, -0.5133750146547014, 0.21397776610787175, -0.5830536458579515, -1.1955099494349226], [-1.0040288365065564, -0.2976541305132966, -0.37319645428174647, 0.999439250129341, -0.1564285283896053, -0.2454242874977042, -0.4349907318032687, 0.2692532263862149, 0.10902978849011115, -0.19367509991192516, 0.2253463704984045, -0.6634031056276648, -1.3277310153480482], [-1.3428923247429323, -0.5675705863025196, -0.8486757432596994, 0.9322872550297016, -0.4260697745146237, 0.013306757664250587, -0.08628689516385882, 0.27902224418464633, 0.3776522546054439, -1.2650488571273357, 0.9478665120792289, -0.16754352970835368, -1.851644462638227], [-0.7970233403894335, -0.3812952399663046, -0.7261130247466114, 0.32504030053614413, -0.23555494392529552, -0.292366282027518, -0.18518711990030082, 0.07148804399712563, 0.2471953921645552, -0.7617907921646108, 0.27127217097295003, -0.19462062680078937, -1.214821569610059], [-0.37358467327834505, -0.4931656754831675, -0.36139154194122397, -0.45526982213238815, -0.22489105568265091, 0.6309237497348656, 1.3687175031893575, 0.07528548516841173, 0.4709736017180145, -1.5738912282752666, 0.9404661450731627, 1.2336622350830373, 0.21264001885365102], [0.6719499043499201, 0.5777939776286376, 0.32910409770235965, -0.013428084568414898, 0.1565139092091082, -0.584846212221012, -0.9875762859621564, -0.2519457441323974, -0.678104630754798, 1.5548911689114, -1.0198523603064695, -0.7004718339728269, 0.6935425149871032], [0.5766431548221996, -0.23838777396937808, 0.05622695974582741, -1.0928157703151598, -0.28660791875457586, 0.2529207498634555, 0.9116051237935822, -0.5739731706071145, -0.058636842757454365, -0.5992578736450898, 0.1880157114527116, 0.8339300881035866, 1.1839735180593896], [-0.9269504189819381, 0.15045056853633856, -0.2564726822666269, 0.7285444872563929, 0.04840513511549593, -0.49006685274801076, -0.7823180671441202, 0.2408258847855029, -0.07426603813328723, 0.022775042767848714, -0.11441250830768884, -0.6953346171097414, -1.3760633813974112], [0.4508438365464867, -0.11348399833367911, 0.13605227197231318, -0.7158987532027848, -0.1598149295114049, 0.033261704040234416, 0.2546989393176864, -0.4725156270661316, -0.05500071677959588, 0.22096887166413362, -0.3413947498986184, 0.1085921256968168, 1.0085719571340124], [-0.8929617012947023, -0.49385597167755746, -0.7608709757920402, 0.8307114172587428, -0.19135136671882416, -0.17261924005315793, -0.3896124881813734, 0.31501105656596184, 0.03225989682711425, -0.9506777898865112, 0.4607267589833084, -0.10962948942190794, -1.2571372530581046], [-1.013916829003853, -0.375324652694902, -0.7908860217863792, 0.7261063792153807, -0.3855221708395016, -0.18869290457872404, -0.10066483554644387, 0.0724392901111073, 0.36040226762920746, -0.9289601325754794, 0.4293368903060475, -0.1954035875986647, -1.7111121461633116], [-1.054998834447457, -0.5717160767446937, -0.6933823004186, 0.25146176289143946, -0.13624020144166096, -0.07277037561423458, 0.02717481698984467, 0.06328086059428754, 0.06260418636880297, -1.0199888037120504, 0.5312721840506699, -0.26031577035947784, -1.07499611366154], [0.10533573792171401, -0.1162179367429838, -0.32178207172797396, -0.7121682869306579, -0.29167969118608766, -0.031074134733444676, 0.36698997761310087, -0.37815818940026114, 0.04735203160042801, -0.4016586618060913, -0.05770472495114449, 0.5650872181102331, 0.48141972308886055], [0.04645192777356664, 0.5335303509212076, 0.1325883047980468, 0.4824275747372558, 0.09026651831056128, -0.7366358160886528, -1.4983422596703886, 0.10089155382380921, -0.5932912664689076, 1.1002439291620245, -0.9208912413440604, -1.3783064918358527, -0.45621352602562615], [-0.4250699947006522, -0.5545338088585143, -0.14124949171814938, -0.4381536200485914, -0.3468372132237975, 0.5529518235357472, 1.2627340336893684, -0.057430431214814524, 0.5799663949903835, -1.438273317839327, 1.1402602708235496, 0.9148961851661667, -0.0003801035254110579], [-1.2115476477256468, -0.46778387031250807, -0.9789024680433631, 0.22816869640497253, -0.12094628371216919, -0.07200045854146453, 0.36508019922656015, 0.19179180700073895, 0.3811881941901846, -1.3981867751074637, 0.8498829414425427, 0.2504741452854083, -1.2528320266677697], [-0.9419747534992652, -0.21075412234991817, -0.8139937179434946, 0.01809953080222883, -0.23516097166199654, -0.2291502788727748, 0.24590672769522126, -0.14734008358217585, 0.329684067973566, -0.9300698408181729, 0.5722400248045515, -0.07087826010551565, -0.879126029498233], [1.674756607381343, 0.43519423322470124, 0.597756562760204, -1.1761669859563988, 0.24055458096695134, 0.0822265799556719, 0.07427588393715373, -0.6546145007994489, -0.3109795536535503, 1.3717758419506647, -0.9222270411635041, -0.04524539884393754, 2.3966500668165067], [-0.25923227051963865, 0.051573701048352995, -0.10358703713202629, 0.34858715812641683, 0.13471249841540947, -0.5419708561619754, -0.8286139383001552, -0.012968354899171952, -0.5858799576281393, 0.5273377493845429, -0.67790619719658, -0.9096807186240631, -0.35216186460346166], [0.3840820358937644, 0.6150974150271388, 0.23027427649024157, 0.3660876263344581, 0.22047557572488494, -0.7412205539309327, -1.5688823285203, -0.005945351600886788, -0.6286371664516881, 1.6546728581000978, -1.11605443110083, -1.5510419078753304, 0.14301473004406268], [0.7378725828381555, 0.5794973521141017, 0.4285999530251537, -0.05714385021619823, 0.10277517071058344, -0.694433322646351, -0.9534603716726374, -0.11460868309447254, -0.74323324988615, 1.4201255540215618, -1.0681527410149525, -0.828630238894013, 0.5992349028775836], [-0.7993095793600966, -0.29074840463960167, -0.4154365710157877, 0.8595491259500064, -0.17840119653769784, -0.36675653089667193, -0.7210554797401978, 0.1515739087142912, 0.1409608781935519, -0.16277499245379842, 0.0881457595204263, -0.5653174808760901, -1.2863341073327677], [-1.0071921030647966, -0.6021863852186614, -0.6131538727642146, 0.08346227660368356, -0.40578094022857075, 0.10801633997808208, 0.7052653159931636, 0.18429351414602477, 0.3060585983665, -1.4539170371596386, 1.0389962496235698, 0.5140836930112542, -1.16865582004177], [-0.9621008912486427, -0.23112528093267887, -0.785499262990601, 0.8505176689326748, -0.22995223051417646, -0.06330758620797593, -0.24858408908244875, 0.13386335472608202, 0.018233177309861855, -0.5540081134389787, 0.3826913559535405, -0.4274451470893405, -1.374196281996647], [1.0267956787214014, 0.6171371592085015, 0.49316737839727587, -0.3966849543986709, 0.29211306714261764, -0.32382862127827855, -0.5332256235636496, -0.253503328169122, -0.5552099612297863, 1.3107518113418908, -0.9877201827714672, -0.46564886420507295, 1.181802392307696], [-1.1943422174109026, -0.5914844624637703, -0.8378899035730815, 0.6376621318453198, -0.49378884180879107, 0.10240408382205518, -0.02457020496186229, 0.09113052861053232, 0.2523628342909089, -1.243015074017601, 0.9918051118789765, 0.05429332723940408, -1.6798002354063268], [-1.1065066330261413, -0.6089140746701723, -0.6182173679246112, 0.45946394373413507, -0.14297092540281056, -0.40777434659461165, -0.07311896887870227, 0.23112524965254364, 0.35973779659855964, -0.7976576962313902, 0.48496145017698017, -0.4177500818279396, -1.4412567833465677], [-0.1972934984454855, 0.3569288086037187, 0.026410878953032235, 0.660411653396324, 0.09148628183970091, -0.7969913768346056, -1.35854800932962, 0.15881732934615622, -0.37648384676804003, 0.8981794107175477, -0.7949827308886801, -1.0627373889379255, -0.6064459750742871], [-1.3317234165900589, -0.5964640171393562, -0.9742344835895299, 0.9558955490122982, -0.31245263382599764, -0.1622619049754038, 0.07740017368357659, 0.20373708651681896, 0.5167314614820848, -1.5708183810929346, 0.944201565456572, 0.2636137687162927, -1.8299922914319418], [-1.5232029335123032, -0.664492103986701, -0.886168579309461, 0.7171998454861132, -0.43192593757111947, -0.16443349009736424, 0.0028517967134593127, 0.36053329250646, 0.4954322079007545, -1.497380564169739, 1.1422244356600824, 0.038632433978527385, -1.871384656151947], [-1.8387407970259586, -0.7604076906764042, -1.1154263154370094, 1.0062516214889952, -0.638207285148223, 0.0029864946425582455, 0.10676455440824839, 0.3977088451782145, 0.5962323434603354, -1.7149368890969579, 1.1946474388311599, 0.25785972477847174, -2.225534106621755], [0.11087944734575936, 0.7528457857324883, 0.05975298739614723, 0.6473426062720598, 0.24241813474971705, -0.8857177305646367, -1.836731150628526, 0.22531957926474858, -0.7724644779024128, 1.4795832228305574, -1.2100436776582877, -1.5495686554810664, -0.3873246980873727], [-0.8503739621699447, -0.48629969346098817, -0.5520287237562795, -0.14332229701927354, -0.25961318074388096, 0.04465646836962511, 0.5530645997435217, -0.10670816932906574, 0.45027441239192645, -1.4141514274969489, 0.5203691763373761, 0.27201542303672127, -0.9621541805368441], [-1.4966392043194052, -0.5732457055977168, -0.7897514921943689, 1.100667993324243, -0.5085495095936582, -0.12030319392540892, -0.09669022675420902, 0.5241597373379929, 0.33922737319502677, -1.083852442876202, 0.8309248396123728, -0.1268304644968682, -1.8865632786026905], [1.3391226645728243, 0.8796840995577168, 0.5285749960909724, -0.411545812360604, 0.1787073735535002, -0.22564957455653498, -0.630592709283608, -0.17802280762822084, -0.5815379985840453, 2.0217132944884826, -0.8239661450989959, -0.524197088912493, 1.7300982893775667], [-1.2599520335756298, -0.6102896238820813, -0.7871635219367179, 0.5839203464554167, -0.42027582471592545, 0.054104568943267164, 0.12469329374105147, 0.033159808182611564, 0.29444607119625255, -0.9753750768391178, 0.9180047086967874, -0.009491294010573526, -1.6406578244653982], [1.2477689283865183, 0.7025921611481137, 0.7459456610810354, -0.7805555048500676, 0.349095018099033, 0.022354509128312296, -0.32979946929810927, -0.20701197495562484, -0.4370810671805915, 1.3028357873975243, -0.9949477976406129, -0.23305656939683123, 1.7071949511903681], [-0.5181267592859985, 0.38044528575039915, 0.02537034480355095, 0.653988858953251, 0.03390627935400561, -0.43403438766444474, -1.1010771852567078, 0.05798860500963772, -0.33450323122753284, 0.7056421288808058, -0.746400183231982, -0.9180891646536506, -0.6029072423683369], [0.9707042187662533, 0.8804800214620757, 0.39015292035839, -0.22868860990474096, 0.08090190198015185, -0.2136984641109011, -0.5401624126591531, -0.22107921947859813, -0.6204100052655093, 1.9728727034610452, -1.1059522620077087, -0.8180175970247356, 1.2181362382388532], [1.7081110637536625, 0.2823891435378668, 0.7208240569659375, -1.6854207216061405, -0.07834694278227791, 0.15791346554701902, 0.5756416479662856, -0.6441538248494869, -0.43349127262468257, 1.213086642539793, -0.7517239840168101, 0.2558240239432457, 2.3366062021615117], [-1.4454358970924843, -0.7394169138030401, -1.0719318397726922, 0.938219282908329, -0.5165565509562855, -0.09184006077643123, -0.02535334061072207, 0.2872459285566591, 0.3880905764968464, -1.3714998921072672, 1.1587705568202078, 0.030692775230517735, -1.5526529143607442], [-0.5478840430849657, 0.09704631171194164, -0.40078927040649165, 0.6735081285425766, -0.0769551265139325, -0.48127256410344027, -0.9684652804827499, 0.44353440653878334, -0.13360392247005176, 0.39265353570887135, -0.39156562335084133, -0.8696813070263004, -1.1422221132110113], [-1.2028818261290575, -0.5667767451916168, -0.7138270592862751, 0.6477612452430629, -0.3081474953957536, 0.04637828656571441, -0.1746467912727302, 0.19598995544337203, 0.382918931251692, -0.8050163176842668, 0.47909191257737876, -0.02901097594576233, -1.5720342868648978], [-0.6054760923284614, -0.16549623649157447, -0.1897807026986162, 0.08991777970214132, -0.1986075628972562, -0.4240913971253439, -0.619418805915809, -0.13379563528110314, -0.10910583001376223, 0.027189953680974106, -0.4611058586324635, -0.415127440045278, -0.7180064774639076], [1.3089637517528998, 0.6709858707396007, 0.8290827178764605, -0.7871841917382658, 0.2859479710957353, 0.011357886995221623, -0.2935841400782482, -0.5442572482414887, -0.36871307617964527, 1.6043936572152888, -1.0012821530853488, -0.17356859128901114, 1.5897364486519232], [0.04818154066478005, 0.2641004240572262, -0.2582752848397475, -0.03720833879751246, -0.044949480195163566, -0.41539551535419117, -0.7625391799238681, 0.11862716878048779, -0.20229490093626834, 0.5873049134377469, -0.7885519454428543, -0.8397573801705642, -0.14414820693242797], [-0.7786396807092842, -0.5921238318510544, -0.7449385875809875, -0.2310880959495029, -0.2707355521811865, 0.23885932528236967, 0.8218659526540378, -0.10538142360163526, 0.15591188518317298, -1.3957783960040477, 0.9037822790623701, 0.5981924639874969, -0.6761227434604954], [0.47685147637752384, -0.1620063027856486, -0.05687217653327581, -0.679412347237866, -0.2181817331392706, 0.08091705141324847, 0.6329340966714834, -0.5313851141492252, -0.014550855278006371, -0.15047409028850173, 0.05034355722716024, 0.4330960341351806, 1.110798138114081], [0.23944004836640506, 0.3925953781819276, 0.16033669964153258, -0.0052363069782490395, 0.04443687440934404, -0.486656705864618, -1.0901652220990479, -0.20183184001207083, -0.5108906679852311, 1.0094818421934386, -1.0852404873210226, -1.05253930161474, 0.21654289396721466], [-1.2355149933891991, -0.6200756519629774, -0.7668694538790257, 0.5510937997981675, -0.5085628746152702, -0.1652645152528815, 0.15347193635085402, 0.19913847597453302, 0.37564589355004224, -1.2590386040475436, 1.0417034069861628, -0.11051719011631461, -1.840009938154292], [-0.425449263746062, -0.0882383796538135, -0.3923603765250606, 0.5413372665382048, -0.057394123640131106, -0.5612619952026265, -0.6474657359090206, 0.11427963465853103, -0.1379391195332664, 0.10228779509130682, -0.5633389030794415, -0.6562344754483012, -0.9533004757154183], [-1.1649379811614684, -0.4864078838878423, -0.7591016924571196, 0.24009633070012587, -0.29989012499166284, 0.02661089305878404, 0.35796924138035835, -0.06347410403957736, 0.4068723746888369, -1.4868449798909418, 0.7019688967459723, 0.2472927660323881, -1.2962307178526837], [0.46399306699556714, -0.2551559710131318, -0.05455693212794335, -1.2736426576162723, -0.12356814691926003, 0.6429599609554959, 1.272773497199026, -0.5137944529465076, 0.09947276793769144, -0.7097634203980226, 0.6503196679625759, 1.2688687128579914, 1.6187413264417798], [-0.0007692489262210672, 0.5623962708988062, 0.26812726393276537, 0.4373563304394551, 0.07332679471325833, -0.6014574032840962, -1.0976832454839487, 0.02348169091516999, -0.4676671172227641, 1.0903440098162576, -1.1656864149975419, -1.0988981993767413, -0.06829978276687909], [0.5383797531018609, -0.17432238202213413, -0.008765085023334188, -0.8331933282368014, -0.19102739356169762, 0.2775154700666719, 0.6377300818355806, -0.4854731278083097, 0.2062153638293344, -0.17813849925970449, 0.24135503103735914, 0.5721333422361681, 0.7296040506665761]], "biases": [[-1.0850639248132359], [-0.7934829416602294], [-1.0192239730324324], [-0.35685984664458237], [0.0006205446335595102], [0.6038766096310627], [-0.4757591984845437], [-0.48314775727334924], [-0.27066981410921004], [-0.5239190941477273], [-0.2502262319139696], [0.25939554333769266], [0.31733841667611407], [0.20907627325713285], [-0.43043065072025993], [0.050042579865673883], [-0.38840865699953975], [0.11844212390568926], [0.16453705025082188], [-0.06986862838621029], [-0.3480561785657183], [0.17028065297437472], [0.1568777620458929], [-0.3047117346402382], [-1.0072612901744809], [0.2040713157673763], [0.22603588397995006], [0.5795972824972302], [0.13852620829582835], [0.04725861612711744], [-0.34778030159730144], [-0.35235634045882464], [0.3389357546915369], [-0.250867991141067], [0.1455664103998803], [0.5297569157162215], [0.1590562227967749], [-0.8040934940208204], [-0.027240420023139214], [0.037044858932730344], [0.22659370126842515], [-0.042231094243020816], [-0.7405121000482313], [-0.22076216710551871], [-0.3063296964838626], [-0.3004644248492632], [0.29757109013033944], [-0.16522923762181085], [0.34217733826557295], [-0.4060648346868203], [0.37949508643481183], [0.483896893017987], [-0.024245253092807627], [0.5013694124216652], [0.6876966224966639], [0.9396386970114682], [-0.053190545206245256], [0.15748672812917755], [0.5757297922047684], [-0.45350754823290595], [0.33487114687975905], [-0.40446264994626907], [-0.13593669522273058], [-0.32737509417047916], [-0.9675424784586242], [0.66998130687552], [0.2988662499806156], [0.3280669255729429], [-0.49491830952293914], [-0.4463910193912564], [-0.49807069905765394], [0.16020086879832895], [-0.4725920523025487], [-0.2189596295023706], [0.5865205865001484], [-0.0058155438774464005], [0.22971890351514018], [-0.6860631161327896], [-0.40857496690459555], [-0.6924709482496832]], "b_ready": true, "optimizer": "adadelta", "optimizer_parameters": {"vdw": [[6.299095991412955e-07, 1.7760729815143433e-07, 7.419670765157844e-07, 5.444646969019018e-07, 3.983041637431407e-07, 6.761884702070577e-07, 4.2157019531819905e-07, 4.0307756179837437e-07, 4.504022340438965e-07, 1.664315999989548e-07, 4.914363174821694e-07, 7.97300926564274e-07, 3.1956557693539414e-07], [1.6937916379713218e-07, 4.0466382238239606e-08, 2.0986717780077409e-07, 1.5491118542069984e-07, 1.168324440684548e-07, 1.8997642217809297e-07, 1.1652820963483196e-07, 1.117535908292617e-07, 1.2418850791669086e-07, 4.694573650757609e-08, 1.3539062414488523e-07, 2.1634066014367715e-07, 8.730378718640348e-08], [6.834771453807056e-07, 2.3032363140798142e-07, 8.054108050056422e-07, 5.948542385870564e-07, 4.1831978258262887e-07, 6.948295466639291e-07, 4.3696018416300386e-07, 5.030319122774984e-07, 4.6982110715448515e-07, 1.830854462989078e-07, 5.245798733276305e-07, 8.361041887557691e-07, 3.3380321127642416e-07], [2.3115975009426197e-09, 6.360727457980509e-10, 2.496573927925502e-09, 1.7562673460609417e-09, 1.343354702189712e-09, 2.2244978094344797e-09, 1.366177884571681e-09, 1.6223977571982361e-09, 1.375139524213072e-09, 6.932922267342239e-10, 1.6310709514248144e-09, 2.6482796699780556e-09, 1.1243537364439022e-09], [2.2934962439057064e-08, 6.381172069142085e-09, 2.6944555520708112e-08, 1.955034618289533e-08, 1.3733655506776983e-08, 2.3835283590555525e-08, 1.4115082038716394e-08, 1.5080793118496437e-08, 1.5266379621286253e-08, 6.904603768108015e-09, 1.644105773232036e-08, 2.672343456410645e-08, 1.1098990190281275e-08], [2.741814260816555e-07, 9.32844636320922e-08, 3.214902360754594e-07, 2.4264491887840907e-07, 1.6356750938147412e-07, 2.760321651284017e-07, 1.722748056186217e-07, 2.0591323240492963e-07, 1.8233423522709734e-07, 7.435054219689515e-08, 2.0252018791703237e-07, 3.317735240385146e-07, 1.3013903474608718e-07], [6.266465666932978e-09, 2.6439536913306096e-09, 6.927037283788019e-09, 5.414657885528224e-09, 3.177708236818341e-09, 5.040050903424888e-09, 3.122369832868735e-09, 6.43906712627226e-09, 3.5188063802352177e-09, 2.0250204280523298e-09, 4.540701999947849e-09, 6.044519288254684e-09, 2.701321042524441e-09], [1.4388249756175357e-08, 7.57838275137173e-09, 1.602595609534334e-08, 1.3492191387621175e-08, 7.479759443998216e-09, 1.1114040706184455e-08, 6.375416973129666e-09, 1.8595253012330305e-08, 6.676018075128242e-09, 5.177641264450875e-09, 8.235940776691539e-09, 1.1264490810824277e-08, 5.564505493604284e-09], [1.917788988730824e-08, 1.1380023626534868e-08, 1.9481934824698397e-08, 1.606735635264685e-08, 8.358462090637776e-09, 1.1036578625618875e-08, 6.620925835721706e-09, 2.6164160509168048e-08, 6.878294182028359e-09, 6.802325974308362e-09, 9.086602112080612e-09, 1.243796875637038e-08, 6.591184988166674e-09], [9.067211697853004e-10, 2.3734478013967764e-10, 9.704075046599627e-10, 6.977944156558745e-10, 5.245911758164459e-10, 9.236962361137705e-10, 5.768798024554475e-10, 5.890209372339876e-10, 6.079386893566665e-10, 2.487133299095479e-10, 6.795270121381939e-10, 1.1165897804958623e-09, 4.756760506552309e-10], [2.725288017782432e-08, 1.6708476131311097e-08, 3.0504696489060575e-08, 2.501497874163324e-08, 1.2117029512176926e-08, 1.664902191409074e-08, 1.124121473781839e-08, 3.957329969923664e-08, 1.0677954754921018e-08, 1.182189877480213e-08, 1.3640232908817601e-08, 1.91828257890281e-08, 9.147488895603735e-09], [2.5257360922882665e-07, 8.486493915297922e-08, 2.9096869153095893e-07, 2.1541752241023454e-07, 1.4922598679172108e-07, 2.403672598821554e-07, 1.496362050468132e-07, 1.9843852338924828e-07, 1.616830523606685e-07, 6.946768955854121e-08, 1.8622436017852016e-07, 2.900665398411264e-07, 1.202893617546992e-07], [2.875280109829318e-08, 7.777995685760005e-09, 3.35442292101366e-08, 2.4087352441352776e-08, 1.7194959931643154e-08, 3.018925128610234e-08, 1.8048910584116977e-08, 1.7862452263391357e-08, 1.9391417348477575e-08, 8.415934404661899e-09, 2.0841915984655077e-08, 3.414087539706562e-08, 1.403754250490043e-08], [2.00640737293519e-07, 7.603589282244822e-08, 2.1988296504869274e-07, 1.6607896800496026e-07, 1.0937153675511012e-07, 1.84896264017205e-07, 1.203249661256318e-07, 1.658063044258305e-07, 1.2569133768117208e-07, 5.500226237525211e-08, 1.4061788378370238e-07, 2.3305949629181063e-07, 9.421441670523438e-08], [9.76406656996005e-09, 6.417193708794586e-09, 1.1363059006748548e-08, 9.57929195627859e-09, 4.3347137081378345e-09, 4.919349248774025e-09, 3.1763246550674555e-09, 1.6530618719618984e-08, 3.5155698410940702e-09, 3.773681854390501e-09, 5.443715215104432e-09, 5.949424688446862e-09, 2.9577962286532973e-09], [9.496527308671076e-08, 6.903366430982823e-08, 1.0724473908677791e-07, 9.303878134367454e-08, 3.923441775243926e-08, 4.43879731938339e-08, 3.1206273210542155e-08, 1.7168524080625598e-07, 3.0169042910631725e-08, 4.094324557816259e-08, 4.5691500992074934e-08, 5.2769290492119215e-08, 2.6361976263144937e-08], [7.380643103410625e-08, 4.8422989462835375e-08, 8.253373716350121e-08, 6.855347685000731e-08, 3.2671485516729353e-08, 4.3045809254467844e-08, 2.647110094507856e-08, 1.0681034613072675e-07, 2.983680296732197e-08, 2.4779599610199897e-08, 4.092315960378376e-08, 5.199952312833174e-08, 2.4921204019042896e-08], [1.5586782608238436e-07, 6.601197497425283e-08, 1.8791753290917324e-07, 1.4186849555872231e-07, 8.367004374468694e-08, 1.1741619300567455e-07, 7.2954051216557e-08, 1.809890278255364e-07, 7.627769099107253e-08, 6.19454943493899e-08, 8.857527980937958e-08, 1.2956426299323026e-07, 6.08551176995317e-08], [1.429497671632407e-07, 4.8383079888589964e-08, 1.5744026861145435e-07, 1.1820545004932442e-07, 8.415953770469087e-08, 1.3894751777613436e-07, 8.888697894168714e-08, 1.1263371781295976e-07, 9.387682211882552e-08, 3.901727355019228e-08, 1.034245663835598e-07, 1.703909332270052e-07, 6.87996469532747e-08], [3.6605415114270216e-08, 2.7686201057643168e-08, 4.17337395270391e-08, 3.6720617042107155e-08, 1.5126981955681292e-08, 1.578870919885204e-08, 1.0914618957338894e-08, 6.930885496106877e-08, 1.1002973696635033e-08, 1.5474249954040648e-08, 1.743450857326668e-08, 1.8643044079697874e-08, 9.790952736412457e-09], [1.921283730122093e-07, 1.4221686222469252e-07, 2.1709587833561553e-07, 1.8797120402719509e-07, 7.857980025807603e-08, 9.640043983622348e-08, 6.096969128458495e-08, 3.2553491030818786e-07, 6.673608119048769e-08, 6.970116275290633e-08, 1.0260398267292782e-07, 1.1518655345174012e-07, 5.6039608302524314e-08], [8.253757302528795e-08, 2.4850916387510372e-08, 1.0079722559429172e-07, 7.436830138904746e-08, 5.2439669790704266e-08, 8.638775259366438e-08, 5.136758433993362e-08, 5.78408737716042e-08, 5.6075979856279366e-08, 2.360448904176336e-08, 6.135661359632595e-08, 9.781695547681086e-08, 3.97919519142718e-08], [7.027791951916555e-08, 3.423686890439873e-08, 7.345967005409114e-08, 5.6605226076176157e-08, 3.215011909916969e-08, 4.7179725735331845e-08, 3.098420097812823e-08, 8.289745953618922e-08, 3.240397862482559e-08, 2.323913009358097e-08, 3.932513961932463e-08, 5.859138367247553e-08, 2.7479704447129377e-08], [3.6445973491345135e-09, 1.1715049330199251e-09, 4.1376814952015656e-09, 2.9787822869103795e-09, 2.106369050872789e-09, 3.094760660600173e-09, 1.8743351902816106e-09, 3.6490336455061437e-09, 1.888331706947051e-09, 1.2724472405345835e-09, 2.4058081851569075e-09, 3.487389646214653e-09, 1.6074322396453833e-09], [6.36822048970179e-07, 1.5898202580016902e-07, 7.578392434767762e-07, 5.55599876317518e-07, 4.144435266329343e-07, 7.033606664926401e-07, 4.373376141263468e-07, 3.818164479978387e-07, 4.694435962053025e-07, 1.7113476717095103e-07, 5.05002330182469e-07, 8.180974305538838e-07, 3.288678324795325e-07], [7.574078708931348e-08, 2.2227490858813235e-08, 9.21615864632463e-08, 6.714679032654782e-08, 4.7155512996792004e-08, 7.970479399180753e-08, 4.863008324155097e-08, 5.2044500967691566e-08, 5.29684715158592e-08, 2.1188804260606553e-08, 5.714211789846287e-08, 9.104731975586647e-08, 3.7109685790181044e-08], [1.4591994984155447e-07, 3.932934643129232e-08, 1.8244038500756393e-07, 1.34680770428497e-07, 9.337093760152997e-08, 1.5918386571300819e-07, 9.629816512218716e-08, 9.420893594371134e-08, 1.0447222033012645e-07, 4.1793035729241724e-08, 1.1111025645956188e-07, 1.7901477187051676e-07, 7.214323943878311e-08], [4.980938941251868e-07, 1.7251743778940724e-07, 5.834107468681591e-07, 4.3765678904704507e-07, 2.927197775147333e-07, 4.933510997748839e-07, 3.105184988765545e-07, 3.843723713977153e-07, 3.273371958929e-07, 1.34238567406782e-07, 3.6917209573979767e-07, 5.958038486113665e-07, 2.3531688706026206e-07], [6.417725889743824e-08, 2.328316393340085e-08, 7.18469681986627e-08, 5.41738373541218e-08, 3.731422002093886e-08, 6.109836605148551e-08, 3.8414667520819244e-08, 5.164605675708561e-08, 4.170692468770809e-08, 1.7617171251738678e-08, 4.595791075031025e-08, 7.387864230197472e-08, 2.9642182547088655e-08], [1.4214783138766073e-07, 9.780581938434569e-08, 1.5622877548642502e-07, 1.3329584621955602e-07, 5.798200270771503e-08, 6.363410025963567e-08, 4.137363627952163e-08, 2.530930393422761e-07, 4.323447745971341e-08, 5.191022930147997e-08, 6.678109015329261e-08, 7.118321604518038e-08, 4.114739060687626e-08], [1.4461584886274068e-07, 9.338339059130769e-08, 1.6274145797836575e-07, 1.3434933507711656e-07, 6.387962905962717e-08, 8.526045480973675e-08, 5.330512065456186e-08, 2.0775313294035948e-07, 6.017838598951354e-08, 4.862255934071065e-08, 7.933935679621773e-08, 1.0311701357754799e-07, 4.897411154135982e-08], [8.868386605342775e-08, 2.412246092200438e-08, 1.1226565890625714e-07, 8.523557738997025e-08, 6.134963592063299e-08, 1.0120288787506174e-07, 6.128351594259058e-08, 6.401160965013307e-08, 6.383891477738679e-08, 2.5477658177030106e-08, 6.931479322491967e-08, 1.1082870866701467e-07, 4.497482188883659e-08], [1.0743184060594805e-07, 3.0338735433082714e-08, 1.3454138156783886e-07, 9.649810832688716e-08, 6.88606307769339e-08, 1.1156240514574211e-07, 6.642048161623392e-08, 7.285096313606935e-08, 7.331811560090034e-08, 3.264157344289328e-08, 7.796919961496185e-08, 1.2550418510331395e-07, 5.143645431062916e-08], [5.392125775523642e-08, 1.5242736521390384e-08, 5.934275573485276e-08, 4.363849564302879e-08, 3.214396310780863e-08, 5.505549411450633e-08, 3.4772120502666005e-08, 3.652879133336008e-08, 3.620265491460056e-08, 1.4666173664992977e-08, 4.06963991865468e-08, 6.768107813260297e-08, 2.69930861706545e-08], [2.0638160935895587e-07, 6.836122483422371e-08, 2.420480756204304e-07, 1.811711867836259e-07, 1.221025568943391e-07, 2.017440394418879e-07, 1.2426943065737564e-07, 1.5797206645342492e-07, 1.321289053180065e-07, 5.613309811131831e-08, 1.523950456120269e-07, 2.4138573584022747e-07, 9.787011802488662e-08], [1.7748971988729734e-07, 6.345714483698967e-08, 2.0498289293958107e-07, 1.5531919957484126e-07, 1.0338749811740853e-07, 1.761917792828405e-07, 1.1087773068515089e-07, 1.3541125154359375e-07, 1.178230385716778e-07, 4.8245486099361824e-08, 1.2886386619691615e-07, 2.1262984718691902e-07, 8.236040334165231e-08], [1.0628386654735398e-07, 3.7768282277190826e-08, 1.1800098050407098e-07, 8.834387421226525e-08, 6.221826713418242e-08, 9.926578038543604e-08, 6.222880574464759e-08, 9.001095596411787e-08, 6.632420832560967e-08, 2.8945232300315164e-08, 7.663790289441113e-08, 1.2031756611479435e-07, 4.9688696923463124e-08], [7.148755440023438e-09, 2.891895688157645e-09, 8.64903409166753e-09, 7.172836956492306e-09, 4.448424773233505e-09, 7.107274597838586e-09, 4.200718886570377e-09, 7.555218425986717e-09, 4.434595702375207e-09, 2.4342675417501156e-09, 5.035431967945177e-09, 7.577407394713373e-09, 3.3028868266233248e-09], [6.342094611679123e-08, 4.787454541511702e-08, 7.200820608392938e-08, 6.33088007030431e-08, 2.6185957487249486e-08, 2.8222550015837206e-08, 1.9786867817449982e-08, 1.1872421607858928e-07, 1.923717787155049e-08, 2.6975418175429737e-08, 3.0757040675969814e-08, 3.3534774630621094e-08, 1.718027168881808e-08], [1.257278176332306e-07, 8.611806406565936e-08, 1.3788965797897522e-07, 1.1745508898120198e-07, 5.140162934482637e-08, 5.703563208412379e-08, 3.713113533029415e-08, 2.1959243320386755e-07, 3.930421356283342e-08, 4.6315181506927715e-08, 5.9545558465961514e-08, 6.47324021331138e-08, 3.680781186869439e-08], [1.6784859182489342e-07, 6.528418355891802e-08, 1.8089375014315299e-07, 1.3665052172954578e-07, 9.283366196205048e-08, 1.5070824697052172e-07, 9.802024454259823e-08, 1.4523918012503462e-07, 1.0407263536657065e-07, 4.605653191356226e-08, 1.1534349720855314e-07, 1.8836534675776707e-07, 7.751844230755467e-08], [6.150458106701252e-08, 2.4693394662400614e-08, 6.429548179226018e-08, 4.909993526724421e-08, 3.3673406877685776e-08, 5.500133359451978e-08, 3.588052062369885e-08, 5.1927412354014685e-08, 3.851890908998569e-08, 1.6970009250415473e-08, 4.197418088041453e-08, 6.898510889976966e-08, 2.8378774094853016e-08], [6.025940342619193e-07, 2.0060405562623565e-07, 7.120167759516475e-07, 5.254326879178243e-07, 3.6483243428756727e-07, 6.139264824570816e-07, 3.8560015455411703e-07, 4.397673799134555e-07, 4.1240885981790286e-07, 1.614615532198736e-07, 4.624423464359027e-07, 7.371042337164015e-07, 2.929447810137567e-07], [1.0816242184381485e-08, 5.5639669782081985e-09, 1.2466470378645489e-08, 1.0051284933558378e-08, 5.45008751577468e-09, 6.783354578398055e-09, 4.265214007627713e-09, 1.5780378272258046e-08, 4.137178809341867e-09, 4.4741221672424146e-09, 5.828688485015002e-09, 7.457927786144002e-09, 3.822883003584599e-09], [1.654512367503139e-07, 1.2771019598524314e-07, 1.9033860123984895e-07, 1.6802115362447599e-07, 6.769765352161213e-08, 7.258797768943124e-08, 4.763722863389558e-08, 3.1123284683075066e-07, 5.122445664899384e-08, 6.421469176861748e-08, 8.362993563224514e-08, 8.47928557120232e-08, 4.4583353447151425e-08], [1.4331924679413294e-07, 9.281465673726756e-08, 1.6110395442252812e-07, 1.329300594124398e-07, 6.280916466350295e-08, 8.487115047703096e-08, 5.277922318900432e-08, 2.0659872147855048e-07, 5.888092994569333e-08, 4.792577698943702e-08, 8.047153069231605e-08, 1.0265065736173773e-07, 4.842367671047283e-08], [8.245146274694275e-08, 2.2532637827763154e-08, 1.0084184299255537e-07, 7.41168027064191e-08, 5.206887583583625e-08, 8.674784658473817e-08, 5.18866793366696e-08, 5.465659559200155e-08, 5.6782515930160636e-08, 2.375215550989619e-08, 6.125806612257457e-08, 9.838541230144894e-08, 4.0057698217721326e-08], [2.0928839470534714e-07, 9.03322268119337e-08, 2.1716558008801224e-07, 1.6377404483859213e-07, 1.0175194357912657e-07, 1.6630787592057156e-07, 1.0901528674250371e-07, 2.027370770566887e-07, 1.125206346143993e-07, 6.020102392455752e-08, 1.318602874909767e-07, 2.1111564484434518e-07, 9.126539409821736e-08], [2.576073651405941e-07, 8.856087625005717e-08, 2.9839147903187076e-07, 2.2478962327545024e-07, 1.4964074776588282e-07, 2.528928086029984e-07, 1.5462289146987403e-07, 1.9349279501617232e-07, 1.6402647198814284e-07, 7.190995766732738e-08, 1.8658209918038666e-07, 2.989522307602669e-07, 1.2037791086141918e-07], [1.6597044081805148e-07, 8.269326884290823e-08, 1.822812591548626e-07, 1.3985290073671605e-07, 8.386564282342596e-08, 1.2855600787739974e-07, 8.051021022617777e-08, 1.7235700381389225e-07, 8.749288268369275e-08, 4.8989282121242814e-08, 1.0237255091726476e-07, 1.6016364378311823e-07, 6.905969164811535e-08], [3.0603160767212054e-07, 1.1169908626452971e-07, 3.435548764588353e-07, 2.6036744990428005e-07, 1.705329905144935e-07, 2.9202832667413575e-07, 1.8579113498013534e-07, 2.46968682562729e-07, 1.9216291499257907e-07, 8.23204818697642e-08, 2.197388879656679e-07, 3.5981356856034344e-07, 1.4164103613706673e-07], [1.4482848470066763e-07, 4.7828126531441405e-08, 1.705992257644921e-07, 1.2590419448272678e-07, 9.05426050161465e-08, 1.4299236419622104e-07, 8.95949415708623e-08, 1.146536798135796e-07, 9.885900833363866e-08, 3.959313736718282e-08, 1.081804566217455e-07, 1.69528273304879e-07, 6.889388972005412e-08], [5.2057479063857944e-08, 3.043725500197892e-08, 5.966990033794497e-08, 4.9147031502462125e-08, 2.4319462797463252e-08, 2.8091358852894278e-08, 1.833609767743559e-08, 8.31704364496485e-08, 1.867738465122467e-08, 2.188212250451818e-08, 2.556496737416257e-08, 3.134241990050929e-08, 1.656850001553137e-08], [4.532465256436869e-07, 1.6155593338005475e-07, 5.201672612378971e-07, 3.926396835199298e-07, 2.634152308845884e-07, 4.4112216527689665e-07, 2.8207397747808065e-07, 3.522816064204063e-07, 2.9954690445247986e-07, 1.220867701608421e-07, 3.3312777763709774e-07, 5.423572103971467e-07, 2.1557433288457676e-07], [5.379921818101873e-07, 1.961399697062086e-07, 6.199766770412273e-07, 4.6394154052781263e-07, 3.11763076300096e-07, 5.121558091571147e-07, 3.266305238811932e-07, 4.425240589482616e-07, 3.4725188932427334e-07, 1.4514641320221864e-07, 3.925487189045836e-07, 6.290735795195232e-07, 2.5154365238273983e-07], [1.0529152580481864e-06, 3.81562285570946e-07, 1.2056458997296756e-06, 9.03004954903899e-07, 5.977822345367953e-07, 1.0169807603988988e-06, 6.496954619362611e-07, 8.330674843764645e-07, 6.835926957072785e-07, 2.863165229662308e-07, 7.696043827576235e-07, 1.2513267676990836e-06, 4.982551874207221e-07], [2.103621058106762e-07, 1.652796891793232e-07, 2.3960667890376793e-07, 2.1307664174424456e-07, 8.49045754503315e-08, 8.999875594475499e-08, 6.341576542755331e-08, 4.051504340335305e-07, 6.280672815118307e-08, 8.854456886251509e-08, 1.0323433644583277e-07, 1.0845731686983716e-07, 5.477929364211607e-08], [1.5023679835523062e-07, 6.55776782061428e-08, 1.6061010957320697e-07, 1.2199927627007844e-07, 7.566417531658074e-08, 1.2018989462819307e-07, 7.909837695760832e-08, 1.5030739979437078e-07, 8.368804389652263e-08, 4.472269174850678e-08, 9.490843691509624e-08, 1.494704265580348e-07, 6.481138068327576e-08], [5.560984294560501e-07, 1.9171569491215493e-07, 6.658464997885474e-07, 4.963057890675124e-07, 3.2512767910104113e-07, 5.52150582646169e-07, 3.4673523477346847e-07, 4.321065038644213e-07, 3.65093950278292e-07, 1.518970670407074e-07, 4.125385066941405e-07, 6.630568700307598e-07, 2.617008099871743e-07], [4.7146550771301193e-07, 1.9012284782834135e-07, 5.275225462814069e-07, 3.941441358969067e-07, 2.581369494304199e-07, 4.213468889234138e-07, 2.692359564376688e-07, 4.161219993964272e-07, 2.8509303749117416e-07, 1.317544133143997e-07, 3.2997022053976104e-07, 5.22702940989361e-07, 2.1575028520586057e-07], [3.0739910232807453e-07, 1.0854698853392106e-07, 3.4389397641843916e-07, 2.5903532955319755e-07, 1.7245604882749484e-07, 2.962275330007675e-07, 1.8867307455174034e-07, 2.407162177067947e-07, 1.9636775228643518e-07, 8.38914924202557e-08, 2.2206955089615491e-07, 3.634557374676656e-07, 1.44339005602389e-07], [5.354220055702288e-07, 1.9975056971839752e-07, 5.937736172622794e-07, 4.410329398095661e-07, 2.950564238774905e-07, 4.933544317276129e-07, 3.1312579420918584e-07, 4.2581999999199256e-07, 3.323736903365697e-07, 1.4912094201418026e-07, 3.8257905207748375e-07, 6.134125149024134e-07, 2.5194596852135446e-07], [4.580414738048187e-08, 2.1652409128020132e-08, 5.3698951614948697e-08, 4.2166599418463873e-08, 2.351416636024807e-08, 3.088893945274767e-08, 1.8899233759852783e-08, 6.05168281183858e-08, 1.950885946771425e-08, 1.8407803523332284e-08, 2.450118972127511e-08, 3.362402594289907e-08, 1.6889121796850615e-08], [3.6536427143342143e-07, 1.8319341190355704e-07, 4.0003211943336506e-07, 3.073148891302987e-07, 1.7783147421559207e-07, 2.792241988089166e-07, 1.7550361441880222e-07, 3.919850391942247e-07, 1.872805042890397e-07, 1.0917704735672735e-07, 2.2608447623861162e-07, 3.450843943338161e-07, 1.5001098151760787e-07], [8.764863593574735e-07, 2.5708858510841697e-07, 1.040760895849827e-06, 7.64808479027436e-07, 5.53222009097349e-07, 9.316736982386266e-07, 5.80923055774825e-07, 5.810996205093209e-07, 6.2441450465957e-07, 2.3322811527438277e-07, 6.863075047094364e-07, 1.101885744636434e-06, 4.3982583529566354e-07], [6.065833526978607e-07, 2.0999377454600887e-07, 6.891527364124239e-07, 5.167825410358552e-07, 3.451056316760236e-07, 5.818672468432528e-07, 3.696052664584456e-07, 4.759305282784182e-07, 3.9022795726597377e-07, 1.6542763839849449e-07, 4.4490831294978296e-07, 7.108067754964004e-07, 2.902316703745619e-07], [7.855060496593212e-08, 2.2368093344091497e-08, 9.359369576614703e-08, 6.724599149100201e-08, 4.631404185503233e-08, 7.460472851225804e-08, 4.4004075391367096e-08, 6.036231040286231e-08, 4.8017423739770186e-08, 2.6679274441549304e-08, 5.20724665788203e-08, 8.18903852633604e-08, 3.555529082618578e-08], [1.9715266866462586e-07, 6.507970558399732e-08, 2.309476376360213e-07, 1.7399053215498687e-07, 1.1820814450834506e-07, 2.031699243296714e-07, 1.275446006387291e-07, 1.4749517897233222e-07, 1.3611356112260235e-07, 5.4068328944437677e-08, 1.4738544128640093e-07, 2.4137167258679814e-07, 9.43596732106286e-08], [8.908408249096462e-09, 2.4709133055925312e-09, 1.0242827562317452e-08, 7.269361912199007e-09, 5.094400348846422e-09, 8.82097132617433e-09, 5.268098394865926e-09, 5.968592043587727e-09, 5.614102722833893e-09, 2.7725209820365254e-09, 6.1905924126480405e-09, 1.0084508306651435e-08, 4.339301045721257e-09], [4.08931895878361e-07, 1.5146865758654942e-07, 4.598093061919785e-07, 3.415648826643523e-07, 2.2980862190620788e-07, 3.825970254508682e-07, 2.4217707855182836e-07, 3.277790691732745e-07, 2.580270635981495e-07, 1.1264462005402286e-07, 2.9560000452546784e-07, 4.706481995088647e-07, 1.9343067588154527e-07], [8.560396116830218e-09, 6.327217080041637e-09, 9.238894346331558e-09, 8.03558398443887e-09, 3.378658369645538e-09, 4.947561026902396e-09, 3.2719556564819753e-09, 1.3138509786953297e-08, 3.0274740378705843e-09, 3.4875492524665597e-09, 4.7829153840137355e-09, 6.141502949294541e-09, 2.636052528030896e-09], [1.244745884326507e-07, 6.269268844978773e-08, 1.260822038029529e-07, 9.744325750610616e-08, 5.6261906276727564e-08, 8.311511567785534e-08, 5.409454403704329e-08, 1.4398230456661881e-07, 5.6251046202737515e-08, 3.833128557461381e-08, 6.933852893091562e-08, 1.0475730025596291e-07, 4.909336509319063e-08], [5.228880189651552e-08, 1.2908439704993363e-08, 6.105753602312089e-08, 4.5745033674907333e-08, 3.419373945247836e-08, 5.6386299536522883e-08, 3.526001729148773e-08, 3.711141458285449e-08, 3.644908308314145e-08, 1.4608009769026916e-08, 4.0831612271585775e-08, 6.64206261453334e-08, 2.6670089824557817e-08], [3.578386962582452e-08, 2.7876616991161763e-08, 4.1087620056031244e-08, 3.6098104596147774e-08, 1.4867251396524845e-08, 1.5531939093895273e-08, 1.0146092247392226e-08, 6.56395275969776e-08, 1.1106276847535894e-08, 1.38984124776706e-08, 1.7492976625192767e-08, 1.8521759201689875e-08, 9.859275864986695e-09], [4.013813146291464e-07, 1.4545621331639019e-07, 4.5486043973892316e-07, 3.396973061177871e-07, 2.24907207500245e-07, 3.7924869388079905e-07, 2.4250822207985056e-07, 3.256672673442413e-07, 2.5433452329495304e-07, 1.0865064899837487e-07, 2.8968028133476394e-07, 4.654917208721813e-07, 1.858702016452724e-07], [2.518303379088936e-08, 7.026163225974261e-09, 2.9527566265270194e-08, 2.1369962740491376e-08, 1.492883192184217e-08, 2.4170798811856172e-08, 1.4163288266426546e-08, 1.8552048973924536e-08, 1.5410138181442257e-08, 8.215947840968915e-09, 1.6877027316164317e-08, 2.6812017756765947e-08, 1.1591113778104863e-08], [1.7120038463944072e-07, 6.780074178435252e-08, 1.8301556140099334e-07, 1.3853013142208275e-07, 9.222005501037741e-08, 1.5360977025875228e-07, 1.0018062458516954e-07, 1.4487847488702596e-07, 1.049144372482112e-07, 4.686790269162484e-08, 1.161096620836855e-07, 1.9383222748241283e-07, 7.884340009408552e-08], [1.765025694695013e-07, 5.418309835495525e-08, 2.2451392346209153e-07, 1.6272662318068016e-07, 1.1293752529842731e-07, 1.7373434637109675e-07, 1.0720012866490744e-07, 1.5672764904106143e-07, 1.1244686295603353e-07, 5.5598749954740436e-08, 1.2706240032145371e-07, 1.9433839251597832e-07, 8.098900349486723e-08], [4.7831082864153964e-08, 3.979137529674014e-08, 5.419882792718685e-08, 4.864195133908709e-08, 1.8921409743791118e-08, 2.3264778369853812e-08, 1.5523843671738784e-08, 8.360786933972032e-08, 1.5435779376539033e-08, 1.8932768211010188e-08, 2.452346132024296e-08, 2.908130122254488e-08, 1.3333636318585713e-08], [5.060554765753065e-08, 1.318750038420753e-08, 6.013996994976071e-08, 4.560396285611412e-08, 3.348800510819525e-08, 5.36771819664774e-08, 3.3411237940780847e-08, 4.034882578955003e-08, 3.438970010841365e-08, 1.4696422533140034e-08, 3.8836617163488224e-08, 6.204197590195832e-08, 2.54058593154558e-08]], "vdw2": [[9.054737103888398e-08, 4.5273919484650716e-08, 1.1455770302024656e-07, 8.945520399488073e-08, 9.983855650300882e-08, 1.2779606513943995e-07, 9.711155872819862e-08, 8.004905269710779e-08, 1.0089442416092565e-07, 4.822442355156688e-08, 1.0944421113603335e-07, 1.275820911778267e-07, 5.584414241443024e-08], [4.320502731891623e-08, 1.7367438363424522e-08, 5.351028863755339e-08, 4.0886671387589795e-08, 4.410471420056941e-08, 4.882492733055979e-08, 3.483548623026848e-08, 3.5796246727765114e-08, 4.076952042400419e-08, 1.84396405627045e-08, 4.579632291927505e-08, 4.787608938864847e-08, 2.7466859991664546e-08], [9.749652480458582e-08, 5.406868464532856e-08, 1.2168400066212604e-07, 1.025867891959826e-07, 1.0269671126380957e-07, 1.353910319864098e-07, 1.0299312558096949e-07, 1.0378391425530754e-07, 1.0512265933812555e-07, 4.851539712371798e-08, 1.1418923526609532e-07, 1.330810535868301e-07, 5.98876978604129e-08], [1.8681519750852863e-09, 5.904643452028817e-10, 1.9902474916391953e-09, 1.49837201568538e-09, 1.2359640772703843e-09, 1.7726661268278971e-09, 1.116517983683936e-09, 1.4700467607295902e-09, 1.1591030020299386e-09, 6.541049878660234e-10, 1.307054166537057e-09, 1.8452752135391297e-09, 1.005275511142675e-09], [1.163491158022891e-08, 5.0121612143488214e-09, 1.3228902200971217e-08, 1.1578334768880084e-08, 9.900468689323801e-09, 1.2752321889228686e-08, 8.807640857302091e-09, 1.0435473521433776e-08, 9.269148927362794e-09, 5.299029516619772e-09, 9.790910984553087e-09, 1.2357134677644298e-08, 7.611665930520816e-09], [5.0443284563951944e-08, 3.241954998501225e-08, 7.929841130461338e-08, 6.281716206120907e-08, 6.41960751590415e-08, 7.686652270438329e-08, 5.8551422839652e-08, 6.272358124955947e-08, 6.370616605494981e-08, 2.7318313641798675e-08, 7.218195671081536e-08, 9.228093177875795e-08, 3.2254060427664094e-08], [5.024977336569869e-09, 2.4211467757116262e-09, 4.825039975487178e-09, 3.722197717825832e-09, 2.7856749720809424e-09, 3.6076347384082844e-09, 2.4810735513145487e-09, 4.951208369530268e-09, 2.781467098265217e-09, 1.8545061077773852e-09, 2.9650779586641813e-09, 3.745726012608299e-09, 2.3165218751899318e-09], [9.30220762282349e-09, 5.540174956373175e-09, 8.988277708135417e-09, 7.923147624095778e-09, 5.696301634917934e-09, 7.836598190661646e-09, 4.9796362231256195e-09, 1.1213336490754937e-08, 5.1202518595350786e-09, 3.5065200565377006e-09, 6.3199105488117634e-09, 7.526104635616792e-09, 4.496933763448031e-09], [1.1354336008945012e-08, 7.907647868819515e-09, 1.0732461495423519e-08, 9.567475404352566e-09, 6.224945222596911e-09, 7.889206447340048e-09, 5.225826832440782e-09, 1.4651343911538813e-08, 5.339968385670399e-09, 4.4275523780217495e-09, 6.777244281610476e-09, 8.210186195353168e-09, 5.222445087306006e-09], [8.727031002662091e-10, 2.342929038639384e-10, 9.204857346569936e-10, 6.577060040215659e-10, 5.162848793014194e-10, 8.765520867880294e-10, 5.545007516702927e-10, 5.664205122709068e-10, 5.847396583195248e-10, 2.46719313390425e-10, 6.410712391200821e-10, 1.003257803913282e-09, 4.640203037430447e-10], [1.1402590127421899e-08, 1.0729670265974961e-08, 1.3250627360604565e-08, 1.2868550620559424e-08, 7.93787986002735e-09, 7.533047309849276e-09, 5.884187952619329e-09, 2.052347905964948e-08, 6.102173249306126e-09, 6.87633976504672e-09, 7.538590071071355e-09, 7.398627887157487e-09, 5.509399019861248e-09], [2.6102137393988447e-08, 2.6574181749836848e-08, 4.5421469452912945e-08, 6.288319864251746e-08, 4.239588972701521e-08, 4.420477035275433e-08, 3.845901912505109e-08, 5.815674045611369e-08, 4.4657544066546543e-08, 1.6477102470349268e-08, 5.502237247885617e-08, 6.105506794296311e-08, 1.8844836826569692e-08], [1.3318055216040804e-08, 6.092994099597142e-09, 1.6885507965252755e-08, 1.4760941780274262e-08, 1.2128107550693791e-08, 1.4794277994902234e-08, 1.0781495015844808e-08, 1.2523687675879182e-08, 1.1722172133245801e-08, 6.266113164793928e-09, 1.2507621253673922e-08, 1.4764803924169608e-08, 8.8599046039647e-09], [4.6834541121069197e-08, 3.108174478689361e-08, 6.021465053553154e-08, 5.9475095435368544e-08, 4.35773705385006e-08, 7.03351621932456e-08, 5.393784684783502e-08, 6.048085808871867e-08, 5.697404817675752e-08, 2.328985201547995e-08, 5.842099852391353e-08, 8.724643048225811e-08, 2.9510870660238383e-08], [7.045779467532937e-09, 5.547274192115738e-09, 7.1264109786493425e-09, 6.264607368663577e-09, 3.5896506494838357e-09, 3.0555676864757448e-09, 2.194052413389005e-09, 1.100456885646741e-08, 2.5185977492839363e-09, 3.2908434977055305e-09, 3.049418105493138e-09, 2.9469625963673407e-09, 2.46190450271166e-09], [1.8065949874302235e-08, 2.0315364351705405e-08, 1.8504698292425693e-08, 2.065060346691287e-08, 1.2694017175981603e-08, 9.634482930681223e-09, 8.232974467551936e-09, 3.384391396552732e-08, 8.421860675820968e-09, 1.2071924250627438e-08, 1.0473148694259502e-08, 8.323517165391622e-09, 9.568659720910016e-09], [3.265433065435412e-08, 2.6543428818721998e-08, 3.1117232930906634e-08, 2.7108637748681865e-08, 1.9265421167418503e-08, 1.9130407713767772e-08, 1.4467639957628401e-08, 4.145958651118866e-08, 1.6304908184480808e-08, 1.5361099111998504e-08, 1.7129412705276137e-08, 1.8071848958504927e-08, 1.5272609123160243e-08], [1.9944009285005394e-08, 1.0575380938866111e-08, 1.769280265824086e-08, 1.744379622665738e-08, 1.6064183419219915e-08, 1.4383240534654184e-08, 1.0639517102424016e-08, 2.2837373842968735e-08, 1.1817377159889088e-08, 9.429580122603959e-09, 1.4063803570121933e-08, 1.2717603439660631e-08, 1.0368849435674695e-08], [4.3126738064682595e-08, 2.552974679576791e-08, 5.3183246203901615e-08, 5.225336247364942e-08, 3.960536762280333e-08, 6.105932995616185e-08, 4.5198001553989474e-08, 5.153038489950557e-08, 4.801192123757533e-08, 2.0146857055796855e-08, 5.0421820046289294e-08, 7.426566912039229e-08, 2.716234589536717e-08], [1.4826007674054091e-08, 1.572216611503582e-08, 1.499356452013924e-08, 1.4604297719228192e-08, 9.185572382410115e-09, 7.077436655819348e-09, 5.433251222884124e-09, 2.6799361669890697e-08, 6.0927108101448e-09, 9.116165825003467e-09, 7.473135980715223e-09, 6.431364621240474e-09, 6.473646959911551e-09], [2.9585411830925526e-08, 3.896859884230276e-08, 2.738845670127054e-08, 2.838230678166543e-08, 1.9249125394545355e-08, 1.4796652223667345e-08, 1.2654415671053624e-08, 4.601868712950463e-08, 1.383313511570512e-08, 1.9396250753989277e-08, 1.4431839642390991e-08, 1.2499523724088672e-08, 1.5287184610506e-08], [2.715924935226127e-08, 1.290869577451053e-08, 3.462499511604283e-08, 2.6958213265420342e-08, 2.78784797412223e-08, 3.304005413652057e-08, 2.3116808174249718e-08, 2.4704105503230176e-08, 2.5088764668763844e-08, 1.3485599405082524e-08, 2.7146832459696306e-08, 3.3354560720316814e-08, 1.6689402012913842e-08], [2.2811093323585305e-08, 1.708489501073328e-08, 2.2494290117630787e-08, 2.0213468702004714e-08, 1.704698859767376e-08, 1.514905873711314e-08, 1.265266733667232e-08, 2.928895300187416e-08, 1.4293247356811243e-08, 1.014291338292095e-08, 1.1515727891532395e-08, 1.3653732204847753e-08, 1.4236063577344249e-08], [2.722036370822715e-09, 1.0364553172703557e-09, 2.995392684356237e-09, 2.3631667349155344e-09, 1.8510329513564371e-09, 2.2619064938954664e-09, 1.3941084119112356e-09, 3.0718668587037155e-09, 1.4708382544441169e-09, 1.1328387258779455e-09, 1.7629129727790556e-09, 2.1545859931578805e-09, 1.3630453214885862e-09], [6.872900976124853e-08, 2.5772717656083307e-08, 8.243514114828576e-08, 6.146259362769962e-08, 7.774830427383807e-08, 9.603309786625602e-08, 7.204190221671826e-08, 5.1125797785831523e-08, 8.59050105970069e-08, 3.582005163818379e-08, 9.6808899036689e-08, 1.0824089817167503e-07, 3.95855938617335e-08], [2.397984190395535e-08, 1.3662692436002584e-08, 3.252884563649234e-08, 2.7250035440391604e-08, 2.5709560679272062e-08, 2.8296223685012858e-08, 2.2277801961088785e-08, 2.552251008912339e-08, 2.4512649767981506e-08, 1.2609905296038107e-08, 2.7341493701348976e-08, 2.999599359582962e-08, 1.6782021543853168e-08], [2.8497251441214427e-08, 1.7745558796086768e-08, 4.145566233215027e-08, 3.1241983706709427e-08, 3.69720149074447e-08, 4.298401742121823e-08, 3.253537285084143e-08, 2.7503559562001107e-08, 3.7718561647988275e-08, 1.67465207263527e-08, 3.007003873118144e-08, 4.482127228215988e-08, 2.0182425962454906e-08], [6.244172550438455e-08, 4.2502740628797036e-08, 1.055878854921952e-07, 7.661490235865317e-08, 8.773439010772762e-08, 1.0962247896187342e-07, 8.565902013028095e-08, 8.197334619869417e-08, 9.183782045024817e-08, 3.40282572813459e-08, 1.0177169006264464e-07, 1.3334947487195005e-07, 3.972403916236229e-08], [3.0405081821670084e-08, 1.60306990855064e-08, 3.5344476459696693e-08, 3.075866316345445e-08, 2.558023230203251e-08, 3.376384104945289e-08, 2.479788616306177e-08, 3.221462024764412e-08, 2.5929944700268048e-08, 1.2415762313065293e-08, 2.8183259692985667e-08, 3.709336437766078e-08, 1.8518847484349847e-08], [3.505091012748904e-08, 3.604023293800346e-08, 3.582515970530959e-08, 3.82296433139842e-08, 2.151506611908668e-08, 1.55457061715858e-08, 1.2852876883141731e-08, 6.787818594257162e-08, 1.509528270128091e-08, 1.946713221352172e-08, 1.601883219083233e-08, 1.3062934116922782e-08, 1.6459242459483977e-08], [3.729229633492122e-08, 3.609105575314209e-08, 3.3325291045933795e-08, 2.9727064524428418e-08, 2.351762582216793e-08, 1.9595209656108126e-08, 1.6284798590209545e-08, 4.772976843712806e-08, 1.8632120118357597e-08, 2.252106872022895e-08, 1.575568140264743e-08, 1.711165978190332e-08, 2.004837260834659e-08], [3.200213876199351e-08, 1.1567528067075138e-08, 3.0009428109166915e-08, 2.1193448890242047e-08, 2.732636280488885e-08, 3.789175028448555e-08, 2.720756011217355e-08, 2.1403553660104906e-08, 2.9114025172289377e-08, 1.1394419116672225e-08, 2.896391455918478e-08, 3.9196620003536695e-08, 2.0982417563206718e-08], [2.645457279469955e-08, 1.1200382222005541e-08, 2.9626014760329716e-08, 2.5988396097539213e-08, 2.6432671028513048e-08, 3.1368864363753387e-08, 2.3057558991128454e-08, 2.3312559171447446e-08, 2.3103231777395086e-08, 1.3345408426231604e-08, 2.6065580314359644e-08, 2.990198508818657e-08, 1.917480969627233e-08], [1.717170163897492e-08, 9.972887995292497e-09, 1.9856533208772913e-08, 1.7469694198926384e-08, 1.7407572567341108e-08, 2.072686288251809e-08, 1.7357413432585606e-08, 1.746159795558407e-08, 1.7243201091341114e-08, 8.227934314705536e-09, 1.9124628123787745e-08, 2.4870103582412566e-08, 1.2420993146711948e-08], [2.8634716621870844e-08, 2.3640292288018617e-08, 5.2918832706601454e-08, 4.462402875160279e-08, 4.504972276241316e-08, 4.626098142462213e-08, 3.6804777629820165e-08, 4.264475099830221e-08, 4.468769809482267e-08, 1.7907187762908917e-08, 5.1770353312869185e-08, 5.91142908708918e-08, 1.878467161831879e-08], [5.289795809932149e-08, 2.9363172433484925e-08, 6.845269095293643e-08, 5.79082190900196e-08, 5.158301608187799e-08, 6.92650330820577e-08, 5.113826900525372e-08, 5.8322735243000263e-08, 5.148814721037789e-08, 2.3856419751169004e-08, 5.755558500907803e-08, 7.765206348701167e-08, 3.3535807896436446e-08], [3.8074397951236295e-08, 2.0874786370838156e-08, 4.617566321015228e-08, 4.307721409645705e-08, 3.575584981934724e-08, 5.046645369024062e-08, 3.6970351593979494e-08, 4.5613568209773204e-08, 3.827959682444144e-08, 1.632042285421987e-08, 4.345334667256498e-08, 5.9271845936181355e-08, 2.4830974815919228e-08], [5.588794710337453e-09, 2.4094281468743734e-09, 5.967172849447175e-09, 5.099519027541559e-09, 3.7952918395116375e-09, 5.758970805324611e-09, 3.684513504986801e-09, 5.736426509603558e-09, 3.7314667107953046e-09, 1.925257330017318e-09, 4.330843960713582e-09, 5.991743121074055e-09, 3.016219265366922e-09], [1.8308554953531163e-08, 2.0082079841153906e-08, 1.7988214105972035e-08, 1.84959276330641e-08, 1.1877413687272523e-08, 8.76918006461098e-09, 7.1821274548730735e-09, 3.3101090390170125e-08, 7.754231841462227e-09, 1.1324440824328744e-08, 9.487637342156733e-09, 7.769513319223123e-09, 8.651203149813478e-09], [3.033617307871369e-08, 3.0786486222884496e-08, 3.117769097960917e-08, 3.296197515331438e-08, 1.8680275292524282e-08, 1.2733682346525339e-08, 1.0676759789413274e-08, 5.668869594576495e-08, 1.3007345630336198e-08, 1.7224914024289675e-08, 1.35819177888652e-08, 1.0784592442332426e-08, 1.3800656090540128e-08], [4.79672780255893e-08, 3.1692671443990725e-08, 5.9508516240396326e-08, 5.9767847189285e-08, 4.244851613657559e-08, 6.484259989978418e-08, 5.010899605668133e-08, 6.099394021042063e-08, 5.3310575170714435e-08, 2.2537224430853172e-08, 5.2718385932524396e-08, 7.86218031656345e-08, 2.8847203432877814e-08], [2.6937637280095435e-08, 1.6423650491761517e-08, 3.1415178648394865e-08, 2.934395133633038e-08, 2.235725430409199e-08, 3.258540123881995e-08, 2.4594839898601092e-08, 3.072057159011906e-08, 2.555650432167037e-08, 1.1444157640965058e-08, 2.7419577900034268e-08, 4.0880097490267217e-08, 1.6360273800729736e-08], [9.00837377909532e-08, 5.1255756646565224e-08, 1.0635794806592124e-07, 8.815124598487878e-08, 9.183075232892626e-08, 1.0767211785598374e-07, 8.546439808600442e-08, 9.203195720826383e-08, 8.690825256553281e-08, 4.521730574879863e-08, 9.088922848483489e-08, 1.1715138622952801e-07, 5.949781836651413e-08], [6.658593392971487e-09, 4.5713958499626855e-09, 7.328237900600304e-09, 6.783924293141163e-09, 4.353263903998251e-09, 4.235240232791829e-09, 2.8107091412173952e-09, 1.0936887372051732e-08, 2.873333652855432e-09, 3.4919592437737158e-09, 3.836106814787797e-09, 3.84354889457097e-09, 2.9740090177135408e-09], [2.4878286073926377e-08, 3.65885011318757e-08, 2.4216402051256477e-08, 2.7227521537823656e-08, 1.7533217299892053e-08, 1.2632228376100021e-08, 1.1021791921370015e-08, 5.470761194399321e-08, 1.2724005097892963e-08, 2.0294233887549737e-08, 1.306669781078902e-08, 1.0697439095786571e-08, 1.3936373771451037e-08], [2.9353517378907848e-08, 3.599997279622316e-08, 2.7655056226945243e-08, 2.534481589210793e-08, 2.0332706573301022e-08, 1.853891133004045e-08, 1.521271200576384e-08, 4.376247552098247e-08, 1.7073307972442626e-08, 2.1950382706769427e-08, 1.5584070113515787e-08, 1.631538611568274e-08, 1.7247126713966923e-08], [2.7406771502618196e-08, 1.2575532152716006e-08, 3.661747275005891e-08, 2.823710162653502e-08, 2.8661271372136098e-08, 3.558965859155374e-08, 2.4698954860925694e-08, 2.4855820224907242e-08, 2.6570282610529963e-08, 1.3777061472868835e-08, 2.9266181418891677e-08, 3.5273764515864465e-08, 1.6871965892722314e-08], [4.147092049398413e-08, 3.301374914592625e-08, 5.0431338976272505e-08, 4.8939535979053125e-08, 3.7647289098345166e-08, 4.625943724930577e-08, 4.011768506694442e-08, 5.141782601692826e-08, 4.1014537177957025e-08, 1.9984488845987664e-08, 3.7879885254324586e-08, 4.967991987125611e-08, 2.5505294868617723e-08], [2.4771995539321425e-08, 2.642789011060677e-08, 4.277795528646876e-08, 5.762204416039806e-08, 3.9326895780873495e-08, 4.303710928583575e-08, 3.661284882517548e-08, 5.553554398433415e-08, 4.202105231499073e-08, 1.5659849500673556e-08, 5.315902258439282e-08, 5.979921516736777e-08, 1.824154314562146e-08], [5.8439193884629706e-08, 3.74481917605776e-08, 5.76300372821971e-08, 4.560193657606387e-08, 4.1406396997310906e-08, 4.7814653670865626e-08, 3.6664980498489283e-08, 6.166772350125042e-08, 3.9519992548093245e-08, 2.4841876574903832e-08, 3.6692281407369804e-08, 4.530215881640799e-08, 3.3066089679311925e-08], [6.256509025144897e-08, 3.541044485417583e-08, 8.099175747296757e-08, 7.6018349643126e-08, 6.230274601944661e-08, 9.404411278583609e-08, 7.071805611969142e-08, 8.05175733259341e-08, 7.062252077873353e-08, 2.8792018082403282e-08, 8.031583724525711e-08, 1.1045248224897169e-07, 4.1400592550542144e-08], [4.6559888996806423e-08, 2.6247354347358293e-08, 5.811279614480121e-08, 5.277940842153103e-08, 4.7112375143899703e-08, 5.52333923487237e-08, 4.289681914234174e-08, 5.332159674830895e-08, 4.5076324179124556e-08, 2.1498637531577396e-08, 5.021435744229791e-08, 6.049348684891155e-08, 3.1188862400979896e-08], [1.517168591927081e-08, 1.3898421664761499e-08, 1.5375189056815722e-08, 1.6511191088905435e-08, 1.1440505960927094e-08, 8.803874881916403e-09, 6.657600810998391e-09, 2.9290886083381133e-08, 7.223979529121581e-09, 9.543124042586214e-09, 9.020366790267674e-09, 7.569295072607368e-09, 7.944899666596996e-09], [5.492768571385858e-08, 3.966822551282229e-08, 8.191749497395174e-08, 8.601504903262188e-08, 7.167341557758607e-08, 8.60422619045322e-08, 7.108257213910956e-08, 8.983636253287407e-08, 8.077726178483606e-08, 3.121239274042879e-08, 7.6669799979986e-08, 1.131867410464257e-07, 3.796793783346584e-08], [7.971134628280121e-08, 4.730867170350423e-08, 1.040240665972464e-07, 9.603284268725667e-08, 8.701138549112478e-08, 1.17131115923502e-07, 9.168686498628215e-08, 1.114114501828323e-07, 9.352510717740518e-08, 3.8129666809374455e-08, 1.0866800282031669e-07, 1.4313616017477904e-07, 5.34596817232579e-08], [7.760636745958058e-08, 5.720971476023286e-08, 1.2694577829885884e-07, 1.2714833292065597e-07, 1.1088128209846136e-07, 1.3630689632178874e-07, 1.1165364485042745e-07, 1.4539660986255835e-07, 1.2544589641235985e-07, 4.242210715185001e-08, 1.2765245280471503e-07, 1.737443409571718e-07, 5.198192694189967e-08], [2.336585789990865e-08, 2.6386801244639274e-08, 2.3101294715718955e-08, 2.5768771298404725e-08, 1.5639014161066597e-08, 1.0813633270234762e-08, 9.72434922332307e-09, 3.907317571007071e-08, 1.0816337398637949e-08, 1.5056000748260004e-08, 1.1834125466752465e-08, 8.716792589105068e-09, 1.2609983642162236e-08], [2.8567602993213887e-08, 2.556289653658086e-08, 3.002208483336287e-08, 3.111874225427999e-08, 2.778382881610032e-08, 2.308832901564749e-08, 2.0593757729935127e-08, 3.8823447591097935e-08, 2.4005658547229186e-08, 1.5080401363661806e-08, 1.8840463313136554e-08, 2.1587969698952194e-08, 2.0156340191639488e-08], [6.364966097472589e-08, 4.494753250310838e-08, 1.0434367741443456e-07, 7.483284080659285e-08, 9.016080846400595e-08, 1.0728578437774072e-07, 8.48012903105754e-08, 8.146622981185749e-08, 9.196153243687028e-08, 3.4970949558818045e-08, 8.800855744431987e-08, 1.257191118112504e-07, 4.049372897200478e-08], [8.153381533674852e-08, 5.184928778823799e-08, 6.687672409391808e-08, 4.867147068006163e-08, 5.70586127524161e-08, 5.619044642211857e-08, 4.743147269497534e-08, 5.812730813729246e-08, 4.97370294095041e-08, 3.981021555535228e-08, 3.3337322217765176e-08, 4.540087098306516e-08, 5.2166420806545825e-08], [4.4414207328684994e-08, 3.1961733843241935e-08, 6.815069903889543e-08, 7.72503029329791e-08, 5.7631218849421916e-08, 8.150006078821359e-08, 6.758028093190081e-08, 7.380664786457309e-08, 6.740956784992567e-08, 2.3769209674969923e-08, 7.432870261399537e-08, 1.0014757435835825e-07, 3.2174706522490865e-08], [4.595899885447712e-08, 3.970795431981567e-08, 7.209294747917608e-08, 6.829897366542382e-08, 6.584374380740751e-08, 8.902230163676127e-08, 7.692793406885494e-08, 8.869294093592725e-08, 7.647304742030943e-08, 2.13969600912513e-08, 6.500434063048123e-08, 7.940901735701669e-08, 3.4695931785494154e-08], [1.201297726131087e-08, 1.0401817458386544e-08, 1.3560266869441056e-08, 1.509062444517433e-08, 1.0755272997432003e-08, 8.285780446593023e-09, 6.001098763269808e-09, 2.4045508347621092e-08, 6.7295521381616434e-09, 8.490010854042168e-09, 8.329180210838297e-09, 7.138461181189207e-09, 6.684197560307992e-09], [5.7123436359494026e-08, 5.5084840626656675e-08, 5.3001402510127526e-08, 4.241625516720315e-08, 4.257288175140017e-08, 4.569537542840201e-08, 3.811186209560632e-08, 6.041318316997335e-08, 4.0254846417155874e-08, 3.723616679972016e-08, 3.037796595528062e-08, 4.0416482115452084e-08, 3.7830103001334055e-08], [9.472533798693223e-08, 4.458543407875475e-08, 1.1340459985387781e-07, 8.704684686087509e-08, 1.0810967655178735e-07, 1.2935350358582636e-07, 9.991188491641199e-08, 7.983622277123967e-08, 1.1141135205057791e-07, 5.3156951288736305e-08, 1.1143770442207573e-07, 1.259665048822354e-07, 5.6241246050092085e-08], [4.6361227459181805e-08, 4.075022770938599e-08, 8.958373129464611e-08, 9.364353722429503e-08, 7.842294561580939e-08, 9.37603556781499e-08, 7.959583379899178e-08, 1.0588490016824678e-07, 8.73827784905509e-08, 2.7262125254706513e-08, 8.852257132681285e-08, 1.1047684748947264e-07, 3.245089297129279e-08], [1.9000737338299577e-08, 7.814177221443223e-09, 1.875214402898847e-08, 1.7183159327223035e-08, 1.733004911321255e-08, 1.82824209345363e-08, 1.3045464890142468e-08, 1.738401519814767e-08, 1.4231935025274959e-08, 9.824853679247139e-09, 1.5563984954328647e-08, 1.6408343050187335e-08, 1.1899718463743842e-08], [4.428684674243378e-08, 2.9522146779517163e-08, 5.6219823968954674e-08, 5.07317007558331e-08, 4.885783032297674e-08, 6.027553597265276e-08, 4.829455314548709e-08, 5.0482619408549015e-08, 5.061780427122228e-08, 2.2147475058116686e-08, 4.6814617539149275e-08, 6.673201900448912e-08, 2.982503323383942e-08], [5.579638992440919e-09, 2.119881803947188e-09, 6.355192684453808e-09, 5.286042684326869e-09, 4.21012049038705e-09, 5.719632583933898e-09, 3.779770055379455e-09, 4.823349763161577e-09, 4.079895084133464e-09, 2.347227729031833e-09, 4.396939546942768e-09, 5.689579200871915e-09, 3.3293917367821356e-09], [5.3613471837192456e-08, 4.5267942182676565e-08, 1.0274567166654396e-07, 6.781783761614901e-08, 7.849682364348897e-08, 1.0106140460927338e-07, 7.858383020735334e-08, 8.706826909278708e-08, 8.118174895325287e-08, 2.7092869276622204e-08, 7.820611708374602e-08, 9.591286112198313e-08, 3.413388024626346e-08], [4.582116222863713e-09, 5.080592639022432e-09, 5.0261825583385175e-09, 5.157544029275839e-09, 2.578068591378561e-09, 2.7504497405969823e-09, 2.1119508991275993e-09, 8.616028726648944e-09, 2.085577075168277e-09, 2.5894062075520515e-09, 2.913876388249643e-09, 3.0214793127591455e-09, 1.8388665700529759e-09], [3.534840161105755e-08, 2.733495325604786e-08, 3.8823182193388714e-08, 3.578041032400817e-08, 2.6220926309485427e-08, 2.904924781113773e-08, 2.3055015318140974e-08, 4.668941462359241e-08, 2.4958788879201052e-08, 1.607473081204252e-08, 2.3440105009237212e-08, 2.854751276529535e-08, 2.021032522732572e-08], [1.8103311574025483e-08, 8.120810541962573e-09, 2.099070053908268e-08, 1.7731145792715406e-08, 1.8724782358334483e-08, 2.059972472062415e-08, 1.640830595678413e-08, 1.697230811641851e-08, 1.694365452141903e-08, 8.325621722873562e-09, 1.974278484823064e-08, 2.2621301369360523e-08, 1.3076546250606233e-08], [1.786540692967852e-08, 1.7931691081592158e-08, 1.792284832607456e-08, 1.747801842097105e-08, 1.0218877923632847e-08, 8.232142841243404e-09, 6.296952125052547e-09, 2.951281072505236e-08, 7.230219710829255e-09, 9.978888539653297e-09, 8.871036113750973e-09, 8.12569553653347e-09, 7.298591216601462e-09], [5.878407751987046e-08, 3.938187275665634e-08, 8.872205457468287e-08, 8.561879855574426e-08, 7.200190218389396e-08, 9.758441178205749e-08, 7.847704191991142e-08, 9.379138052643706e-08, 7.839678489019885e-08, 3.0298140429060565e-08, 8.917602700235979e-08, 1.1353921663811433e-07, 3.970354643020329e-08], [1.165996125532651e-08, 4.9141914373560505e-09, 1.3082935393609753e-08, 1.1014613513969447e-08, 9.95268612353439e-09, 1.1666240974599231e-08, 7.85566641855781e-09, 1.1172133908954297e-08, 8.49399708985075e-09, 5.6181704223389215e-09, 8.971806001885138e-09, 1.0821846769373838e-08, 7.2752469991093274e-09], [4.7730270946530696e-08, 3.269142057052967e-08, 6.07473942416958e-08, 6.152518587049879e-08, 4.149680169916877e-08, 6.449189989548331e-08, 5.042986590902319e-08, 6.122448775995854e-08, 5.393374918165097e-08, 2.223261465423999e-08, 5.076731544069314e-08, 7.759855426635699e-08, 2.7334033400360418e-08], [2.9600594736392148e-08, 1.5574646603276335e-08, 3.3795147103928504e-08, 3.1667520152604694e-08, 2.95681658641855e-08, 3.551397192552363e-08, 2.5514246324591828e-08, 3.141777981289273e-08, 2.6195602434357553e-08, 1.409803652249644e-08, 2.912674762455952e-08, 3.064303866013188e-08, 2.4917402101008818e-08], [1.3970889003788893e-08, 1.938595590207907e-08, 1.5657310452268202e-08, 1.760531430048948e-08, 9.888531923238646e-09, 8.370066034197441e-09, 7.122086102020917e-09, 3.099629230537659e-08, 7.745975715326897e-09, 8.490514567554068e-09, 9.183537970995401e-09, 8.677277507567422e-09, 6.858507884207735e-09], [1.6924538948204623e-08, 7.667069538472533e-09, 2.0932533964364235e-08, 1.716996866968884e-08, 1.8302938410098395e-08, 1.7683283771391182e-08, 1.3557366321216784e-08, 1.772527527300553e-08, 1.5279965742991276e-08, 8.217445180455183e-09, 1.9263157679624534e-08, 1.8734800728957644e-08, 1.1085825269960162e-08]], "beta": 0.95, "vdb": [[2.3805904057449205e-06], [6.543089393843749e-07], [2.6405375107343664e-06], [8.961377889939584e-09], [8.709181410398506e-08], [1.0549027128455982e-06], [2.6706352474055125e-08], [6.13056515720292e-08], [7.858118933822438e-08], [3.4760968882179093e-09], [1.1095733918916476e-07], [9.732061710076854e-07], [1.0744720577810312e-07], [7.725773862936503e-07], [4.514596033023309e-08], [4.2160922085522884e-07], [3.123145062069535e-07], [6.162002263393421e-07], [5.492622915974932e-07], [1.6710372812691114e-07], [8.48300324117385e-07], [3.1741869317744294e-07], [2.76009682361171e-07], [1.4786064012500557e-08], [2.3977700574201976e-06], [2.877801359546937e-07], [5.468325952520561e-07], [1.9120967357800466e-06], [2.496184630191929e-07], [6.253126508000845e-07], [6.072519789413389e-07], [3.452214341218809e-07], [4.0597454722173947e-07], [2.065186282169435e-07], [7.905074124163573e-07], [6.832413630510143e-07], [4.1597839292767735e-07], [3.1257576830891297e-08], [2.868867995441794e-07], [5.493355575177286e-07], [6.434053776097966e-07], [2.3829285750356406e-07], [2.3208962745492694e-06], [4.6543809391951366e-08], [7.542991165508823e-07], [6.034942714102931e-07], [3.1019912420078266e-07], [7.919489014835787e-07], [9.890286617212683e-07], [6.427857177253475e-07], [1.1753702584675807e-06], [5.632104250694675e-07], [2.2355367680474761e-07], [1.7326456912270408e-06], [2.0784584924525344e-06], [4.04031731429564e-06], [9.617222105085551e-07], [5.804175610729391e-07], [2.137321830598501e-06], [1.8132765812952726e-06], [1.177583199935491e-06], [2.0357725432755183e-06], [1.8971791072030006e-07], [1.4261482057078354e-06], [3.3420683472519468e-06], [2.316295935243442e-06], [2.943139116782311e-07], [7.58474267878074e-07], [3.3854710922137434e-08], [1.562859637726109e-06], [3.678811692893878e-08], [4.823264593618563e-07], [2.0561182316910155e-07], [1.643445864325585e-07], [1.5421317728039193e-06], [9.494276592871707e-08], [6.543792984737495e-07], [6.985819311771916e-07], [2.134426595759066e-07], [2.0259664439551317e-07]], "vdb2": [[1.981993423112542e-07], [8.264745959128297e-08], [2.3773124948289664e-07], [4.464728736480964e-09], [1.8630350281941856e-08], [1.6339011399384228e-07], [8.137301704046075e-09], [1.6260260590640936e-08], [2.1874246033941127e-08], [2.7007915418215125e-09], [2.0056732678851564e-08], [8.528578236965521e-08], [2.4932278962497763e-08], [1.2955109948666813e-07], [1.1618579834795746e-08], [2.446702956767686e-08], [4.5851361472607635e-08], [2.256881370996348e-08], [1.1838718055136371e-07], [2.2927503566536242e-08], [3.103684280331476e-08], [5.548681002453481e-08], [2.6155207533157323e-08], [6.2254719199953156e-09], [1.1710068624775124e-07], [4.2025443300309556e-08], [3.9667038280000034e-08], [2.0274094802499147e-07], [6.642262404008525e-08], [5.536493389337437e-08], [3.556568544017643e-08], [3.219252255539421e-08], [4.127726283564449e-08], [2.6671260595730307e-08], [9.93951812609677e-08], [1.3593353083398297e-07], [8.919951568662991e-08], [1.2921181436745643e-08], [2.3776208170900187e-08], [4.699671210085966e-08], [1.2800143025034893e-07], [6.661456528871722e-08], [1.6886882928812158e-07], [1.316923526133628e-08], [3.284644310466278e-08], [3.416791826219255e-08], [6.41892767027801e-08], [6.978856971492535e-08], [7.793801128420209e-08], [8.312706887832819e-08], [1.823363461600691e-07], [9.844373971695382e-08], [2.081989521085595e-08], [1.5955418047988934e-07], [2.403587903089082e-07], [2.974029924620378e-07], [2.8916061955693972e-08], [3.346704569322007e-08], [2.0419876820231675e-07], [5.724698529662415e-08], [1.3453719993164933e-07], [1.1226437971232673e-07], [1.7828208285966343e-08], [6.051609956068251e-08], [1.7083598447381435e-07], [1.784081762335229e-07], [2.4356833699202187e-08], [7.130319697062396e-08], [1.0139390304236833e-08], [1.5245317613909165e-07], [9.045259665925713e-09], [6.332621442929194e-08], [2.6687578099012128e-08], [2.9083406810460457e-08], [1.778064075905124e-07], [1.8595250444944252e-08], [1.3315001188963414e-07], [5.3666335261843695e-08], [2.2834326560306054e-08], [2.8832129087977485e-08]], "epsilon": 1e-08, "learning_rate": 120.0, "decay": 0.0, "iterations": 126}}], ["dense", {"units": 3, "activation": "sigmoid", "weights": [[0.7261758565965832, 0.5424571848999216, 0.6373757052220896, -0.16992360825333747, -0.3961696501098823, -0.5859747110757068, 0.08022224935339728, 0.232366875921177, 0.19667511159911116, -0.12719171405778107, -0.5334444579463776, -0.4737677164111367, -0.43999258232063504, -0.31716539871256916, -0.03324832385254407, -0.6634322111476431, -0.09817676675108437, -0.9042002450124483, -0.33523728870709846, -0.3558368235854345, -0.30122223740021375, -0.5600318811312945, -0.09415450927248274, -0.20711292172634665, 0.8293119228889009, -0.5468252758964164, -0.7250627390329963, -0.689363709989638, -0.34857335284332014, 0.38036627895455744, -0.007589756357395199, 0.5460877251270025, -0.7110605332364983, 0.11073292081970873, -0.5568987730397279, -0.5063646982802493, -0.3200456676228885, 0.18464010569845632, -0.5067797496604699, 0.27475231508054904, -0.2813493428002267, -0.21644186243311558, 0.6232139974946369, -0.30597532326834315, -0.4088965077335663, -0.04304072703854584, -0.5533080105990261, -0.09355271031245911, -0.5542402041515738, 0.09328341985544017, -0.4767447607496628, -0.5159037255146451, -0.500993170605719, -0.5974763252979445, -0.6225480930181327, -0.7883714529877199, -0.754554514652499, -0.2398713175826248, -0.7719352041249612, 0.34289530966764975, -0.467365600886518, 0.27762074554269206, -0.47793049858652814, 0.12252062285730353, 0.8454770944086876, -0.6375555282256526, -0.6414355837531882, -0.5785540636570715, -0.33034119441174126, 0.3099805021536602, -0.2841246625137327, 0.04178220740608056, 0.20881487441345206, -0.206839684120614, -0.5499562725499736, -0.4328783709220861, -0.25248218801123934, 0.7563471735185157, -0.41122370059982966, 0.23264489105768707], [-0.7558874683763349, -0.3120275692474796, -0.8285073327851356, 0.12875289646107735, 0.19040805338972755, 0.5831191414412368, -0.08664229631642609, 0.08781935531613373, 0.14748894292235748, 0.08545510917541863, -0.14240701240788917, 0.6452102195917372, 0.17044241452573874, 0.5652662486731324, -0.0983026491479345, -0.25827537977547976, -0.38777235983797037, 0.04207810178102669, 0.4864443579868006, -0.16580208830165818, -0.6011947566955896, 0.3241728915139867, 0.2024700416853163, 0.07558389465339886, -0.6748215350688035, 0.26196794420094144, 0.2733203738519888, 0.7510950506900929, 0.38007648363200025, 0.2571524572226245, -0.43559694248726555, -0.08237828978885871, 0.26310626836926737, -0.29097759140714274, 0.550347957353189, 0.4899074297920939, 0.5370051062106733, -0.013551211497218723, -0.236716918090837, 0.2371470278043667, 0.4829094884194894, 0.3999886147478674, -0.7573333568539982, -0.020019639797396224, -0.5135985201975388, -0.45879799013509226, 0.2619849765318867, 0.5271377384491235, 0.6329548045815702, -0.4938211112726472, 0.6812669146264787, 0.4522385683478287, -0.046043139935729026, 0.6563916122124442, 0.8059647799602772, 1.0227186734079086, -0.50012679411678, 0.34321771015515123, 0.7444843355993399, -0.7015502852338773, 0.67314231132164, -0.8355229221823828, 0.04649822929839949, -0.68101318887084, -0.8544370792068878, 0.7881833190398638, 0.1948541949275436, 0.4302901370944442, 0.16417086836518, -0.6992273053026349, -0.17698888896827372, 0.3729861858493885, -0.23066115835134413, -0.25024770203413554, 0.7285330318011567, 0.16650557181012313, 0.5214852656729957, -0.192609653752029, -0.37754955121881434, -0.20783188850196493], [-0.15291415008019343, -0.49063173441680613, 0.07996578233328737, 0.13884174621945689, 0.12052858426277702, -0.10393368527611577, 0.14973643892625987, -0.3201506887222996, -0.38384139142295504, 0.02414083621861536, 0.31854161797820846, -0.06515189344115063, 0.0671107687762601, -0.39957793769064265, 0.28060667425568786, 0.6843252611585254, 0.3453059671288318, 0.7522602754281882, -0.3176347572118017, 0.4688427143145435, 0.6651521907280528, 0.12131506077400443, -0.5906683624019422, 0.18665109574730218, -0.3382180897013352, -0.026895830746914092, 0.01109629390218443, -0.21708685333109742, -0.10146579709930773, -0.8811735803799385, 0.5561128085105403, -0.3992924037629026, 0.20874734531368822, -0.19827454069897896, -0.04572052036161111, -0.1275224872983674, -0.15007396421406957, -0.26117640468025716, 0.5667341109295253, -0.8226186628893627, -0.4000346015370845, -0.24260730078949475, 0.08619517518846807, 0.29616329828681165, 0.7855206685221432, 0.5039495812040589, 0.10087285873189443, -0.6082607858016205, 0.08166892127487925, 0.287806748376953, -0.3024747863776096, -0.12541176636942958, 0.5767910519506669, -0.390101901026477, -0.37197761706587235, -0.48708145268915953, 0.9617211220028306, -0.6564393814402905, -0.2119634912841031, 0.4967773524080317, -0.26990464816459503, 0.14072307774632928, 0.5372751534190576, 0.5267986703565591, -0.08247402050327961, -0.36390843257765504, 0.3407317361641466, -0.22994658195985215, 0.15289691131380895, 0.16821508757822753, 0.12269803549922631, -0.5961893987154501, -0.3490052405033278, 0.4175861625086019, -0.3147557104364812, 0.22174807983424386, -0.4152976986756732, -0.7332042925395262, 0.31965293941416056, -0.43266877558746075]], "biases": [[0.19327191155654366], [-0.08307973743063087], [-1.193694836327106]], "b_ready": true, "optimizer": "adadelta", "optimizer_parameters": {"vdw": [[7.166494725107946e-06, 7.573982002352165e-06, 8.335215376051678e-06, 2.1944589433373882e-07, 5.47890271244249e-07, 1.3908039676256727e-06, 6.588267441784022e-07, 2.4885966957510342e-06, 2.3271786768811854e-06, 2.523764190197966e-07, 6.692367475880284e-07, 1.1983406147648832e-06, 6.990909862172843e-07, 1.5610257299300642e-06, 6.859823333582891e-07, 9.138122506601632e-07, 1.5168581205344208e-06, 1.069771142595361e-06, 1.4162204808378063e-06, 8.239118251236612e-07, 1.3766334990366998e-06, 7.507899258540851e-07, 3.510231619410266e-06, 3.606338351178184e-07, 7.941724844150424e-06, 9.116910719071222e-07, 1.2076291192332042e-06, 1.7061382390606283e-06, 7.602908040170657e-07, 1.0180670213631657e-05, 1.7791970745403448e-06, 6.385098816354337e-06, 8.862922503633104e-07, 4.1090319738280465e-06, 1.0051644607474343e-06, 1.2387945596901198e-06, 7.700177872134733e-07, 1.5359745416958074e-06, 8.484946531172183e-07, 9.746643902286917e-06, 1.8514917238299086e-06, 8.693979570570877e-07, 8.31581421331131e-06, 5.261799527043524e-07, 1.054632647099667e-06, 1.8325450190607718e-06, 9.854286191665257e-07, 2.792278013253535e-06, 1.146228146870425e-06, 2.9382754890353194e-06, 1.4398748799070194e-06, 1.0539449775110548e-06, 7.667503849772573e-07, 2.303186879278704e-06, 1.8296318008509348e-06, 2.6786952961285882e-06, 9.036076373157895e-07, 2.6551474109761017e-06, 1.7396137805481706e-06, 5.949539631599172e-06, 1.5304430641765654e-06, 7.3746597090409525e-06, 6.728422815927787e-07, 3.364447222005957e-06, 8.127232701078877e-06, 2.2472102069898307e-06, 8.875710626044352e-07, 1.473218251695558e-06, 2.5744227869622054e-07, 7.314069041051995e-06, 6.745596554441336e-07, 4.317064581375258e-06, 4.647445667918803e-06, 7.709519666277753e-07, 1.5910876946768508e-06, 5.315369570423652e-07, 1.7403250846350056e-06, 1.081717829844178e-05, 9.667775307157634e-07, 4.544857599242281e-06], [1.2952007565597853e-05, 1.3488440918843314e-05, 1.623844935893843e-05, 5.919457901636229e-07, 1.7216091226207127e-06, 3.9358924312147085e-06, 1.553016104923719e-06, 4.9103538834976904e-06, 4.602150079152671e-06, 6.003435469899272e-07, 2.7117739236548594e-06, 3.262641220195926e-06, 2.2597479350952053e-06, 3.4086321843240893e-06, 1.8372031891246572e-06, 3.8002102823824615e-06, 4.17261809138137e-06, 4.79431898165126e-06, 2.9756478504331757e-06, 2.862237095935959e-06, 4.632720526047449e-06, 2.587776667228776e-06, 6.792218733220896e-06, 1.0796576423559693e-06, 1.3738806092092234e-05, 2.8880910980179266e-06, 3.942725131625972e-06, 4.645478514703962e-06, 2.0962155244580127e-06, 1.911167274888796e-05, 5.1180124633456995e-06, 1.1825132684259184e-05, 3.5009959190867795e-06, 8.365892062996195e-06, 3.0294651915928274e-06, 3.512316764422284e-06, 1.981503319080421e-06, 3.096172017129863e-06, 3.351502809094152e-06, 1.8228802871336995e-05, 4.133020498805998e-06, 2.0235475285300845e-06, 1.6186335615170692e-05, 1.7999856945448454e-06, 3.798497654589949e-06, 5.500946480234669e-06, 3.33090695399069e-06, 5.568986514918215e-06, 3.466372621630918e-06, 7.432541104072543e-06, 3.5034908839554265e-06, 3.0795909614755415e-06, 3.1165473588296143e-06, 5.551334593125983e-06, 4.769983214135379e-06, 6.603870562818805e-06, 3.8378738162110866e-06, 5.44361845456695e-06, 5.1570855394248805e-06, 1.4709635184235429e-05, 3.6006443072649805e-06, 1.6479563040955828e-05, 2.580904382182317e-06, 9.028155724196295e-06, 1.4841852992651261e-05, 5.627025368289026e-06, 3.641719912859468e-06, 3.8131336165686004e-06, 7.788085530785713e-07, 1.559507331286502e-05, 1.9694786913551197e-06, 8.372794962699314e-06, 8.982427983389957e-06, 2.4448881346109014e-06, 4.111755309796249e-06, 1.9128976601567946e-06, 3.703918346237403e-06, 1.8698957533013782e-05, 3.0925362817751586e-06, 8.592586885567164e-06], [1.9104475819284795e-06, 1.5412032942918666e-06, 3.163226771091426e-06, 2.8403382342687303e-07, 7.772308995203099e-07, 1.1803386533478748e-06, 6.155522482281903e-07, 8.121551842777306e-07, 7.109385041397112e-07, 2.857161150301969e-07, 1.4974198222639905e-06, 9.905750681232832e-07, 1.0328130911201957e-06, 6.996528734378905e-07, 8.764309729238652e-07, 2.2782171597447018e-06, 1.9176187565357843e-06, 2.5625085239532747e-06, 6.310021364398176e-07, 1.5986087311600357e-06, 2.5838290285306365e-06, 1.0444045899554552e-06, 1.0735299568802203e-06, 5.534257340224713e-07, 1.8302738618510104e-06, 1.1417735330125842e-06, 1.5003487376569868e-06, 1.247254352170945e-06, 7.323540296748184e-07, 2.184582742789634e-06, 2.258710947366972e-06, 1.4298304166859477e-06, 1.5436049425678651e-06, 1.906715792692987e-06, 9.811717030398167e-07, 1.0968838746112003e-06, 5.867060791958237e-07, 5.87550270599552e-07, 1.952622508034213e-06, 2.171460957507321e-06, 8.996692017483803e-07, 5.35187556158913e-07, 3.1087979647547974e-06, 9.551614613913782e-07, 2.1798994087295195e-06, 2.5642450662437644e-06, 1.3669682167348715e-06, 8.725994493011428e-07, 1.1767264051636369e-06, 2.676107139729193e-06, 8.385967223517568e-07, 1.0514397636249872e-06, 1.7119315120984632e-06, 1.2667363845274478e-06, 1.1771101030622267e-06, 1.4658225066852265e-06, 2.417588325160138e-06, 9.941639214145433e-07, 1.4930068494766175e-06, 4.432782049041605e-06, 8.593239725576239e-07, 4.3053256470085445e-06, 1.3046086193952423e-06, 3.3919751468128346e-06, 2.4746109516217103e-06, 1.3485638436190787e-06, 1.787250932025714e-06, 1.0901878945204792e-06, 3.560354232168485e-07, 3.937185481474242e-06, 9.954168746140833e-07, 1.156384289156281e-06, 1.4881110347247887e-06, 1.2798531163289493e-06, 1.0517984098119347e-06, 9.216773322986239e-07, 7.377186209603025e-07, 1.8247815304675234e-06, 1.698637005685331e-06, 1.2236544782658968e-06]], "vdw2": [[1.9580553448401555e-08, 2.0479433822743047e-08, 1.7400561839517277e-08, 2.4471405627965834e-09, 3.771324366356257e-09, 8.320495194606012e-09, 3.3638489278268597e-09, 8.939669059096574e-09, 9.142667376945414e-09, 1.9316027649199534e-09, 3.696216270943812e-09, 6.969906319154597e-09, 3.731510619698806e-09, 8.435504119145134e-09, 3.2498827256932824e-09, 3.4823059819774435e-09, 5.95886078936698e-09, 4.663137630487664e-09, 8.132700194253538e-09, 3.643100598364573e-09, 4.190830509409869e-09, 5.830594852841944e-09, 1.0180316959309858e-08, 2.392880077080585e-09, 1.5925742356167667e-08, 5.222353391196236e-09, 6.4031415692256965e-09, 9.970769890756252e-09, 5.020106397985379e-09, 3.248654558762622e-08, 7.208291491706501e-09, 2.003420488085172e-08, 5.939492603540596e-09, 9.561742011548065e-09, 7.178981359159799e-09, 7.148594696292783e-09, 6.702231634681749e-09, 6.991427359398693e-09, 3.609251397754579e-09, 2.1769047332423102e-08, 7.81393864779645e-09, 5.8343097170959205e-09, 1.8133539563124276e-08, 3.329216851662338e-09, 4.431743488969089e-09, 5.938118998431919e-09, 5.573148724200238e-09, 1.1129720027894095e-08, 6.8875321539589244e-09, 1.141031283517485e-08, 9.59175772746286e-09, 6.765868110529919e-09, 4.147481416578958e-09, 9.344680874375074e-09, 1.0502103061201815e-08, 1.1346472765331866e-08, 3.573388485657851e-09, 8.927857508257175e-09, 9.370716960247004e-09, 1.3430421106508482e-08, 9.074721921024057e-09, 1.547967577076479e-08, 4.70810452043935e-09, 1.123377531357394e-08, 1.725828505310292e-08, 9.683238340652074e-09, 5.0455495618118385e-09, 7.458139232311405e-09, 3.2443570764543374e-09, 1.3657893125775002e-08, 3.029084724857868e-09, 1.277056643000059e-08, 1.2428971675883496e-08, 4.600297471402917e-09, 9.606432102921442e-09, 3.8875006167485804e-09, 7.89218455746967e-09, 2.622813716373374e-08, 3.570856899332136e-09, 1.3623447327690916e-08], [4.5543890808823905e-08, 3.2560890740332353e-08, 3.6394098327537e-08, 6.62913791512028e-09, 9.807562506338935e-09, 1.8653803097872734e-08, 8.91723132683126e-09, 1.7335308222769515e-08, 1.7795214100641097e-08, 5.11513557233018e-09, 1.1735612720084737e-08, 1.605998409092141e-08, 1.031679558123108e-08, 1.7927763506357024e-08, 9.433741428731926e-09, 1.7048808278391713e-08, 1.5415289469589155e-08, 2.0496398659120463e-08, 1.553528962064364e-08, 1.5169835941412432e-08, 1.2948769524568517e-08, 1.520352993196496e-08, 1.539177579651906e-08, 7.698968656858154e-09, 2.9620800343339895e-08, 1.2020517538132201e-08, 1.534558677727451e-08, 2.4534266746891083e-08, 1.2209325761275351e-08, 6.679308470662303e-08, 2.1289354910144647e-08, 4.6016936472017673e-08, 1.9880212213583237e-08, 2.0927500650084602e-08, 1.611895722637244e-08, 1.6336842042220376e-08, 1.6048107381188884e-08, 1.4373077308187514e-08, 1.7139853518367404e-08, 4.61044726893786e-08, 1.5461432447798917e-08, 1.1673035782206911e-08, 3.6271202673202244e-08, 1.0091994610757833e-08, 1.634382272091369e-08, 1.8036328154665753e-08, 1.2997990711964096e-08, 2.0344537849371733e-08, 1.9315558080461735e-08, 2.673942507386884e-08, 2.2227095793372647e-08, 1.7045600394654376e-08, 1.6241196626635586e-08, 1.6321325022919503e-08, 2.7632267170619462e-08, 2.6981405052546144e-08, 1.9026273291422e-08, 1.8384575595071932e-08, 2.6261009928590195e-08, 3.434792822683249e-08, 1.8921570377414106e-08, 3.666111415644177e-08, 1.5854521443583917e-08, 3.4325495913596615e-08, 3.590430957992225e-08, 1.991363723425051e-08, 1.7552735090095377e-08, 1.4583059073426912e-08, 8.252507071492669e-09, 3.391832816302856e-08, 9.257764339184216e-09, 2.238433843497091e-08, 2.4966550773111323e-08, 1.4638058637579554e-08, 2.2424628378957817e-08, 1.1465756357702343e-08, 1.7613114778492762e-08, 5.515584963896839e-08, 1.2973194156719492e-08, 3.0807006649303086e-08], [8.214506223008266e-09, 6.260656311102837e-09, 1.0421497733723175e-08, 4.2387330564589985e-09, 6.609065405995232e-09, 9.300005201078978e-09, 4.9002610592693244e-09, 4.065957770385366e-09, 4.187345354791212e-09, 2.9774548073492327e-09, 9.641641833126022e-09, 7.811729907792186e-09, 6.631411167090441e-09, 6.588219818322581e-09, 6.242875779494675e-09, 1.033779540156461e-08, 1.0001092333346479e-08, 1.3956201552123814e-08, 6.2256708925469976e-09, 9.79998689092849e-09, 8.244025031503537e-09, 9.824827128986971e-09, 4.163679681451754e-09, 5.3519787062213895e-09, 4.925093426677029e-09, 7.288441549394829e-09, 1.01200954213447e-08, 1.019554436407387e-08, 6.647832554385349e-09, 1.0675098177301957e-08, 1.1894210126846664e-08, 7.759758091361351e-09, 1.1497486672407233e-08, 5.846710390532637e-09, 8.54794392636231e-09, 8.792866512122059e-09, 7.976820315514154e-09, 3.9645909812437745e-09, 1.0124549770362982e-08, 8.641782225245639e-09, 5.939654799971547e-09, 5.646007316130147e-09, 1.0014371557761523e-08, 7.837817679877847e-09, 1.0451323451665264e-08, 1.0036379153229415e-08, 9.216508623372082e-09, 5.4430944162241566e-09, 1.0275459027594323e-08, 1.3540876078638579e-08, 9.076522056763657e-09, 8.853613146359362e-09, 1.2093190824208097e-08, 6.987409691739293e-09, 1.0280732879933222e-08, 8.781473414549407e-09, 1.0888818909498673e-08, 5.12630857877537e-09, 1.1786659228933438e-08, 1.3241898976225697e-08, 8.127098377560632e-09, 1.090198902901416e-08, 1.1472107000744622e-08, 1.4191379780750405e-08, 7.628957758981159e-09, 8.316932343318879e-09, 1.1539685551533415e-08, 7.382498594947179e-09, 5.668288901454124e-09, 1.074847411905524e-08, 6.1113358353018745e-09, 5.299349338493309e-09, 6.0890551011708545e-09, 1.0449336726486247e-08, 9.754522867841968e-09, 8.734402488128256e-09, 6.06664524160722e-09, 6.760037276551959e-09, 8.051068353353698e-09, 6.469129875321393e-09]], "beta": 0.95, "vdb": [[2.41842247318098e-05], [5.3881364692222135e-05], [1.1796859947960174e-05]], "vdb2": [[1.3314637589125782e-08], [3.485993994941675e-08], [8.484140734000272e-09]], "epsilon": 1e-08, "learning_rate": 120.0, "decay": 0.0, "iterations": 126}}]], "prepared_data": {"matching_x_bidict": [], "matching_y_bidict": [[0, 0], [1, 1], [2, 2]], "pseudo_columns": [], "epsilon": 1e-06, "min_x": [[11.03], [0.74], [1.36], [10.6], [70.0], [0.98], [0.34], [0.13], [0.41], [1.28], [0.48], [1.27], [278.0]], "max_x": [[14.83], [5.8], [3.23], [30.0], [162.0], [3.88], [5.08], [0.66], [3.58], [13.0], [1.71], [4.0], [1680.0]]}}