{"classifier": "mlp_classifier", "n_inputs": 60, "optimizer": "adadelta", "loss_function": "mse", "layers": [["dense", {"units": 80, "activation": "sigmoid", "weights": [[-0.28348063287040615, -0.05720072032513152, -0.11809480352330373, -0.40360093862690394, -0.6861352588952472, -0.3391581183690555, -0.14048080028964247, -0.15457205833067417, -0.5466070813551545, -0.514799659078822, -0.7966390934054068, -0.7946245949223184, -0.33933886576401157, 0.03073374689797767, -0.11628314536428962, -0.4709205234167626, -0.6064762599743743, -0.5723073099725735, -0.20465653867252953, -0.020607159598170294, -0.3142905512539036, -0.6605155424861866, -0.2691728810237998, 0.14401822277839152, 0.1531404049723666, 0.3182989794612901, 0.10012952132263234, -0.08855658483101678, -0.15008870285131293, -0.553721057390554, -0.154786609611868, -0.51761484495893, -0.33383886728072754, -0.02760363751532144, -0.32144681706665373, 0.04526871595870875, 0.05843724091573071, -0.17225850676589322, -0.11732681857175725, -0.303397597644185, -0.524037677003125, 0.014307667840492576, -0.32523623622030023, -0.30293689942686525, -0.5158927165533921, -0.22451001291270706, -0.45810479904429163, -0.31343163309177485, -0.449696152071149, 0.3446347760136111, -0.15048419775851563, -0.14098208684408592, 0.08120830675275938, -0.0799720390280043, 0.2078413775307527, -0.1780076854650118, -0.044968690851801336, -0.21139393168451354, -0.16844202365581692, -0.15808190934082894], [-0.6427092631493353, 0.011461483979995362, -0.03790268753268412, -0.6053617078793833, -0.38479811889353793, -0.5739642381767427, -0.06943882633560128, 0.03338351675524448, -0.9946004234218202, -0.7248374439536526, -1.128060642530668, -1.310438643010554, -0.5374419855788319, -0.045456778804757375, -0.20286400986422376, -0.3148784432759592, -0.6369756797712136, -0.4564598406014307, -0.3691784534988607, -0.4971308068265122, -0.5368148143094489, -0.5860063795359861, -0.36537441394986253, -0.2239026111959144, 0.1766084393348082, 0.3474701390564269, -0.253054181633657, -0.3910843863913323, -0.3224048744572227, -0.5458891123526407, 0.26156068596937226, 0.036945979866850776, -0.1462589703704083, -0.3708340990606579, -0.18531716956072578, 0.28757983852003566, 0.5512213475743428, 0.05715014343252232, 0.023238727846665738, 0.3947947896954246, 0.2111372496986637, 0.47588775842564573, -0.06911410444324843, -0.19342127359162867, -0.3317022908821894, -0.33491487880850596, -0.2782475197219007, -0.33902807864927637, -0.41364551838512337, 0.4963305996025277, -0.2711865177091732, -0.2732042858912779, -0.041805241295597165, 0.028470518047420054, 0.3924093095725937, -0.1417859805789787, -0.3111339036420064, 0.12458988741593081, -0.38844992306625775, -0.2837738601307745], [2.2939000772897096, 0.36521400474843957, -0.4445923485164727, 0.20746112682262546, -0.6645374933411599, -1.1580338318245984, -0.4665269763480428, -0.6661472361026652, -0.2688789525200121, -1.6751329826793742, -0.8527820033773102, -0.9767964503930064, -0.7754236083557331, 0.5852172620342663, 1.9625115140899616, 1.1261692577603561, 0.34727591014873344, 0.36812797357744104, 0.40474091290569975, 0.8549982769957336, 0.924070297525094, 0.515504203936489, 0.5564855126504705, 0.5152740064042738, -1.21912485570148, -2.3021514616650074, -2.256151074703084, -1.8285430839239027, -0.9644209808448029, 0.10598273703162528, -1.9327499681883342, -0.2574319454306262, 0.9142832648121109, -0.6119136995488356, -1.2122370417747077, -1.6951991230073302, -1.724849153921352, 0.2104730260521325, 0.07369670135454126, -1.4135149749205913, -0.7997235754413254, 1.3614892142084019, 0.995888639235398, 0.5165240303146654, 0.5698889256486216, 0.02980487748924148, -0.47453322026571176, 0.6389469219588958, 0.8089339605557436, -1.3878461499555612, 0.7141412143549987, 0.5498844379144837, 0.8332807405965517, 3.5077643061133914, 0.1519753133801191, 2.046681502786911, 0.9578990834267292, 2.328364047883971, 3.1503913640996286, 1.4566095740130067], [-0.5665629894523603, 0.15218506318019123, 0.24534464755753904, -0.8368315738836223, -0.43964885295182615, -0.3349739815695121, -0.2566298125782398, 0.15815406114040995, -1.168887287861419, -0.7991921765429605, -1.8824598966109547, -1.917765479883811, -0.6017454486594686, -0.25891773485602065, -0.4220871015167316, -0.5652962174897986, -1.3746212981718247, -0.7242471414198715, -0.5917040679605438, -0.4597391378565689, -0.5062549725369804, -0.35168720915672913, -0.2438116316668163, -0.2221646636113923, -0.08009102395014518, 0.1782613570081266, -0.25584899883374035, -0.7534476319448056, -0.31114600514829927, -0.7724273908446303, 0.44072533306599315, 0.3327118853348475, 0.21961611175534543, 0.08883749136420566, -0.2490470623614511, 0.5008124650076503, 0.759646474548012, 0.16709205222512402, 0.2552493644870399, 1.0904319801008784, 0.7484044252019612, 0.967525007117572, 0.4218340988329025, -0.017386720421556815, -0.3783354312129586, -0.46796075372073387, -0.4370672053150136, -0.6860575188796016, -0.8531738323222995, 0.9467131983477561, -0.11261956291446501, -0.05433818605162409, 0.6034209278793694, 0.5175946915400185, 0.6231304499399788, 0.05646743952048119, -0.5450544557242822, 0.5672106475618891, -0.4596208888462113, -0.5560820829497461], [-0.23624231266886125, -0.07770156784643666, 0.2503263738295994, -0.3634637862334188, -0.5435152882067682, -0.28245924716996174, -0.18818750751235494, 0.10631712156341407, -0.5376220662941265, -0.3166037218375407, -0.6956079028106332, -1.1135793580196345, -0.2817055976258818, 0.3024963669478437, 0.2725512017072551, 0.3041152868696545, 0.233248254662269, -0.09231649047341668, -0.571608315751383, -0.5464603987948555, -0.4417442808544414, -0.7619662982592652, -0.3851254192809436, -0.005957664852306557, 0.2905330976919485, 0.40382467324174093, 0.16815814143323426, -0.07298291423246606, -0.2701321102235374, -0.8450424653869939, 0.188929115550161, -0.4389411762838489, -0.781135473694375, -0.41938753319526223, -0.09940613386684138, 0.6120885850691034, 0.7055442476169217, -0.3699457679060483, -0.4919349733928026, -0.11327725385700509, -0.40028967576476615, -0.12000697212066325, -0.6490975924953506, -0.5923888735658372, -0.7283487075995028, -0.6331288890084972, -0.5549963841835482, -0.3232828244046341, -0.47790590569140257, 0.3862808990096575, -0.14751375977810907, -0.39452577367901903, -0.268359227633649, -0.35996723009680814, 0.22339168943938537, -0.2635232529115541, 0.09701669802934773, -0.2987475218682041, -0.35364721733768933, -0.2886502312242426], [-0.7327330064881774, 0.4732683736036356, 0.3072372999225189, -1.1414763586879244, -0.7381950050662841, -0.6090104444112103, -0.0772130312395162, 0.30482679777150773, -1.4991005475989434, -1.0102491986490527, -2.0534067182082554, -2.2963878169256775, -0.6429568123372348, -0.08835826224969098, -0.2902031292310119, -0.5706917168417842, -0.9323156670379273, -0.5981534198668297, -0.8295524971185226, -0.7231558508361977, -0.48774323349076804, -0.4897978083449095, -0.2848095318121922, -0.40792554368276485, 0.04528564042474071, 0.23030364123168395, -0.3681034986845567, -0.7204076536239135, -0.47541981833968344, -0.7623233317175525, 0.8782494964340675, 0.6076594031587269, 0.12891345664396614, -0.2159526571456137, -0.17299687743668252, 0.85147548427622, 0.922789196980155, 0.46022221769989724, 0.33087741847134156, 1.3508834464410626, 0.8835436680486503, 1.3290643651588712, 0.42324666946707246, -0.09877501241816648, -0.6254019961460823, -0.8102324470890127, -0.2978429258577516, -0.8034654546330519, -0.9227727586810252, 1.2488421271697345, -0.031010979496933704, -0.3441045953283115, 0.4857494378315922, 0.3856089755647041, 0.6891773189870972, 0.3815409408480849, -0.49880002382158034, 0.694024998541645, -0.7746716611448193, -0.6311255841812324], [-0.31443478863213237, -0.06959827541146407, 0.13191360772185956, -0.19422605756721847, -0.2924502981769533, -0.22744647101512933, -0.08117627066933013, -0.040108414175742825, -0.40304816618841405, -0.34104809739557523, -0.4523000941039473, -0.5016858684222394, -0.22393213338202048, 0.10102643278251985, -0.032926086153018175, -0.3425323194373304, -0.22842185542474308, -0.21726134782689155, -0.30378185706477157, -0.14828554936849744, -0.14451213379714903, -0.42635851065505515, -0.5157397563775011, -0.1596230225090783, 0.08995497775932033, 0.18341203458398125, 0.10386813210416869, -0.24077475968252077, -0.16368741237894094, -0.665270264401711, 0.005873690092846082, -0.4823131328096798, -0.5393974104233458, -0.04669045226984153, -0.18671121651214267, 0.244700931404998, 0.4077828168830778, -0.2588799241102216, -0.3612217306844727, -0.12285529907811578, -0.3589664710041295, -0.26825310365173277, -0.5532794988756087, -0.6321205828675809, -0.43528446098555834, -0.36984081875245745, -0.18524385793557976, -0.25140433117676636, -0.3539531342646454, 0.3131994558877347, -0.2888717889712038, -0.24722069331876212, -0.07871830115565283, -0.27491213248087687, 0.11880690479243204, -0.2124594033129962, 0.18254244529327218, 0.003569955382516437, -0.4929733765435579, -0.21592029857025338], [0.3324301902369158, 0.14110316012745142, -0.032975572217780885, 0.14726968979355942, 0.1460823934275812, -0.1698087736889836, -0.2253280763098982, -0.155669723939383, 0.20768611669359563, 0.32016274752567925, 0.5221648476460059, 0.39305170709869036, 0.012363775549980282, -0.2590237554442284, -0.40231649317874857, -0.2795096923050929, -0.5366741969955485, -0.31060888020589417, -0.07223176273625971, 0.09390712361632998, 0.0108874606526968, -0.11306125523869102, -0.20099142282843524, -0.32724666325302576, -0.5099697754802235, -0.5226690373274998, -0.4331055219224766, -0.42346423470402594, -0.37751949259866663, -0.24344277451595, -0.4304054824441855, -0.39199274897394953, -0.24433735820125568, -0.31640897484628144, -0.33624255803512754, -0.6165180573855219, -0.6530265153318866, -0.43043147435433876, 0.05029166275663899, -0.48501641161162073, -0.3345038651208681, -0.3444050208595922, 0.051545039440691894, 0.1425002597051414, 0.41045760473589965, 0.34660113221715655, 0.21752374535026567, 0.24325930857010886, 0.20441111321629304, -0.2910018160434932, 0.24964354837796213, 0.3484896994870584, 0.02024394826230706, 0.19439206274442658, -0.08921201108864689, -0.11599095638198595, -0.36473676589194576, 0.23012226654478288, 0.09223067787283035, -0.09426419329188096], [-0.4896344643648271, -0.01503037343937133, 0.08313043208903274, -0.17266282590706367, -0.19162044297739744, -0.13626652248209362, -0.1921501919440735, 0.10832090788320205, -0.5381234625790571, -0.32143608934284873, -0.629870691467303, -0.7711278942774975, -0.34161336782408014, 0.0503404627875415, -0.016517354697174167, -0.007939962480360344, -0.06384053508382156, -0.09338226791639045, -0.5899532700554084, -0.614237006365267, -0.5293285235124054, -0.2587922387056551, -0.3098881490811735, -0.34840206633637216, -0.19069521990912805, 0.23276839533924595, -0.2975918885006767, -0.41878173878113306, -0.45942881562033094, -0.6431278734162396, 0.30587607773632774, -0.2845568205461411, -0.3040337936858446, -0.33192724108244337, -0.13778241675695033, 0.4570552220232116, 0.62350039737499, -0.15483583076531277, -0.10877358434625278, 0.328869806430172, 0.2979760252097492, 0.31268639758304617, -0.31693902775212984, -0.2849050090104647, -0.383503772148091, -0.32620514291205, -0.17341127291622774, -0.18314417486908607, -0.5837291865306115, 0.4102445680609583, -0.06377054044993906, -0.20499303315462894, 0.03300421648119507, -0.3085158070552122, 0.2981175085478283, -0.3756390438346326, -0.20343634593923637, -0.21698704531275406, -0.4386968697819858, -0.2578302417143693], [0.4703263922142561, 0.19470608597463532, 0.1599281306419055, 0.2937328771144639, 0.139626090549674, -0.1626962281109875, -0.40341615974451445, -0.21047481023255812, 0.10835205429413629, -0.10108603993264063, 0.4169418609385464, 0.33901247002145224, 0.03193470053267169, -0.06607042771397896, -0.02663177911399106, -0.19359468742283384, -0.2770565646799413, -0.12827202849684746, -0.12517249099432318, -0.06892858154642685, -0.15700754150221727, -0.4398362648543246, -0.4496507432104503, -0.468712088634661, -0.5813542745827334, -0.6982982657374697, -0.9073366853953682, -0.596526722334755, -0.5834403998369948, -0.0880112097028596, -0.698655037434441, -0.00041883036229552434, -0.13182545251781266, -0.40459880150705113, -0.6339021962677414, -1.0045739656273174, -1.1230626911535517, -0.3611013710800635, -0.18419886207124905, -0.5986786815933367, -0.38506817172815033, 0.03157966120063809, 0.05382519106040292, 0.06513053159208154, 0.4454416553844036, 0.14894870803675012, 0.055005456130603626, 0.41389579087005235, 0.4821793594500806, -0.23085711055955938, 0.5046836811878225, 0.4659032933053618, 0.4272295286886062, 0.6322808403501841, -0.18003630815835106, 0.1671581747932308, -0.3045895233317881, 0.41951880019609955, 0.6627173677875934, 0.23754197692908324], [0.35424361764245216, 0.09356107086234301, -0.03786621297642194, 0.35000867972803207, 0.2903360578721449, -0.015077879697863849, -0.38671877497715723, -0.18138550553417054, 0.3780906567541531, 0.2706928918797655, 0.5613690594843729, 0.34714798250025164, -0.006060737043968623, -0.3421489340280794, -0.2128185672327597, -0.5535741799145444, -0.5082316301165395, -0.5743786535850205, -0.22852232770289752, 0.0742321806328541, 0.07106013424308512, -0.16584312426664508, -0.2781348532285228, -0.306129623058979, -0.5355178295760322, -0.5527123125558612, -0.020866086925846815, -0.33242200156322976, -0.35218170788910486, -0.14253830813153467, -0.5626929205100747, -0.28477819878083144, -0.20780469779996844, -0.42931565208001543, -0.6348083419433549, -0.8739163089939154, -0.7959375371341019, -0.3901739770882254, -0.17119742144488123, -0.5432968319975933, -0.41315860090889617, -0.20799905175798641, 0.06498760930434376, 0.3326841988292144, 0.5350967278470165, 0.391146341578484, 0.3212361145220823, 0.34787677196605366, 0.4462823017518088, -0.24424106835115064, 0.29037062847618966, 0.4802214250785075, 0.1001111274099164, 0.16727339410634257, -0.17899396234677595, -0.1167955753467749, -0.35366566220269613, 0.32513518604499697, 0.20473291553827636, -0.004657732113988041], [-0.5276394920056099, -0.15386505792845484, 0.5953040900703762, -0.4130772064978162, -0.26942201753565775, -0.04554342447257841, 0.0332893758239365, 0.23586239384349214, -0.6330430042509277, -0.23676093140675475, -1.040097581158988, -1.218868841914495, -0.49258319015834817, 0.12132380982750439, 0.04709569985555483, -0.10355685122383715, -0.28956913639611404, -0.5712187367454996, -0.39506256206880574, -0.3122006513464007, -0.44741004822913416, -0.3884952788300169, -0.13260704131961792, -0.318019040659558, -0.011612250008046728, 0.27120574555994575, 0.27359558759132563, -0.17694224712877155, -0.46477783565459235, -1.058628033734083, 0.26929056434150295, -0.3818360127637785, -0.6542226191179557, 0.08472254343978226, 0.01810800881400045, 0.583107240784439, 0.6470752881671239, -0.27919346417004676, -0.2463064556155545, 0.22813853708935283, -0.21258911224440274, -0.09848598524130628, -0.6927547206828197, -0.6697859994246157, -0.7383803532176054, -0.9112455883358495, -0.4614842032107041, -0.774705945388347, -0.746433084542489, 0.7762713110054218, -0.12069909330216962, -0.16635752476239932, 0.2838924314387119, -0.17611669164684904, 0.43731228674385797, -0.01609794683782253, 0.2006935441945316, 0.04148034784305945, -0.494947452243926, -0.38245630290149313], [0.1654344589147301, -0.035732510069593076, 0.07240865276113007, 0.07112833416792565, 0.11818991769639996, 0.009249338004961548, -0.15977752830017575, -0.2857574349901652, -0.2191000853621374, 0.24866376026345116, 0.3947247789570101, 0.07919355252896958, 0.09744856400553788, -0.12406019908667394, -0.35519023865129473, -0.3541923333006319, -0.44498255071480114, -0.40080499625895494, -0.015086742462942813, 0.26264671963020697, 0.06597102978811775, -0.2636561524561986, -0.1511416953872284, -0.15481931431023271, -0.18608262766025307, -0.31207002043936943, 0.021011310280182383, -0.2153609301968735, -0.5546066319516387, -0.5373205963814863, -0.45584213818269076, -0.5177819760789222, -0.45479721674755114, -0.3376200825788688, -0.29656057640270833, -0.43477475283030764, -0.3805143374176568, -0.2565661539204487, -0.14951997664244618, -0.22126323960077818, -0.383563362841642, -0.14682742149662212, -0.031084347930324708, 0.025621321404088484, 0.06046659486019916, 0.11633861345948207, -0.1284477332640412, -0.059275208819678744, 0.034083909500516145, 0.024362331303074528, -0.05833771829790148, 0.2188579905948854, -0.0718693325401015, -0.20188769025019898, -0.029025299184288204, -0.055224436502485444, -0.08319573649234953, 0.08151918393503901, -0.010085183098366087, -0.1447506637093274], [0.2967838167918154, 0.10416654099438372, 0.2057816017563867, 0.1097176244190742, 0.1692525882915498, -0.08287555499839326, -0.17247128767048034, -0.21439897592568205, 0.1948911181658259, 0.04382302094872317, 0.3014741768541391, 0.18821849755245398, 0.19445631154689969, -0.24394284311845663, -0.2534693734969654, -0.5880150166820022, -0.5119105013698011, -0.4846456696275073, -0.08080289805881068, 0.2243100245120508, 0.04501666641865502, -0.17048311657499074, -0.13458787965181715, -0.3305815486686567, -0.36007186965139304, -0.15433661555176426, 0.02906017703971695, -0.24845158672500994, -0.2946124479463317, -0.6576587152780924, -0.4243498376964663, -0.4255549128543303, -0.29568141959934247, -0.35595211548915967, -0.35872045565253385, -0.45915347250906247, -0.44276408508896803, -0.35243428415785316, -0.10387357130174646, -0.35878622316490366, -0.4084769257247283, -0.23623295684044945, -0.13555178926512088, 0.053665856573926016, 0.13857966285591153, 0.07189895849941322, -0.038424095273847686, 0.0840292098668613, 0.10785725240657547, 0.12839487572452268, 0.07465189858510413, 0.030611585422360147, -0.030039412297784972, -0.011491400493407907, -0.14695264259884608, -0.18450753729732217, -0.20957416534908743, 0.037206818236346736, 0.11688218750877484, -0.18866273205034198], [-0.4825279396012, -0.11837221479090274, -0.004595396687984287, -0.7752131435892108, -0.8356188784515749, -0.8055904427776475, 0.21993870157557976, 0.061799811040306366, -1.2403399960415016, -1.0017981264517484, -2.057682896543891, -2.054008606753056, -0.7227604681563449, 0.3171452143028072, 0.2039287522620839, -0.35665256691901487, -0.993477555572985, -0.9928978135004083, -0.231565412244773, 0.08120714524320029, -0.3458380289542106, -0.6410416655329491, -0.031297117365518004, 0.21805845398109802, 0.5224816757135543, 0.6999263248345442, 0.43171094110719105, 0.1161342060163931, 0.0016185828654647488, -0.7177674066453879, -0.13974299595071882, -0.6440824495667373, -0.3439195420618119, 0.22384285448044064, -0.07868845726201035, 0.4144267968568074, 0.03936338362862753, -0.3863706316323902, -0.5515915201983523, -0.41251103429017694, -1.0717834492395861, -0.07365054016211911, -0.6615830524414583, -0.8205148525519667, -1.0506060840185836, -1.0019198469505386, -0.6379385557657357, -0.7324461326697044, -0.821341833702225, 1.2812900773326885, -0.29787052400275194, -0.3377870258721686, 0.2290098742137775, 0.33264376071004914, 0.9006126788480356, 0.16975776335123396, 0.22894841616498854, 0.06566952660061076, -0.5929565917198283, -0.2234371113460222], [-0.40666342591787685, -0.1030424851895895, 0.22762625048265409, -0.8108371514021094, -1.3388659249541195, -0.32585787994140986, 0.6399870265889, 0.16507343984752476, -1.351638631573974, -1.143165931802173, -1.6084596620900187, -1.4377325578090145, -0.5507028803674259, 1.0418874147456398, 1.2640882125393862, 1.5256068181943265, 1.6667434145223436, 0.7656382167161403, -0.7616961704251849, -0.7151628972551275, -0.9221778739706646, -0.8955408863559923, -1.0358207218460855, -0.48958995841846187, 0.8784022505827171, 0.9461061723302622, 0.598668267385965, 0.17370704286643132, 0.3949526489484593, 0.013243735573221668, 1.106753412728491, -0.5184242464863744, -0.6876431192454538, 0.15232423345284074, 0.5701568744590483, 1.86751962719189, 1.398876697505339, -1.5743682998491018, -2.1143199345717476, -0.809563294840757, -1.6099970980090388, -0.6842344523908519, -1.32539334249076, -1.6288842616263355, -1.5833218026542486, -1.5612770650211911, -0.692338450922936, -0.36350378283758944, -1.3153503708296297, 1.1331305825139735, -0.6118779897768284, -1.8729033803170347, -1.3209589056526478, -0.4840841114136359, 1.1727839161292988, -0.10624409090730422, 0.74338483537975, -1.983384323451734, -0.7251690095260561, 0.27550261387749725], [1.0637058464561417, 0.503394234025527, -0.06435094940870353, -0.01823607238452572, -0.32032334574351806, -0.6288095517544061, -0.497138331712565, -0.33030741024428495, 0.31477566632569565, -0.25159185732858974, 0.42625042635975086, 0.08874053198631013, -0.09792456940399577, 0.10877921583010251, 0.5903171960432991, 0.4359899594171837, 0.1359595091575484, 0.10239570444759657, 0.2184227453433636, 0.15217225912230886, 0.1057511360599762, -0.0023785375748830552, 0.013715736932549998, -0.13385071119593336, -0.769717460357049, -1.273658303167744, -1.3331471568790707, -1.1279573535723662, -0.4693197137042568, 0.06779796950647486, -0.9267551232132512, 0.21479281089006091, 0.22353212410476003, -0.6483902963001812, -0.7022866135850293, -1.5690384534818806, -1.4417636956668864, -0.44581657637754474, -0.21680890432991648, -0.9822511111446737, -0.6341322780444516, 0.39120364935891194, 0.24803106214807444, 0.355860704078453, 0.5451234723748447, 0.1095874768181355, -0.04118511368407751, 0.47445320035562993, 0.9021569260791205, -0.4935395930617117, 0.6534687866588419, 0.7215524103823826, 0.5972222777190976, 1.5554809730999775, 0.24818633690194136, 0.5596448749670278, -0.449186902987204, 1.0738099348040304, 0.6915782794360112, 0.09495431855768559], [-0.22915789342120507, -0.02201173876973413, 0.09403294664926222, -0.369446955441886, -0.23480607556164895, -0.23680437975182692, -0.1387371645874849, 0.0010842218407870591, -0.49460635983682355, -0.42007214025233486, -0.6338687122302468, -0.6616888137599399, -0.21716480712703065, -0.20136947720224052, -0.15123616945055612, -0.33878167368688966, -0.4017031262425945, -0.34108747945751133, -0.46397235060349207, -0.40372897487819676, -0.4519115894102795, -0.5240993009442673, -0.22503306437690196, -0.1543868720889187, -0.13056379227658066, -0.019700351373362776, -0.15033468690804247, -0.32291553803961504, -0.115271757047421, -0.39328040929909297, -0.0005210966230168917, -0.3779929678857816, -0.36242747442889833, -0.03522897503725581, -0.23476977332821938, 0.19798181276276974, 0.13635366860467923, -0.08743812689516334, -0.1936275668010458, 0.3341305092701636, -0.07859886966804422, 0.04265714653355117, -0.10777838608807563, -0.26452812943510795, -0.17920226572628378, -0.3094322935938289, -0.24364114480842797, -0.3345785330638244, -0.2593643429032697, 0.42889657317024826, -0.11234137627027461, -0.2659071592276564, -0.11935563612366434, -0.21268331793724762, 0.11350629644393742, 0.033167409901982026, -0.23674287544649966, -0.07211802406461824, -0.2691986906182144, -0.24613440471408293], [1.00057980592939, 0.9387244654335132, -0.31820930819956245, 1.052449318347674, -0.5199936427689793, -0.2917249414459606, -1.6186589184209434, -1.2764823135006687, 1.8733668098351561, 2.108788408376963, 3.142890040000057, 1.9684904149824047, 0.36703813661743945, -1.160213934958299, -1.9191252940423156, -1.9585401869970225, -2.4463479145717737, -2.087979693876956, -1.9544658076650603, -1.0235618244255853, -0.29233093681869904, -0.5881957278997855, -0.8244189802806954, -0.8029240572487236, -0.33056160014520775, 0.8145655163745424, 0.8295264515559726, 0.9778503501560614, 0.7235479665899274, 0.9094881050846794, -0.692336117292996, -0.35708701066667, 0.000625320783620879, 0.1163896815719174, 1.2246596609998945, 0.31237892120153254, 0.4372875694435071, 0.37421565682500024, 0.24019265964189648, -1.0758524284285478, -0.32263688181354044, -1.776012574446079, -0.36149919179029655, 0.8699497181394648, 2.258076587087948, 1.8325693435929882, 0.5485061754229782, 0.9057480699092084, 1.5652207922285648, -1.5057763712046566, 0.4802549637476501, 1.3537891199159138, -0.7281902251936537, -0.5046587567647555, -0.8056740082043714, -1.6304338570251464, -1.8939987352007257, -0.7612587291591756, -0.9001098940192258, -0.4704914122402468], [-0.1239100675426788, -0.0028387808159842896, 0.384672018113604, 0.11135603174260371, 0.21511021537376443, -0.1100280852197681, -0.08105086732599727, -0.23818215869074363, -0.21097473197909594, 0.227360371110276, 0.022494425164371695, -0.09250867250995903, 0.1172606269212411, 0.19466263823757593, -0.2948082856726704, -0.5322030901137367, -0.7397770176792796, -0.8199948267412073, 0.015897168727272995, 0.5909361949637804, 0.25853471435755543, -0.3575342836287087, -0.256213707889769, -0.0726473274802509, -0.19682726409221873, 0.11070885223350492, 0.41981823028952936, 0.054747957255733504, -0.45900308993546257, -1.2052566179789237, -0.41275176173730127, -0.7091334462081285, -0.7722841349597211, -0.1847398625531202, -0.19913755324827817, -0.35360959477064147, -0.11059906900971092, -0.12261423763317064, -0.06929353085626863, -0.1399400602668411, -0.6226533121586014, -0.21135782055835184, -0.22405868244877353, -0.3158223979032828, 0.006696979391403681, -0.06500461511206405, -0.327635053457463, -0.22064301548961626, 0.0751899413559512, 0.3362034693209227, -0.35582752215462105, -0.13998720829395264, -0.1576921033155943, -0.26164047732502266, 0.24180515230097827, -0.0012560881592258402, 0.19734662639218883, 0.006708057622089781, -0.0690720142367211, -0.27901073359830225], [-0.8454379487208254, -0.06914643635648138, 0.9932762077047166, 0.48461584843612343, 0.5018355819656576, 0.8805273875310282, 0.19800867701684818, 0.29477619197836424, 0.2836127604000944, 1.0758342240542922, 1.6094037130035075, 1.6004854787657061, 0.6221576093827306, -0.0381240521203407, 0.3249365947698096, 1.8895961834328885, 3.5040378198381212, 2.1173824852507446, -0.1214472768254114, -0.890390077810327, -0.6464539378433233, -0.8618867850324387, -2.2581334900093775, -1.9061651292372095, 0.2793021922216578, 0.22431254410398294, -0.24913326116022821, -0.38180592745028574, -0.5848474169879234, -0.07648063044357181, 1.6939467488764064, -1.4126198126003404, -1.7546593234330208, -0.02337713907136299, 0.5329260350046199, 1.715159830486756, 2.362180126426967, -1.2744549436829176, -1.3689628539273664, 0.586013587881401, 0.20268056760434594, -0.9764560017301905, -1.6519985356009879, -1.600974748439966, -1.1381205518052806, -0.7690195983305399, 0.4901626069419766, 0.5583821735118876, -0.33674366516088217, 0.133124941696691, -1.6417584267628325, -2.436492818432408, -2.588191468613459, -2.4353182390291157, 0.8333410078656016, -0.8741849156443982, 1.473711179435031, -2.7296874259121524, -1.1937110626652705, 0.13867530969596797], [-0.012605377785857054, -0.07563538827293403, 0.16624152780464144, 0.15538920542051318, 0.10713655794494391, 0.07660808007274329, -0.17026441181191368, -0.19185450163910936, -0.21918132039865865, 0.2563060204009447, 0.031070495506309193, 0.16371879558398147, -0.007512153213669441, -0.06661993062477793, -0.13395035999901375, -0.4675883435436817, -0.529993469998055, -0.6138865728392606, -0.09180952874348038, 0.3235572772312075, 0.05276790645086922, -0.14961919787653474, -0.14889913424996942, -0.3522504031126317, -0.3496932133050946, -0.07190263433847614, -0.04039886277404686, -0.10849465238469026, -0.33397053462714843, -0.7325882291805361, -0.35572662061322186, -0.5355928774008987, -0.6141518123850611, 0.1487833945520518, -0.2794506802084229, -0.29005123238213304, -0.22564019920029102, -0.17256611373014952, -0.05675389306581647, -0.18165027524223018, -0.22645890222227305, -0.1793589675925603, -0.14983732156712493, -0.17693874933348577, -0.034950843600396596, 0.01398349658885223, 0.022380610563776725, -0.07048454980136823, -0.009023183293730369, 0.1507969223172173, -0.047035602122395305, 0.08180465231432787, 0.00944759693124794, -0.15741027991426512, 0.1138076254997887, 0.002442132446891578, -0.11693748778597336, -0.04229295000718597, -0.19048047658530587, -0.24465358023787795], [-0.018792160028494598, 0.150531816841704, 0.35960945304560793, -0.33875396738641433, -0.051854927503593704, -0.16947711749404065, -0.13642735165857162, -0.10672101903419963, -0.5373745411406521, -0.10259069935961923, -0.7236506038982171, -0.7509247824195212, -0.1389697482558881, 0.2217763447504388, 0.03945849433643901, -0.33926533897975936, -0.8519555085495973, -0.7355593127384105, -0.122160884733372, 0.5393379542416495, 0.04728951569700441, -0.5508076867258095, -0.06729606034790384, 0.05910038121360763, 0.08843123130301533, 0.41893030140508175, 0.6007904935234067, 0.0028240359707332064, -0.4335312145928282, -1.3017931012479118, -0.6537547175889727, -0.8844855358689604, -0.7678105054495, 0.2182170858968053, 0.037085855421701064, 0.1461557204762515, -0.12631985008271063, -0.2735185211357759, -0.39204000606922584, -0.1468995511768279, -0.5993110317282294, -0.32627829831110167, -0.3974934263393158, -0.547030235028078, -0.4458670494355862, -0.4711583874037503, -0.36189653598155974, -0.3661241096748963, -0.4461688243946161, 0.6505190004419633, -0.32286438462643924, -0.014469713307720544, -0.05752925785551663, -0.2700670797200548, 0.725560556982441, -0.12061805290716238, 0.29096748712117176, 0.005325130052347495, -0.23681940396327697, -0.14789767841170626], [-0.1710969344149187, 0.16990550964605464, 0.6802999512227673, -0.4305910236087914, -0.6000573040891409, -0.8926950379620505, -0.13662336414831158, -0.6356214376993585, -1.5498878590882792, -0.7787750716887314, -1.862089335433593, -2.0075571563359587, -0.43755608595214357, 0.8255169112744875, 0.12415730300267862, -0.7785778786768565, -1.6950187467618163, -1.3121937275224065, 0.41533807440800175, 1.3048674193827898, 0.3234075476908599, -0.47518194169487377, -0.1773529130626255, 0.0005620706731953532, -0.062103938149271634, 0.8571426225527655, 1.1302081070618817, 0.1214875465441413, -0.4219019084626924, -1.8166692380705376, -0.3084634305047892, -0.430779414865615, -0.8056706336972758, 0.2983338758943135, 0.1284574389085131, -0.006999430095371229, -0.05239151980869237, -0.5254187332129638, -0.2805993046262716, -0.35335246683092925, -1.766677599624602, -0.730145418886855, -0.963939633203726, -1.0746229776192036, -0.7620596183400503, -0.8359931151096488, -0.5022925942288592, -0.39391096210106197, -0.6062232016164174, 1.9488410890980876, -0.6657014517145029, 0.237387330887446, 0.39162699763458647, 0.22389547700790133, 1.243092189414777, 0.11201536139682726, 0.29055126004712273, 0.6165892283884022, -0.4109295527829689, -0.15694762648709978], [-0.013354619670770496, -0.0022523772971635974, -0.027753951470981936, 0.19334359540871357, 0.33373822999198605, 0.006865634159598548, -0.09792067622395548, -0.0620289137058916, 0.14679603896260293, 0.35965443655113666, 0.16895899062578595, 0.37757027476422433, 0.12262425615016363, -0.011763371113547087, -0.35105419365199103, -0.3308870532962397, -0.42711459164294313, -0.3943517797698876, 0.16529962273789717, 0.30340298095044854, 0.20398160918416844, -0.14593176104420882, -0.2539691611038466, -0.31209251096716417, -0.317641135276836, -0.15379467750994805, -0.06513966257628864, -0.3751093413220209, -0.5117352691266204, -0.562239551552675, -0.4032442915820272, -0.6623143874596196, -0.5971008924567976, -0.16477090513755527, -0.27677530552638774, -0.4085755630503864, -0.37110144195648376, -0.20033223614260698, 0.17639313119465785, -0.23646569545602036, -0.39497715445495, -0.1063742174090078, -0.16777981369219094, -0.07150762640657135, 0.20188208959709592, 0.04308052414964513, -0.051732399764866266, 0.031808478553468536, 0.03608964488988234, -0.05917110638850269, -0.05480283063647893, 0.10088211627958525, -0.02159216214263926, -0.2729984640322936, 0.1130225668876776, -0.24763483313088278, -0.04639905850725379, 0.07540969429322696, -0.08028239283552817, -0.08366585502455771], [0.9755414244680176, -0.7091286095639423, -1.429725278828297, 0.6287551837716733, -0.28135961992848996, -1.5102463653473768, -1.8164012314004263, -1.6566757798591094, 1.0317757554707514, 0.023924154478102762, 1.6846810387481945, 1.3483816548202618, 0.37058575089839313, -1.0181760671313824, -1.2180726539032007, -1.7135434127668425, -1.645006892845512, -1.3485467991745854, 0.9649350458600593, 1.4663666647271583, 1.4336640850674383, 1.5916058945064988, 2.385559332413061, 1.770656941066552, -0.10927177677780803, -0.16407763365937336, 0.1615080183668296, 0.4713099996679066, 0.1678205148571522, 0.14846707528091077, -2.567347289624554, -1.1174302380738155, -0.2418454379102842, -0.5589875982532555, -0.6432148143895838, -2.240168495854764, -2.6387748683350942, 0.2876856081271087, 0.5341959957502848, -1.9614242651299207, -0.7480255192113113, -0.6746847246121088, 0.7327664949311512, 1.0034155133463958, 1.7357097167265902, 1.2138194835264304, -0.12355281238270018, 0.3742303239503954, 1.840434573866575, -1.8085844722135336, 1.279763584751309, 2.339031198531179, 1.306858353104661, 1.1252706013609717, -1.3959620188627029, -0.15572256091446693, -1.8450206947634116, 1.372511143785146, 2.2776910081138864, -0.11258738058689519], [-0.4276220985371605, 0.09144564843534383, 0.045123039162723984, -0.4471556063947093, -0.3773620727119458, -0.39854710553991146, -0.03961203570959656, 0.0262422398332078, -0.5952945046453438, -0.43830703181100084, -0.5874008664769574, -0.6757133404768967, -0.1337866602398983, -0.23515168403077963, -0.2370026104300341, -0.3352260266578717, -0.45903166706584503, -0.3798541298660518, -0.5848906204301455, -0.5248635401836147, -0.5294941265965029, -0.24615511497060127, -0.3031492019300221, -0.46973606338965435, -0.14616759788192432, -0.12481224324218573, -0.49188171797030245, -0.45453341393837626, -0.2418583017423053, -0.4000928766918651, 0.19829208836384257, -0.12648322718569713, -0.41931294516553846, -0.3118433191976387, -0.15456534228785826, 0.24868713537496068, 0.33977823582076633, 0.024006696392492442, 0.034135927767519045, 0.3688638226443873, 0.3454905650411606, 0.38871093317379013, 0.3023353549789959, 0.05420545021993523, -0.13436161124186352, -0.15810043830519677, -0.014738743891554003, -0.17556148457145335, -0.1319998093930088, 0.2936977286060454, 0.03090690167571808, -0.2503941272627768, 0.06034618859880515, -0.18712549463760456, 0.14154953561720007, -0.17226941040711002, -0.4453850767087717, 0.05884667592051983, -0.1979739007353751, -0.2067584756259633], [2.2390983750006654, 1.5654413351879397, 0.04775491225214232, 1.6870333929161643, 0.6270892150370984, 0.26095892513466823, -0.9161026598769435, -0.7381674905956569, 1.9438012943005543, 1.2748749049540813, 2.418102949910538, 1.9602979618404748, 0.0038365408407363367, -0.7073075654516514, -0.7604058943920745, -1.0256052532761617, -1.7966484355207046, -1.7187902142504963, -1.5861666392338891, -1.7989350825033381, -1.0860046663336673, -1.3141875684969735, -1.5584929193985066, -0.6434125448182298, -0.4878895525832853, 0.04512810899057399, 0.1583844169518635, 0.27861911828434277, -0.07208715975425259, 0.723336523649909, -0.22345465222410665, 1.0826315687608585, 1.2858567651909778, 0.3197677530525293, -0.4343816988465926, -2.1259676689408744, -2.4604077221411447, -1.1697464373924267, -0.20595612171167918, -0.7500444202169756, 0.4664931928374465, -0.4613476365671806, -0.4196292383607895, -0.26508916287504974, 1.4654986960739962, 1.6624163925980093, 0.9575484073056797, 3.1099238644262517, 3.4184876080142725, -0.4884296011147704, 1.501751850045189, 1.7516628145539266, 0.5863757233049045, 1.184352830163969, 0.018929476123531245, -0.5133820675972017, -0.12454677409587349, 1.105530007029256, 1.505041760423618, 1.2375203607866014], [-0.4450218785719402, 0.06314595186015576, 0.2232700929810091, -0.40005633924781003, -0.2612445224378298, -0.31523362189802717, 0.032392507420333914, -0.07250348066048802, -0.4931563517513415, -0.233683412925774, -0.6901516949647317, -0.5797728360711912, -0.23533666765061698, -0.3190397617225301, -0.6677777359464921, -0.5101854896323074, -0.6307753434366594, -0.5321168338810235, -0.2632335686982094, -0.26925986948116076, -0.31473969960518516, -0.24069864852021422, -0.23990077410589747, -0.6018022529268341, -0.3356917710450064, -0.216346205899995, -0.2861283258176678, -0.5265314091117347, -0.29833776478886886, -0.7900703295445218, 0.23303379754114256, 0.07047170243212614, -0.21398187875199903, -0.19388320324648628, -0.31613442977343925, 0.23962568463328565, 0.3495950778069429, 0.14609947380300178, 0.29680211428688813, 0.5507138727690692, 0.47878706606319565, 0.35103350614676204, 0.24962087517513787, 0.08520980680232264, -0.17591629287840588, -0.08801443402153726, -0.14123318147878447, -0.2000229603894166, -0.15306394455963093, 0.33798164796020985, -0.19439253648102592, 0.0367659731106577, 0.27012846712530497, 0.03722114323675354, 0.012042197675861142, -0.10018267584263409, -0.4142860664010541, 0.2391018382319466, -0.3311048257780005, -0.33382682698855787], [-0.3018209597309891, 0.0025840728477553553, 0.2975988707183033, -0.17189225659329374, -0.20366599819055356, -0.2505034946188271, -0.28527154340114513, -0.02743469455949142, -0.3702117907258688, -0.19421667141489096, -0.5997783241459006, -0.7131912018039769, -0.16852792655347712, 0.19780616023970032, -0.11704842477148249, -0.4333711516380927, -0.6029727555990534, -0.7950982748125409, -0.0429597806427954, 0.12613286057549125, -0.0922340632104226, -0.3268428999143615, -0.18428579006286516, -0.2518044807021433, -0.060513972098580074, 0.35276483739099, 0.4043191698098518, -0.10739849458711799, -0.5305759972280074, -1.1245939400479203, -0.41485777777497695, -0.402952947549574, -0.6136103115711942, -0.17205089560896977, -0.21784109029264245, -0.11998232451739681, 0.18008684035663572, -0.14137143447616102, -0.014484609158591519, -0.14768984671403357, -0.2966116001184811, -0.18340608639433637, -0.1329070642625723, -0.3479114272484347, -0.24158783052108138, -0.3412717981780987, -0.1520754638949948, -0.261108364306271, -0.3332477880393395, 0.4482334399173372, -0.18069442083050685, 0.10633728290076969, 0.12461970139928541, -0.17600898652518068, 0.39457896766319406, -0.3194669467796041, 0.06490445634339494, -0.07353516709085389, -0.08836084904232559, -0.47198611037571325], [1.02068308800134, -0.25111948928733385, -0.820832901153815, 0.4778313006450413, 0.2618716069671155, -0.4984628442792132, -1.0195342479460705, -0.4969622078306124, 0.46394140503903547, -0.1206636904198976, 0.449078355271167, -0.018338116644534292, -0.17163130024512552, -0.21082455570529365, 0.08269615061911413, -0.28999662604584014, -0.2203984241874353, 0.21080102198316597, 0.5395487888141962, 0.6777772552849568, 0.7920321183354846, 0.8921719382808185, 1.0626817296859714, 0.5825116617939304, -0.11773486015489584, -0.7518576699706019, -0.6150801842477431, -0.29976058520646803, -0.020313272457051692, 0.5141295433140505, -1.8082702457493163, -0.3084044089866603, -0.08069332997570755, -1.2443892158539371, -1.3693003566777489, -1.9867655209269115, -2.0872993110470928, -0.2423804775183847, -0.11531754970373836, -1.3738568067908015, -0.11178024209125191, 0.5119727917768219, 0.6800082616319246, 0.7656047236320643, 0.6571540065915982, 0.12965038270143323, -0.18771596433394835, 0.1935924012495567, 0.7368140089809762, -1.5217402205393682, 0.9014682784169793, 0.7848475786216647, 0.671925091608041, 1.58685128806884, -1.1023274148056657, 0.6802937493406099, -1.1375397812318842, 0.8205448678770989, 1.3445631853603999, -0.01893534767244491], [1.2463352815809199, -0.5439202661633996, -1.3006545382784989, 0.41639170553749394, -0.4044409073362482, -1.433267973331778, -1.894309286664698, -1.936659898165772, 0.883767253142163, 0.030956365656268213, 1.3992168774743519, 1.0258074629021383, 0.19462683019631316, -0.6961562855445002, -1.105158474010357, -1.5308830427156346, -1.6972646062771954, -1.0537597622092927, 0.9636620144790943, 1.3427113558201484, 1.297101308755161, 1.341322465340747, 2.289613764027131, 1.7102250705035817, 0.1744795641812048, 0.1388714497822414, 0.22400912368718373, 0.5655831620589243, 0.2848325829359034, 0.24086581801748158, -2.506326812303014, -0.8583333562394727, -0.41784219899320574, -0.38704908355786816, -0.7140437614879694, -2.1388951135704892, -2.5056298064505156, 0.3482616332292503, 0.45473317683134973, -1.7755298261630406, -0.5690323767508331, -0.4978075542308661, 0.4435590749081509, 1.003244323002095, 1.5749582675197822, 1.2677302673088129, 0.23399250801002566, 0.30504594133409724, 1.7839101009634715, -1.9136169916406267, 1.1238414035333277, 2.178441427959342, 1.0343236999495977, 0.9884324983475562, -1.655541282898306, -0.06724011411749649, -2.0563811407189627, 1.069358588580399, 1.713805221817951, -0.2662362374860266], [-0.6347943935294702, 0.5015406663598988, 0.3183548028802172, -0.7812961307286636, -0.34837400070825125, 0.19415352342863876, 0.054287281991017955, 0.35302972996523446, -1.1324901165186523, -0.823660138893834, -1.873978523741129, -1.837963412054093, -0.6287956467921496, -0.003029932406750792, 0.017160485929204036, -0.18323327630392036, -0.7533349124212837, -0.3872624856423073, -0.5468206481259227, -0.6302549449324748, -0.5769367202661619, -0.43919474389942637, -0.13854673578810384, -0.6212930245786055, -0.08651047450314263, -0.027472575346783712, -0.44215434687660804, -0.6088852718477841, -0.47606375065036716, -0.7009622217270324, 0.8285468965722964, 0.7638007370821178, 0.3677308047920897, -0.015408895053573216, 0.23269208503642902, 1.1717670832834908, 1.1843139724612346, 0.19538693749624722, -0.021063096474626213, 1.0430481206012974, 0.8228977129136424, 0.9556580075150732, 0.2133754406385221, -0.28214062707495097, -1.0254941426186255, -0.7795628188587598, -0.38568142929517835, -0.9714411687743207, -1.0837226914546292, 1.2933487951801939, 0.10518886917108243, -0.09663720685277218, 0.7739732997467549, 0.3150789089896722, 0.6086365675567315, -0.0353036502764822, -0.28748955853786123, 0.20451371349233888, -0.9825140893969012, -0.7437363512234103], [-0.4242582212666253, -0.25354159767878576, -0.0951365803950331, -0.3706302067551106, -0.38652200842795825, -0.406001477379587, 0.0006527502347714388, 0.09971522153588391, -0.6907931968124599, -0.614565554688082, -0.874689469554067, -1.018247266085411, -0.28804778410717735, 0.2307609798597695, -0.17783318748234792, -0.2302112180532594, -0.1880993085723365, -0.3484890458387079, -0.4823254113178605, -0.5629060333335058, -0.5277425795903983, -0.44809517119042436, -0.2149956897773153, -0.13126426075406017, 0.22281808829807073, 0.23617656493903555, -0.10944481099329627, -0.22860768377996313, 0.05753813558337808, -0.3406965325352944, 0.1724807518678754, -0.3040813381060839, -0.32320523948034174, -0.169996477723708, -0.19448117703321335, 0.12651973308154008, 0.44194746500970694, -0.08793507230348362, -0.3414694106889475, -0.0923527999677269, -0.2929687941876052, -0.03718842820445012, -0.2457045858937488, -0.4046156997439739, -0.39342754088712, -0.5810359752285705, -0.360479236748165, -0.21135463196764587, -0.5752532771317395, 0.2598961267760057, -0.28477830037831936, -0.2750533609839165, -0.13165079343087474, -0.16490090283352757, 0.16938699592346879, -0.12459686141012191, 0.04105537565711635, -0.2162894526720684, -0.28645789155257206, -0.1433704795230179], [-0.1401127910650779, -0.040134700643122995, 0.13381218180282003, -0.16456127778861765, -0.3842658696757608, -0.28450328373109524, 0.0018181611382083835, -0.07772463692150935, -0.5663789873106604, -0.30302576654611074, -0.6461576509415465, -0.7301975596757091, -0.3670424648494842, 0.1358927527566023, -0.1032118554707313, -0.4485849847492026, -0.47209733697913586, -0.8168879800069552, -0.2727462270700004, 0.15128312223496462, -0.2061121032109619, -0.4766397424515214, -0.054393683375520446, 0.13708901383862246, 0.1735001998706875, 0.11928135197133971, 0.3505703979311221, 0.08814746076848283, -0.2695945831319266, -0.765436612772276, -0.28650739898275807, -0.9369246226818089, -0.5198722396081565, -0.044048527775123594, -0.14216007796160654, 0.048528134215047994, -0.16714855708918314, -0.2849420285892558, -0.17541655563452985, -0.23800712538722493, -0.8457140499293085, -0.31571058788877643, -0.38464632667742915, -0.47998189513940215, -0.3956733884435776, -0.3311982401243264, -0.24150595531067284, -0.47589718553795207, -0.4183709410653019, 0.5045884114859808, -0.20386871268400325, 0.022484850161761882, 0.046340039671306656, -0.213175649603298, 0.44179443251429434, 0.01907038444527544, -0.07688179963612303, -0.18833975637703645, -0.12443859485128018, -0.02848413690206701], [-0.4924209094403007, 0.05454741455646767, -0.29159635394612515, -1.4328428708725522, -1.1744534626416343, -0.9062605245114999, -0.04310398819188838, 0.29358193348950734, -1.6133295279011344, -1.2469884929969797, -2.1122689506232124, -1.5628752727912734, -0.5039363136073095, -0.5750870145378985, -1.0699221197367752, -1.1002705097422116, -1.5930806184187125, -0.5059051849619199, -0.2866949928987224, -0.597007138884306, -0.4296307739748431, -0.3474204183633584, 0.08545242802572153, -0.6280463848935026, -0.5408136397288033, -0.5307884619342783, -0.8726935250723515, -1.0205845154581314, -0.202254751821234, -0.39161119889167545, 1.0444872237013527, 0.6944701096140333, 0.48364425322528, -0.04261976444929662, -0.0969799156891776, 0.39983758463095803, 0.5564538165247604, 0.633736697938209, 0.5809021877144165, 1.706317759370054, 1.142150147587077, 1.508415024047537, 1.3149313912155807, 0.34323490543593665, -0.3730937165508504, -0.38377724867571855, -0.10275667360929822, -1.1520218037868433, -1.2351602347416704, 1.5842249449977326, 0.38398115783290176, 0.39894269271817673, 1.1872019096027522, 0.8426398260697476, 0.4086745091967841, -0.023841610824558112, -0.9182424405819217, 0.5429693702523004, -0.7587660446951278, -0.6027046536823593], [-0.24766231958350507, -0.0038112518523164647, -0.00869960350544197, -0.005006351833669669, -0.02313304335760391, 0.02482078447584123, -0.3273632183684565, -0.08290446566031766, -0.29310785874338, -0.08000099786992945, -0.3058041818524347, -0.2502155910440913, 0.005589815496698585, -0.06087422344918696, -0.22976942788827828, -0.4525159609808291, -0.43751090071584114, -0.38421984056385183, -0.22089831386773637, -0.031887667032006295, -0.22613390590549473, -0.21614228458081255, -0.324899232762902, -0.4629474955151239, -0.22957238996084786, -0.08097442146385601, -0.14452489605832003, -0.27578595322478167, -0.3401643040278875, -0.6716260808979353, -0.020945737920792063, -0.3075379896227096, -0.40494043267085206, -0.2799953479738417, -0.27300487280729346, -0.024851195821380526, 0.08283074791398404, -0.09798059366783378, -0.0581244093622073, 0.044609633517967116, -0.12071325141788827, -0.032650036316126424, 0.08677104273533752, -0.08403735086239918, -0.027436386491939014, 0.1140197747568345, -0.01886921272024951, -0.10939406864595266, -0.0009882885784202843, 0.31960388699364367, -0.03384881040798712, -0.23471179889654853, 0.04799543487491279, -0.17933529406029933, 0.14153328846398983, 0.0035756836439336617, -0.3450648764628073, -0.14140716427883, -0.26959598627640824, -0.15694536555085903], [-0.32923671159877865, 0.449378795206224, 0.758205075580243, -0.6052100609712643, -1.0584485462109448, 0.07013075238149397, 0.6662463816227086, 0.3575740475587382, -1.6447212057632796, -1.1565642405356753, -1.8529554048420431, -1.9698712462124945, -0.6115409552963694, 1.5778555525268545, 2.010629783709407, 2.2312952700181454, 2.045543752797349, 1.218952424883796, -1.4113385915182766, -1.2299615070006478, -1.1366216979440575, -1.1210659421422775, -1.1341873877496509, -0.688686226027244, 0.8863965612621062, 1.1480047771543065, 0.3115748858366318, 0.017584032098135752, 0.07410711544868691, -0.18319817210959843, 1.576013607045582, -0.13379213576159035, -0.2738242427055459, 0.09416639997756054, 1.0464754657067723, 2.712222977790016, 2.1443404447360566, -2.023568127871019, -2.9166043974869735, 0.1544938934101623, -0.6547186852771597, 0.06504867771858193, -1.187837002486152, -1.74155431893212, -2.06122172179308, -1.876698432713332, -0.6109931114347273, -0.522164587115801, -1.5884814440648642, 1.208434938118425, -0.8921663425345746, -2.257060363047383, -1.5025447737137176, -0.5285027832864746, 1.2445135210037783, -0.42475898132106843, 0.6618225094137131, -2.418527050612477, -1.6467176479683947, 0.015756248508887315], [-0.2334603957502016, 0.05763378658441468, 0.2309731702221217, -0.2137111993767812, -0.40623382005921677, -0.21642319933655596, -0.09965583022043796, -0.12031430024304622, -0.44227398551831054, -0.16105483523416803, -0.6066922414027677, -0.7738935451836875, -0.1743285310214258, 0.029469630353030844, -0.18589035953918046, -0.1653405925792147, -0.41887978262560027, -0.4763103529169104, -0.24951517956314298, 0.07287206932876604, -0.14740664346405938, -0.5214624629721684, -0.37844688015084543, -0.15272382614018884, 0.2135823884790734, 0.355686490333959, 0.16020271136704503, -0.20777457657832538, -0.2656132150297928, -0.8717383507361808, -0.15201718988268034, -0.5278928351412404, -0.7328146876673364, -0.0623160122730657, -0.05685223962694988, 0.06943409867019784, 0.34132774026916374, -0.27208484934368343, -0.2642606345815887, -0.10334085801803587, -0.4317019442071961, -0.06076207460838466, -0.321812300829094, -0.43374819039142787, -0.4976640053163023, -0.3623544377341321, -0.29351032521952636, -0.29675881714333113, -0.3922801721701551, 0.42380179203491714, -0.19920730786132293, -0.29582970325645225, 0.0008893794142099635, -0.3091671507554665, 0.4504763843672761, -0.1521028060656521, 0.2840991397069861, -0.07776465280871085, -0.4166018682165652, -0.25209450240694115], [1.6634735055785372, 1.2763184295569079, -0.12430916413020947, 1.0810024351405827, 0.7153536357495746, 0.6583945633133496, -1.3768807631799735, -0.8473101834281491, 1.4757284365088235, 0.8713262945685349, 1.6739474133915526, 1.5935949959540223, 0.11412666759926109, -0.350921282250631, -0.6572616897582025, -0.830852973533728, -0.9311497032591094, -0.6439609132364512, -0.9158980978040928, -1.20357479819313, -0.969906500450483, -0.5879451549567496, -0.7570739626495746, 0.29607698015226197, -0.07223801377853514, 0.03668986399187671, 0.3590149090552489, 0.4075482878688136, 0.08604845088419186, 0.8613530941644333, -0.4095587032604682, 0.7502241356181285, 0.6974349046558191, -0.5606321904333753, -1.1196826825641977, -2.830421239261145, -2.9435316563225653, -1.589176138187327, -0.8741931516626623, -1.0223583399819212, 0.6082666825586802, 0.12635468538251923, -0.11906222724367553, 0.12433720917279713, 0.8920558541684973, 1.2614910827263972, 0.869706500939755, 2.4332830798161087, 2.465009826580685, -0.9885265598821691, 2.0249172931007102, 1.8988957666685138, 1.4129869180613261, 1.4846410115465647, -0.38857737121903657, 0.07394731117762497, -0.5908846308397903, 1.0885008057929637, 1.6011722212312998, 1.1041077037435645], [-0.03196119455310577, -0.0629521583746168, 0.05182738380690252, -0.11112904816064595, -0.1860905097219793, -0.20038355454731074, -0.23804189085368238, -0.13690676232797389, -0.1201098002048597, -0.14105377239349096, -0.11904775052941263, -0.1634310218141308, -0.22902549761436433, -0.09903550631347223, -0.18843442419006953, -0.47507632262448823, -0.30402961946424734, -0.3065305619295523, -0.1939565452234357, 0.023977138924106703, -0.4589736342530899, -0.2598031092787339, -0.20604218946154693, -0.27499512341406956, -0.08682065398377696, 0.102342386263528, -0.2164258961274786, -0.21516572219392574, -0.11701098233445259, -0.4353473492628045, -0.15008428602596488, -0.6161995669607482, -0.5721181528496367, -0.22953023615988996, -0.2492346601131627, -0.21569305252421675, -0.25526243663873566, -0.09337154788387415, -0.28721551277007495, -0.2665231969089185, -0.2990297271946201, -0.3514709725296102, -0.36774586798710696, -0.19811917095389248, -0.057265864390566, -0.1509606260502931, 0.029805664502138552, 0.0868214274940767, -0.1836234072402534, 0.12948498094322286, -0.13965646376475377, -0.00837361786626295, -0.14221716504894433, -0.19997788057422627, -0.013721592148630073, -0.21237563669555015, -0.261670010756847, -0.038550323586609696, -0.09357667575541893, -0.01752576946888652], [0.038945954054275686, -0.06465562216872617, 0.3243594397722304, -0.013070544740589473, 0.010055879434106484, -0.4684191009713727, -0.12219823371462188, -0.21579603177857382, -0.35962940989263203, -0.04381951784104011, -0.3187867483022204, -0.28846140205612925, -0.06855607910144192, 0.01960218263403809, -0.38131172224807525, -0.3781657290393595, -0.9202467440328923, -0.710484769947137, -0.11678430607277533, 0.39231093869144923, 0.040310415755530175, -0.3281177526385314, -0.08224907687690507, -0.07117224225446354, -0.19636935804303446, 0.11308576125650271, 0.40449296833048903, -0.0890104546159452, -0.3047476301008331, -1.06016700307564, -0.46591719658925096, -0.5626250860268663, -0.7519332457052649, -0.25274502956132494, -0.2658977162379097, -0.20140977914091002, -0.15357343177614807, -0.10058760875921706, -0.03928277108410969, -0.15058451483538382, -0.5025972127534128, -0.39842374358492194, -0.47869288652374153, -0.25918642566710864, -0.016529352540882083, -0.16373348095880605, -0.1431222359239111, 0.03667389026355758, -0.028793268887775298, 0.49300094890721924, -0.24281879745777665, 0.11721695283614289, 0.05993752255838851, -0.12023688864166085, 0.2273087093048819, -0.1397353532076675, -0.1171826575855105, 0.19183061910118596, -0.22657454312264125, -0.1080265455616219], [-0.006386496153939822, -0.20997508433669526, 0.06212356765309991, 0.11769252740323886, 0.225526840844468, -0.014817865763993196, -0.13461071996428953, -0.017110037455136513, 0.04819173478127926, 0.08735891876767572, 0.09621870782661614, 0.009503135075125497, -0.09099710975309716, -0.08875485738534805, -0.22185847992988425, -0.4962787579393098, -0.3588034824945943, -0.3268896476894218, -0.2685763457966222, 0.0898667681162026, -0.09693098351908683, -0.2870983250526017, -0.11025256969381601, -0.25689957482442766, -0.3937561463056587, -0.29806339193645015, -0.2031405212660819, -0.3796028056819033, -0.22209978549160478, -0.3550836580840315, -0.1834863310600424, -0.1815835218110016, -0.45529034278692765, -0.2760136169654734, -0.22944166346020362, -0.31397019989045494, -0.38973416506392006, -0.1407884633634062, -0.22966722594096706, -0.17843288349162642, -0.11581411060009499, -0.21599367546843296, 0.04967202213003702, -0.12028227204618558, 0.012292216237271673, 0.17864197168729334, 0.040342011472859846, 0.027899249308392497, 0.13710498649056532, -0.03215230172359533, 0.10583051668803291, -0.016925431367269123, -0.1929869421824635, -0.16183847242471236, 0.05656753647928606, -0.1220407244772491, -0.2709180758581602, -0.08356383722683376, -0.0012848157323812805, -0.0025365144681879365], [-0.4512325241335349, -0.017502391769898203, 0.15026623845934958, -0.4534805794605589, -0.5611649071293786, -0.4647997185366943, -0.16074358608469408, -0.13157451653740915, -0.9937996621505669, -0.5795900571342438, -1.552548080807664, -1.3270530994088665, -0.3918196946604588, 0.07414453837067173, -0.24667115434616071, -0.533880568354858, -0.9171640672348538, -0.4233156144657887, -0.24223625744919508, 0.1043524845379533, -0.31866711365107353, -0.5077017101745842, -0.3365889956630901, -0.35451617760764775, -0.0566244320827114, 0.34938939158020255, 0.3196606983437388, -0.12465484554563887, -0.2623084240685729, -0.9536094727511999, 0.09658992377690104, -0.15650825987583306, -0.0685610078968915, -0.0396627590087186, -0.1614113457187819, 0.3923769113396167, 0.4543540594086886, -0.12774813897401782, -0.09978264616023376, 0.18069184228763446, -0.0899274026865454, 0.16005509217805833, -0.3724329522716911, -0.7432524317114372, -0.9042513008396705, -0.7005061630099929, -0.5422433589531203, -0.7556718654075711, -0.6509201587271303, 1.0239316147274526, -0.1853452018958382, -0.04546221436109078, 0.1591854867523697, 0.26969644197616155, 0.7436977635129668, -0.07332977131037725, 0.09095138804055046, 0.18809680174927818, -0.5325417760401987, -0.3310691735384707], [-0.7249675941406895, 0.42047847605286387, 0.3388349089264261, -1.0312129652541004, -0.39419124178171, -0.4249596314090213, -0.26591596544555146, 0.23972276561608094, -1.2226811945622942, -0.9190874436839062, -1.6269134110690742, -1.7277765899265425, -0.762682040357666, -0.2281268347007707, -0.015283110263219404, 0.10969624025775224, -0.3904796447306297, -0.29546188219267844, -0.716489919202134, -1.0108826299856626, -0.7703970474093509, -0.42619161396369715, -0.05059332163589929, -0.5682627523771486, -0.5538977815248297, -0.08298546728019925, -0.9610851639095588, -1.3502745712437945, -0.7204367512240625, -0.6070986097752813, 0.9763768704576515, 0.44339294461764406, 0.19716710254166026, -0.18032425265407523, -0.3217010589990773, 0.7052735593179184, 1.5416632145962277, 0.7724371581013947, 0.6976040794962634, 1.7285956623388097, 1.840459626901438, 1.9680689938181062, 0.70394741689735, 0.0765896254145785, -0.4863875582454932, -0.5182609505431897, -0.15167390845933193, -0.717212023559741, -0.8389875066735557, 0.7435182062438096, 0.39406119763371705, 0.3688532555313345, 0.7848315975974225, -0.1673052726608398, 0.3476717659896082, -0.3200189251206036, -1.3639677816473534, 0.12530293229767156, -0.9313391364156557, -0.8658769254990943], [-0.12711256172125926, 0.051917465895376796, 0.11856330964771168, 0.06824866763348737, -0.01949390251494544, -0.10913182652799565, -0.15698006381952614, -0.016676875239263856, -0.26073851106108953, -0.016190828392754993, -0.14142698962473169, -0.27976331753757994, -0.05654672626699803, -0.18948885262086673, -0.3188550696613641, -0.4033713123555451, -0.4538881154492937, -0.6801736416118118, -0.22132862974939518, 0.20769122532453646, -0.08531140360405409, -0.373496191819901, -0.13707811590866478, -0.3076614857972412, -0.24068218563705002, 0.03181833808207302, 0.3428700718622826, -0.17773367022334838, -0.33328519958458297, -0.837208330583352, -0.3186252295965169, -0.3248385756148573, -0.5517859154472654, -0.22772746284084533, -0.24849696579582156, -0.04466665474908611, -0.03735738847876539, -0.22073111629080938, 0.00443352543995678, -0.14740750194149543, -0.4384754373721654, -0.19176299108563666, -0.1195337846290703, -0.08709179008734555, -0.14944158882067446, -0.11435505818100195, -0.2799940435152091, -0.11043305260806992, -0.1442329594513889, 0.2762451727488482, -0.26321593350357314, -0.028204277331585217, -0.05926493848999677, 0.02342559480629949, 0.039488918163304715, -0.0877433628614507, 0.0016817419775328306, -0.029992027645862746, -0.07932588151328138, -0.21746288454587656], [0.24961154474119454, -0.4041728294788417, -0.8175457719826671, 1.1319454020925794, 2.1628045446479702, 0.22303919908138967, -1.0245944142239223, -0.5117009917016048, 2.1692348844686364, 1.3213421460506578, 2.7181722374460895, 2.813307921157999, 0.6383884912485605, -1.729581891947415, -1.9796160492546144, -1.3850576307976064, -0.9861608813549321, -0.561642902190087, 1.1292595144653146, 1.1219766652995264, 1.0134574582259952, 0.9235463200378702, 0.94435651425904, 0.28886127572735837, -0.8800211084771761, -0.9044510095872417, -0.6837991204357129, -0.518336402392933, -0.27901845437618483, -0.15991956449072822, -1.4211649453552968, -0.34734159028859457, -0.21863704120832314, -0.5779835619902703, -1.1319572850475468, -2.0742589017065094, -1.7419243461666623, 1.5024744369848828, 2.4182919974540815, -0.21172269733366916, 1.148049261991124, -0.02375614499198602, 1.2717264932984758, 1.9164826295733743, 2.2369201302585062, 2.33284342779297, 1.0476766800244783, 0.6931662265149604, 2.3564659222228466, -2.3437416295522504, 0.758450661631463, 2.168639869702571, 0.987714587947449, 0.03345039191822769, -1.4495287050655126, -0.025045361470074023, -1.446554919002547, 2.0784215324808635, 1.892551517784164, -0.2819694326507025], [-0.5940899500438364, 0.055431798785891655, 0.511549831803039, -0.7176494586356642, -1.1681325900593662, -0.3961869927615295, 0.5260402665900116, 0.06457696400324932, -1.587785493679294, -1.1419382969634297, -1.9189571113925705, -1.9063151475632814, -0.7715224997280475, 0.9319070517324235, 1.3456568465067051, 1.3379725964357811, 1.341065175437342, 0.6727670272807251, -0.6420917007434392, -0.7566756298016346, -0.6007286262603729, -0.7729312261548318, -0.9025138721089262, -0.3617104952720418, 0.9523354976484422, 1.0149334029103048, 0.4952300591873837, 0.004586275545492494, -0.09592833640026287, -0.14470018061845077, 1.1719706943446755, -0.37300701161321503, -0.6655326498537296, 0.15084691696821118, 0.744760753868499, 2.023845225048224, 1.5251019358838218, -1.9156944178993447, -2.2137055287184575, -0.3185983382176268, -1.2520056548365346, -0.6705119533403838, -1.3348395193320666, -1.4929612857185908, -1.6338558446282803, -1.4628698812797254, -0.5240181666367243, -0.2732369393561482, -1.2930495065950676, 1.3216074164402534, -0.6653887634817343, -1.5797216982934579, -0.7834920610316787, -0.4443879773376966, 1.2870099697568227, -0.11433569440189825, 0.7415772224413619, -1.6712658034979713, -1.0670488623454044, 0.1299441192604228], [-0.33675667991533387, -0.16725311470413134, 0.3911815515447372, -0.18354160857509047, -0.21134930611014205, 0.033154208944599944, 0.09593437347694661, 0.13548641499337308, -0.6326055390753872, -0.38517512372278456, -1.0338324091787592, -1.0237832803762466, -0.37701218447424345, 0.21601063455458677, -0.058254749065001575, -0.3596976004120943, -0.578298815515451, -0.4769696926732949, -0.3138721046589531, 0.04036760825186785, -0.37580762896854175, -0.5603034528514108, -0.020837688834357788, 0.11154097983125459, 0.030946342495847354, 0.3615160454464992, 0.28863578591025785, 0.08036748925991118, -0.18072164073579425, -1.0614157804855677, -0.21880825793142694, -0.6276431875595553, -0.782461967819007, -0.11111487949767122, 0.15610717371260668, 0.26081271748605883, 0.05436723944229004, -0.18630278513392237, -0.418024466381184, -0.2528468862751446, -0.5959726033525323, -0.3389261715841413, -0.6027456705869454, -0.5407105354125928, -0.6334572572214253, -0.7366617344172904, -0.45001832440548856, -0.4292795979630012, -0.5284475711085267, 0.5246611064877352, -0.4134842168022274, -0.07627820934696834, -0.08924182751509707, -0.0737753683668056, 0.561761583208008, -0.04506769899280001, 0.09112427827234305, 0.08307332827767948, -0.5167786099718972, -0.12091853518398007], [1.1806189602162978, 0.4149579811195331, -0.37429654037799415, 0.09651611211591696, -0.2856189462726273, -0.8043947796514075, -0.8731766325938765, -0.47978965091386194, -0.18893324838378214, -1.251256592494468, -0.01688152027031967, -0.1482114194083394, -0.17728677740511223, 0.2085568822565733, 1.066620194909015, 0.6831842848926806, 0.3081641513160373, 0.4467631078917963, 0.6485681030474113, 0.6649926728106724, 0.3484410117059452, 0.4785138848794022, 0.6799416529502471, 0.5402971450601481, -0.5648833783029064, -1.4121531436500012, -1.4831266702360022, -0.9842400669295759, -0.36726190667281694, 0.2361683246726615, -1.349936551801862, 0.08964015988132097, 0.0769827361728563, -1.1141480419501093, -1.433989523793416, -1.921548166889784, -1.6369361458584233, -0.07907834031844284, -0.295740727133397, -1.1106811366512674, -0.5244324996921673, 1.0453938382901644, 0.8052913410407896, 0.5687525747460569, 0.42814684779715967, 0.07219149576046398, -0.33528273810399845, 0.26706355601074555, 0.6619265328386237, -1.2623638769266652, 0.7981546897624145, 0.58532341687751, 1.1858884711812239, 2.6570196493354747, -0.06200405003817941, 1.3814655821456805, -0.12189662491999562, 1.5918026117904105, 1.450739085060142, 0.2344226547331336], [-0.27524550398738573, 0.2735504945295148, 0.937444528258378, -0.18700595300230838, -0.6031639466302191, -0.17676504109021376, 0.17225237328479875, 0.3883300944042602, -0.5431727346489776, -0.13397408665998617, -0.8749829755742015, -1.1282865287255328, -0.4079101457698117, 0.6864504276248821, 1.0000154168969158, 1.4217939545867315, 1.5440298838148387, 0.6433170562757217, -0.72051725194515, -0.5595097905414491, -0.9122714530271194, -0.9229067618521943, -0.8659337562891448, -0.5328040687829513, 0.39475362036719075, 0.5198289503096782, 0.3177873334629048, 0.21914286779097103, -0.11860475962890224, -0.6768710131999673, 1.0973298177680875, -0.602164724271737, -1.0065492393543882, -0.6079373976341024, 0.1900030695698121, 2.2138305492399697, 1.7812356672304643, -0.9846184973434254, -1.4620113556676266, 0.08842196313475698, -0.6276602332866147, -0.5230470631341742, -1.3421458904812706, -1.6716575979375907, -1.4497765953500514, -1.4144349751291796, -0.5019012934746452, -0.2430028408970005, -0.7289550675277374, 1.0009912949456177, -0.46850815079138136, -1.2243440744357887, -1.102512410523151, -0.7581098950206951, 0.7740365724231261, -0.6239525708780072, 0.6910882565094522, -1.375210361048543, -0.725261348888736, -0.06103142792849149], [-0.6116179501428859, 0.34515044263837386, -0.033010095451800815, -1.1207048304292297, -1.3787369906861673, -0.738832995268202, 0.602203367942721, 0.44363954514228315, -2.2828215930013873, -1.7023244888401985, -3.2624884938685894, -2.8580430079827894, -0.9287542359197261, 0.39154451458972933, -0.5823910838228984, -1.4645362127085446, -2.4118971943756646, -1.1407928500406526, -0.5118158923298632, 0.18582677982885218, -0.12179774058767733, -0.3669482381576008, 0.13956037470599178, -0.18063857729757152, -0.015853657156224377, 0.17574959865884718, -0.16750251955587175, -0.24467970430368388, 0.12675680945927617, -0.6619344817857747, 1.0478515993411, 0.8889841362883745, 0.7394406552743475, 0.2881280539791137, 0.3849632974981995, 1.0901654210779246, 0.36374911069533383, -0.5915118936086801, -0.7575777725649068, 0.5299132205428569, -0.8225609119980805, 0.18872776864781973, 0.24916113646753513, -0.44621069848086803, -0.9439506364477922, -1.3879884641588744, -0.9151699519002221, -1.5996370524816192, -1.6907921502347982, 2.7651018456725254, -0.09820430935961814, -0.07531744356745348, 1.388462558411842, 1.2585072583037946, 1.060022747631194, 0.6311997595432354, 0.4889694751580309, 1.2700948931825895, -0.9552306299992922, -0.30855304739223943], [-0.08222476852511948, -0.07690747472058376, 0.06382626973323431, -0.172701282670063, -0.28953666461039557, -0.2795902928241296, -0.2518072834026736, -0.1923348975148882, -0.6479554032142993, -0.25444522895667926, -0.6180445996479771, -0.7949498313740421, -0.32205462842319926, 0.10026778164717826, 0.053077533083166574, -0.29446519685015415, -0.7497986285139492, -0.8581875260161643, -0.1984375556228598, 0.5094316564543337, -0.14819853087119464, -0.5142953163045529, -0.021410203832412086, 0.15383071112298294, 0.14583210589883397, 0.40239974291777225, 0.34925871989265883, 0.12260672108364147, -0.2888003164479445, -0.9762593530660818, -0.17269715752082887, -0.8893510251828572, -0.7093758561675545, -0.06839953778844483, -0.14027181887499962, -0.039599429141845624, -0.11568556970983476, -0.28647638303571504, -0.14702073384649078, -0.31862053855793837, -0.7975950116926621, -0.33254725634663307, -0.49133646309317797, -0.4253207010057951, -0.3055152317130791, -0.2911768630084862, -0.5393306024569475, -0.4737482082725923, -0.35384576773405735, 0.6415206278038105, -0.24216161432644706, -0.1007805029771555, -0.00353015737112953, -0.17016132274042448, 0.43342778706482116, -0.15418838934150148, 0.06439204218005404, -0.009068361883483984, -0.1906526805612497, -0.04845933406969831], [0.13334581941155332, 0.02516203476976441, 0.025610302817271956, 0.16593770091569776, 0.15396731355736357, -0.07995262213550036, -0.23500615906631742, -0.1696572903122804, 0.0036351947323682884, 0.1776066243569073, 0.17640460484520318, 0.2628698677256873, -0.07561231550918306, -0.05898636812146985, -0.25737055252223595, -0.488282330167457, -0.2691362598300245, -0.39322932478070033, -0.18788411495998134, 0.19382890476845044, 0.025335324068912937, -0.10314200253155915, -0.16030858362030198, -0.2700376687408834, -0.38854952199039483, -0.3220580388512867, -0.17743489031945273, -0.292633011917113, -0.3915782091926403, -0.390023354543034, -0.4128151690389991, -0.31396356422388044, -0.37188816570472916, -0.33071653275086815, -0.5463070614424589, -0.4714826840058929, -0.25090273313947337, 0.000588794454258854, -0.16517450656963079, -0.2859431475456478, -0.4487290490401039, -0.14741119740180608, -0.15151256099016716, 0.06697151685224415, 0.3264223778820056, 0.2554884929078373, -0.06392904931723728, -0.0652011428535031, 0.006158297564706786, -0.23826175921505469, 0.04237330668131376, 0.10630276049351678, 0.08985729087216317, -0.12555485234897618, -0.015814096330318196, -0.08405400993455946, -0.21963208367055884, 0.008191594641661245, 0.05323118018634475, -0.19129549023845316], [-0.047774355648319895, 0.05707808932910416, -0.04153284140744172, 0.15438252358512894, 0.17291570564544406, 0.02662181655805785, -0.1736468549310686, -0.07726995200582452, 0.02195770980049802, 0.22238765678056702, 0.3840874187665832, 0.14112023987441372, -0.0536546970194439, -0.06083235766601036, -0.28575080195082797, -0.33536516121323634, -0.34257644489043965, -0.3718476678196808, -0.1400750708527917, 0.0834204296170963, 0.07385572483978642, -0.15505355196806708, -0.1624226350551025, -0.3477329002922933, -0.3805064114306421, -0.21846248718283182, -0.2830885379953215, -0.16741058458673644, -0.32292141176069483, -0.5206914592898806, -0.4516611707073659, -0.4022996366901799, -0.43363819101914075, -0.16556210009101222, -0.33431018861792255, -0.5182659772190833, -0.5692054492417737, -0.2577440470427067, -0.11234774384869199, -0.36262415370379986, -0.2063883132973495, -0.1921021103738793, -0.001292293293717056, 0.058704717066992644, 0.0630624813616011, 0.2205403982785346, 0.037414212654777165, 0.1688671252939715, 0.1118094630062713, -0.13554058937131025, 0.09467612112221793, -0.133308028563833, -0.07819759164117522, -0.10487890411543775, -0.2511666825581559, -0.1217268119803272, -0.07177963026167801, 0.032786370119062574, -0.053382295294549215, 0.005430638307129303], [-0.566491573538067, -0.001956778884235992, 0.251891004492296, -0.313779635515162, -0.3439471649154906, -0.3746983610950097, -0.0734713118800766, 0.0016506362029202561, -0.4945889931787244, -0.40473324893594853, -1.1738108457156653, -1.0682049758641563, -0.23041254560543664, 0.014786912514011768, -0.27454878987027204, -0.16366330748846758, -0.6021995011771372, -0.5324955185793105, -0.34982607679395683, -0.3760816330865164, -0.3831392629313657, -0.6212609891911528, -0.2061196247360856, -0.36597063553344833, 0.003939212688776353, 0.15508001340628724, -0.06687421975154029, -0.3174425432915004, -0.3716826096836444, -0.7370686114842169, 0.2002477569504546, -0.11012479288396346, -0.4309325414851302, -0.2320616085132288, -0.36556309027260775, 0.3203728472291111, 0.4982318606500747, -0.012114668677594883, 0.1351701697818327, 0.29513715852561695, 0.15414206990887436, 0.36837416708914034, -0.05799571275199007, -0.28044776560951706, -0.35107919463407283, -0.4004657495890676, -0.11838665575658798, -0.37423016594784386, -0.46309476556508167, 0.5552941743135764, -0.1552834145097446, -0.20486899135100028, -0.054497935467869865, -0.0007955050172203967, 0.23180941254167195, 0.029584996837855922, -0.20605301052472735, 0.09539068127229952, -0.43668462970971794, -0.44840526720112855], [-0.6855773144639447, 0.11526312196094436, 0.12381095081363389, -0.8968277495083176, -0.4558569214016616, -0.5300211364803196, -0.09379298773451605, 0.19968785458981558, -1.328051812850593, -0.8927010438043148, -1.7058581285346526, -1.885461103938485, -0.617130454971217, -0.23194244617014118, -0.2974974106576444, -0.4938218992754588, -1.047277487445512, -0.7151348242527417, -0.3696062613365228, -0.6309336655748701, -0.37380510426544217, -0.3613317007863527, -0.21221025230764679, -0.4931902098611562, -0.23855447606108884, 0.020977230123247946, -0.21617269290783248, -0.5856999115812345, -0.4662040703474393, -0.6785293285060318, 0.7911105409063311, 0.38219572061287377, 0.13831883276487889, -0.06115403236587684, -0.19447767250182707, 0.5851619758558719, 0.8156852423120408, 0.1927933038163453, 0.496195258582732, 1.0281852069082271, 0.7519583103917792, 0.9177122196566223, 0.33631489330326453, -0.060136020956030246, -0.38352535998220455, -0.43387549169005907, -0.2588472038792345, -0.5949088912631916, -0.7292855866253976, 1.154786578674003, 0.07609394845421347, -0.1979476274934689, 0.4990535210789234, 0.4102951016531262, 0.6656148184437707, 0.14098830001031976, -0.710949926725266, 0.6523153332949881, -0.5648490016671057, -0.4543394019464304], [-0.3640976169921, -0.16727115151110775, -0.006830185757293005, -0.2460663916499275, -0.30182795459227757, -0.14883812840833538, 0.03429767430724932, 0.12074300668301369, -0.49408509159242703, -0.6113224488966075, -0.8760313865842928, -0.8778901344683128, -0.357784559012886, 0.08949504600876944, -0.3181933611898359, -0.38692731325914276, -0.7447687390083498, -0.5302475708602536, -0.17613399114209322, -0.14878191878816754, -0.21092805705605266, -0.6103508088006313, -0.22377480419962334, 0.21737652281267786, 0.35779154369472227, 0.34942029671024755, -0.11384485851840893, -0.03460142181717706, -0.003943062238848927, -0.6312158224538715, -0.12344189887175036, -0.6866124334970705, -0.5644079177795347, -0.06736340441274127, 0.07736288223859829, 0.2248201456275205, -0.05892027627233148, -0.435937015045638, -0.3943889496743167, -0.31721750380672636, -0.8572290969008882, -0.4227351822980763, -0.4985492521761413, -0.34864075790747945, -0.4364115074359143, -0.42891217273576815, -0.3385701938781419, -0.5785298048770401, -0.6077123038236893, 0.6286513123936671, -0.29823427638110295, -0.13239053373056495, -0.0068570943284998725, -0.1447240170346275, 0.4056142028471144, 0.19670789468932676, 0.05032989508065281, 0.059812406267998795, -0.251387695720225, -0.10639708653404685], [-0.639120611758256, -0.3585110929512474, -0.017396821591920193, -0.49229407191140867, -0.7890639034553482, -0.507096249712957, 0.593908061488399, 0.05162298895047989, -1.3408289909289055, -1.2444433391658514, -1.8266826721443705, -1.6214896344433811, -0.6520240014070623, 0.2937133579692539, 0.06696191440727925, -0.6190663497508144, -0.8956909897929197, -0.6934003811659376, -0.2031178767494302, 0.4175167224803265, -0.059067677088712675, -0.47941630436443505, -0.2538180467887234, 0.04279291738703791, 0.3764049635790149, 0.5546410991236568, 0.18758236224705488, 0.3796369469007573, 0.29150968207086086, -0.6295187814651506, 0.3653376901000342, -0.5627746474772986, -0.35937262185783825, 0.694416965481065, 0.4204799706176576, 0.81032625313702, -0.09154338048743677, -0.9650881406793596, -1.1801150554882618, -0.8296203212983091, -1.6581881131040035, -0.6578995237106494, -0.7109635624963985, -0.7602437993817722, -0.9977013684888703, -1.2805489850420493, -0.9181356768454952, -0.7706494708263862, -1.2379472455346294, 1.4948338818799949, -0.2757450296526263, -0.2571994493570153, 0.2874004750068535, 0.39125575781961186, 1.034324911145504, 0.43061446687515303, 0.5838123356178744, 0.13940863406318701, -0.3299355967499539, -0.048824453815520245], [-0.0761939908443166, -0.1489374019369573, -0.09364642958233294, -0.06470127593740685, -0.15794791497750446, -0.09453099716268328, -0.08953039005343463, -0.0999801629979009, -0.4636134973032113, -0.033267009515371745, -0.18890500228998083, -0.16606279373887473, 0.05512256611012848, 0.19989821015496415, -0.017154848882517608, -0.16736561972527597, -0.054821668086130454, -0.23475210099806776, -0.128333577821528, 0.08401337866343057, -0.05826904658810859, -0.3768444115725167, -0.48984028213090497, -0.3061860069644223, -0.11328355450877889, 0.28669134917697287, 0.2973053592941495, -0.02372191530711738, -0.1002633841701559, -0.8010080000430455, -0.1410346143385459, -0.8914095226824742, -0.781666267829807, -0.06487244846784357, -0.08317881196620057, 0.02812765594979942, 0.016478719841713143, -0.44328317964333375, -0.3744038775208393, -0.4855582037764672, -0.5173150230051962, -0.5952386932308269, -0.4934589738026561, -0.42385055850897846, -0.3875102908528571, -0.2846883048649588, -0.14749721190974258, -0.1485529373605113, -0.4183951423852725, 0.16400343716680935, -0.2693577915575449, -0.2166226847535041, -0.26101103144200627, -0.3478268858353676, 0.28053587288389203, -0.20974657248419942, 0.1411721159541357, -0.28192767412738046, -0.274712575913217, -0.15695671087323604], [-0.523936753769347, -0.21721830168060696, 0.09038534712586124, -0.8755579614199246, -1.2261383054267625, -0.32811299596853977, 0.706231311456771, 0.5096826124686286, -1.5506341392967586, -1.3697347014632488, -2.0973262845741973, -2.018040642303355, -0.6095206847382137, 0.5051521943737879, 0.648241107487401, 0.23531423376957802, -0.20478821937738523, -0.2892208107226098, -0.7943654769970486, -0.14762867066243499, -0.7226564644317135, -1.0595312549664655, -0.22589355597874214, 0.022245707762000893, 0.6490268116545028, 0.4884980558329478, 0.32616282910247885, 0.1566201177236386, 0.33130199945529293, -0.13753791976399907, 0.753833461154806, 0.18385997670439494, -0.06705879734354855, 0.34241967602511514, 0.6055248920558662, 1.0277087640575182, 0.7297022286789185, -1.025344640672279, -1.2517173350883808, -0.4252724741588279, -1.2420090776563848, -0.14603889814317086, -0.630538303636091, -0.7604428017865484, -1.3315783058603798, -1.3341787123996114, -0.9336604942744685, -1.1931799068924476, -1.4873568792871816, 1.563084935194769, -0.34822060915358105, -0.844365311712149, -0.14214076571128545, 0.09960500572197263, 0.7085466238560344, 0.24508250047152633, 0.7222090535828318, -0.6663269214709696, -0.7841991996596545, -0.1326880778453162], [1.3143296888355447, 0.6451460023562575, -0.12711214051255798, 0.03263260102637748, -0.5352725036116642, -0.7989406080548241, -0.6365521858834675, -0.39934835338496827, 0.030425300073231867, -0.5008554753207659, 0.1928606541731873, 0.17514230993032648, -0.1888485446029151, 0.28249442976078687, 0.7142633616304975, 0.730707828154935, 0.28077372344751006, 0.20754655562016916, 0.2709198116349574, 0.5106164210783776, 0.378825822792133, -0.03638593628728791, -0.07675177395300271, -0.2384198020838252, -1.2556325643500987, -1.680720847182968, -1.8293591442346384, -1.2550292577679636, -0.6399124357083169, 0.05418246166922515, -1.2952972674546215, 0.204694074211318, 0.4639047092768413, -0.30291296243313065, -0.6448205361274207, -1.352299201516543, -1.2813528766852378, -0.08280670722407754, -0.22305630533428691, -1.0120114973419785, -0.5704553490981341, 0.4271597273585938, 0.37700841654309314, 0.2921517224117851, 0.6172012832745805, 0.21244225454871107, -0.21174410311556646, 0.3749811529494038, 0.5948739047422387, -0.839758781061136, 0.6565204984135021, 0.5877116127808115, 0.623642943316925, 1.7560810630114851, 0.4701848801068542, 0.8102573893363066, -0.2996955823464301, 1.049073418532641, 0.8209972210430483, 0.5365362628642988], [0.9768679552762911, 1.1618981728191045, -0.09845281944135684, 1.2120421443451472, 0.6619212253241217, 0.47810047188681737, -1.8531295746269656, -1.3406639626690733, 2.455347167638007, 2.094875665142693, 2.905202859009892, 2.4384827584921918, 0.6014481860913133, -1.2237492168140345, -1.9936050352943246, -2.225541598900297, -2.040465134936011, -1.4811771586593596, -1.4132573641187527, -1.3479300261092824, -0.9054790397502271, -0.5834984498340119, -0.6434340309164565, -0.5488668068366335, -0.3859297265493431, 0.6356956861218427, 1.0253149543364206, 0.8630690292352701, 0.5548572983844943, 1.0100891744085698, -0.36614522133285515, 0.4474604190041713, 0.145759902799944, 0.016711664662165056, -0.07432228582779624, -1.8176128400563132, -1.3654220065337295, -0.909729713433113, -0.2348095518739341, -0.49346278921007486, 0.4028685453119399, -0.920250185922966, -0.17539263997418766, 0.5695401204270121, 1.5279227220710596, 1.3812978855108105, 0.9372071017059485, 1.8109671487496364, 2.1512709768687617, -1.4808445389978437, 1.3202940415728253, 1.8841883686923455, 0.12020993178395649, -0.5768566620212332, -1.4203050004117224, -0.6799413726714185, -1.8449442202423767, -0.1881526256991332, -0.574967665665517, -0.7620971742693943], [-0.689864636040348, 0.5226528826055602, 0.7871675721528193, -0.5719535873168697, 0.15935092295050876, 0.2591774788724002, -0.050116077057257895, 0.3072489492084377, -0.5838383518439255, -0.12164320200497808, -0.8932792434654758, -1.702081767841182, -0.617737753157686, 0.12164402492981201, 0.26460008893787207, 0.4711320761869105, 0.39521477522750953, 0.17845141371449072, -0.2825362273743388, -1.0227092113940286, -0.9289492755606248, -0.4924729386307139, -0.178791454450415, -0.6735060537228766, -0.3483144980898803, -0.05788169242300694, -0.4403923997843845, -0.909075250696055, -0.8632525752683092, -0.9491085448187718, 0.7343518228362265, 0.2954360986063366, -0.09381102929502741, -0.6429781415292324, -0.07380340690861585, 1.031845410326743, 1.7319987787657312, 0.5519325922872828, 0.34931315006161384, 1.6015665230992817, 1.347747746193685, 1.2174398390681374, -0.06137420543695627, -0.5029756411439458, -0.7892953763761225, -0.5781753946721424, -0.12701379341161717, -0.36978497520039316, -0.40858867506068436, 0.6528809528313193, 0.13264231822765205, 0.09536640625817636, 0.23543364882525797, -0.47258733416521, 0.3085656390620137, -0.45965864844154886, -0.6171072968162326, 0.10688241459116919, -1.1089170930202576, -0.9286922583877287], [0.9900095571274915, 0.41540287309670987, -1.091755319459261, 1.049506853301813, -0.05992312480463416, -0.43931243188326263, -1.8240731229511657, -1.9552237978334912, 2.228411044688532, 1.8785253592902733, 3.3765891692035637, 2.354396169971296, 0.24394731958423393, -1.6186150761177371, -2.2105245465424805, -1.9131001477831908, -1.7210017629351133, -1.3436988450861858, -1.2229603752240221, -0.8517575450438302, -0.2781014454850215, 0.04542253505725243, -0.28369830291772447, -0.19867881056316167, -0.11031104965478233, 0.6366777847352973, 0.5711703506446402, 0.9383118476330027, 0.6011414717683892, 1.2130745128548932, -1.0236131193939066, -0.1285823947633641, 0.36277705224839013, 0.04105369811221659, 0.5094715841238732, -0.6131718292346426, -0.7423605378371795, -0.09369001979070397, 0.029856097728138107, -1.0579125390602062, -0.033938211166635666, -1.0518849029931212, 0.00039528508123153885, 1.2649013330596923, 2.281754252095602, 1.5591129595383202, 0.561106033370055, 1.294863353159807, 2.0138055326443434, -1.980346671481573, 0.9787984455478645, 1.5090468575955052, -0.6318612914457525, 0.045100975206411216, -1.854127756717783, -1.4173660421847678, -2.6175394708659145, -0.6961224499660013, -0.6905641325122959, -0.8017901690938016], [-0.6122588366770302, 0.11255960870493457, 0.1423110355877956, -0.6992015214710346, -0.18941350409676377, -0.09381489670152252, 0.011230290610907408, 0.5035274371742732, -1.0242278206278854, -0.6200264318103568, -1.0984594518401285, -1.2875262099754379, -0.32051509997360794, -0.49529435460092475, -0.40160549800653894, -0.19385304160262856, -0.24959039215937925, -0.06871171361251027, -0.2305090580735199, -0.8047720885718589, -0.6767950744094053, -0.5631509086445161, -0.18691381357607534, -0.30817961980846437, -0.6192997798265223, -0.2241537471404074, -0.8715382534090363, -1.0390119496553758, -0.38163682958475476, -0.28866515125363224, 0.6839739165181599, 0.24048041551808416, -0.08546385874096646, -0.0727051561039549, -0.12243903454622271, 0.636848371215428, 0.9230696201586074, 0.46496482180906384, 0.671770998666183, 1.3123911100451362, 1.1714812955758631, 1.0124148334567824, 0.6359213595314185, 0.27361862867111814, -0.2600023264233549, -0.015657526144312067, 0.12942201693581945, -0.37909790334555826, -0.6116985921357675, 0.7624953302413163, 0.15871941879259144, 0.05781457856585105, 0.37473526475730684, -0.25292655739305214, 0.17828099385698445, -0.028790073338307277, -1.0424825532761937, 0.21981094285149672, -0.570170068338751, -0.47975975646450375], [-0.32705763489106926, 0.031387517010923294, 0.1522597282373183, -0.05025656729665192, -0.050733147649690655, -0.21338071256716473, 0.012944413999213667, -0.09610511457160817, -0.4736001318628492, -0.0913015943998762, -0.5233367505188494, -0.5079616325342513, -0.14573689169352497, -0.00781856054624576, -0.18484504844560692, -0.43836941120777323, -0.3805636662286125, -0.37127624406403537, -0.2203788763718028, -0.17603005815170844, -0.22739888348984613, -0.3804188488131464, -0.3696443141227307, -0.2813410760752806, -0.028433370470793085, 0.01859040467456387, 0.10534788206025786, -0.09305507211140454, -0.24610118103057288, -0.6813213176947271, -0.08333409327398997, -0.2249254865063482, -0.42313213634877367, -0.12432709956137647, -0.17729307444201012, 0.1106982784385303, -0.09745746542157349, -0.017949745263240297, -0.04970938829146578, -0.13859207558350758, -0.22107863436419767, -0.25798220388282594, -0.2188495396392648, -0.23943948917033867, -0.28049199699687594, -0.34972764628773106, -0.3540073486199445, -0.35303104535713387, -0.26985278190312617, 0.26335159278231957, -0.06879185721686254, -0.2384156428581069, -0.20829425850051986, -0.055006957251436034, -0.0763308409403129, -0.16505856230414925, -0.08856966560077142, -0.05530748899046952, -0.2783103781918585, -0.18720436129209164], [-0.6300929388330965, -0.4423927815416893, 0.0704591871801033, -0.9427422571686919, -1.5241113901575791, -0.4032835436933833, 1.0418729990039555, 0.7105825630217938, -2.166462577430702, -2.2450706271869105, -3.1097355871288066, -2.888341223224793, -1.0312770291979623, 0.8478347265137715, 0.6318195453147135, 0.04583861066143357, -0.6971204133268016, -0.4743945368993661, -0.7989948969550393, -0.05231717496821803, -0.594584963984757, -0.9966895739068592, -0.13698659365215604, 0.29249079039411563, 0.7193357187065789, 0.7229183932892538, 0.40952438447612255, 0.45204586467891106, 0.36421675846872387, -0.08629682091415186, 1.2015438982091826, 0.18957939500484638, 0.47309811316376904, 0.8709360471362803, 0.6949039117482408, 1.564553972201008, 0.5739258681242946, -1.315971990684312, -1.6562492921610872, -0.6235932212144254, -2.0453344491252885, -0.3323274498604128, -0.8163920753683923, -0.9172890968219093, -1.6737365599376433, -2.036217628291665, -1.2807677398702737, -1.4454863349329479, -2.3271397653192554, 2.5435011770387908, -0.1636177859964166, -0.7230025311694931, 0.19485764760115346, 0.5661493337297331, 1.1834761934511429, 0.5812108132681509, 0.8793097652248274, -0.38811086769184744, -0.9761339776887802, 0.06142898086909888], [0.2197940839337147, -0.04715331373592172, -0.025524112337251475, 0.32266537937665807, 0.2654594244360285, -0.22785882477564073, -0.486661867617822, -0.352648996636071, 0.34452156581027576, 0.28551126638818264, 0.3170463610101429, 0.3264391789503659, -0.0030922441954358156, -0.27140454540042824, -0.36977422589545056, -0.47038821866462915, -0.4747418936264543, -0.4148524109141418, -0.2301425482050563, -0.036637260283773225, -0.05619975174791138, -0.06727435346849049, -0.17760864494721043, -0.32063635215392355, -0.4919304408767723, -0.40931938698872633, -0.20530620513606238, -0.39982134586943724, -0.2643283864049995, -0.1155190293320038, -0.6767048964364256, -0.13212609500111827, -0.19192247560006837, -0.26408072593271076, -0.45586861297519865, -0.8274720842926251, -0.7485454441894045, -0.3346930289006516, -0.22144077978732749, -0.5565521996081727, -0.35553406853458785, -0.056391298071407234, 0.18093356895035312, 0.36780451301944217, 0.32884401932928625, 0.3099611344183548, 0.0822331247539432, 0.2190101644394727, 0.5048361872757898, -0.42762670611768916, 0.15658587449108924, 0.5237035431113255, -0.004876682183010988, -0.025793580837630167, -0.45355067703396695, 0.09313903897651903, -0.2323424055503232, 0.24185613784058857, 0.1825988323762348, -0.0009276042945669641], [-0.6839217550756538, -0.3590990470753151, -0.11612664819219638, -0.9963403655070339, -2.455134495378351, -0.4086084493796251, 1.1005689648195267, 0.5269205083646796, -2.4705449946235998, -2.460950569085722, -3.5129637252744184, -3.1919714988790164, -1.0375027913626194, 0.9931112624726373, 0.46996365764544223, -0.432808752980165, -1.2072120344878101, -0.4961581320583338, -0.638064909950335, 0.19429416584549422, -0.332832995646597, -0.8595951626900376, -0.13722060062579322, -0.07803821121664029, 0.9260707099859129, 0.8049921811929697, 0.581562903233997, 0.7296885687212512, 0.5077109676144062, -0.5348724221444169, 1.0879510669582384, 0.364787278251434, 0.7550912542174504, 1.2030092351879575, 1.1645010719445312, 1.8807389141073525, 0.5230439075022213, -1.7650025477841715, -2.065059388484918, -0.8281906826188301, -2.61708768568461, -0.9190519227054376, -1.1904252147756689, -1.079647621976012, -2.0357741537131964, -2.6858436890333772, -1.6844688423693954, -1.3633931311792673, -2.4972760910780316, 3.5676101923399592, -0.2709450567574228, -0.5940079176508785, 0.5695261274310551, 1.030760123310249, 1.5659980113759002, 1.1929631311505628, 1.7243405548267565, 0.13005048821420273, -0.8176310644432124, 0.25406156878403907], [1.6841663044736446, 0.7238356366012063, 0.04677159714001448, 0.5225250191439584, -0.5012734901732143, -0.6482258039287372, -0.3068196184488145, -0.4035802494645168, -0.48815142890128177, -0.6714069227107553, -0.08126581935700695, 0.0560988698052611, 0.04716034759543008, 0.6811630185048662, 1.4268415274800346, 0.8943930904159391, 0.1803213435999464, 0.023861092346805533, 0.15321422024246836, 0.06642789053044451, 0.00976249703582541, -0.5191267054339438, -0.6877039305986298, -0.1659262560135289, -1.208282003230626, -2.103731759008418, -1.8772526861976602, -1.6022729537317928, -0.9924473121541416, -0.23783507286191585, -1.3179105942906955, -0.06991995604836407, 0.7291441752201537, 0.20490151887246896, -0.09181440387201625, -1.1047558756066977, -1.2622992415460792, 0.10233346414235873, 0.06668866804957957, -0.712732455181824, -0.7229816938924047, 0.387010591624147, 0.47354193097967634, 0.07401373777008458, 0.4773675024764236, 0.19653642782477865, -0.15442645087563608, 0.45387675747736606, 0.47079766382301824, -0.6775162829616678, 0.4844027539640644, 0.3751803231468678, 0.9252786393360951, 2.35550475996648, 0.8198500710912252, 0.9673906894367688, 0.4903942693005685, 1.4157662104531143, 2.046788504428838, 1.2715934076980342], [-0.12331316720653095, 0.16076045610442927, 0.16854479150272522, -0.038312305665144056, 0.04053834749279306, -0.1059310712824278, -0.228143614655769, -0.08043682193866104, -0.32863785170468524, 0.03019225112886189, -0.13001710940176214, -0.17272205815225453, 0.006329388180721167, 0.06175872825551303, -0.29643836550298064, -0.46516883725432123, -0.3995131087683706, -0.4841754125520741, -0.18578148876569697, 0.11979933588534833, -0.003072899083783246, -0.3940700514460379, -0.16222968203427918, -0.19779504055456007, -0.09060217561295944, 0.0030429256908126806, 0.07426482803445783, -0.14091276392675264, -0.2820358403092447, -0.7003006081376998, -0.45173170296188586, -0.7362333433901965, -0.5852425827928299, -0.03194365875936469, -0.1788350140660464, -0.22603874452707257, -0.16601943382881162, -0.18024153645408159, -0.33100968667019326, -0.30057563467567117, -0.4066826676337476, -0.36712753319144986, -0.22584812620377542, -0.08901704212591927, -0.08736753154020784, -0.09882459926695722, 0.02317576758416978, -0.130215174161902, -0.1436408458271592, 0.2030406534474413, -0.10003148839932963, 0.19366594827656883, -0.08557870263920521, -0.17181141433944597, 0.07190265125194031, -0.2257774970923672, 0.05585821228503558, -0.2720822881441534, -0.22143841491201965, -0.09848444083000422], [0.4781301938874607, 0.5684670061984751, -0.2974760827697544, 0.7536192586020198, 0.3398396289163411, 0.2591878867771659, -1.4417601280013534, -1.548193560191793, 1.7692058406616271, 1.7047777354950482, 2.6012584055105044, 2.076034400264361, 0.5485375239495952, -1.098313076991786, -1.860194345292835, -1.7854432945844714, -1.6744154860164435, -1.364145997471632, -1.2179770190981665, -1.3973878839605713, -0.8756001059485551, -0.4782209273003537, -0.5139633672012316, -0.21844565656286996, -0.25936765323291616, 0.4917838184475703, 0.7129455014159577, 0.8648223620822336, 0.39405356940997077, 0.7498422817699547, -0.23185294971798515, 0.2987397717257419, 0.15656065258839663, 0.02546541220579692, 0.34801575021531345, -1.0502172967343621, -0.8902247787320569, -0.5930237091099853, -0.21539596024621732, -0.4644748071035303, 0.12633585203042869, -1.0039926762682427, -0.2004928409405048, 0.5484494717640035, 1.508417445579596, 1.4098049666295909, 0.6345229284467274, 1.4420845349191667, 1.8039237827532018, -1.4983409652392892, 0.9837047230705007, 1.352352096210778, -0.08286194701883573, -0.5527023917345875, -1.218191594703339, -1.0061738035728662, -1.4144939085077102, -0.368935561584437, -0.8080417764965594, -0.7611413832750992], [-0.455200339154971, 0.020990821706704174, 0.17705721530085478, -0.518552394646175, -0.3698529555652207, -0.10324161356486108, -0.03706382873372451, 0.16519571910280106, -0.8538644791085769, -0.35486781147542773, -0.9709632434194999, -1.0241918712769713, -0.4365852276447136, 0.15799719843777454, 0.08321289584058796, 0.14927785340038674, -0.015885914083606935, -0.15204110330140072, -0.5918190300826668, -0.46885210901192054, -0.5572865042260128, -0.7049352025394962, -0.19464297603925906, -0.2946494814720039, 0.25780311419992497, 0.23798240871876272, 0.03889314410516388, -0.13633857021182877, -0.2586220127044926, -0.5777392363792007, 0.24564826239549126, -0.44502644217542336, -0.41652346979067606, -0.09247701449856545, -0.09157603541251724, 0.6346549705113856, 0.6802809040750065, -0.42208809446135637, -0.5151063646927038, 0.16861256024770557, -0.27730192648058216, 0.14308876958309177, -0.4575481920292045, -0.6290398894478392, -0.753479496767667, -0.5842829517773028, -0.3887949502066212, -0.374744357762539, -0.7516282304236456, 0.4113006809972375, -0.20103010534043647, -0.4177054270595735, -0.3002225142195871, -0.19366333257908458, 0.39510850676005166, -0.1524715217102115, 0.0705453423662312, -0.1660166701933867, -0.45609872221721254, -0.3461801216290902], [1.0373518044217351, 0.48263364384712376, -0.4588167237739722, 0.6818765142115895, 0.43073482460114015, -0.014276451927682468, -0.9116953588994765, -0.40232051009163333, 0.9649018685037323, 0.2368736566654362, 0.8736151460493666, 0.3445406899827959, -0.1300902752004245, -0.5227967436395452, -0.14468609577668792, -0.37502759146423686, -0.4772138157175629, -0.2793789924979062, -0.1469920542813573, -0.20234010252257695, 0.135447684106082, 0.17241474430344012, 0.09475182892970288, 0.15055168665633828, -0.2957460490054204, -0.29641816010109945, 0.024348834706866745, 0.24684439208831455, 0.44994823706365145, 0.7400824746694166, -1.0169914598515288, 0.13422371560360655, 0.07134714307963103, -1.158527913059379, -1.326403994311303, -2.2293363487460782, -2.2779649481057938, -0.9811680391491985, -0.7700515142978197, -1.2905945692532808, -0.10876451371783881, 0.25614985983608635, 0.19471674142959824, 0.6941589475316977, 0.882950691591856, 0.7034012814179796, 0.27307942760256426, 1.2446327686142398, 1.4510592216088016, -1.1612859603093486, 1.261733429845516, 1.3577979289805695, 0.9988498719613831, 0.9217208112556429, -1.0369026334784524, 0.1803146061539519, -0.9589217145600316, 0.8427207619775902, 0.9877485929353107, 0.11988562777364192], [1.533903907483521, 0.5724916801899717, -0.2605675531420853, -0.26355685508208665, -0.949871282237438, -1.258688165202316, -0.5300682263714198, -0.46504160326553834, -0.1895657360055754, -1.0109155047117537, -0.642336969938128, -0.7094225200320953, -0.5098358138085988, 0.27333963106815024, 1.4228013904854881, 1.175048988710579, 0.6050829109538312, 0.1662521883424373, 0.7649897377188482, 1.124424441091774, 1.126611087591614, 0.7220068164335122, 0.3882451138789156, -0.015552337820117059, -1.5485107554153004, -2.3747523433254836, -2.4336412133670815, -1.9571781334523002, -0.9768986665603803, 0.32891145457850535, -1.4339990034062529, 0.3139409258365351, 0.8241922059473991, -0.38679753650616505, -0.9095925980877431, -1.327421479889642, -1.0305631575487635, 0.4084840592957339, 0.10816237783370228, -1.1665107634686729, -1.0230618676204593, 0.6629139978476226, 0.6526391311185498, 0.428701541318862, 0.2598181642421057, -0.30588378920484394, -0.6709337561140979, -0.0883058300679725, -0.08125327778799157, -1.1876313444757558, 0.01755926638180922, 0.16600930905215294, -0.07602834564199201, 1.6920532805778834, 0.10142702687318085, 1.315371178276992, -0.3537790211614801, 1.2771808836935197, 1.1339860635794898, 0.2086252459168728], [-0.1415564133023094, -1.0658503203630365, -1.8431663903853168, 0.11128881799415995, -0.0038134337902680122, -0.676071383108736, -1.867135013867247, -1.8331568779923237, 1.645737542057164, 0.5247149465589472, 1.7119315602784784, 0.74530147963775, -0.5070477626575052, -1.6484785255823557, -1.7259734738479489, -1.4287470676823848, -0.8654925286136184, -0.39383008007831505, 0.07946425863878748, -0.3008773213610036, 0.2534015293203364, 1.0975889362373883, 1.6952824905111041, 1.2635168945964401, 0.6416538234490872, 0.6568135121522684, 1.226976487092747, 1.5714463944453574, 1.2232843728241174, 1.4035183003962817, -1.3173390063702812, 0.07586543183730197, -0.06819962397571042, -1.283836422576952, -1.4223098879403233, -1.8304954143101997, -1.8201940871430058, -0.35696042976494713, -0.2636489337531646, -1.2471241616019184, 0.19188795463911515, 0.07556261828173515, 0.44192786331086326, 1.4424425013970035, 1.492178480549195, 0.9438253742898968, 0.4111847170384633, 1.2655929627639166, 2.0449656053004386, -2.281369779501365, 1.1218531136665564, 1.7974905742143796, 0.5134502542518027, 1.1273046583753998, -4.1320224315461065, -0.9454102535392808, -2.5370353079136057, -0.17430273764991264, -0.45962904125944853, -1.5038171309245678], [0.1862437744977673, 0.1450037287867171, 0.27610446579578607, 0.17033221339805915, 0.28152071963650116, 0.03350220303363258, -0.3076387259489617, -0.17982007690745197, 0.1697899770333653, 0.26600116085480663, 0.4107368646706968, 0.21162875209770687, 0.009813980570020727, -0.21286924022698597, -0.4353415405415914, -0.5939780243242739, -0.5707583168158818, -0.4481577706095893, -0.12387203706576594, 0.010237125995605237, 0.03921942637608832, -0.21354309188023265, -0.0007786425621626721, -0.22860188674387633, -0.42313786498740386, -0.3412453584153151, -0.13674410223700736, -0.19842894347145965, -0.21270626313443314, -0.30254190845617496, -0.5022337537604226, -0.3456398959219508, -0.37830533198485816, -0.3084728499431403, -0.3869294156700834, -0.7226446319756712, -0.6735108745495133, -0.23934409731067255, -0.18470387468762064, -0.386342284546307, -0.3263116836638736, -0.10506083848285556, -0.023842766599199747, 0.13791517711394122, 0.2881991980299634, 0.24716271169309903, 0.24356113663893292, 0.26177795719641306, 0.2599516381633758, -0.14227421090477213, 0.1227087949272265, 0.1211942658159185, -0.018671353982572185, -0.04896406621924676, -0.14988178271200983, -0.015516009482379621, -0.14920984711216095, 0.20749982526707622, 0.03240589932596829, -0.0316642483659946], [-0.5158056149443948, -0.3307175439652566, 0.07738258723588676, -0.6771878642371535, -0.7878336750869761, -0.7152667214059514, 0.16940393653005423, -0.13047955192686256, -1.5726740287105507, -1.0056294364324347, -1.9303264797190378, -1.867296842539967, -0.5130105522229966, 0.48373934975237975, -0.028882734960444852, -0.49887109791493606, -1.1699329436686412, -0.8071800298447792, -0.04486649600995038, 0.4472721209123632, 0.013842761931840659, -0.5320290377393208, -0.2518392405082416, 0.11271697036160494, 0.3316600197549747, 0.607803784504524, 0.4369806016246741, 0.24922078754864696, -0.14333519797505087, -0.6291142442012935, 0.1793785191854415, -0.2069569407404485, -0.3843895903786079, 0.17643053539226883, 0.027674599242432988, 0.30280884002957076, 0.12894567823353695, -0.6059803412237987, -0.6539445147276803, -0.3444360319918624, -1.345477769465434, -0.41127231578527523, -0.718194817785477, -0.7142842994685548, -0.7334685314210855, -1.1419238675634802, -0.5892949188081921, -0.48586744696451367, -0.844214184068353, 1.5545998175857776, -0.4118756603655277, -0.27084849309908177, 0.2692207430095731, 0.3567270520518645, 0.8659294433491608, -0.09201181451813345, 0.38472629134750536, 0.005596153535831599, 