{"classifier": "mlp_classifier", "n_inputs": 784, "optimizer": "adadelta", "loss_function": "mse", "layers": [["dense", {"units": 10, "activation": "sigmoid", "weights": [[-0.051217471789063655, 0.018489448784081795, 0.02731713739197646, 0.028416165568110264, 0.03606747760047946, -0.011206094049051174, -0.007556458024171532, -0.0029593441327709484, -0.028145724916113148, -0.015542419216936493, 0.03297358969857561, 0.008602172866335895, 0.027013343440682822, 0.0019020883146762435, 0.020915784542439628, -0.08997436446118953, -0.030011880688534016, 0.040841113313763895, 0.04762149898767471, -0.043166775491716894, -0.020110923970250032, -0.02206735319180574, 0.0026386384550481524, 0.012680164258520211, -0.02392226489271315, 0.060579033166725874, 0.07594127853569699, -0.044190287809357943, -0.002848750666509245, -0.03900261890231611, -0.08066210723462305, -0.8962873046863011, 0.04921605420983877, 0.10692162844858963, 0.007942330669490403, -0.11440243307345235, 0.5503266926317125, -0.3210307826574992, -0.07131483835308045, 0.5911594433125535, -0.4821213615078731, 0.37330252050566853, -2.4410872330804936, -2.3138923586640705, -1.1049978983494382, -0.23374492180748876, -0.5512740668259358, -1.2883110731982708, -0.7022246032097588, 1.3131675137498953, -0.38936422221593997, 1.658988545534297, -0.6718655009653959, -0.4844649119071294, -0.04961421057624867, -0.014614945700915169, 0.024963976134212508, -0.6657393801152945, -0.6239788608919183, -0.9438158513516967, -0.47192294963944514, -0.2064477724416096, 0.31412266140652556, -0.4421780832792561, 0.7151601946499021, 0.7259102385231121, 1.182980612272039, 0.7467307629363147, -0.00906747745194942, 1.019799239033213, -1.9275656017084455, -0.2797127035614124, -0.7808756086828588, -0.573097398320428, 2.1684405950481054, 1.2832451295769494, 0.1804870946046034, 2.0788516989850176, -1.7938976146414782, 1.8725671873871845, 0.5009435268773317, -0.2599287687008493, -0.6936783588196608, -0.05093749950771294, -0.01803366082145214, -0.07107881584722074, -0.7841766964485114, -1.1712903496789289, 0.4521058201515224, -0.054925639446490294, 1.0162353034893918, 1.1236328214229332, 0.4272491573043217, -2.0032752279751076, -1.553136821644884, -2.6923910095210757, -1.9972684047847316, 0.015621631158733768, -2.626297917976168, -0.2110523127317256, -3.608401279966555, -2.015061086403323, -0.9805537065183523, -1.516715327591723, 0.3522552425094503, 1.5879211798325614, -2.295345123224737, 2.1209467516348757, 2.9301367557800413, 1.9607685177702199, 0.6643828281045246, 0.004729574888972659, 0.0011211930616210895, -0.7448550924024347, -0.7865043559712582, -0.7117090308898711, -0.5341693905741824, -1.639492416818472, -1.9034586816430068, -1.7102919612915186, -1.3231397302541181, -2.7975098952912774, 1.5557671789113843, -1.9030722553183654, -3.068255776183381, -3.466112440890164, -3.655982546928276, -2.472378119980138, -4.558845051948662, -1.5774769025619357, -1.5241516796627599, -3.005968240062939, -2.0702869663403645, -1.5004970754122091, -0.47801365244827726, 2.174358128436032, 2.6918936294463016, 2.974872623605477, -0.4522109430002584, 0.08037994665525604, -0.01428548242319052, -0.19951182033134773, -0.6123137361692449, -1.3745280697090265, -1.2777379250220464, 2.0841925069829603, -1.9445199641871094, 0.09980781671291597, 2.0822343597360957, -2.762522419095713, -1.1523597088527928, -1.7556977975146801, -0.6589028546124314, -2.1693065888210064, -4.190867121954125, -2.9088925177950014, -0.8625882237598458, -1.9310889319092508, 0.025292325066128597, -0.8637182998676802, 0.7358266783499855, -1.9141548921774376, 0.356302790265945, 0.8477484487956053, 2.333975975392528, 1.849368660145087, -0.38899329785788994, 0.0012037741528778492, 0.05801394635373122, 0.08539841291658362, -0.07468587672288662, -1.2651128503503877, -2.5258411957103233, 2.9162026591969843, 0.5539263753800907, 0.7584646241330705, 1.4232729498119734, -0.5298215047709159, 1.1033381250284895, -2.3039387718510866, 1.530026839542797, -0.7094962431008219, -2.355479901763777, -0.37787608220612146, -0.1802479375497516, -0.24886106451196, -0.24715011561690917, -0.3192435581671609, 3.012262692081655, -0.5889009864205418, 0.039147353621860365, 3.075638411868282, -0.014303938303897734, -2.040511319509163, -1.0447309238024138, -0.020053692079699623, -0.015878405986317456, -0.045911922381304274, -1.9832659391124843, -1.8213370843656296, -1.6448594443302804, -0.9229755881508791, -0.7160091318753471, 0.5855485071079807, -2.1790313249894258, -1.147700612082451, 0.9242577969814476, -1.0321088572640558, -0.9784973424416389, -2.039891623583654, -0.08404037958817863, 0.6538977402097221, -3.3189525172872543, 0.8814495160633489, -0.4943755141289368, 3.1652962828971303, -0.599153404412901, 1.533155382624692, -4.048465367858337, -2.052041111238679, -3.3171501779669654, -0.8662805105765942, -0.8877055740976294, -0.004303334010323413, 0.007118360271342757, -0.7983021466702008, -4.2394108551295915, -3.0799585218198064, -0.7417292010534658, -1.9293276898169427, -4.077024835979948, -1.402143983036552, 0.8633330586875763, -2.14148244790544, -1.4598048105703887, -2.151383465713288, -5.378032845557784, -3.3414247239000208, -2.9405326341137283, -0.22529953643502423, -0.3437403630408475, 0.03303270240110509, -0.5307309681365611, -0.6050946502561935, -2.420744278141195, 0.71368027767004, -1.7785939150121532, -3.7602188796014353, -2.7410295423713924, -3.943490784091567, -1.491389897119994, 0.007609758831502547, 0.13490435340359164, -0.5618571845191958, -2.8307987560068844, -1.2555060192697247, -0.157519392690453, 0.9734303746143571, -0.6089685220262248, -2.9050101520393943, -2.5107815376823983, -2.0729557001025753, -1.0475839771254818, 0.2128556591505766, -1.7349047802747015, -1.7821555543113008, 0.018077483688291054, -0.24263794743398628, 0.9887395480936638, -1.149967732742826, -2.9731311728508185, -0.3887281080416922, -0.9072413111261911, -1.1238270373315202, -0.9578702795585614, -3.3108050985239488, -3.953284369975597, -4.834566904972199, -2.2630916530727543, 0.0239680612105892, 0.10362260969241588, 0.24807601653145522, 0.7494364324560633, -0.23533179906602184, 1.0209763028935193, 2.1392598296407446, 2.6384818711580804, 2.3189569243754877, 4.775446496231938, 2.071343974964035, 5.036711887626355, 2.1770161875607323, 3.8903406627562775, -2.354056032434879, 2.5688439389521696, 1.1867527312485013, 1.4121364616770196, -0.5611125459377042, -2.0035367473381314, -0.5453563114711767, -1.3255846090024004, -0.48576718245716194, -0.4032632340887761, 0.07960904581242496, -1.4652467223107783, -0.2754219846230452, -0.1583213537705768, -0.019653759055990518, 0.127418313852139, 0.5077789731389121, -0.09251536910299313, -0.9827548547323122, 1.3196403390369282, 1.4175370121092647, 1.8399089343592592, 2.729485677299664, 3.638611969673597, 1.955780851293665, 3.722109971520755, 2.2919536278534967, 1.087442745004141, -1.0583480757201904, 2.0709288591742965, -1.0865874738756263, 2.2082638070115714, 2.654720633899124, 1.8913406567577875, 1.1032391558311772, 0.337245549726264, -1.9368601316392895, 1.006602028865896, -0.8844981809437745, -1.4800198637318926, 0.10112591197471987, -0.4769905955695827, 0.05189513729301717, 0.13121747877489703, 0.33896058603730894, 0.4516209188475893, 0.05826538901543697, 1.9104791431028079, 1.7991293821293246, 0.24768584120302306, -0.9294617598273702, 0.1484459690132153, 2.1479972998778067, 2.7492341462205374, 3.0897451594566943, 0.05235011891347416, 1.5637914597830178, 0.9797336835203848, -0.7000972727343042, 0.992841625745669, 2.9337367552999374, -1.3213614595405305, -1.1069760715653525, 1.1058233610710981, 0.7671110634304635, 2.5181626033314064, -2.6858389395183067, -1.7837474653714387, -2.4811857400460506, -1.1576451562225096, -0.0440425879502071, 0.06935392342534859, -0.6966161941143916, 2.349504717864713, 1.5726610975935802, 3.322825696108763, 0.782652423986591, 4.3338722245317625, 0.9619874243603703, 4.718375155932087, 0.4280228945257616, 1.2739476865741979, 1.9439107419115453, 3.4158038960430397, -0.9359874257294526, 0.6506313425871209, 1.459919723575585, -0.27885372821136106, 1.487917053307852, 1.0674110948974966, 1.4560716891106997, 3.9491656260490484, 3.9726090521262054, -0.5927519058035736, -2.3506850513505353, -0.5446678526813786, -1.8341831984023405, -0.4034623700523597, 0.03314380815310578, 0.08145903539591665, -1.3727797481062596, 0.09028675840795344, 1.842186598874022, 1.5721073744978797, -0.6502472672601682, 2.736531585096647, -0.7793669175721447, 0.7948051422853206, 0.3963185882833782, -1.7664830749813514, 1.3984996999189, 1.4280631213142916, -0.3652215924113796, 2.726940374532386, -0.08662049542241995, 2.1422837769680587, 1.7709189901381477, 2.131456668184398, -0.4989662761084508, 1.0646747950795814, -2.14479960876959, -1.4613891838488042, -0.7612455792161706, -1.127495722015347, -1.1659031776055575, -0.015538727106270682, 0.005556481757413198, 0.12887455923971297, -0.29062182867207126, -2.416911413189419, 0.4361974951176617, -0.7575519109938492, -0.4718717432133554, 3.006770643889478, 0.6906028166932723, 1.5962981320958765, -1.417178596400835, -1.1658489284802915, 3.646908504316537, 1.1285883306100997, 1.6263617187937445, 0.8544697175354254, 1.0421527838932199, 1.1756834908347433, -0.480383516338739, 2.1600822638619808, 1.9615161530739182, 3.3314760007145043, -1.4657740992149848, 3.074089266939265, 0.03934346488679787, -0.8606227618361386, -3.0051925360718776, -1.2034956463405313, 0.0069083086685437995, 0.06587481886214938, -0.5529212162522528, -0.2860790962753993, 2.4584271612473563, 1.0786002968636135, 0.7137361852079748, 1.2991607330736592, -3.089816983918783, -0.9772411993218048, 5.47790140144739, -0.023246180746637826, 0.3417674392396835, 1.7323950692209664, 1.3444592302362466, -0.23240955535876748, 1.493379203989919, 0.9132198832429368, -0.3654676320232255, 1.1868508042619768, -0.3907307861091451, -1.498430092115003, -0.00525091909715071, 3.6797310238784147, -1.7385096887532403, -0.22124894624118036, -2.242339588587276, -0.6856277078853708, 0.014513720453452035, 0.024955680767294205, -1.7724591877521008, -2.367174699891768, 0.20388918101866896, 0.22371411303069974, 2.441323493475285, 2.78200116865627, 3.400007013109587, -1.8114739447404762, -1.3259871228313767, 1.868044684053424, -0.04227497947690436, 0.6510717549677072, 1.2180472274945267, 2.0407734134786484, 0.567231985669191, 2.5280469900710663, 1.0162695394909316, 1.9082573940915877, -3.445404770940227, 0.37582716434757063, 2.6193636627855916, 3.961537054349182, -0.44613906030909906, 2.540638256398184, -0.9624452778589945, -0.41882352966078323, -0.009470379512099255, 0.08539041440031421, -2.343857486844788, -4.946592194305605, -6.513386071593021, -3.0409276217270333, 1.7255234207161914, 0.7257710604933505, 3.703292707284451, 0.7995313950044477, 1.5872162829027634, 3.3968114243815712, 2.3803668604870754, 2.1404917121800136, 2.7054803356502113, 2.9303408021646344, -0.4352761865046865, 0.8632972508890533, -1.0464798794217642, 1.8482008509845995, -0.4652299558254153, -0.06659606006622885, -0.1880599132328446, -0.31547234455745504, -1.7290283162026634, 1.3202401103038777, -0.053248524159129826, -0.2638345880718416, -0.04677353838625755, 0.14373706782650866, -0.3030816656027945, -1.1884966991094472, -5.169388106690866, -5.132770322940367, -1.6542015151856921, -0.39896996842966975, 2.7080501579739327, -4.8703853476386305, -1.282647326003808, 1.581773398350848, -0.31272986090337146, -1.342235449304328, -0.5510435336923265, -2.4437336963391894, -0.31323069025867506, 0.4405797347333616, -2.013280102232307, -0.02866560875929132, -1.9929811837350582, -1.6400706970380636, -3.2933062187773023, -5.360683047699208, -5.3401011473861235, -2.7504566682536193, -2.346410737464437, -0.22555536546523122, -0.0032479688312625032, 0.11335555321102775, -0.6982735159343456, -0.9697520630224048, -4.041221247964275, -3.9406581435217287, -4.340618389088656, -6.069219688406447, -0.3774611123312673, -1.6672316495446453, -3.0266652395510185, -5.435167305150811, 0.5983851164506317, -4.174015898834467, -2.5496385175119545, -5.512748769251285, -0.21701824622365598, -1.660288555733383, -2.155531872005168, -2.3443022737988866, -2.4176868534257445, -2.2017385955045827, -3.968369130706221, -5.343423640820403, -5.17284667866927, -2.4380797795065803, -1.871319936158203, -0.014246208883368505, -0.046149348156287726, -0.0007849613288595165, -1.0250907114865226, -4.90212649123032, -5.4769823195225, 0.09307798128935305, -3.270700164577744, -6.921790478801459, -2.7301260257424262, -5.662518844140783, -3.8955277310037895, -5.054577526141125, -5.198322990918955, -2.0704842676506, -1.3796557926190287, -3.0166988321280055, -3.9128104776981174, -3.2902139143359763, -0.5444948668777622, -2.939632564320336, -0.21569262163093897, 1.3643721788137986, -0.08165614495633686, -0.9574752245460266, 0.1653851487511255, -0.9698183914659477, -2.704399192014229, -0.18038507639310847, -0.019805281026547123, -0.048976360782795526, -1.3395784989271884, -3.9775433338394746, -4.774769557547346, -2.1688174635495763, -1.951498303134476, -1.57066392639948, -0.5012704815516276, -2.0353021149849075, -1.4201437457034838, -0.22788949891847815, 0.3555845915209767, 0.8687805067405989, -4.308128726186234, 0.09786186178629384, -3.621460681609751, -1.5697669703499215, -1.172156554178025, -4.350038870437916, -2.4121613687456986, -3.5571663517857344, -1.9957895573810873, -1.8027416425863305, 1.1113561728852046, 1.7808969936754555, -0.448628697665565, 0.023591741414332006, 0.02524703086562083, 0.06220470864506531, -0.2850351983865584, -2.0547588458773047, -3.5948946428747646, -0.42130627534813286, -1.658616150108661, 1.1343298976325238, -2.3526396801199763, -0.5349043626960753, 1.6315281140138873, -4.961696725891029, -3.2953231487840124, -0.27605489132850847, -0.07147369423526334, 2.6391289457716565, -1.0475530874880072, -0.5816554232397255, -0.375769070511199, -0.4854904219293999, -0.7131026350883959, -2.3388814970559864, -1.1563345161079799, 0.26151725631353956, 1.587532648778692, 1.2540951452728089, -0.11399735992349479, 0.07139567650090448, 0.06459376925557132, -0.04500168151437828, 0.36289281597906814, 0.4429152424459647, -0.1260421070980439, -0.5459999242944347, -0.7955392977277291, -2.3146189543505225, -1.1888790233613742, -1.4892846942872817, 1.6643253840988448, -1.8078058366557017, 1.7288267366707297, -0.4102024402447788, 0.7248323958299757, -0.5547312264380204, -0.1373663644869049, 0.7034438390458749, -1.0678253811798626, 1.1297361356386306, 2.217926578948232, 1.882360357769363, 0.9976766641655826, 0.9437624382825114, 2.4916304504935924, 2.174357799466937, 0.6365218566999536, 0.26659290169387834, -0.012476650733940567, 0.030060636004428546, 0.2579833655531449, 0.9426698402134611, 1.4882327445151775, 2.732669216153829, -0.19031835705823938, 1.1986900441564872, 2.5236279253298606, 1.4496823380290875, 2.630443735909665, -0.18477132350026446, 2.5403060105782367, -2.6153288730855015, 1.1814405507086898, -1.8132223598198565, 1.3940001982122119, 3.3986242891748124, 3.316509026849077, -0.881619207814708, 1.0547385054596696, 0.08993994838109283, -0.3797053211199716, -0.382108340347335, 0.6732332194402665, 0.38800624506320935, -0.024069185703380278, -0.03478535714890125, -0.05997918547036458, -0.017875570488677644, 0.03324170114027803, 0.19878723531662387, 1.1598429470605602, 0.9653241683999682, -0.9999561147784884, 1.2323399264360222, 0.8408903732174087, 0.5766183017318285, -1.0012614994015716, -0.2811405601154052, -1.2746128526402947, -2.3294667216732767, 1.3128059051606384, 0.6351100347984107, 1.4926275427019295, 1.0954254972063704, -0.545897306971382, -0.4782952301147384, -0.24733483023898525, 0.34234467181366796, 0.3310924900458996, 0.14869123178071267, 0.2569160553877714, 0.023232323713307905, 0.01156419174827658, -0.012216360674899689, -0.011260176345623698, 0.0018493548840351765, -0.00679444247837229, -0.002154161418106659, -0.051382523245285396, -0.015866537787067172, 0.009874772687092408, -0.03812326344954098, -0.055487973774859776, -0.009766389333211303, -0.05116520622013142, 0.04270889415303411, 0.030803611044448332, 0.019446134599365998, -0.036420868760875476, 0.03924672776626987, 0.03376242659457604, -0.017309808448626514, -0.02536927743399986, 0.07409185129394462, -0.030000319252283667, -0.0323119112957107, -0.01057790629579915, 0.005049596435051735, 0.033491289430040504, -0.06026128515811615, 0.03210075359678695, -0.01763987560821093, 0.025748164774076585], [-0.00605652214221765, 0.030287521153191187, -0.019878183905899162, -0.023067725584173783, 0.02152611451451866, -0.00896010934660755, 0.02747681651732015, 0.009681655111046052, 0.0007812246019668847, -0.015356027204036322, 0.07727608842605847, -0.027225470814575357, 0.030964042481882736, -0.03665078513283721, -0.009146097533972424, -0.006082747318170008, -0.009474624916092632, -0.033551789969889466, -0.02914122364655372, 0.08022821664032999, -0.011434823185773815, -0.011350206216959237, -0.031828150937628204, -0.048347500971383524, -0.02582782618975356, -0.02044307578839368, 0.01815555299046224, -0.0346569255631199, -0.05443018951824707, -0.03639633663333365, 0.022526301523526544, 0.00223428313198196, -0.0006883712437551185, 0.05057685934289873, -0.12596531408201284, -0.20314176932855427, -0.3395012649076884, 0.39246436811985186, -1.406643172219383, -2.093258141098798, -2.7362204224574826, 0.6247069345811527, -1.6928999531642788, -2.269662213526751, -0.9569255346959231, -1.643076890757861, -0.5907018253373622, -3.230300142412321, 0.9335037513934878, 1.0524740851897967, -0.8465674825914832, -0.8200403042461111, -0.36744171993371183, -0.2902967940581946, -0.03094557653003901, -0.029370862134144783, -0.053456434761465124, -0.024180528935462714, 0.08841553677703205, 0.0904544529118067, 0.00656162986277343, 0.0014710022499789062, -0.7629991605702076, -1.8827958552887696, -1.6538977227668388, 0.3752560042422045, 0.0617152149402082, -0.8879286770295474, -2.2052818765516577, 0.2370947426123866, -0.4336608099527395, -1.6310287245248867, -2.9142336028974802, 0.22489575520819058, -1.8331276610401699, -2.986964895994953, -0.3150834344313896, -2.8843174170621384, -3.160402408212282, -0.1541269133394253, -0.13580580548881185, -0.27321968814852854, -0.18076414425251644, 0.038690923497090496, 0.028726079207618493, -0.035824705571320496, 0.08788186132230681, -0.006023203842189503, -0.10510037918377044, -0.24629660943538514, -0.9216825426921068, -2.04079827126888, -2.1883454591332927, -2.781806737689622, 0.5450171373337191, 1.218698832622561, 0.5984958617670472, -0.7961884804621042, -1.7646261078686476, -0.7646530672239283, -0.8863605334424791, -0.7559900849420531, -2.1895171479844517, 0.5476728613812704, -0.8674790328468581, -2.916322497858673, -2.438164292828602, 1.2463478204209535, 1.6280002521647345, 0.25039584809441445, -0.23836915944698803, -0.0014516668789755468, -0.015480626906007312, 0.00774826761400585, -0.053271096579198485, -0.08608639088827702, -0.24064789533787595, -0.32899584199195897, -0.9523260444102392, -1.5098476184018759, -3.701896488000486, -2.805167066191669, -2.38168860101597, -4.1994182438946694, -1.222213654883469, -3.986290995379424, -0.5132532193978857, 0.09361323094182082, -0.10902355976651484, -3.9562066418860593, -1.0335806483810903, -1.240418946093992, -0.23263148665307978, -0.28827218984921243, 0.4325638314818805, -0.8600588800245427, -1.3207684928909444, -1.607052909213185, -0.545922429228489, -0.027237712435489378, -0.07122025363136501, -0.038568825220813265, -0.4819356487686672, -0.7381394831371868, -0.805728432979621, -0.8392492303374465, -1.3659844835651969, -1.1781735051899782, -2.461862536239172, -0.6104311631647326, 0.21390725161767934, -1.1583892506168543, 0.7641924517355534, -2.400423424029955, -0.8015289280298608, -1.556985452762389, -0.5870914034069722, 1.2857014624357386, 0.711804948512671, -0.8867094731585666, 0.6562748358731452, 3.507655649827458, -1.618762941170026, -1.638750257565367, -2.1992019353914887, -2.288180395833225, -0.4692393748169136, 0.03141854048673069, -0.034577000937568964, -0.3566036084636365, -0.6277204128102439, -0.7099091715042568, -0.9811540412161156, -1.2703091127034059, -1.2666176589712923, -1.730291813723766, -2.298755504957126, -0.16672799234884514, 1.260968570360474, -0.709358212425422, 0.07113039918703053, 1.0468861022285514, 0.5249108183385854, -1.744384969597063, 1.8809799724157816, -1.9275346511453177, -2.1484051666184363, -0.9945483712014788, -0.8410589841828475, 0.3535932582596596, -0.8665073963454193, -0.3884979007820581, -4.090414921736712, -2.4416724608341056, -0.4508501444115047, 0.008169755189576976, -0.026728794651574277, -0.11378244794483638, -0.018974604803334235, -0.3626216935551805, -0.8152487664416355, -1.4275893157755413, -1.418021873667777, -1.4752689736206952, -3.5148141666980597, -1.3663690705288734, -0.06870530006130977, -2.24682455547712, -0.5031792539738402, -0.4046252926328571, 0.8914311479110659, -1.5834712550779846, -0.4542336649425875, 0.5377173594387423, 2.221423002799825, 0.6286676467485526, -2.5513219248696197, -0.9260185119437849, 0.28253974391687614, -0.38341373503517306, -3.5422594181995786, -2.0999158193226615, -0.2190225184743015, 0.0229640949205741, -0.022865422312974573, -0.07309498687367892, -0.22461081280004105, -0.5950302992455616, -0.4508652186806059, -0.7264482125089596, -1.100804993934697, -1.084716006958454, -4.287298816582327, -2.8970011169212504, 0.9449743025433864, -0.5463184062833023, 1.1230496641550882, 1.407391579911111, 0.366688541547223, 0.7537128377329624, -1.0501469834866066, 1.0163257652343967, 0.40648227928040276, -3.4151367710461202, 0.21069321832098983, 1.5390336106552052, -0.630878106175729, -0.40794726324343245, -2.9295748130052046, -2.3329098449052927, -0.14584514312105493, 0.046674221410956646, -0.032862763569213714, 0.020445980506763807, -0.4269196989806357, -0.7820293409963278, 0.10429216444232281, 0.1412146928749385, -0.5954436780724415, -0.4459854325958496, -2.605337628178857, -0.44979137334297314, 0.6625698240546161, -0.272881830097948, -0.03218167248296217, -1.8024414612398656, 0.9616110826629714, 3.4655269012426646, -1.356534599167265, -1.55475050084234, 1.8634074281144475, 0.7123355336093374, 1.1576329767303513, -0.7231398752704701, 0.2798516857136404, -0.8998833944640475, -1.6769360333089882, -0.8740884200731733, -0.2914567046642515, 0.04430532818855832, 0.0234461206913781, -0.11018880646106648, -0.23033566978816292, -0.3482019895326508, 0.2603743992530473, -0.30131724426746626, -1.2478445405991863, -0.8395514882466638, -2.6449748968720797, -1.6989669710093045, -1.755899870541676, 0.13634166556981714, 1.0446007497888417, -0.13785887657181975, 0.5851259784154595, 0.07130908453845539, 0.4165740510738352, -0.41032452196741975, 0.7042350637329166, -2.761888904470872, -1.2372054259270036, -0.8174024875620508, -0.21498216447646687, -0.6678760919520703, -0.4455460447878283, -0.566550103671488, -0.09937557104787863, 0.02947630134947858, -0.038989094746267314, -0.013349624596918847, -0.1310200623040637, -0.2662343877924586, -0.4032454384861587, -0.7860046505333463, -0.8099939769317018, -0.6353177193245395, -2.462073088063948, -4.994484828059076, -1.203911494771227, -1.3268496433388317, -0.5115359913175229, 0.6599229117560053, 1.674831073845108, 0.0561428772785243, 2.8415546435737213, -1.9101514315971444, 1.320104912555573, 1.5509605818947076, -0.7854057298814652, -1.8455113601087707, 0.5807783780332448, -0.2127874427176946, -0.385939896845996, -0.1739171672801616, -0.0025409209926638004, -0.0655990557838175, 0.007723742378453945, -0.06600515795900629, -0.3564199794282059, -0.3881607590264892, -0.8024761721258051, -0.656785374051492, -0.61427475452548, -1.0242148889525755, -0.9849689861339084, -4.898714710372759, -0.924821107515478, 0.04220539406799522, 0.997382204578993, 2.0060371396883943, -1.1921329759169272, 0.6187195568592683, 0.7557857270711136, -1.936886691410743, 0.246986326806391, 1.7298176877266496, -2.85010059004545, -2.8648831500678407, 0.2647404100073539, 0.001278605258400869, -0.34433404708192183, -0.1682054979504578, 0.021901494704918756, 0.025647581630317263, -0.030834488289298273, -0.028598037686515598, -0.407522391539407, -0.6651013766945809, -0.8164306522906815, -0.7028363081795682, -0.6739697754643071, -1.3339699589408567, -0.8310214073021045, -3.5528275796350375, 2.890661932613907, 0.3330034458633582, -0.5909132274273543, 0.28248407377444873, 0.8245280050462893, 1.3699401386863577, -0.18580702249206102, 2.0325764157885877, -1.0706750653025583, 1.5541134707270479, -3.603159197847903, -1.8020460643375384, 0.23099387609369526, -0.329339702815446, -0.5328489999126444, -0.18634638406699575, -0.018451242976929735, 0.039213052270219824, -0.061149545967967796, -0.07951206344424097, -0.5120509543970311, -0.8309797349812791, -0.9777948064371279, -1.0062338004566471, -1.2731711208409693, -2.1392547489820273, -2.5568087345575004, -1.6373585745803918, 1.91788206383278, -0.7754364694521683, 1.1350935253385284, 0.17580642078170128, 0.25167978009506536, -0.9855368827580626, 0.31311075674880684, 0.5593458642101927, -0.5127166505426575, 2.0292114509720474, -3.362395586241432, -1.1594280432601083, 0.27964745131930074, -0.32573334751829813, -0.3594515482513738, -0.22522997875544834, -0.0053770695498192205, 0.03587692094486774, -0.06808211663159272, -0.05629627415009794, -0.6118664222908582, -0.8193556062734035, -1.6479735199761816, -2.2370119173467438, -1.8344658307359227, -1.7548130620550875, -3.46514426261983, 0.7224707030617389, -1.1597031943526086, -0.20603272449800164, 2.5863820630700256, 0.5073286966916952, -0.7522224876096797, 0.37092334389438025, 1.202297896567495, 1.5195365151560525, 1.955305035762318, -2.6838256104136846, -3.4002626173591293, -1.2214170207732795, 0.5786867027755855, 0.22500893032331923, -0.18411096443358482, -0.14560650010748008, 0.023126761300599975, -0.010147109734409366, -0.08047986949269258, -0.16393012021825532, -1.2980955369335934, -1.1858492936082599, -1.4896526650142823, -1.6937145573470402, -1.1977629106295444, 0.146157269639485, -1.5032328770400716, 0.5630754655810246, -0.3441358410736482, 0.09161640532030725, -0.8815707408715736, -0.0633333962498717, -0.8116803532755072, 0.3976300054390326, 0.2603041126158299, -1.9687675689743758, -1.386612694204433, -4.598288099917627, -3.1014696712126746, -0.8702440594364905, 0.4891477643056207, 0.20024973307456037, -0.34515590438256893, -0.09152603842257963, 0.02330659941698222, -0.011115980197826142, 0.06024620688090387, -0.21093148835654563, -2.484185073764627, -2.4709425019294833, -2.1012167942896416, -1.395814190377494, -1.532396066636794, -0.19703795980875818, -2.7225340424412168, -0.4274639523359717, 1.495628888135573, 1.6321708448020056, 0.4284169077941385, 2.6223522951185294, 0.5397757048638637, 0.05619899664634025, -2.9537318013485834, -2.7831466162452188, -1.0799145688126566, -3.789373761688907, -2.2423974459211893, 0.8725839899020338, 0.9784395972592389, -0.1570260898951156, -0.6719564345925193, -0.29816390776161716, -0.016161547469446282, 0.011223550317556218, -0.026799805434556477, -0.1525229868766934, -2.0498870935585916, -4.2620437069985595, -2.630416247573087, 0.4433015124470731, 0.7655835759336361, 2.019368176110946, -2.966544017549078, -1.492336962243022, -1.0387481002516126, -0.9625950694683726, 2.2292907528659205, -1.3062680074435022, -0.5848983225904204, 0.5771660916865428, -1.045991117244997, 0.10582723475029375, -1.2628427407406293, -3.681559117541298, -1.7086441944454993, 1.1651317806993104, 1.035677685867455, -0.018196929450968253, -0.9845812127139137, -0.7284431360070671, -0.015170589129927987, -0.019815644860469075, 0.04888892170256451, -0.1041122146265616, -2.303843974933393, -4.280856607454423, -1.427020149614143, 1.095978661053119, 0.8376258133983827, 0.38024262831565286, -0.2739139999311019, 0.888372195012906, 0.4529237554211514, -1.068192189474894, -1.6290101881726697, -2.110216768162848, 1.331714351000431, -0.5051314018444297, -0.7742268136860431, -0.2816892821848578, -0.9217109784094288, -2.3118142164112223, -0.44604236774149464, 0.8607459020233168, 0.7353679460638161, -0.45785752679311637, -1.1325030179058935, -0.550642889028018, 0.05393571995196972, 0.013245091824485836, 0.016614574047199446, -0.2533322680503086, -2.6061102841445565, -4.167314029536103, -1.6555849105508762, 0.9047668513177088, -1.6141570357049568, -0.026570085612331595, -0.3854244321343656, -2.7407244676632594, -0.23066355503399513, 0.6849779175004839, 2.1588399983210373, -0.5782399005661099, 0.48417844739102683, 0.14325688074212595, -0.8449838284697683, -1.5867368181762513, -1.5896363919559062, -2.0215120571999985, 0.3615664417044382, 0.27501734269909633, -0.6250494260140332, -0.7121183984662126, -0.19779591567124777, -0.37864884308358576, -0.008843706703022775, -0.005613573146801505, 0.03307128537394105, -0.2807937217099481, -3.0262018527534154, -2.878266888959165, -1.823134236551411, 0.26182680949041925, -1.8249718001588122, 1.7585745574391547, -0.7433055171403937, -0.7112453263559659, 0.9544147362331493, -1.4946341262659837, 0.6205301579165723, 0.00873084572287556, -0.0774417628772708, 0.23213332362708483, -0.7845483528967361, -1.1085000302064856, -1.6525163942831034, -0.311381947088887, 1.7000051180453775, 0.330581380665426, -0.2696594506558374, -0.045929989235483394, -0.4494220058866817, -0.30387408174279995, -0.08913956409988906, 0.01222461744319608, 0.0014538112679000962, -0.6641068785376422, -1.6201085059214408, -1.0430504636784559, -0.2624336481044655, 1.2962388954760062, -1.4337423680066919, 0.6754339940929303, -0.07009618532888406, 0.05507960278874958, -1.5263242758011486, 0.220145121573015, 1.2539652637828484, -1.9416410196111331, -1.528742796810052, -0.05163509803846792, 1.2926001924155643, 0.5086100295783498, -0.29370496827042264, -2.605863154127737, -0.8029374915000276, -0.2935305230892965, 0.03602452228799358, 0.16743152050413995, -0.16302030036168397, -0.12816233492108928, -0.06424707972794304, 0.006728529817665154, 0.04885930059527322, -0.2800951334962576, -0.8212783061206546, 0.7063334243017221, 2.1815702164357726, 0.08977967773489032, -1.7003014056960195, -0.6792474969381949, -0.20798803491842038, 0.05867328867902365, -3.718040799729445, -1.368891320555385, -2.5819636372125374, 0.0828774096335097, -0.42991735643463735, -1.42914811881432, -0.3701273459486072, 1.4229464027333703, 1.5443802815496774, -1.3072608666385066, -2.6263171316265836, -0.44507018966786077, 0.03746676280907501, 0.05211126243584499, -0.037200829525602004, -0.02722187477833371, -0.025424866940571514, -0.0046154748632886945, -0.05431262504746324, -0.6009080850916327, -0.5797099393074214, 0.7279924799499894, 0.9341035447559912, -0.7744538629322343, -0.23779421485877697, -3.6763671593810194, 1.2978966158029608, 0.3875936177751016, -0.13839773176577766, 0.35830218724887325, -3.680207532613235, 0.7979895843747961, 0.758063613806462, 1.0626387412209704, 0.9859533566121368, 1.804862258511769, 2.5538211905934154, 0.6427534836190847, -1.9293237436790178, -0.3893490154662683, 0.2624487884865609, -0.14381079332742033, -0.04627250704366209, -0.03147196285509869, -0.04873022607020661, 0.05942688539511478, 0.006542795337075165, -0.16084999313219248, -0.36044876765891204, -0.7521160474958863, 0.8226312575026669, -0.536485067855375, -0.031259938646286727, 0.004821494186788531, -1.0749098626449771, -1.518055537754529, -2.1312440862799154, 1.5660681932845937, -0.022190725740348867, -0.44545821562949633, -2.2637701369877097, -3.1224543784939187, -2.0480792894991815, -3.425275681489683, -0.16121811040313944, -0.8613906183571524, -0.451727188418197, -0.0453653345308991, -0.008232615660945406, 0.01556371895853298, -0.03309436717935398, 0.003765370553394509, -0.05161205703146696, 0.00019840503142296446, 0.01799668052014688, 0.04842771447369795, -0.09931070431171508, -0.4263238332084313, 0.539470603160086, -0.6839921349066546, 0.07240819083078684, -1.0551234500554338, -0.15713437645368444, -0.6857771881846202, -2.6995765620673517, -0.06742940308291635, 1.4384100970812412, -1.1963385289639628, -1.258816297295543, -0.3169639968132574, -0.7676139734164538, -3.0399966911209337, -0.4371625335860677, -0.2867999958471247, -0.01623498733021632, -0.03832844322882795, -0.022177435552001384, -0.02529746540433991, -0.023388025447087672, 0.0003903484026151301, -0.027167008148354998, -0.08561856453417832, 0.023741970590046117, 0.0055239952027873514, 0.020458619580950695, 0.015830159352539373, -0.02827363205642913, -0.00985842784176016, -0.04129108082679476, 0.020945602958730113, 0.058887413223518884, 0.0007146695683330512, -0.046940393711257106, -0.025375127229697862, -0.023022376963682974, 0.03835821532949448, 0.02474329485417028, 0.03785832017990225, 0.026479496015288904, -0.022035927463068452, -0.029602246223087735, 0.012945104074355172, 0.0025305495190331827, 0.08288612778835977, -0.03160179182505787, -0.032029541737869746, 0.04520286701235754, 0.0002138617780160819, -0.01589366258875827, 0.013512731309428486], [0.05117125432087561, -0.01055377407457118, 0.04673137874396028, -0.00692430066471923, -0.00771530077191853, -0.043812476236112084, 0.04003657276030422, 0.06710887803799209, -0.05132130690614778, -0.002154631343020516, 0.012612999682664222, -0.03101751363052186, 0.012284836894762263, 0.009979356293262574, 0.025918382384726022, -0.044984839826773405, -0.006300757519387048, -0.054767193674809284, 0.008389375051830605, -0.011116468453422967, 0.0006092886547972292, 0.02663030766299637, -0.048517132437131336, 0.009222414253767786, -0.0503546852623075, 0.005420567474909481, 0.0017975792472108287, -0.013039563882069904, -0.014894699271214597, -0.04703026080173651, 0.014065994123798154, -0.03901554103906013, -0.0860365367816222, 0.23172044141805903, 0.43591613179026056, 1.0502459008983636, 0.3350536703775894, 0.0680203943187419, -0.19956561019590935, -0.048430758748798534, 1.042897095747722, -0.01671046086491905, -0.6291805833097669, -0.0022756947426532245, 0.9702082858733794, 0.05782899704479288, -0.7498014383095989, 1.0816336674135671, 0.501818175622875, 1.0086173638493663, -1.2231346993653551, 0.21704362734013322, 0.38048627354266035, -0.8075794037979838, -0.040365484600292593, -0.03294600498016378, 0.00012365921347695853, -0.03723356234689347, -0.00447549064420608, -0.021957715341452407, 0.2594533662825872, -0.12021287910332167, 0.5000656988426204, 0.7094894951084547, 0.08265001275222714, -1.7909155930088576, -2.790127530063657, -1.34853996636707, 0.6412266881763372, -3.3247996534613034, -2.411619130485385, 0.8160021143542404, 1.631411471695569, -1.684435192273893, -1.281037652402139, -0.7619774528719956, -0.8079091634291914, 1.1408174305694818, -1.1410550686041963, -1.734179862221035, 0.21193412192468883, -2.007249111542312, -0.4623174372075227, 0.017021011593422893, -0.021988220766633492, -0.011106434004250413, 0.11147191662403541, -0.47737994862103855, -1.4892762723171307, -2.5017095075014777, -1.3163163067943928, 0.20221582823208914, -1.31000932093513, -2.840077895605512, -1.2244125627600118, -0.4051375696778063, -0.16713004825848615, 1.277495702577028, -0.29816305748397626, -0.3434044462912438, -1.5492900263628306, 1.1992790314719426, -0.17007747928074557, -1.6906191727555, -0.30327910715155765, -1.5262037286123473, 0.35578131136523944, -4.305370461201899, 0.5698515513685115, 0.5935339980037602, -0.2625343226712999, -0.036128757962118965, -0.026760885232498595, 0.024735834497458628, -0.8144465510695317, -2.3783866181946327, -1.021271701910319, -1.469710072119797, -1.521888225237201, -2.386970294449442, -3.204254447826399, -2.023573492129229, -0.26933471667661996, -3.4456734638382853, -4.757962848380418, -0.5835148966795065, -2.449852073236384, -0.8585400308880968, -0.9572457378672822, -1.2390720961268102, -1.8498905585654113, -0.4207211539907517, -1.4753985932556566, -1.774624925348354, 2.2169038347356373, -2.8072170505386937, 0.06122982285848011, -0.951419325505051, -0.16731103413306544, -0.05149112290732426, 0.004981421451277327, -0.06379306845291516, -1.9478400206910464, -2.60050734663616, -1.812839970498171, -2.0275884285469186, -2.5470648653152983, -1.432371101613846, -2.933409182167142, -2.204722585089858, -2.714064012073363, -2.113926318369062, -1.6154627725879527, -0.6728540207571485, -2.905858846562183, 0.6958431237248641, -2.4464154138119825, -1.5804182529440454, 0.4044400194380756, -2.3637373435715734, -2.7467108660380473, 1.7986094090796256, 0.8884168159092067, -2.6749369162387366, -3.4164259055375434, -2.572161083471768, -0.38927730350321943, -0.017441098080045146, 0.06300572180822392, -0.07759118757482113, -1.1626803458348582, -1.4265427712761514, -2.385501132555447, -2.0602717075132873, -2.5339844162322303, -0.3633416077277716, 1.038337285836125, -0.0388065922843003, -0.56875865902357, -0.649487263691796, -3.7457057520787598, -1.7376346838178074, -2.504387503000522, -0.987179766344317, -3.9805030984143377, -0.7020745264025354, 0.3242348542991265, -1.4459367791882993, -3.0456669628819157, 1.8904084647008712, -0.65947183322029, -1.7404923522628768, -1.8204916582150201, -1.4158940579160082, -0.29145432873810795, 0.01737103033451933, 0.0006748388714602113, -0.10039369007367345, -1.5916723497391434, -1.8486336074895686, -2.723225498917926, -1.2034339871795414, -2.537033392763347, -2.940111219429093, -0.3856283408620886, -2.915149343624587, -0.7093981446450202, -0.7899841279852373, -3.647899795748406, 0.20250589212518622, -1.4960137467043697, -3.244595106627908, -0.8469315156283254, -1.8205306586062253, -0.3902085597177146, 1.600355348690076, 0.8486742548460504, 0.7598625193387916, -2.4949067312424877, -1.1198579748495268, -0.5872355688972939, -0.49175695707899203, -0.06674790783494972, 0.0018235491656317289, 0.04186428131015301, -0.10973539693420487, -2.4103877551129504, -3.7958131400448867, -3.7272624446632787, -0.897074219106162, -1.1122683882631796, -1.6163709075475234, -0.07502039802806837, -1.892356629513793, -2.879858328275341, -0.9535987070898145, -0.9634713848108762, -2.5825420853458745, 0.31595713399832387, -1.6356226847406017, -1.0892075302935331, -3.0916375371514926, -1.5842508811397922, -2.117513285242438, -6.085513394389031, -7.874427162132043, -10.097930195761856, -6.057454044529914, -2.2648963064562895, -0.4690190103698139, 0.027613875503925016, -0.023162988394175004, 0.04114795410851708, -0.08605642337372514, -1.730078619477937, -2.74100318721417, -2.8974799006573004, -0.6086949760711156, -2.245782759120455, -0.7622546077081018, -1.1609572886842088, -0.9645111557390337, -2.663592400682671, -0.46837676796625344, -0.9332273488235351, -0.3994876021925182, -0.7521911141558186, -0.24743804617487908, -2.538869891738119, -3.4971763334564585, -4.528104613351169, -6.692417846171521, -9.088930010517908, -9.942469479521819, -8.95652091885454, -6.246099431829576, -4.28505974685093, -1.7722245110520367, -0.084766386120672, 0.027413652586043162, -0.08848880840027934, -0.06623138135353948, -1.269405147627533, -1.8893926232884373, -0.8377266697589368, -1.489938806244668, -3.6370155192344935, -0.5271770053264359, -0.553691700551662, -1.2951709440119967, 0.09337608131168887, -2.236044281701107, 0.40377944331317034, -0.5879521902351045, -1.7502963451849678, -0.8627624556444833, -3.4021562028058074, -1.827695818557434, -5.148325564966083, -4.955758715570431, -2.2808081064504044, -1.336804557800972, -2.6807909010003743, -4.2502904624895965, -5.502793634496095, -3.2411656671532514, -0.10987550077647461, 0.010192959641657026, 0.020144019425193102, 0.006283073658177212, -0.07374455938063773, -0.013136847732452698, 1.09240253970988, -0.727800092534617, -1.0615949787570131, -0.0114113322363933, -3.0454007161453274, -0.0857613120616271, 0.12490531590559874, 1.2302820398915861, -0.9462637364333181, -2.449470411079893, -0.31524825334113354, 0.8304118446989052, -0.45952979385382686, -0.26982537439607784, 1.5273964434729066, -0.9687993662810533, 0.651016483375828, 1.7733504875784176, 1.3124647678178527, 1.0515491298645157, -2.813718150948676, -1.5021510248086234, -0.08643879320223857, 0.0030852672639113754, -0.028701743379962816, 0.14020121925157078, 1.1883064859347816, 0.5141555706081291, 0.43034885793699784, -0.655664616947663, 1.0034715274899892, -0.9463331727910973, 2.645064630465421, 1.6019550412424342, -0.585503310094569, 0.5612813048501701, 0.7232468736774376, -0.9170046524934913, -2.0671554880368324, -2.6792239000232154, -0.6605073811703397, -3.6395363728058494, 0.4122496765407297, -0.664923444259067, 2.030696061231438, 1.603742491802598, 2.3368273379008118, 3.1875094348324096, -0.4519965308217587, -1.123039077785397, -0.5507376859321976, -0.02297748491935445, 0.015938045447222715, 0.13449735356214693, -0.18362505238596039, 0.5902252737284812, 4.886173107846857, 0.5258385382923336, 0.7426512093729536, 3.2707761487613003, 0.1252137015047556, 1.7168849517377476, -0.6203900380030745, -1.609792211001809, 1.1886316138278006, 1.797237715078059, -0.63654014858735, 0.6035025714147844, -1.4093376385968157, -1.4208319835749643, 2.490714120088094, -0.31559099689801123, -0.9172960805164668, -0.4077945249591351, 1.936533037751097, 1.6564249480849216, -1.20215143113753, 0.3951192220437933, -0.20484828550924786, 0.026214231308012235, 0.002030523919426533, 0.5497809094051674, 0.9703696718435602, 0.12323954455106736, 4.819120783694922, 3.223880702940323, -0.012930227504845692, -0.2739294899967894, -1.9950612929112643, 0.8356499758928742, 1.4072192923328346, 0.38520816911557476, 0.9023201040605673, -0.489553894940033, 1.0849171420656063, -1.081906028222846, 1.0850063595022248, 1.67819954124061, -1.6874213613556541, -0.4628561320581327, 0.36711411593062837, 0.49322253846742103, 1.4144063324832643, 0.6405761030383705, 0.2599835055815017, 1.0861959295467023, -0.07777067940899483, -0.07026596424279696, 0.008571928803925363, 0.23298129991347197, 0.6687963051233945, 2.237995216724342, 1.166854848564081, 0.43507876253720407, 0.03481648044009886, 2.396825454937514, 1.9509274294459698, -0.8458579622376167, 2.1566874739195967, -0.8027917169456955, -1.1294747930858744, 0.3509043580966052, 1.2631834905023107, 0.604139254745284, -2.1074232971750653, 1.6870356230552854, -0.3422998811633289, 2.788662708202532, 1.6848043037435227, -1.8901968727641354, -2.59858461120829, -0.9269090872745387, 0.6473093352083239, 1.291303038763075, -0.09363898671862572, -0.009965484970908994, 0.035603852298442186, 0.046548652250147204, -0.875906350260513, 1.988332085864375, -0.3450130378211463, -0.7381121731107585, -0.995735964344984, 2.24546132976008, 0.581972911020016, -0.8600978072135199, 4.117900455706586, -0.5361683901526536, 1.0715682033719296, -0.06344227259938176, 1.0797624523320595, -0.19841508303394725, -0.28060775973325447, 1.3221096141105373, 0.2611999767157598, -0.8509480776847955, -0.03838105258654867, 0.2251708302713301, 0.8913133213370837, -0.8127891970075195, -1.4622154720562515, -1.223260399193286, -0.28081311862041086, -0.051621574941151945, -0.056199775060234734, -0.24374836612010642, -1.67720730336864, -3.269446888480498, 0.839805889382908, 0.7762232494793377, 0.7956853597393254, 0.5514010425219632, 1.1888446245781785, -0.9497451134128104, 1.3825740827505086, -0.20565661977099212, 0.5263422895447146, -0.7899251318000902, 1.095255965917705, 0.8971592797522843, 0.21309341484577604, -0.815394049167505, 1.065414956296398, -0.27600554420409795, 1.7304777173692008, -1.4074113390917906, 3.55349409968084, 2.7072221782168002, -1.9124532289070557, -2.799813230010601, -0.1806035160337087, -0.04397321586304665, -0.015073344261499713, -0.3283823633805515, -1.1915375606850958, -3.995710892597848, 0.08940347609707402, 3.352524910454636, 1.5120952627917585, 2.6513966418683994, 1.514508245318802, 0.9387544125305572, 1.839277817882775, 1.648790275402886, 0.8318071647174508, 1.2778317751723816, -0.38215582275654486, -0.212896233825093, 1.506940536291756, 1.4732003824416045, 1.1246320287093137, 0.2648455573484524, 1.0061746525534376, -2.2179908267197996, 0.7031467539272406, 0.9717098147226513, -0.9579023703694174, 0.4706587888381486, -0.006695539972732344, -0.01827619425606906, -0.050678646727061676, -0.03893585577463302, -1.5633091667291281, -2.71130278114445, -0.992992379589241, -0.7527424584766863, 0.4850123075390286, -1.225647281286517, 3.0928718955099694, 2.6544939876566236, 1.555937343423205, -1.8724549407366915, 1.581535305231855, 2.1291292666005135, 2.7735417517920573, 0.6362104530646835, 3.034747801480212, -0.37081570470344466, 1.504190786086327, -0.7097003435418191, 0.5979012559133897, 0.47906051916899395, 1.9885084901569299, 0.6854826989043368, 0.2248784022582059, 0.12478853500401492, -0.4444750457349988, 0.02820203526360546, 0.021197851282342705, 0.0021789555643662393, -1.0433428922686863, -1.9308149551196194, 2.1540907570755565, 0.3807069892812043, 1.9419582947555738, -0.024467408862214178, 0.6311763982188354, 0.7337036684506646, 2.4925377808771296, 2.476075387120506, -0.543986611736728, -1.6171174694026407, 0.4425324117054486, -1.5428283989889808, 0.1317912909714001, -2.011225924995218, -0.4683511565803327, -1.3855502642784159, 2.763225510341622, -2.291357533482883, -0.5852874759574329, -1.1864207811455063, -0.5353103163421055, 0.29194956437823133, -0.1187337609736351, 0.065670917617104, 0.040776773863343434, -0.04558663945771774, 0.42737789835985385, -0.0765773383577346, 1.427216166498735, 0.6787088628703783, -0.1399818383629641, -1.204960965288676, 3.2731199290285926, -0.4162420721264787, 0.8144841122836806, 2.2688496677127215, 2.0476729453440927, 1.9302080112968019, 0.7749108565036498, 2.3466165363098077, 4.098887757879781, 3.3727821526738624, 0.8759748591294815, -0.6632166706764725, 1.3268762382170767, -1.822919169968655, -0.5727216564739462, -2.3310373745099793, -0.4984666238485331, 0.8105172324825406, 0.04905939630529664, -0.016209612781250885, 0.04152323831628502, -1.005006187179923, 0.9056752432305095, -1.9191995827643342, -0.9410188125687324, 1.1461810526697154, 1.1013453818917756, -1.6527518307106313, 2.759332899385136, 2.3280230780545867, 0.41764110652400976, 1.6731226701238564, 0.11479645025059323, 2.2864803433918133, 0.8248064412241156, -0.9728906437987646, -0.8164999480040187, 2.0344152951894676, -0.5892929018917367, -1.0318233271634774, 2.2570469661296433, -0.12026600596511593, 0.38281925996433863, -1.8222227774465023, -1.9172141896785089, 0.6300151971019264, 0.06772919527850466, 0.00360819796879052, -0.01500491459544814, -0.6506328854396799, 0.4947696547287622, -1.8836210626818215, -2.315268782180822, -1.9033134700148595, -2.281129666726994, -1.6467578462182246, 2.9110495586858094, -1.014944308596657, 1.3414229171407133, 3.0074544021117275, 1.4288447882652595, 3.796618043627709, 2.4189327968264913, 0.764951854283645, 0.8795201832770168, -1.1193717366656613, 2.202248422584662, 0.6491243819176042, 0.8004380980405649, 0.09214669439879009, -1.3319862724582112, -2.018342235119438, -0.49427377156192664, -0.48783409964109187, -0.16229018127313583, -0.010184865282701521, -0.014606518498513493, -0.19822763490824824, -0.7787456089993761, -2.658800985947036, -0.9215997745377322, 1.2063496317070195, 1.3617092875606134, 4.629402829874796, 2.687220010576715, -0.374678926198349, 3.24778306341694, 1.9281191327589149, -0.22076125141021832, 1.5462777555049911, 0.18266320399408914, 3.5085613314410224, 2.7472582611752214, 2.1171688159100044, 0.032803293762918684, 0.8494777970562966, 0.8177562922346044, -0.9276971266209304, -2.398825328417907, -1.0719295252091552, 0.4520159882933848, -0.09884506547023479, -0.033672309857398615, -0.00043165918173954473, 0.03270757471186627, 0.44501052700127947, 0.6324059694692178, 0.7730768047068733, -1.0166028423260642, 1.0075555054251648, 2.393142447671411, 0.23692704679401252, -0.6617624809739193, 0.31738408330326146, 2.799159809258283, -1.4730724891830913, -2.3087333014407965, 0.49469559786436884, 1.9145355595162759, 1.6211479433704674, 0.7209067698949073, 0.5865504623345028, -0.8032037816837805, 0.7509471859643655, 2.5992807564711353, 1.2511830063805138, -0.3400276981324767, -1.0494680477128921, -0.3482963746998679, -0.06135939498614515, -0.06032344509768504, 0.004865451378419283, 0.02343950614125879, -0.07526927825930071, 0.26252255632432675, 0.3970463544496931, -1.055418434058769, -0.5438799687113561, -0.48549400390394365, -0.3265819902966696, 0.2076963245269242, 0.27249731798002036, 1.7748489800621439, -1.128556709155565, -0.889323793539781, -0.8336826084248872, -0.9819268376180329, -0.45934467347806307, -0.751896046235207, -0.8779981838148149, -0.0384891187757949, 0.02743868458696788, 0.12847412412933584, 0.49246669931706855, -0.14074108322455348, -0.2745021348815852, -0.123350170184601, -0.026216627716469196, -0.03200451076976072, -0.043082354758355146, 0.005417539063264864, -0.023112574634066962, 0.04251105096178293, 0.044558329110995075, 0.010024820870859255, -0.019178945593250205, 0.06984419087404545, -0.007003968460152487, -0.01521186413972932, 0.010148880467398947, 0.003981534044915852, -0.04792032493314855, 0.02379778857184213, -0.03948426593726649, 0.00885760927656445, -0.015928920944908855, -0.0004845463090839176, 0.0005405204599654217, 0.02431376160592721, -0.006806713997462125, 0.02615636680367282, -0.02216751754156011, -0.013343445190458204, -0.0018717429634089395, 0.022417201244002184, -0.020554103481924497, -0.01776907932190116, 0.03801999895756226], [-0.04138485538419589, -0.026775458455546984, -0.00692007296454773, 0.0029144158267855242, 0.023316456922958622, -0.022215973996291674, -0.06611355222828988, -0.019544771147675683, -0.002812269898587644, 0.0065282983854716295, -0.027550748419689953, 0.00307893139790654, -0.012911039327108798, -0.024807152578583916, 0.019477301608870495, 0.01731780687885807, -0.0087353419070549, 0.01066639602018979, 0.02306010371538826, 0.010155823372458217, -0.021212856497580628, 0.027901791956698695, 0.01558821305394754, -0.04666588307816114, -0.0358127644853595, 0.02996064092549008, -0.030104238809474913, -0.0274959554595671, -0.03995372168329004, -0.008123261581459248, 0.45700692071561, 0.4719318922382325, 0.19447741658617906, 0.2481424164283386, 0.09453294627382369, -0.33966733750142064, 1.4812773954234846, 1.278364934844042, -0.9712793483827165, -0.13603988141357096, -2.0164338016321355, 0.6528798469959086, -1.4428545549451752, -0.44950338993874805, -1.5369495525658434, -0.9018697650658756, 0.8787730823685138, 0.43171197211624207, -0.6010684735198901, -2.639035349254347, -0.3629654799917216, -0.8579346373285645, 0.2285473764309727, 0.29174750532591703, 0.2320863318058528, 0.006069064746833599, -0.04576397995708126, 0.39812687916309797, 0.5626479433631129, 0.9625983467707087, 1.6635198733946897, 1.5070144173567401, 0.2628385358490162, -0.3858186626479074, 4.04229473968559, 5.120408296686734, 1.1688303846135555, -0.41849594065530477, 0.05511195080373119, 1.270577304212114, -1.3138970878786191, -2.4807305835325715, 0.11436799349133824, -0.8266212510518901, 0.7041860302267655, -1.5971717530997231, 0.15459104090704365, -1.2351519439392784, -0.9511658437839088, -0.00853729959909109, -0.833452404534283, -0.08627366565062855, 0.06606966085782089, -0.008834506920699361, -0.07410950100099456, 0.051520670519305395, 0.38967581120037786, 0.9890100181195253, 0.32312961311470717, -1.3905867394585107, -0.8673945268289851, 0.07331258020278292, 5.659618464499806, 2.3339841264761243, -0.831104188162026, 2.8814482467817486, 2.411861001612974, 0.44463700681497575, -0.1649010276907956, -2.158691860922608, -0.797046650948996, 2.53969053059804, 1.0635620327196105, -1.587037712084014, 2.5784055293251367, 2.974481346834569, 0.9648447466290205, 1.7009714181626292, 1.7840416095616178, 1.009692246502617, 0.38752429395443466, -0.03601391021057087, 0.042588812922937105, -0.1900132345027419, 0.41348705974814215, 2.8173579265802404, 0.7669612842287817, 2.7312160985574825, 2.4998911011645943, 2.4084647888786637, 0.6424630735121752, 2.6404325644976963, 4.293112969102636, 0.8903276570812255, -0.7058992677616039, 0.7741687390435333, 2.19970440033428, 1.4064608602349333, -0.9118256757187535, -0.3986680680560706, 3.499130609394428, 1.6815308107787676, 1.8695505711701148, -0.37577757156616, 1.9584381307738639, -0.3711741859185365, -0.5279646967470077, -1.4469185619610707, -0.5297639580446598, -0.013437293391574075, -0.011954094406254808, 0.0092397592813387, 1.61009222565812, 4.140618560078379, 2.0744996492438545, 1.8390283023249687, -0.8374361950603901, 0.7537634900658003, -0.241407783228974, 1.836257950520183, 2.040986226516664, 3.982638508861773, 0.9285114307530753, -0.3240924871948449, 1.6107513584855297, -0.06714770038986245, 1.1640205229766358, 1.0703693552705846, 0.9354453763777939, -0.23593849846327644, 1.91976267614305, -0.8685061297149795, 2.1632923781782454, 1.4503602654184375, -0.22864451549889456, -1.6883860885504611, -0.06705881474402223, 0.03361387481344247, 0.002345878378843225, 0.19554867326387, 0.8729137544433464, 2.7004639236013817, 2.8177519747669324, 1.7630518314075534, 0.7454106773304717, 0.007298241564637514, -1.4302111057300528, -0.33800175258119936, 0.2576237867397436, 2.1770316799882106, 3.6624660960245645, 1.3847779613522895, 0.5776071852925008, 0.3020805467718638, 3.4110769352465513, 0.5561370933422798, -0.08768379682946373, 0.2124582957403488, -0.7057754787332217, 0.8629924839289639, 1.830513531583885, 0.29686851308317785, 2.091073511472703, 1.0120086755657545, -0.03583193202545606, -0.0026460306211128146, -0.023472251135030278, -0.07953495029546269, -1.6673509053076028, 0.04280108133927447, -0.5567984429061915, -1.1286893750389095, -0.31726274567405843, 1.6692137158098777, 1.8651048645225439, 0.5744849761524263, 1.4745197558527259, 0.46317500661262506, 4.510361998350125, 4.4775937304761095, 4.198696507729216, 1.3641554303234398, 1.3334745208840606, 1.2100332090812667, 2.460483461928144, 1.506327556263963, -0.37879093366344774, 1.1202396271484907, 1.6267852022314386, -2.5527965119267466, 1.0584856338272433, 2.492154344467334, 0.08759866389956467, 0.03197553556812742, -0.001962530489286036, -0.09222505382183588, -2.6997619619848034, -1.6037452967356716, -3.6274244505886153, -1.4280498871753229, 1.6247884485645465, -0.21139075940253982, 0.8439259018281903, 0.010417277291132771, 1.9504061708055511, -0.7367444560193588, -0.3632672433691055, -0.9890872087105147, 0.28381515003034585, -0.31324284597630836, 1.217443275733392, 0.28368444005277155, 2.5113272157956197, 2.567508898879786, 1.5645772933238191, -0.7607998053138927, -0.6587115451152108, -0.7622641195520128, 1.7749692954719012, 1.8060995014718588, 0.006319403586522071, -0.014506380265107945, -0.01782625459526113, -0.04977766330062317, -1.4019205423374141, -0.3001145175417056, -0.892316224234989, -0.4812563800263859, -2.1299640907174062, -2.142433534596142, 0.6355029989010396, -0.8198428718469452, 0.30097882969175166, 0.08354424998057398, -5.3941684889744375, -4.602985483975153, -0.5520712543993572, 1.346457221704976, 2.596635847259735, 0.5632796858231071, -1.576482287071328, -1.454403311408065, 3.563661289554405, -0.7961470701489697, 0.12736748946779602, 1.076563929722361, 1.0581667991530277, -0.4289450126326779, -0.06951123997459435, 0.07869510408637541, 0.018274559312640423, -0.019939941710618983, -2.111405412152156, -0.826323408517613, 0.009472195015240404, 2.458151777034815, -2.674314182311921, -0.4251698121644614, -0.8192054609771345, -1.7257307042957262, 2.6769005858164894, -2.009749246280313, -8.842326533640374, -6.80501300492017, -3.7370011970442496, -2.984322274409422, -0.08630009941594315, 1.1281710121420112, 1.2370448575053832, -1.4047906951623181, 1.1074832227020603, -3.102062898167639, 0.4546477872904807, 0.5433830646563202, 1.4612566529353672, 0.3661084182561889, -0.06120075902735898, -0.03153485998390578, -0.01772449421603538, 0.03790768655928822, -1.7753773835489277, -0.686769680428196, -0.9757519490310158, 0.3064869766462747, 1.679616872982035, -1.5713580522390085, 0.26883946350578286, 1.2899087147196895, 1.050198829988603, -7.934169477957794, -6.250083619294814, 2.1479082513789853, 1.9094695660023915, 1.6177882950058442, 0.5754127284110492, 0.6721957256465994, -1.5290594671206894, 0.21318053043943896, 1.3944281845119924, -0.6860545898969526, 2.9159418900465304, 2.646890199614775, 2.5075455701606764, 0.9632060144150607, -0.04781491568483767, -0.02433455104230871, 0.014857041451389613, -1.1700805967008292, -2.165652654404501, -1.4695142601073194, -0.41683847595347223, -1.5349451718164684, -0.5871007706646477, -1.9455850932203576, -0.26437695369683656, -1.2679773259645228, -1.2001974094348278, -6.9963124082254184, -3.6701151008854924, 0.187078663792161, -2.882469778564835, -1.5403455073264936, -3.8496910120581767, 1.4334699562805557, -0.09908430130355317, 1.1362299876741146, 3.1644767736686754, 1.1744519760425418, 2.4455442255354187, 2.934494972442143, 1.751936097538631, 0.6102833085145938, -0.03977537309717625, 0.03772206283988214, -0.019810969876641823, -0.6735626329942276, -1.991631229830474, -1.6174078273346766, 0.628070569122378, -3.25498525819461, -0.8297324610524786, -0.9493446979359023, -1.5645136671953555, -3.484360088462141, -3.680234782510768, -2.9899259034445573, -1.3809364707186023, -0.42233148432550266, -2.1126791623723364, 0.5597865741821824, 0.5161518710526922, 0.6505063720938595, -0.45586974819690324, -1.148520513827174, 2.9209730107212573, -0.060254029559872385, 1.390246269472817, 0.7179541676255717, 0.02389587718609206, 0.332576248952492, 0.09813433397892501, -0.01220056435968703, -0.025966422495292893, -0.02140259818801682, -1.825059407379758, -1.3823815625679858, 0.386165749552216, -1.3941024761823626, -1.1021614499799925, 1.2429664104159812, -1.1800831110270866, -3.3212003043473177, -0.9042351909412568, -1.054334975556251, 2.8810331818902246, -0.3120361392944613, -0.3605594177530728, -0.993209812184897, -0.38837757551555224, 1.1003028176904732, 1.5589182546011688, -0.15731862683485195, 1.8325744460834839, -0.4451065907094332, 1.9640275174062618, 0.6579982034105727, 0.04235939720347346, 0.7172740418055722, 0.20115930663787449, 0.014672952818598924, 0.001754961061687677, 0.12792322852385932, 1.022587281669047, -1.2428434580374643, -0.6803205550952645, 0.30855912174421296, -3.779523537963126, -0.7687748871101285, -1.445043103730362, -3.0946567051396725, -0.4002971609513781, -1.563567140631993, -0.8953317233082977, -3.153545103463897, 0.1367666863994923, 0.45260611769946923, -2.494237950809465, -0.10647618827181324, -1.554022729202352, 0.7110270698505883, 1.4768234744322033, -0.8741740195060509, 1.975344494486241, -0.3060085943434156, -1.9960729277786953, 0.1381372958154974, 0.04245702302817619, 0.02995841567456028, 0.010782386658514016, -0.024629609769543016, 0.6685128538751027, 0.9372813287005654, 0.42645254053723713, 0.35941444886698914, -1.3747299943105777, -1.0866342374456601, -2.1892330451287716, -0.6646101216221653, -0.5458949590427241, -0.5148636060192501, -1.8687453733504682, 0.6337606213030715, 0.273848805916469, 0.45936711196239116, 0.2533100152788139, 0.4731698671197454, 1.240897602096061, -0.10006405981071233, 0.884441179352696, -0.052914029798127, 0.05856916959494024, -0.8479859935578655, -1.9030596601986407, 0.19196703181515254, 0.04185982317910374, -0.04951623890715741, -0.008598349779251712, -0.03148382949288674, -0.37080335423710065, -0.5406955852193973, -0.1533414376868973, -3.0766172910955563, -3.0723969820424686, -2.321699372158281, -2.886165394125285, 1.4731399886241432, -0.30887292309806486, 0.017066108159357645, 1.131074834704103, 2.895630977200404, -1.0806087398512463, 0.6618758352517617, 0.07727215456919588, 0.6450695925303024, -0.8227816654357805, -1.4657995133087152, -3.0476526854289645, -2.03223973262521, -1.0597558249608594, -2.6707853425591783, -3.7067604637707965, -0.7411478481326892, -0.005541403568103451, 0.00158705141214999, 0.02077979719331211, -0.012373115050936127, -1.1076199478151467, -2.2067551915074124, -1.823158559549591, -0.07529098627904757, -2.7474181901824304, -2.364011025257352, -0.39763132483284913, 0.8282977663578874, -0.26809420062928024, -1.196820821014105, -1.9160709365225754, -1.9111699618702986, -0.8822222925606087, 0.2828592028623101, -4.318684629849881, -3.1500633639803914, -0.9708263515260964, -0.14483877149321056, -2.5056556024133108, -0.6772625654418799, -1.617238174749178, -4.552729568227715, -4.043204634884682, -1.8135424715381014, -0.08395002016997707, 0.006258851292302835, 0.002916507617259038, -0.08909655590498437, -2.3105602691947187, -4.2739146122471805, -3.4666957673333214, 0.3894972129486902, -1.926824201448349, 0.32400624020754387, -1.3189271655989145, -1.3081669217295662, -1.7182798703447753, 1.1395831031457933, 2.8493641330786526, -2.1443059084193714, 2.115766722359965, 0.03239020614589176, -1.0046353340917777, -2.068054876671366, -1.761800812170487, -1.1682750165513225, -3.9203707944035924, -0.6621841028219588, -3.672177743417324, -4.483367545514334, -2.4013648215252794, -0.8692878039494836, -0.06710965136350719, -0.01641877004581729, 0.030926314264325645, -0.010451895047328564, -2.189916209180335, -4.265636299815466, -1.44264278694424, -0.010791749361009552, -1.600569106222215, 1.7650000074095893, -0.6192560513534067, -0.9777105533473555, -1.5612445566786213, -2.2506903455526825, 1.0196595904463859, -1.9984001496875945, -1.2460722849140655, -2.667919211354688, -1.1966052493683699, -0.851414449055242, -1.3523844698611878, -0.22172955036600284, -2.714883723628592, -0.5575917910491746, -4.519681065382661, -4.325510524312196, -1.5543820660509586, -0.1373886894917866, -0.020822048028188288, -0.013679936738929288, 0.01574465934922248, -0.14373277494111147, -2.8814855677827147, -3.824670365981642, -1.3963397837290883, -2.0626926373394663, -4.033854223290288, 1.417008383168718, -0.09189122886993877, 1.3575483353732016, -2.1523190078084826, -3.2707032617314216, -2.203157791026412, -0.9165439375179468, -2.7482957458117627, -1.1307279527999723, 0.6938356351941345, -2.2681961939584303, -3.5930007938020485, -1.9771229763966036, -1.659934268924369, -0.795771430511878, -1.1615792758721901, -2.8620941598420315, -1.215880230421569, 0.03300025052073987, -0.018619875055203673, -0.02464292444599084, 0.011149468429792394, -0.2604542629854864, -3.1152706415672675, -3.059203388643747, -1.862069387581038, -1.9199154123303162, -3.812729564011898, -1.3929236360156523, -0.370822492696961, -0.5112412964530071, -1.9714879498929065, -0.5851961537193862, -0.7417633598104555, -0.4988403024977744, -1.4412110350105098, -4.1591630004757665, -0.833150148281022, -1.9822383332236793, -3.7571943739680904, -2.337848316397802, -2.080346900637511, -1.677840707777451, -1.8120202962738552, -2.580256909827836, -1.426255260446449, -0.17316914212382703, -0.03036180688305671, -0.00376856307350792, 0.060690131660245145, 0.11041359591001806, -1.034585643307859, -2.263822531814128, -2.373341736315563, -2.6726098657512503, -1.3490246287075047, -2.7844020607515936, -2.504130217968294, -4.47440333923968, -3.3368867158585154, -2.358244579217241, -4.792279761208426, -1.906640898947897, 0.7960371507350612, -4.354845949196538, -0.2889397063916329, 0.4626900260153819, -2.1106824993690503, -0.4403848946768598, -1.926381656025289, -2.900242727135692, -2.2243705644714264, -2.667274989944742, -3.1831288052545186, -0.9343118699118124, -0.0002337097748391829, 0.002792174591564671, -0.059370007561409054, 2.122721044078019, 1.956260421772264, 1.1484764167660395, -1.3103639269273546, -0.5334812668916762, -1.5654010552712616, -1.2052363278018778, -0.42974121022310474, 0.06534954030426485, 0.15319767511229268, -1.9673453766398532, 0.41846875109997167, -0.1863709079366163, 1.056626297663904, -0.6182770741532411, -0.9371725482692295, -3.619114773277033, 0.17371396864549096, -1.1586519416911407, -2.6288275728807693, -2.1664646761827004, -1.0727343916243655, -2.4527465030663347, -2.7414431839307167, -1.3369091940218545, -0.14570462359466219, -0.0005091550553792155, -0.01326048907020407, 1.2862698436435676, 1.8691066242576024, 1.1605973960577498, -0.28777362596702283, -0.1922268984984079, -0.33469169873544025, 0.771378216008619, -0.7507308995919291, 1.8084994033515223, -1.4739880432116301, 1.4560912506959365, -1.1342230538199471, -4.813767319215971, -3.4690946077046667, 1.3674876727766445, 0.3641033747003931, -2.0368137630005534, -0.860824194454669, -0.736485353706789, 0.19183424322655293, -0.4491090761479349, -0.7600569526290331, -1.3344779555457473, -0.9141843803699482, -0.43812229309856404, -0.014896240947477157, 0.10151219183819915, -0.0320742220673991, 0.007238543808073483, 0.055414985572162956, 0.3246083066900568, 0.07323658040667363, 0.15686911049390048, 0.5628000969540744, -0.4745188968308268, -0.8812805624548352, -0.03214332625401525, 0.6762302304342991, -0.05494119925759711, -0.3956267808435686, 0.69599154369234, 1.090687502051138, 0.08656488012701297, 1.1104879132657783, 0.100529847109384, -0.20878683803442438, 0.5976743084685602, 0.07960709538452136, -0.0725625779592259, -0.2511771645019527, -0.09519299799582859, -0.03522811002583463, -0.014462026686023453, -0.0012552840759875105, 0.013133535144121047, -0.016456255996874343, -0.011942939254770038, -0.029666889603618997, 0.0059372465108374125, -0.004475863134601265, 0.05966852039308139, 0.022905572017435583, 0.032506843599029896, -0.03826177532293516, -0.00625310853675038, -0.0004397148953891902, -0.002635003385117188, -0.007644420510914051, -0.05990094807876127, 0.05276333159584579, 0.01513746171723324, 0.04921821415428867, -0.05109632052644312, 0.0706925735453827, 0.014217150426113474, -0.06832240146843083, -0.018372170370389, 0.01835350866277225, 0.007233410639979491, -0.0028099845400827257, -0.0414510005779895, -0.038672811018384934, -0.08877581246793029], [0.029374794396947193, 0.021088029850575025, 0.009561649916327304, 0.09553217633534966, 0.023678164738850645, -0.04199446588039645, 0.02095334440761342, -0.02237682863530008, -0.058052039272037316, -0.008076804460932842, -0.0809692012141725, 0.02027062957784225, 0.01360768379570309, -0.014375209541158254, -0.012171501395590924, 0.019764573303214752, -0.036990242372188405, 0.02559240179818351, -0.044110001785911075, -0.022698283942919718, -0.018779651610803878, 0.006576315494071416, -0.01507766051816639, 0.04181582479747178, -0.029986270869208454, -0.039973458286675374, 0.03304422309467159, -0.018859814859886515, 0.018451997146205993, 0.03920232396262451, -0.007768353294058405, -0.025040792926516817, -0.019492600990631943, -0.19057104458205265, 0.4399543212453404, -0.43074997754623257, -1.974666450849289, 0.026130256750422878, 2.4682640247136676, -0.5899570955690302, 0.22733776302117475, 2.041948077644763, 0.6327261128308537, 0.8683980339096328, -2.2556907873633887, -3.50144649086691, -0.9097663801323347, -3.665375308917297, -2.1819546948961603, 3.0287485204239037, 1.956673903259217, 0.8572138338056607, 0.1388230056807518, 1.635047219843372, 2.1634025096708758, -0.010300647079209219, 0.007347752910710519, 0.007494616052384384, 0.003374637568218848, 0.054889640297285054, -0.06071707930418829, -0.14504180521357388, 1.3849788006576589, 1.209042573172248, -0.6811371595991814, -0.4988586314584823, 0.6699097822538722, 1.1229908781192284, 1.9285759944159295, 0.9957819005971178, -2.212396840175258, 1.2224474075140064, -2.7462186062694536, 0.9129165616976053, 2.771459512214599, 2.3822749584348557, 2.6830850007127447, 0.4141988385829235, -0.4927363921308727, -1.1285728731510907, -1.6516142224965884, 2.120145683679563, 2.1731740696284176, 0.0292341127812354, -0.0348242792729837, -0.007040088560549998, 0.006489774632409743, 0.07842533660348452, 0.4906135703881775, 2.353230972617066, 3.044122007341419, -1.7373724951343918, -2.008480431666792, -1.8962140252975663, -0.7680885506681895, -0.1123877566753059, 1.863586636080491, 2.7376392621633756, -2.0081373010479755, 2.755074133676844, 1.9097694895177595, 0.24581718459668653, -1.82940584150748, 2.040365694687097, -1.8623722205745332, -3.112857132783917, 0.19503937639693597, -3.835366129438012, -1.7365904197975779, -0.5389161233609046, -0.3723465970455896, -0.026930286605026953, -0.010882721269347742, 0.0022815077712455994, 0.36279911228801975, -0.3473001110322692, -1.5382708848809845, -0.29675580256527995, -0.41273617327586976, -1.0185072981246162, 3.9563753385700573, -1.1041386733943963, -0.5609235459381662, -0.46918587770213926, -3.305677068376203, 0.3691388575133827, 0.6085304807989459, 3.1613942252369807, -0.5620383794957504, 0.2495996818053983, 0.8859387035292857, -0.5392457625912634, -1.613348707236964, 0.34015091396712677, -1.4798745299963214, -5.673226814030539, -0.5842020766027055, -0.40649582221761255, 0.32903278955481524, 0.07138632085466023, 0.06224053810576126, 0.05555351887987261, 0.8552589219441499, -0.4256309016562038, -0.6386402730230503, -3.083621141425635, -0.9847418705384322, -0.28966967429327023, -0.8223061252364396, -0.7629091939443743, 2.7325992646698745, -1.0769869430045373, 0.44585847309827614, -1.7226930042097846, -1.1374503698122347, 0.13735652167628165, 0.47441983112963837, 0.2565480720342322, 0.262465793867548, 0.7728226866984563, -0.3845444053307767, 0.555063548212347, 2.1060438295855404, -1.6865230063409198, 0.5749741397991747, 3.563664988977831, 0.6264837847537478, 0.004757197332441403, -0.011735701634604443, -0.04690190073355235, 0.6885600016612017, 0.9825373251462042, 1.0708692750810735, 1.3226497231982755, 3.5495751637447897, 0.8969203266216538, -1.3025948325448917, 0.6063807861034749, -1.7902920969917997, 3.4027358288706404, -3.0882328021948555, 1.152067804502859, -0.555743685983122, 1.4329215267346893, -0.24234329240639854, -0.9225013396174286, -0.15728607159126154, -0.10119427884192136, -1.0429791185940431, -0.05653466432029506, -1.2014088872082913, -0.75125197927523, -0.43567574098435813, -0.12663070660521913, -0.7971790077918894, 0.008078239355718237, -0.050620377888043064, -0.11942343008666714, -0.45269668201743435, 1.349037917385885, 1.5952668357023752, 3.8146312954610306, 1.2745470134836654, 2.257179224445419, 0.903251554832664, 0.8486948266039164, -2.5817599244745675, -0.28409292575848594, 3.2186141105231347, -1.9701185945610116, -1.3381271019717143, 1.7895182363621227, 0.1986231181145933, 0.04603123229521254, 0.9863125169710537, 0.8797575679569659, 1.1243054834990935, 0.17678132690296464, 0.5837959892070793, -0.4525989409238327, 1.8399152737455702, 0.7850116362747125, -0.15633871429748497, -0.030415165735862202, 0.039440588883793974, -0.048787755569218695, -0.7372909893468989, 1.951718538139034, 1.0582234167750815, 0.38201213728592115, 0.7848771347750251, -0.3767553309031878, 0.35311216986294586, 4.146806350263119, 0.6012475265662833, 0.261916904803526, 0.042216717917395855, -2.418464974734808, -0.6560642331472549, -7.274134594038343, 0.5917885366737518, -0.14117017088563782, 1.098152564555667, -0.6568357450191975, 1.4490063989754112, 0.37582937140304395, 1.6951817942805016, 1.2559198292467824, 3.0214115252347136, 1.4188088071081995, 0.16143642660957974, -0.02068494129713608, 0.0640611106863769, -0.07863971423504883, 1.0428511991600575, 0.1606650038919216, -2.076919531200248, -0.6361639458799352, 0.22945608568202938, 2.0462451756813116, 1.3481468801875303, 0.7554504468357303, 1.5631082620828969, 2.1214522234051776, 2.481326537453862, -0.7310075124583292, 1.163605813100685, -0.8000420027923978, -2.1674275146889674, 4.888595679697772, 1.5272527026637424, -2.821817122420095, -0.20287365434636487, 1.07943255964092, 1.1873852003845842, -2.603869635441289, -1.3835813699087767, -1.6902264080258438, -0.35825074294458165, 0.0037531320530935354, 0.03335769524069152, -0.02427137350939735, 2.5789010923834232, 1.2840954095609651, -0.7049241324612747, 1.2725620950838774, -1.1091875806820573, 2.9641695421393113, 1.1639281574382434, 0.3312262104794846, 2.622460624705328, 0.32790831217512223, 1.5356200505330866, -0.10969939867826835, 3.629785088606314, -3.620911595157006, -3.968137978219822, 0.20873607003158537, 1.2061603926608164, 1.3194691335703608, 2.093229848473808, 1.1007682437871893, 3.547626750127247, 1.2847156706771932, 3.543234323966695, -1.9415229048494607, -0.3823095883472338, 0.025009765261860224, 0.04065507712637894, -0.05305412381670293, 0.96794943386664, 0.2517524017977843, 0.36965219294257445, 4.11176050822304, -1.0558105732749914, -1.8115153970726736, 0.136542788967997, -1.1564262111960142, 0.49492856191303847, -1.09267180645668, 1.35584781425881, 0.8430988711022266, 1.3843938098516624, 0.8176645994609276, 1.9368805056501865, -1.778571867748033, -0.9139748264613976, 0.5655047361525005, 0.0846751891182949, -0.9480154767573672, 0.5135980086302431, 2.034206668661443, 0.714542696677863, -1.5861952748165553, -0.284538126137932, 0.0077618198914970495, 0.00872316936998098, 0.07464475708625988, 0.010311420682806343, -3.33506241740644, -2.1892277062343144, 0.6611534577437094, 1.2196635033122352, -0.07705103232464046, -0.4924143382815461, 0.7906152033474003, -0.9816781235311811, 0.7855253872914527, 1.1999315217944928, 0.10760877165903393, 0.14290085515203244, -1.0309471306247715, 0.15594500325555094, -0.19429739678765964, 0.013502112554144541, -0.6375788906857122, 0.9074085650069466, -2.3700067264945988, -0.18674874050464416, 0.9190141860946085, -2.0263091347616244, -1.7095242161332669, -0.10274098937518635, -0.05434185045266245, -0.05841769559845151, 0.08964769300051806, 0.02537486767254892, -5.4623638056098525, -2.513450949732137, -1.5564135910794168, -0.2653549068511197, -4.484021571210534, -0.979827921888416, -0.9507551675291341, -1.8659017402138458, 4.3576871928630405, 4.363998108557076, -0.7327703057205054, 4.069630307566649, 1.0993634624242792, 1.1199987498025397, -1.4789240788918816, 1.2108871033651585, -0.2590548042867836, -0.9595339580638829, -1.613821346597148, -5.214123029853567, -4.455659916495981, -3.7750037955842783, -1.2924292948783198, -0.03395133053353122, 0.06096106348674804, -0.04217358101132092, -0.08424079588668029, -0.26818005902886277, -4.790328728705227, -4.87697426719581, -4.033063646390048, -2.1976115326781898, -0.5305204484863577, 2.0328265420422937, -0.010154097691588797, 1.2724476733393824, -0.26603925406208, 3.0835282556188273, 1.9138087904991918, -0.6931190865211448, 2.373411411870028, -1.9754805347103581, 0.11224222605685542, -1.418402968148064, -1.751690555166482, -2.3635097372364338, 1.213581808813453, -7.182469002084706, -5.79011274989409, -2.7948283723085283, -0.850593165419864, -0.49397226390002846, 0.007754788545867327, 0.029557602466175927, -0.0021638353665693433, -0.8816948548539421, -6.484928138778314, -1.2642412480366219, -0.6524838019723952, 1.5193509538446837, -2.380899905063702, -2.7889693885480824, -1.1667399348943304, 3.027302998835725, 2.1454322041971112, -1.4561057508760087, 1.3850018667540454, -2.3636178738316618, 1.5014689328397168, -0.40721211655311274, 0.7408324622782262, -1.679057030475828, 0.7765812643770279, -2.9288528154843467, 1.5358416953987108, -2.7960398042067838, -5.621018273739962, -4.208842709968926, -2.1939840688981698, -0.35533630389995613, 0.022800061622429542, -0.04555931380141231, -0.11289424813362581, -3.88496419270055, -3.2993806229158857, 2.5351616109129638, 0.8114627516931638, 3.381088155465534, 2.3591787397381023, -0.29140593404013726, 3.2504399583102357, -1.1820642998999318, 2.2846754326006047, 2.9596413936953225, 0.8723801856772354, 1.2762337322511608, -0.14915287878302247, -1.252024944886643, -2.005568719187242, -4.333641909743505, -2.0367211143178214, -1.2674113937688833, 1.9066339049094334, 0.9446807898903178, -5.352226875244886, -6.228152925451672, -1.5947389687363265, -0.018368354826467922, -0.07178206438199014, 0.027631798989594555, -0.7566446821015742, -7.281296225175145, -2.8899183340285224, 3.1841451747172456, -1.1690732426628574, 1.9066529869823658, 2.0747773915494956, 2.8151692181539825, 0.6888499228377275, 1.4137069216064175, 3.9737399474613713, 0.7268324334095041, -2.6845186225328113, -1.3399097137951852, -0.59990934442334, 0.0406269918834825, 1.4640643512544913, 2.073329319482296, -1.8395017084857548, -0.05676427554378006, -3.205046423553765, 0.21252672601895262, -6.175613706725831, -5.964686801893416, -1.2416565638440247, -0.06034634675202037, -0.023706745292141302, -0.015292927264463047, -0.8400786604556942, -4.288419516083486, -3.4648659938291915, 3.4744131663834548, 4.6248916062408645, 2.9864597998499307, -0.26106436394290355, -0.4630327915325637, 4.547047943118334, 1.8471539034265545, 1.6034152059746805, 1.3444262294932834, 0.8901477561260244, -2.074249289690619, 0.021402108144887064, 1.5956776860482165, -3.942865911213649, 0.8376960809902722, -0.7149554814694646, -1.2644732662213922, -1.5519216133916967, 2.2115029795163217, -8.512848414287856, -7.872246787218981, -1.5072638165266428, -0.1728659110413714, -0.012046326686449262, 0.015224253881820447, -0.5583835654983851, -1.2944401493997824, -0.27422548157603105, -1.920559377418658, 3.2473437161326935, 1.4273989982373356, 3.1970260347613157, 0.057059776199401176, 2.035476572917242, -1.6968365170721313, -1.410286347286733, -1.2313417352534675, -2.206884707306969, 3.1416626490268373, 0.20624939152221927, 0.15731874617586172, 0.04322835815770499, -1.2781249060327255, 2.4960402939308657, 0.40571943270856453, -2.554430403173279, -2.9298886487161084, -9.676763326061277, -7.856447258691439, -1.8662285814109907, -0.14676693388277953, 0.027999555758663135, -0.04541437860788388, -0.08183788535470801, 0.8756056590246072, 1.7399664448511163, -1.062516973109308, -0.3366407855086132, 0.07101693032418215, 2.7371353005635717, 0.5928489406294934, -3.6578136413581737, -0.1395016628279327, -1.622103018123358, -0.8515853618253009, -0.011112719033666682, -2.317305978146595, 0.17413196091233124, 0.3247383157578736, 0.7381751892700656, -0.6887102493574525, -1.857558053630301, 0.15885843383050274, 2.79869961289734, -4.774902570826794, -8.763936345178188, -6.232326215031555, -1.2851703298863575, 0.020857185989545095, 0.014432241702969547, 0.03093846900280981, 0.3082520438897078, 5.168786968361102, 1.911504418611078, 3.5138787741532864, 1.2645657414358982, -2.648170363459301, -1.6873189896394123, -3.7086274864790023, 0.5984486555598332, -1.7286364556951574, 1.8396333401103009, 0.7668391573510985, -0.3788902468241463, -0.8392212255183786, -1.179138398403489, -0.23839892601252902, -2.8185011084478386, 0.9848952850833331, -0.24572049397399232, -1.24290812784448, 0.8696750997740108, -4.227718011517423, -7.582197386796596, -5.403343246210746, -0.819284556643836, -0.06758932726998965, -0.029572857844401203, -0.018766371241854256, 1.5705691046748897, 8.21408821028335, 1.4150662136767698, 2.927820721939517, -0.37181849247121646, -1.3701205778820957, -1.019579878661095, 0.3007308015816287, -1.4668236297914743, -3.732844217067574, -1.986553737901263, 2.9891717797622266, -1.0575944418240975, -1.1123040150027854, -0.7232834175369123, -0.24615994110495393, -2.7387124555257514, -1.1829743148321321, -3.7608779256556875, -2.7841228791475854, -1.2222353601054263, -9.090142163675026, -8.736362333520267, -3.2492529451462606, -0.07119154242525713, 0.04107607387660797, 0.046845453011194124, -0.03996550965358391, 1.4048075904249662, 1.322465314957704, 1.3270334045775782, -0.4387876752938762, -0.963394067505874, 1.1041053378951575, -1.6684374312770567, -1.2347010125161075, 3.6181183168953437, 4.7002052465102215, 3.7134318038497725, 1.9746282987337118, 4.214088554253006, 1.4590299081949762, 0.41898069788859915, 0.22469801340021262, 3.250413502729838, 0.49206818527955876, 0.12002232856656457, 1.6400312374978996, -4.670322883322704, -10.145572081955859, -5.904546998839495, -1.110996406393963, 0.31005593184765107, 0.06742713391133923, 0.054935842898968384, -0.014416256806410656, -0.979922399429152, -4.355061641534795, -0.6400632530724218, -1.2981186923042245, -2.627942293297115, 2.432337359207074, 2.7708164517667893, 1.5529829117401353, 1.7749470600095083, 0.4998643963659664, -1.1868939606010442, -0.17370929608021465, 4.422386547647997, 7.580512410391034, 0.4273045619480373, 0.5295341329776143, 1.9430243630539543, 2.421161762463126, -0.8151029252491598, 0.30643859356138786, -8.258487923951082, -7.526525496438334, -3.747113096630485, -0.7138507107831302, -0.07592209759762397, 0.014500206599708285, -0.00773340740287643, -0.03578086246307326, -0.8996177628234217, -1.3966503200711569, 2.0769126070985022, 2.3336670958181966, 3.2733164252552847, 1.7586971139322851, -1.5405366470918853, 0.28702737277221213, -0.4241489841519746, 1.2659906912805943, -0.19408410698873546, -1.194205648573859, -3.8604337886428897, -1.8292938502983844, 0.8015519855239943, 5.459991023762405, 3.406701629122511, 1.3863471283006177, -1.2444716078338705, -2.239513593100393, -3.1912788149120384, -2.3942251344944454, -1.0519142870788947, 0.00984595942402991, 0.1144855535293881, 0.10077196168351786, -0.023469827299949855, -0.03030936015297677, -0.0073584113810233704, -0.4671606076382853, 1.6636628767899555, 1.5308504317677558, 1.104273526004622, 0.1300966374422876, 1.9162853374876054, 2.1790822699738936, -0.10091296760569697, 0.2388450219914968, 2.375274736608288, 2.862904931343176, 3.4933848391732836, 0.5421469785719514, 1.1554546399385666, 0.6246477878474469, 1.5856835936095452, 0.8700706576551565, 0.23630384900309662, -0.030092965423845052, 0.4288470388495274, -0.14560144925943777, -0.19153557103386878, 0.012825670886132047, 0.05696200514996758, 0.07285419577895796, -0.018789480897287707, 0.0339105265541895, -0.0349383682919594, 0.03923976524855976, -0.011791081676294739, 0.0009318842812160654, -0.028555813842090324, 0.018339653987719185, -0.015352025642762729, 0.0009403033407699141, -0.033084121779321955, -0.03459099684977987, -0.05249689333522253, 0.014967870685405761, -0.017856504216537398, -0.01938895625868792, 0.0034588430415481287, 0.06711515215775335, 0.016331475201183082, 0.028551824192909064, -0.013793941072556966, -0.027602701180382768, 0.012609436846537666, -0.0025748674563910658, -0.025722737336131708, 0.01440423824414391, -0.07842926896442745, 0.030175620206373228, 0.016975921508360046], [0.027435259095515117, -0.01661405070972669, -0.054368984154598704, -0.022290131931246522, 0.0015341827887165648, -0.032445396739018285, 0.07208977005394313, -0.025704974648234506, -0.040490313918885176, -0.035114473628692404, -0.006504741622625737, 0.033660949714698074, 0.014502360079845513, 0.01471724763219543, -0.029876608018222114, 0.004563016634671728, 0.010188895590489097, 0.002623879612068967, -0.06580458995228995, 0.021276699011161814, -0.005131511031692449, 0.025449152455831178, -0.015302033834611376, 0.059437928324690574, -0.030123172633270728, -0.0866333447087408, -0.14906095929207808, 0.05991433429227477, 0.012067586766243091, 0.062143737895627583, 0.020071223853473274, -0.04249294277962299, 0.0375350943976783, -0.02003247800452764, 0.9464861215952566, 0.9289900664394335, 0.5092360584928712, 0.23944847300496955, 1.4061102772882137, 1.806792541750052, 2.121469776444957, 0.8252421172689162, 0.5008771149816884, 1.1505789131048099, 2.1450736903156673, 1.8429869652899782, 1.7948220824654484, 0.6052541761944127, 0.5991296512462905, -0.5645594453413655, -2.854621397093806, -1.7780121848185322, -0.29056324318133014, -0.15567892237104256, -0.03593684197594166, 0.05559147751097953, -0.03091546255467213, -0.018675892189479782, 0.09090530885279419, 0.07503293332798898, 0.11342512649899726, -0.047691051209589344, 1.2887315052854231, 1.5690921417978736, -0.3163441314216985, 0.5680829109627615, 1.1386606534443147, 2.0892293458266815, -0.6902789282488878, 0.18542298262962914, -2.236138031603195, -1.0177367889729036, -0.07684945743179804, -0.9062543584822056, 1.0242547345480957, 0.45146562128552065, 1.0291015750786192, -1.4626670676223814, -2.0147988056712953, -1.29047267711947, -1.1129328435466872, -0.9471021085477385, -0.2087336812418238, 0.08382395285944659, 0.005681466426620019, 0.04561988338684341, 0.33184196061017746, 0.3008730749408038, 0.08461542360823428, 0.7244648468482742, -0.449378363940113, -1.7441359261941953, -3.4591874214838323, -0.7677389276710109, -0.7232392477982341, -0.763610383563006, -1.2084510309381398, 1.1427834895471858, -0.2930714458075008, 1.8884445794684792, -0.9930296908315844, 0.3171721793096622, 0.11805645607004596, -0.6550281774874372, -1.1495512296096582, -3.5667614697847907, 0.28977260553491097, -1.455537821137891, -4.392004310555608, -4.608871287139227, -0.7866307150099927, 0.0033701375693033857, 0.020952846803088718, 0.12230679924261552, -0.20035866737789998, -1.7784950075377959, -0.3875245060906353, -1.2714320953197538, -1.2298840410879563, -2.213094033689442, 0.44215263126106946, -1.4299185934722027, -1.0159394173733876, 0.5742284714040051, -0.18029406546567855, 0.4996107552635886, -1.7567551012631513, 0.5410202286224697, 2.038066134032036, -0.18147901750197487, -1.1518301624459657, 0.3987031312916553, 1.0727621496749855, -1.2346983067586208, 2.5381737092140133, 0.6926817679773795, -2.3281010185430953, -4.725189151180387, -0.6713698141688217, -0.06146010894730745, -0.06263088678771699, -0.06777435445540299, -1.7872699800885976, -3.267275764727445, -0.10009937711356628, -2.223987234871404, 2.208868915927524, -0.3144634625996821, 0.9313609670770462, -0.20228091968248213, 0.6137236659104317, -0.5620658522515986, 0.3163357600693092, -0.40171081674546955, 0.09260295550640368, -0.6583425913169046, 0.48575879773483027, -2.3843354654472986, 1.4062008066066318, 2.8211682759557837, -1.4998531534210264, -0.35648331054267096, 1.5336490099279199, -2.3832112188612222, -0.781322942394261, -2.663219021291908, -0.7851620849829111, 0.0017924370576287358, -0.01540510527402884, -0.08913700661983778, -1.7514449202221891, -3.2103896694263483, -0.7902442412911627, -3.978620671977969, 0.9017599714690093, -1.807273954427079, -1.4245462461410852, -0.9033921710207756, -2.2896404047390244, 0.3837772337876138, 1.3952553256201, 1.017024310401404, -1.0881742838928588, -1.3637493025624878, 1.593445039086185, 0.535270276146432, -0.08814513301015964, 2.9748249675556697, -3.1291986297052676, -1.3005206397149587, 2.7832175341236245, -1.7705181427502485, 0.28422492510240693, -3.842823964833308, -0.6910393309764761, 0.015162715267215247, -0.030112287555945465, -0.07687644719569256, -1.3229927882402113, -2.2713748879603872, -0.4536117808094342, -0.13219824539330952, 2.798433500461374, 1.7420634004047815, -0.014846569722329431, 1.1978795090955265, -0.42603696243299005, 1.588659295547723, -3.567582868874008, 1.9758183091339363, 0.8657847975153904, -1.635672125473455, 0.5446581252832936, 0.37930844064307645, 0.6899761471733102, -0.11879864287120158, -0.4012047743213909, 0.5569907747704729, 0.8918074760174749, -0.5960696905136196, 0.42411344703132187, -2.3436960812327317, -1.3112942106842806, 0.0660126232427682, 0.01727252682758564, -0.3511024003227595, -1.593431891641592, -2.5066684083534523, 0.610183955752847, -1.7691827011793404, -0.35795572594248803, 0.3601039141359973, -0.5619753349144799, 0.01279396919770821, -2.356297393465078, 0.5620840761219683, -2.0693417047703293, 0.893783848409064, 1.3160448861795362, 1.995188163645053, 2.325878058679508, 2.001112999708968, 1.89625939014551, 0.18307208583481696, 3.560975834337638, -1.6913172605673477, -3.3865405627901533, -0.42464479097662516, -0.1780510071088398, -4.895003492566055, -0.9640861774988283, -0.03036177351386895, -0.002612412841965728, -0.4357362967965365, -0.8014558036144569, -0.6610657649691385, -0.6157655235198655, -2.3741663697170474, -4.050882597917302, -1.9280098697526324, 0.11112702005832148, -0.8832711972084799, 1.7806861104750398, 1.5299483546958512, -2.561445234724893, -1.7448574777902308, -0.00010712758618963167, -1.3908991344250434, -0.3191092385240932, 2.4879248454002996, 2.7197077088198385, -1.780376670260026, 1.0073934820474875, 2.2990049113248574, 1.5856544012274696, 1.9821488213202905, 1.0348551282985619, -3.951175019216293, -1.6432293998235754, -0.012729856018244716, -0.07100779586738017, -0.06232956236565137, -0.08946139144138722, 2.704294468835962, -0.4015548901335353, -1.0584505868954248, -0.07270846675827902, 0.37982324037256054, 0.07108659901474221, 0.24346284148887848, 1.1316942863080914, 0.014621921822142524, -0.674818386265988, -0.35632294165966416, -3.002648865486016, -4.577847341433663, 0.8022008637523387, 1.570034572188306, 0.8891609905232724, 2.7816276117269023, 3.427618745984935, 2.337576688007013, 4.577282426672408, 4.4527992449751865, 5.647164213427382, 2.6237224395188568, -0.08945172480060873, 0.00044207797888966754, 0.013018340084389051, 0.06490246900725222, -0.2824051566660216, 0.16586151835344398, -0.01033641953012332, -0.734101810552821, 2.5317212041457235, 0.5862722376363114, -1.3407535677460651, -0.3832483118085242, 0.37950016124502, 0.35920765838619984, 1.0202794790106762, -0.5030608606032638, 0.058331741637797814, -3.3875981341451817, -3.7037029725994146, -1.375419269460877, 1.4880216318560413, 0.5497662560800319, -0.8693066101043917, 0.4173424213286279, 0.6804123292578647, 1.737690129206478, 4.657566872997383, 3.885092990233491, 0.29970790071733006, -0.060342440531430605, 0.002149798332061114, 0.035932373451014944, 0.31702168896125565, -1.0392529824350067, 1.4895066419808205, 1.3929105721306434, -1.648062148732411, -1.6268758518001603, 1.866729530853688, 1.577429394421971, -2.13524007539619, -0.8327573508956359, 1.3591328629436568, -2.559220870814196, 1.0514007472236007, -5.159122094914335, -6.747360928947196, 2.917111223412882, 4.878357348598487, 0.6005144039308733, -0.4063169945708213, 1.2436903463252686, -1.200167029302851, 2.5513031094269465, 2.439531118693034, 3.322728513955214, 0.4839457262294285, 0.05284934793715275, -0.023441324798201307, -0.3935504582322531, 0.2990902293416526, 2.060241459270505, 2.865738611840236, 2.293218564044465, 2.8342961308779335, -0.8189561363911588, 0.6237769793889804, 0.3608530040276027, 2.519653906260201, 1.4495175478022584, -1.1969589671300533, 0.024197765219023698, -3.645925451290105, -9.149256354285292, -7.847479520445868, -0.9474228192364, 2.1486590230989844, 0.8971403875608572, 0.10337720357139747, 3.6757217060907195, 2.0857466473331527, 0.11540877066185179, 0.5910033834877385, 1.3683301599255582, 0.15402240518513718, 0.033518718005440075, -0.011473011253284668, -0.21227075471251255, 2.426990770635317, 3.2100758692895583, 0.1517976913340927, -0.5053847424158089, 2.6478594731193716, 0.38283275225708707, -0.357203703556834, -0.30009230673511944, 1.3014766209676125, 1.169106130669559, 1.728511136186958, 3.2869411482110804, -6.153244696509588, -2.5236795184763854, -0.5357825881010706, -0.9826108773667348, -0.35493997908658775, 1.366900004602655, 1.1000183112582953, -0.3275471026296618, 0.23827086027722283, 0.8355170502827658, -0.7087442789777275, -0.33924494883667244, -0.0581077466806779, -0.025796757526084218, -0.04191082396002193, -0.04709951161051806, -0.7310471223225685, 2.9938179901173188, -0.40797820890430014, 1.1131699575717018, 0.9679359696037486, -0.47582711433737335, 3.4239401468710673, 1.3389802272089637, -3.0162217428026437, 2.544048704160507, 3.0013765965262174, -4.950260270977114, -9.103602954847714, -2.1142230156738235, 0.7361904392815266, 0.0760750167718383, 0.3337979192716468, 0.2301322613682602, 0.006418373913723576, -0.7203732680634065, 1.0194058594675441, 0.6715273801488514, 0.06148918969937509, 0.43726580533338816, 0.24995477455199383, -0.0022959782499460623, 0.005870380967976188, -0.2719795932016424, -3.3140223396277144, 1.8283280616516195, 1.3646837804348768, 1.488648310519737, -0.08727359896064621, 1.2545020818755444, 1.5332556682291276, -0.6098659727540793, 0.6988276871647482, 2.2835917656857387, -4.378616993982594, -5.330920454856985, -3.847698199689907, -3.4088930652382956, -2.2403912638067873, -1.3639943491087188, -0.10508038022579776, 1.7812124067406787, -0.6651393042610252, 0.42532306635403044, 0.6238952993998381, 0.8194429638400623, 0.9321035201082806, 1.5033821019507307, 0.044676162272667866, 0.03757246737343167, -0.008256301948796048, -0.6985536518761042, -1.8188593815325078, 0.643504890006138, 1.8274188356034984, 1.7438607581348966, 3.2551352643610287, 0.7998616987643166, 2.257260967679845, 2.4725685341299, 2.538003249435507, -2.5372279734359204, -6.616965520698282, -2.9236376519633844, -0.4333422647739908, -2.2251646238440563, -1.2079097381113946, 0.07876705599653372, -1.5936239051485916, 0.18877761773365798, 0.9038583383939556, 0.5015996813059599, -2.2724880832850385, 0.5918299254843757, 0.5759908458698985, 0.996746188721192, 0.11641565346188165, -0.04932942020303507, -0.01857967951945397, -0.36225680456806836, 1.4193734130158617, 1.326582806565574, -0.48672322460639345, 0.6407152750218327, 0.4750852789967981, 1.4296064102608705, 0.32700583908374736, -0.9029690533956385, -0.9360677981614512, -4.165087497184427, -1.5550802078587471, -0.7264448618545314, -0.3544243197019178, -1.8762543879107314, 0.8718694181961467, 0.11067799364611511, 0.09021484784713582, -2.8521418186907668, 0.1803233805051204, 0.9109198953148094, -1.1975187061657555, -0.08300052852545221, 1.102908907681832, 1.1470948783384307, 0.19205668508452384, 0.001809234218410902, -0.02867744865293039, -0.5206364050858934, -1.705195112151442, -0.7428230462330533, -0.19721275207566294, 2.0341798785098693, -0.4222701810672961, -1.3065896580267593, 2.2705257326745905, -0.5827810963258709, 0.8352692919489193, -1.4970047942906846, -3.249858637492143, -1.854982615815099, -0.7162492038724002, 0.000710067449914153, -1.295861677849016, -0.585721245420597, 1.0843735282651905, -1.2400823758453046, 0.07365092050289263, -0.017803423632419508, 0.6428435775754222, 0.2652879462889216, 1.8862712096801286, 1.7529435344984756, 0.10432569443462816, 0.016850694930260045, 0.016121111871708897, -0.8416265441198307, -0.11557570009735908, -1.7853742798645682, -1.550123973305544, 0.18370141837845777, 0.5945678075592468, -2.9615170608953747, 3.1656407729104212, -0.45251015391848354, 1.9675178090272571, 0.3371633957006673, 1.7714935781910244, 0.12674882178674368, 0.9342623401685366, -3.8244503731604924, -0.11199618625348157, -0.15587479421415099, -0.713547585028116, -2.7538728751230437, 0.5461223797167303, -0.1487842373381791, 1.1835913768042303, -0.4723814865791609, -1.660435081882737, 0.1496141876054637, -0.007415320696963452, -0.01966650915243531, 0.021882074185897063, -0.8505360465938008, -1.6285075671859586, 2.1775782101211467, -0.7324253197006876, -1.9090347954567815, 2.0300996292837135, -0.7715578914375123, 2.2903398214491633, -1.1545339124047695, 0.37519937666536407, 1.2573386524908394, 2.4583094543833233, -0.8946669909154015, -0.39775024922539237, 0.07586419444628295, -1.805510785762287, -2.605550239764538, -0.9705471512347681, -1.9988369256179717, -1.3611802148979035, -1.425940423717061, -2.7760677305421946, -4.229206400942793, -2.939558462574622, -0.6919713907775985, -0.0280089647690385, 0.038971842652956765, 0.012499315830284283, -0.1727263054681496, 1.289696493174041, 1.3351487809236868, 0.20095634393752626, -2.692798115308522, 0.8189365615872086, 0.22467087231173571, -2.9970369655503597, 0.8828072503422087, 1.7308126607195973, -0.16265060319219027, 0.24170086824756734, -2.3856275194024126, 1.1119197420431237, 0.5283916464173642, 1.4240263952520147, 0.019863532785406816, -1.0768284814608409, -1.8401624513363397, -0.927659316931887, 0.5392837081309658, -0.41570125611675723, -3.604717066252761, -4.049781535606047, -1.2082286703006757, -0.026431469641540625, 0.02928105893653034, 0.042305277795931864, -0.06814136580543001, 1.1186419400117444, 1.3882682660756602, -1.0347202356023255, 0.5373155905899963, -2.162185699105999, 0.7553562929026123, -0.2381087276632982, 0.07183821744961531, 2.743602781937977, 1.8117835753929032, 4.1319104638521, 1.2445901107687964, 0.14664561005537383, -0.6990346108295522, 0.3968447363272835, -1.8812778834713597, -1.4301828359842006, -0.93275875069849, -2.1380609643333868, -1.4275067576330498, -0.28820525594907576, -3.242349648838483, -3.1054458781772643, -0.7108060025427684, 0.019316715937182587, -0.02666901545716596, 0.0558821093699936, -0.026841544819652435, -0.22665580493726623, -0.03282172302655299, -1.843908673644, -0.059033843414669246, -2.9055158253308906, 1.5328545589133427, 2.572815647912031, 3.617100381156846, 0.10319780705761078, -1.2683673285298063, 0.18633600534215294, -0.0972311781659672, -0.4245016735731087, 0.7539855499817535, 1.7447932208648964, -0.7314742551288222, -2.2382985323080864, -1.1386606444134688, -1.1022887350744368, 0.1856620663389512, -1.493178686491509, -2.0307749820181855, -0.8424391466821233, -0.10670807021369302, -0.016563252521105118, 0.020866382282070137, -0.05153164271553625, -0.01695879303872585, -0.08641177987264384, 0.2700526704538778, 1.2867775764538036, 0.9092958084947723, 1.7333476907361913, 1.7671570626954527, 0.04753740935183013, -0.5031376365066146, -1.7174243910426215, -0.3518221922936978, 4.642389598765538, 4.150523436888312, 2.7941185965424804, -0.651914364199032, 0.31694966967319493, 0.9076098968179221, 1.656726502278758, -1.1727308544440025, -1.9048314565615778, -1.0046106527058571, -1.1873198328349153, -0.5492530272682736, -0.15524764569942368, -0.03673926700039865, -0.035387685336271714, -0.011801722512539792, -0.029861812057301717, -0.0032791307550718335, -0.005025008169591268, -0.1274308516782123, 0.7198559724073984, -0.014867715249860821, -1.5188188493109478, -0.6812229628551806, -0.7690975469865554, 0.4379845685368603, 0.026427666360451126, -0.989635893423445, 0.018527134226468032, 1.130727939361566, 0.6798135452812017, 0.24369272519569424, -0.2116546691475469, 0.48479905593367967, 0.4517530950689181, -0.12971640024616937, -0.1917327391283793, -0.11517702818833195, -0.027337350268074666, -0.07192299058994124, -0.07947906976349166, -0.021434207299929127, -0.019732669182410945, 0.024748458906397017, -0.027649684011795465, -0.04568515058727826, 0.037711307203702533, -0.02473857230430765, 0.038245870558065734, -0.018721793320342496, 0.061168063003769715, -0.023400782397526357, -0.004700708815070659, -0.01629081655337962, 0.020022610848704846, 0.04324422590415092, 0.02753955662032835, -0.02063877824106025, -0.010239361898067612, 0.005557367315936589, -0.0037760482246644257, 0.0086364923825866, -0.06294159931500476, 0.024488036003877868, -0.011753576726071276, -0.0070859509102788, 0.0009848152590428423, -0.024142239349769067, 0.010766873420104744, -0.002974268507519053, -0.02079611154242631, -0.008919094056198786], [-0.018509514844626485, -0.0035649312938843963, 0.030713841171797873, -0.017248122202213004, 0.004835229351875836, 0.020833759555774465, 0.01725683644592679, 0.016707533228943524, 0.020969309315452715, -0.03254212061249916, -0.10661560577975504, -0.03766509997506621, -0.05392542437216818, -0.02713094175337819, 0.010667838810127074, -0.014360209548409416, 0.054195612013755466, 0.05009085829075671, 0.005239577158736063, -0.00010627986885750637, -0.01405874550254666, -0.024907230024972738, -0.010263488882085146, -0.004298179043956708, 0.014793502982761256, -0.07490890873256653, 0.001892778215195325, -0.0005229810397978732, -0.002311858431175732, 0.04178351139658098, 0.012784811050577272, -0.03922255527820164, -0.015153010324622964, -0.09660944140139031, -0.5520550168160591, -0.6341176642288011, -1.1229224881737006, 0.1664055785414695, 1.4800548172296553, 4.2629305367801695, 4.403905942020001, 0.728392001297027, 1.214316914501816, 5.454699088339521, 2.6432769154226214, 1.9119098702246609, 1.473650322794002, -0.923337399250417, -0.3123471064097274, 1.646264368310202, 1.3176134664069918, 2.5299317121315203, 0.8427644369435265, 0.7390053421107343, 0.24712829063513814, 0.038856611440523464, 0.04145107408639775, -0.020134191295958177, 0.09153699546187972, -0.11357346667230353, -0.3264577793015968, -1.5561182401533458, -3.8185567940306178, -4.084169033394495, -5.2819418173764445, -2.9299751814202892, 0.38259442079354683, 1.1473294555724094, 3.4777262051114577, 3.1445564759319815, 3.5465123636968388, 2.7063561063420374, 2.7267984818064317, -0.8465665145662382, 2.2019098207435035, 0.8157854686964834, 3.838517076795204, 0.058657163396880874, -2.698556919073552, 0.16001066209755643, -0.44594032854973015, 0.3346271186877841, 0.631481528552851, 0.03016775839316369, -0.0004364665295363584, 0.008917149488549922, 0.5078887635850595, -0.4808171050654095, -1.8665814922804669, -5.427991083815708, -7.190965118317247, -5.236075455321575, -8.272336939529213, 