{"classifier": "mlp_classifier", "n_inputs": 784, "optimizer": "adadelta", "loss_function": "mse", "layers": [["dense", {"units": 26, "activation": "sigmoid", "weights": [[0.020510158710861988, -0.06117634139150389, -0.03325780019656236, -0.009896768044581332, 0.038547891727886266, -0.05592172542449822, 0.0592558566721823, -0.007333648847439166, 0.024328855121426764, -0.061490002552120816, -0.052082703231486026, -0.0018672881357462746, -0.008840895902393914, 0.004616589193274041, 0.009397718246706835, 0.013063685134055023, 0.010762813626202603, -0.02920333699696311, -0.006462926931917367, 0.010187914864986245, -0.03294048017559602, 0.049488915967884885, -0.010996925850664113, -0.03837615791928311, 0.0012723648347646994, 0.007357474706830431, 0.031436579882029504, -0.04345110280892105, -0.04645489688392065, -0.015188564411766664, 0.11713795079348002, 0.22599248063566538, 0.040932868821155564, 0.1422184838119161, -0.043293285483584, 0.011761866992569361, -0.03804755500645737, 0.01400674930942091, -0.1310535418958491, -0.13528402228926545, -0.12739615700322682, 0.0008844224018237801, -0.15184263632380438, -0.03934895681484381, -0.05934700650210342, -0.12798525911542816, -0.08242365554971928, 0.019161069413095387, -0.006675004669706721, 0.14380541518372292, 0.09782031302936436, 0.1148693532939308, 0.23304688956827013, 0.028150451887317525, 0.00016216738269935916, 0.006437761260449789, -0.08247376124918926, 0.1336281969254427, 0.4168486397544341, 0.6531701912123336, 0.9096090723900433, 0.17069835144155993, -0.2897875651124158, 0.2997435910360782, 0.11423867815582377, 0.06260260723609798, -0.09574961589221787, -0.5480052992548523, -0.5546673054000386, -0.43277944035431093, -0.7264379171454161, -0.528306795924165, -0.5337668364360124, -0.45578370239702776, -0.31327206009353403, -0.032769180289907704, -0.11945621436416339, 0.8147664799882826, 0.9148509080573767, 0.30321051100945673, 0.8176241422085463, -0.4219936604111489, -0.154393426812194, 0.018999212694103432, 0.011129411049269374, 0.19741142946595283, 1.1259671864763448, 0.8944398284028509, 0.3429884947205472, -0.270101803888003, 0.16626944978426855, 0.4159354558713635, 0.31006533584688856, 0.0650010950138916, -0.14153572808656834, -0.6201367359255558, -0.7492635063817019, -1.0138838350664587, -1.1769519240049187, -0.7891386510409409, -0.4820936674528659, -0.4989049489503951, -0.30305339131228193, -0.6355752247967291, -0.8739357377469193, 0.07262554205140605, 0.5527025090281562, 0.28053468008375443, 0.595810865058972, -0.08838913505003962, 0.10211565828149208, -0.03661129681956822, 0.0026527025806711586, 0.19485449534800198, 0.9645618779143108, -0.05945236684072701, -0.2707028853130795, -0.185581175000537, -0.2614203055623346, -0.333154928935644, -0.00923261659484668, 0.04997643070789477, -0.40315748858764605, -0.2934398136271057, -0.525277351365234, -0.6060488334852291, -1.0845650873447525, -0.5141095385388502, -0.5645386403563459, -0.7079861152826297, -0.8431501424455282, -0.7594323604130444, -0.4283575682499885, 0.7340023695096344, -0.3859352633726335, -0.20682252518481156, 0.37380837575976256, 0.12542980670702478, 0.6974982429601194, 0.04246654293557344, -0.01977066868781847, 0.26790025285078634, 1.3262708039344888, 0.39436660778650096, 0.8190008914824292, 0.20940104513153188, -0.39050554479781624, -0.08305324613808568, -0.7816030772229955, -0.013882540895887913, -0.27158996570812044, -0.41620221648869954, 0.09171540519490969, -0.19286076895594667, -0.8946849630474452, -0.2628771030318985, -0.729751237618809, -1.1515785717915206, -0.90576614084383, -0.1831478644585947, 0.072634333801272, -0.29992148149151443, -0.3298889649914814, -0.5378607483361725, -0.12605471897079, 0.10027674823055394, 1.0037924991068738, 0.041750644828976315, -0.003738467353067218, 0.4050104222139299, 1.2511840450354088, 0.6044744647632645, 0.10547026649812745, -0.48191514446692074, -0.14166575161025208, 0.3863429475651519, -0.22560716035278144, -0.10750143941766994, 0.0016420772393955568, -0.18531111288037494, -0.46698013601487987, 0.26967463641775, -0.029042372732586027, 0.6544546323920174, -0.23686207583518104, -0.8760082511558127, -0.22052541646055906, -0.2120896053815431, -0.2253998962522047, -0.6663549116974268, 0.3064040629646959, 0.41843157770225686, -0.1452098636968571, 0.8887543990479697, 1.0431954925450004, -0.020581800676937333, 0.013338359288488892, 0.5436576737611533, 1.2684221505413151, 0.6018501798306042, 0.2852206633660148, -0.1335113415087827, -0.14336398406502365, -0.4825372836305699, -0.25121291759712433, 0.4878833588918944, -0.5169373785738314, -0.506788197294463, -0.48358783272009215, 0.04560853038751348, -0.6484550079332561, -0.2604709442207061, -0.1064730586159908, -1.2964710941476625, -0.9480658199539379, -0.7300404530582041, -0.3131753909705988, 0.29931066513374793, 0.38297083212910976, 0.4081275918532036, -0.5977620894581955, 1.3156072874104396, 0.42536597537461235, -0.04231164295678333, -0.05785970933330132, 1.2589822814833798, 1.3892619823415058, 0.064319495825242, -0.09127377765531262, -0.032105502651783344, -0.6039950365835968, 0.47443591501454463, 0.07125693658105088, -0.607725416656494, -0.7666780075619495, -0.48255720840025457, -0.630744361418956, 0.7845771957282149, 0.10224329888886823, -0.6961075511324966, 0.2927175507955023, -0.592889406049216, -1.5465400492820451, -0.6423272976441402, -0.3053751003458597, 0.060378564974148896, -0.7168974110584435, 0.7653414016020209, 0.4278970814496243, 0.9060648124450914, 0.6798965744781411, 0.09660507655245229, -0.04641313369201144, 0.5717695402050349, 0.4724565332028905, 0.5169217828558784, -0.24260337516989885, 0.6259836341841774, -0.7761248664165199, -0.3836439331138289, -0.6083224070400817, -0.9317688879890652, -0.026872457164375693, -0.03047652418327229, 0.472044357568249, -0.06400010864937791, -0.37081782088233856, -0.8053653341726567, -0.8623975644820362, -0.8423914579845084, -2.443815176865577, 0.13262392718192462, 0.46728046633916437, 0.12952583907413395, 0.5645044169146702, 0.2290658509754394, 0.3874783469590233, 0.8932853165489559, 0.43622617149885023, 0.14933485800583327, -0.015204644563886338, 0.37336993265727403, 0.13450168237224547, 0.7239695645596688, 0.4954421281198764, 0.7912983307858765, -0.4676042298953463, 0.3399847819105795, -0.7010368539486627, -0.9771522623458665, -0.14806630556788486, -0.992325610612468, 0.13285244471046534, -0.7603428217603623, -0.422332460149148, -0.06624759381304787, 0.4717877251730114, -0.23328056355456597, -4.154029393811221, -0.2252618507241442, 1.7048827863399276, 0.5035525762937163, 0.5590408326101968, 0.04891206021924225, 0.42411011163550066, 0.81736287378936, 0.3763670602565983, 0.04065621936059789, 0.0002540593393485417, 0.9375540825985713, 1.1342356300391312, 0.2781460991295191, -0.2902844738953616, -0.12005816698983764, 0.5471004563853265, 0.5432289544292384, -0.3562205746437501, -0.29718483319169586, -0.5855817999740943, -0.48398234285075237, 0.5459549032129867, -0.6737384879637633, 0.3303622845504451, 0.2611620181776529, -0.06541622476650806, -1.0672585434766535, -5.060679015404911, 0.13512749711976393, 0.8231903684870977, 0.35932686240720135, 0.9063469386173345, 1.0548224282354726, 0.8667073914108921, 0.6186690145843325, 0.1685848865170076, 0.041315185895000515, -0.025833900328041805, 0.8710091334007372, 0.8358684235623388, 0.24725932956010124, -0.060409041823489114, -0.4394583604993238, 0.3623671502967899, 0.5194925687804525, -0.5797432015201786, -0.9459896354361121, 0.5759062502341658, 0.9237732673067306, 1.0226328399098814, -0.13152586258084797, 0.14572413615759733, -0.0411282726355191, 0.6406102547513628, -0.38597404649912903, -3.076620709210395, -0.5723229604569182, 0.6364620886316968, -0.3172210739600525, 0.6121568855575772, 0.719364592134725, 0.5620931127305885, 0.6660634792229708, 0.4435625255837027, 0.21685206861221132, 0.10849500717337754, 0.5930817351080343, -0.22898646434301426, 0.6397396964732425, 0.13672193276007405, 0.3071371683844795, 0.5471466132556936, 0.1526588910586126, -0.5799031738760694, -0.5723008701386353, 0.42305364509251747, -0.2579962848302973, 0.08556841984840735, 0.5123666670453255, 1.2920740258163985, -0.334564893398106, 0.9536328659996686, -0.5091524305440512, -2.7556168447084395, -1.5491540012181773, 0.7306864015559845, -0.30651925746983644, 0.19555769339678863, 0.9822226830688744, 0.5405975436424547, 1.1201387216520646, 0.8167382226781355, 0.09259378195763329, -0.033125928079928375, 0.5706653788385379, 0.23819522459775988, 0.15483083356215716, 0.1346953204114092, 0.6939632010775949, 0.5034183113285475, 0.13381253523766254, -0.39475333558613607, -0.11724617345765947, 0.4707293776909915, 0.08951479711473048, 0.5167904656190092, 0.49074124661023905, 0.3010040874878164, -0.8492931650668729, 0.9074186065101718, 0.23183142891650374, -0.6183048583207662, 0.05473019909964482, 0.0007066422483635311, -0.13384870850269398, 0.29918769799849787, 0.1207611616808197, 0.6724475813092422, 0.8006028463519699, 0.878924459324675, 0.06117065788946344, -0.022460076066139652, 0.7697602304159128, 0.4283229498462063, -0.17459858018055516, 0.35900046784191947, 0.2511436281934101, -0.021423374348447467, 0.6541578059224958, -0.4599772153672609, 0.17328965276199687, 0.17964258179237852, 0.8304841895124732, -0.20745508194857723, 0.763154489663117, 0.5604904625491693, 0.04123616649526267, -0.6848011804618958, -0.7430925277848259, -0.07707094635674352, -0.3065628704516714, -1.2840051266525567, -0.37419020491561034, -0.13096518599498194, -0.1629177482064156, 0.4903890495471461, 0.84378984826399, 0.6976817334602003, 0.2522814761742365, 0.04304148623275388, 1.2208736309454336, 0.33562587506313757, 0.0959414756277192, 1.0382060764173477, 0.1547129267219163, -0.3143946545734109, 0.11740482251185726, 0.34914913624300853, 0.3920396280511993, -0.3759758230239936, 0.8601563758703195, 0.8081536664750834, -0.1612745625827007, 0.7826158139599753, 0.8673894189447061, -0.43705395331809915, -0.2606208661109898, 0.21910331176678233, -0.17006499012058102, -0.38944644590890276, -0.10644628868708617, -0.4312281079227933, -0.015496562232260562, 0.2952422988155051, 0.11635922675026397, 0.5883353940246802, 0.3015599960930479, 0.1830746408250736, 0.8199250438022115, 0.2667053102974821, 0.7012467992577799, 0.25263000115288214, -0.5171159492111871, -0.404512139507702, 0.03286979479640413, 0.49771367583319354, 0.6433562462796009, 1.013338789735317, 0.4694108249732911, 0.05114578040586819, 0.3031137101207743, 0.20427603079708645, 0.25314978347930145, 0.011142880781164273, 0.6292748274570399, -0.34619157237135134, 0.5014138649110932, -0.2840707950101703, 0.0766333640233808, -0.31853867214434356, -0.3240404991759173, -1.3644124231028236, 0.4798125200367995, 0.4330437196222346, 0.023823017118904596, 0.09654617826968917, 0.5945855161896979, -0.44304377122527455, 1.09269771595654, -0.3678122326044998, -0.9834101774953178, 0.7473527565423645, 0.4857535617632004, -0.2580272432060928, -0.08090616383000121, 0.19004976705323715, 0.25584490259387815, 0.2939994116455223, -0.2890162016083836, 1.0760993598228803, -0.472289426166471, -1.325135380803883, -0.06039123513659335, 0.6702674864334575, -0.23281995888824517, -1.0266984515111621, -0.25844976791815, -0.4125053788337317, -0.06233930090405277, -1.0114776246127133, 0.8130566540119314, 0.3141144788544014, 0.015313872247329273, -0.046982410699680524, 0.33281609866265993, 0.40964346220327597, 0.6883866188784371, -0.43357486013708024, -0.05322549291378081, 0.45459513103582727, -0.26044780845377286, 0.09901654030442189, 0.0073252689740750596, 0.26662114831711436, 0.9024022696299465, 0.8793494898921997, -0.2476399622798986, 0.2847079803792463, 0.6326306477350404, -0.15650457529953804, 0.15477255314015415, -0.49332295154213407, 0.509858547271332, -0.0562999540384603, -0.6845898701369284, -0.17664465124592288, 0.4071045759903067, -0.890383195662386, -0.4362413592096931, 0.1970356981197756, 0.009338111429518847, -0.11375721384398735, 0.6017339429493233, 1.2860904224569825, -0.41744598332810157, -0.0949362694864279, 0.33482054898654406, 0.11357451973261103, 1.0731320639481174, 0.36553530035629284, -0.5752930065378692, 0.0938143117755398, 0.479144584286814, -0.06752968802259457, 0.2140210026292736, -0.45346551704218724, 0.15042351892416983, 0.7894793787877701, -0.09778487120554256, 0.010644526274671969, -0.015041117910142749, -0.164315579639581, -0.6817268976833298, -0.779939612169653, -0.2896367698907136, -1.1643512410115628, -0.8812328405958478, -0.12184487604924923, 0.03367344380892536, -0.057675543220207466, 0.4972732001690197, 1.6124639468113813, -1.395966243460974, 0.5936756763536888, -0.0034357401114973427, -0.19511348025252168, 0.7019499202318921, 0.995677342641305, -0.09266978408812136, 0.16271389744139278, -0.1385939400000413, -0.824836983259918, 0.5245225162842303, -0.018231060793108957, -0.08630054544047931, -0.5412514699156009, 0.4631357696657849, 0.1256775797190671, 0.13101285253168649, -0.6264820029727233, 0.512229744616104, -0.5389481610724507, 0.20431562302674713, -1.1043280796223027, -1.1475612658747303, -0.18593198775996347, -0.03218226746610637, -0.02752639837838135, 0.9888867073459828, 0.7772477445207753, -0.1027181612226002, 0.39445401013041115, 0.6749270620333443, -0.11128143150836277, -0.3938073835875529, 0.02385980419962523, 0.03330776311036434, -0.4964436143177175, 0.13438571353807985, 0.15604358652820854, -0.13184531863731705, -0.027827438997877065, -0.48933625693183097, 0.3989645555319996, -0.3469826246596862, -0.8413026339679205, 0.370292094053732, -0.5251085353800256, 0.7288979649936674, -0.1874671580583004, -0.0673120596343282, -1.4912710429944152, -0.8910341894766387, -0.16573779399253222, 0.02666794984735488, -0.036176911260932094, 0.5740720120623733, 0.8054369532314412, -0.1358811101373249, -0.25206090081616284, 0.42398513326514864, -0.030204165216244975, -0.15293756795313804, 1.0103082896008388, 0.6754390247657276, -1.0413095981171792, -0.47920550938083295, -0.1763085908433445, 0.2448709974220865, 0.27465538185618643, 0.029644722737139216, 0.11557178772677103, -0.17791218645551046, 0.0604637973982279, 0.7582399581658368, 0.012802415106286104, -0.36219373018627143, -1.1066432566501403, -1.3644472243551153, -1.934333925002557, -0.6668913086078763, -0.06486456431372072, -0.012259098014710154, 0.03817862625234914, 0.1385674793302821, -0.20670718338551203, -0.7293261828844047, -0.5272771789073708, -0.1255329367727936, 0.865615255887647, 0.08910281112054699, 0.9096867115457342, 0.15777919577686658, -0.5289669678877759, -0.9838707004905358, -0.5402111025672018, -0.3584084400429532, 0.5761022724036167, 0.19417217592091932, 0.16473493116723614, 0.5375065602202044, 0.009245919155414178, -0.3010957235976713, -0.9995443703043893, -0.963955172537069, -1.0004396096060413, -1.3829890077752647, -0.9975195137838594, -0.5528528056673166, 0.051249800327529425, 0.0624151533375624, 0.0504574924871546, 0.04061442723186503, -0.2613451945586217, -0.14744911161661306, 0.18350856913212163, 0.8524141588480367, 1.1582725246689582, 0.06308477191809152, 0.20629607593029856, 0.27180459480744656, -0.020921665679401673, 0.03972498716658985, 0.01355445015969683, -0.2562324733607821, -0.3953078304282199, -0.4209458550011108, 0.21799027842437346, 0.8135202091993674, 0.08122514061522097, -0.39549829165718814, -0.5293339440444688, -0.12634672178394504, -0.6089419712607183, -0.6309471443522805, -0.31973655492906305, -0.011317322901007221, 0.15603869139256968, -0.014871478164001055, 0.03678772371325551, -0.002098046993676676, -0.029668993534616918, -0.03390204552181226, 0.032740604666549995, 0.24458448032529667, 0.16514333483222138, -0.03151536697611569, -0.09935364291864451, 0.001694656164245072, -0.01731545981308782, 0.028621428703673752, 0.016197921497461496, 0.029753404112586448, -0.08448655230924916, -0.14274869604039486, 0.022299101957223174, -0.007706538193031558, -0.06036762026848787, -0.1666974789594772, -0.13559539176697466, 0.0751810812079318, 0.009412299548317564, -0.012005783356080074, -0.009451781187069117, -0.02960399444156569, 0.014778259033009392, -0.04041214502762584, 0.019200288504718555, -0.05336142921225694, 0.020740764611280542, -0.03466711661387507, -0.02253565473539205, -0.03983745855697958, 0.06068016744365111, -0.009684956928976213, -0.008906337717311688, -0.06018785326745605, 0.01556344538957827, 0.021042561303245562, -0.003688337208490135, 0.003598422521675481, -0.01918633954450779, 0.02957823272927464, 0.05527813551399031, -0.034283296378459754, 0.022043721740621143, 0.041116787922064184, -0.018605122067355963, -0.005891747544472823, -0.017407222380016907, -0.01313630357289096, 0.016804412161553445, -0.004971829679034301, 0.07431857635389537, -0.03237025853617797], [-0.0007720682120426653, -0.0297520600663058, 0.028072311755101227, 0.03448037314059459, -0.02732598971938756, -0.00526963506050148, 0.010114773873628654, 0.04661894422665758, -0.03535278638156977, 0.05818640693439043, -0.025723644611212706, -0.014182259808602186, 0.02316395387703583, -0.027116310029679416, 0.05059917142889863, 0.010680137563801154, 0.009908300767741077, -0.008507476398171888, 0.09611192358445958, -0.05433802146726421, 0.0017279179539729283, -0.006997009302792185, -0.022851378890728528, -0.04408791962841525, 0.005269491253586086, -0.019415024667358793, 0.02502236380807233, -0.022465522908807274, 0.004119254760684147, 0.05156121475808303, 0.010775435367848517, 0.029942996969921382, -0.05379632193786534, -0.03549788048421304, -0.05005860105895217, 0.01182260818093908, -0.05557496273284058, -0.25709961333069625, 0.04364890665692562, 0.34257006113719907, 0.34257116409543414, 0.8246086570679017, 0.3199084993951465, 0.5346473897888304, 0.9323520036296156, 0.7509589254045183, 0.833228167805792, 0.47325351912320335, 0.43318967906923384, 0.2468169893633588, 0.2387280083321726, 0.09090904523311957, 0.018045893511845747, -0.0713716749438617, -0.04297710469922106, -0.019009439100289634, -0.034322207194191164, -0.05325711160196102, 0.012434980803554504, -0.010942364353314207, -0.1421813213840286, -0.2376853060392244, -0.13960956882096756, -0.13894749926294545, -0.1678567319000675, -0.44143305120218024, 0.3513465440670505, 0.6617189302291522, 1.1759673230464431, 0.6717021114592038, 0.21446645207576698, 0.6659562474481062, 0.25460846975363954, 1.2777518553550915, 1.0826658890348548, 0.22384147340395166, 0.35382252917468143, 0.6460233003021633, -0.25766106707823105, -0.17239339124391792, -0.2982225365486585, -0.21673001037958034, -0.04497661181184355, -0.059887619352223406, 0.05828639176883485, 0.009156662014275943, 0.029922746389253727, -0.0681023065950262, -0.34037019332574053, -0.6341292662589723, -1.1609501520512138, -1.4642876137176737, -0.09206999628117932, -0.28578307351954996, -1.062846157358448, 0.4989213815409328, 0.9836793471581122, 0.7770485740015854, 0.31829199188318025, 0.38497684671118876, 0.02539736475755615, 0.34602732231834105, 0.9693781591383084, 0.4352461711571652, -0.5506789376318902, -0.1769330333691338, -0.6774292514527502, -0.6243635268219373, -1.2080775149586183, -0.6279780901743526, -0.022468406742526963, -0.004933151295355291, 0.05742125713385889, 0.08014849161510788, -0.06663693378144729, -0.20476053806125313, -0.38255178298436054, -0.8786001782612151, -0.6289029266797619, -0.10663955747210266, 0.3423616737873294, -0.5144252146323659, -0.13081150136469907, 0.36166212899335703, -1.2389463660694273, -0.15107543436196294, 0.2514094038027843, 0.49268731993078446, 1.3797665118206093, -0.19656472029067676, -0.5706957746333667, 0.20745290641909192, -0.30012655739144134, 0.23793509338298058, -0.04860625957640828, 0.14672985670281352, -0.37853319556205006, -0.2796197965065936, 0.0002361971576899059, -0.016757850798265778, 0.02662368820172826, 0.07895168873096933, -0.09835445622906042, -0.6669570361193886, -0.732608705951697, 0.051795344419532825, 0.312688591537934, -0.0544324204924905, -0.43093209658292064, 0.4051165043050843, -0.03805862702527791, -0.33247036819976616, -0.7818592355633676, 0.9484918927597059, 0.16574163820937302, -0.3320007030123008, 0.7229675027769081, -0.23992511620204043, -0.5617141423638373, 0.4039866022099311, 0.33886749941854183, -0.6955039580103319, -0.00045681013049284416, 0.13951214267469123, -0.36618706759261627, -0.0050041739134099395, 0.11320721818733137, -0.06484657819061733, 0.09742688913021665, 0.0457950393927679, -0.246311611031232, -0.8236802575184751, -0.30263404768190666, 0.5237874050847462, -0.15114614138934476, -0.4614544640477755, -0.5327816447163766, 0.7407440304400604, 0.3728691544242208, 0.4424247272359662, 0.18296614490088997, 0.1939481842524854, -0.44310486346274214, 0.23344301137052229, 0.6917381384357241, 0.02284153601252985, 0.2319235073961969, -0.04192048299849742, -0.25228098455666303, 0.09393441318175208, 0.18783866349575068, -0.2680265148243376, -0.051666104104056386, 0.010958545072291513, -0.024899533076096554, -0.0002815505707965586, 0.07270842915496785, -0.04155625292177534, -0.3833237652809846, -0.9697853738681833, -0.06499080594346054, 0.22241690992613275, 0.8734626724655387, -0.027185664333188416, -0.24435170562389, 0.30188013684591136, -0.5008577341606488, 0.870757409140879, 0.6255096165013392, 1.0443118314317348, 0.34237552769740254, 0.11428423443226457, -0.2764714522894561, -0.1563665091006732, -0.4351466813439072, 0.672915266921597, -0.1858121463146443, -0.14849029678095146, 0.26463603742048386, -0.02733963248658092, 0.010026325246481192, -0.15904935763858408, -0.054926374088103164, 0.0030325588180754154, 0.0728951512808567, -0.06654220147510674, -0.7419720142469867, -0.37170152564911946, 0.2659522359595546, -0.8504151132878566, 0.36134204134552117, 0.4153085622499002, -0.7470624333174961, 0.6820889877970019, -0.627080583976696, -0.6821797794136617, -0.05413038647867803, -0.24960316129667656, -0.6004730929701056, 0.008141489472067779, -0.013142428201999012, 0.6034755567654019, -0.3054105425639208, 0.25425506810103954, 0.3533539849651566, 0.4188723344921791, 1.2153524703675485, 0.11600752962129393, -0.17901401461254254, -0.2968251530018827, -0.031638181232237, -0.050245612551667394, 0.004424270867288825, -0.31260596710101396, -1.0314116295557174, -0.24319720704402045, 0.0450731252967542, -0.570328962200723, -0.25090763689625767, 0.5965997764704092, 0.7108927735570402, -0.08602150735283723, -0.18968631885108775, 0.7045445279475168, 0.039320707976579654, 0.24356825331305157, 1.338619357723957, 0.33525945164023824, 0.10920031518682762, 0.05107899819987262, 0.031470184165870316, -0.2190013982905959, 0.7476480054129325, 0.14821042535734244, -0.5393055418826498, -0.8485623506206311, -1.3984802029757606, -0.8679873877528913, -0.03887504262471156, -0.025624681438727172, 0.011217322977176017, -0.18600165144370126, -0.5981269618156563, 0.2929326513592531, -0.5024518353707139, -0.5142066402288425, -0.38689079924095227, -0.6729945635181277, -0.3305990213802897, 0.31840752111102455, 0.9550098542188835, 0.9866945273877127, 0.7969713041332185, 1.4374878214054974, 0.5744968565305251, 0.5062698647141493, 0.8232504225525404, -0.0330844612449654, 0.10449545238822859, -0.337320928424892, -0.20829921875846885, -1.695448098918714, -2.3430033475944727, -2.380590986158443, -2.335254129217098, -1.5472358387082719, -0.20820290987087306, 0.02532921243806969, 0.007218302739935714, -0.016902250292021064, 0.06326313684951682, 0.9654124651895156, -0.3316247060954478, -0.26618354299244745, -0.10667500471819472, -0.10934167567672785, -0.307841782847988, -0.05304133079240705, 0.65805096460195, 0.49970250717356307, 0.5978913783024777, 0.12974307490126588, -1.0225459031479602, -1.184159632564651, -1.1983538175763402, -1.5290452106369885, -1.2859934291947022, -1.3477240280632665, -2.000142561598111, -2.632806384954649, -2.976006179551862, -2.527149460646348, -2.8367920417243053, -1.8110709583700815, -0.22752904268171723, -0.011340074649464819, -0.003424443870867923, 0.010679701367099692, 0.569261022387058, 0.6444867998588781, 0.2160021326937619, 0.039761825565068624, -0.17468116024613756, -0.09920088089658158, -0.2460280785103044, -0.5110222603977609, -0.5458031388569763, -1.3567073622965182, -2.593795683011176, -3.3792189092677156, -3.9901114858446176, -3.672048680502501, -2.0233307070820175, -1.027764043501026, 0.2891348476612739, -0.585168731630295, -0.7495032698263335, -0.8901000297214166, -0.14314546846453774, -0.037888190434513414, -0.20986688659727007, -0.5406737731968879, -0.10875879120946932, -0.03291932736979654, 0.009816847965613516, 0.08269683864666158, 0.5246136419775282, 0.5007197126730013, 0.45008421780122415, 0.11096253886785021, 0.7025915763565377, 0.33737419106422395, -0.8511335414798317, 0.05247813465533248, -0.532990032278436, -1.6142982116515978, -1.698163063706926, -0.14720096033440164, 1.4525603931470832, 1.5508363653440191, 1.3289818734706134, 1.1970453031200723, 0.06704999793641271, 0.48881740496694515, 0.9800563369454566, 0.5783135882615317, 0.6808864267180779, 0.5294407210727977, 0.9513312215525611, 1.1829032426281954, -0.09039381469776905, -0.09552223574589339, -0.009753614629923189, -0.3220507053600012, 0.5884972151221664, 0.4643309214072372, 0.13950976769568826, -0.20747335239044068, 0.30043075653263873, 0.28115062320793094, -0.7318541283311377, -0.042870102763768535, -1.1891192519252816, -0.21695816165518675, 0.0642234474169241, 0.6477572613635241, -0.8300975326401938, -0.2031188803772436, 0.35259450686089777, 0.5111744302014649, 0.4124899081296389, 0.763789974735285, 0.9364714484095703, 0.9230264047280876, 0.27325059226271936, 0.24135936131591254, 0.607293509721304, 0.8941046865816437, -0.23291586760475255, -0.07773106138596372, -0.0262221373327412, -0.27216810108362327, 0.1984572674436721, -0.20480065631562117, 0.03441555840326431, -0.4809321567272463, -0.09386307516712966, -0.07483213649863547, -1.063079471047417, -0.6772942850858347, -0.6528470805547804, 0.11778807304364976, 0.46333551806226525, 0.11976307807049284, -0.10481843652785373, 0.06452899609282776, 0.6772901252446767, -0.06715979462631373, -0.1367126815205007, 0.6274180168967615, 0.06541817171155914, 0.7618055887075108, 0.2659244940652808, 0.5711628602139587, 0.3566040479838874, 0.1402643221988061, -0.12447889920900433, -0.06975672295366804, -0.047943860979170944, -0.3618743756185624, 0.28421878498662306, 0.4445939902166697, 0.21616203617884366, 0.15350697759276682, 0.05496551152831897, -0.09502828929965185, -0.645800169094461, -1.2866459335794127, 0.03845203583865967, 0.28130625151637645, 0.4467180219657242, 0.7368194883198259, 0.8996360254260566, 0.4846714495015044, -0.002247130623016175, 0.5189812601158063, 0.4707688170875073, 0.6075276390218347, -0.030618642821124552, -0.022290397733542452, -0.4301730205328718, 0.38786601458994047, 0.1086264484954226, -0.6444267336646361, -0.06158741691716212, 0.019900697074106865, -0.08568532120527218, -0.43895414893541596, 0.4255652347459785, 0.45682842288056447, -0.15930529867235807, 0.2884110935957855, -0.27081913519201006, 0.341478319290579, -0.29626769178420276, -0.9593550998571185, -0.19957829119866252, 0.4846314609390074, -0.27842930137984884, -0.09929514783244674, 1.3667044124392058, -0.22829409030222167, 0.3461937477491087, 1.0737491774459593, 0.6983028361815108, 0.5605521816225547, 0.5432119242145416, 0.8580189062661857, 0.2888252525857634, 0.9496315613795384, 0.40953371064549454, -0.2212167960132907, -0.12972532059861244, 0.025620005238148152, -0.06797500458984847, -0.04794571003819921, 0.5540432061627684, 0.021658017519247945, -0.5222671301043079, 0.1323967037605405, -0.7404791150283195, -0.537637444601767, 0.1893066534094173, -1.1645838805624344, -1.1509393519590456, -0.050400188359088785, 0.3120306299283548, 0.1850868579479689, 0.5556965987606605, 0.6578916338157902, 0.16223890579478076, 0.559110609874556, -0.25409041490643614, -0.5022393747259867, 0.20000234249453758, 1.0527000160269144, 0.3805672098794014, 0.41812063297034313, -0.45109168964363916, 0.2939145224729214, 0.14772815714719467, 0.014761205851193374, -0.07114425270093508, 0.19063531009626586, 0.4908982609883153, 0.21978483988169553, 0.15726552045673564, 0.7546951302707102, -0.2754869457319503, 0.019495441924926298, 0.9819190557479613, -0.21317705184880203, -1.0869329905714082, -0.2708928129038464, 0.016401104121216536, -0.3270360001004338, 0.24159622025578875, -0.07908979465381448, 0.23400682583557889, -0.46054682781139444, 0.6749311547030227, 0.16638782817617476, -0.1955109018399373, -0.47175046270603993, 0.13453380256496358, 0.12242378513580178, -0.734199712461697, -0.01906574096189929, -0.0710934370396905, 0.005367451709526934, -0.011903407852829256, 0.20952758035084634, 0.35649994358429826, 0.6716158099423851, -0.12413998749784236, -0.21097071267882536, 0.3936590702773512, 0.20446827480923052, -0.39434814358291764, -0.12554685274012883, -0.24098464155101518, -0.441418547895533, -0.21149002419143303, -0.8161309257724919, -0.09181048890649088, -0.6158291612105401, -0.3228820694626538, -0.49314188966901457, -0.10203394270797869, 0.01917214514439049, -0.03862161398291778, -0.266822699884728, 0.04516472443297838, 0.06988980531410623, -0.9834675721996811, -0.5220958579832956, -0.01784883325731811, -0.09365884282651427, -0.1243265681811143, 0.16108863402722, 0.3480858976813597, -0.03044116433894521, -0.37071953099009447, -0.34052636943826864, 0.027509165670394135, -0.032287091274167366, 0.13088116161433616, 0.41150972933212254, 0.35190020988697385, 0.2066398558792565, -0.45366743022426864, -0.23406242816267042, 0.2330244708845517, 0.16637758929792285, -0.46814847688580713, 0.17525811033836297, -0.49024985315961417, -0.582534262937251, 0.2185539501011293, -0.339881635554658, -0.09618218259853542, -0.05492591140048233, -0.7778255225892818, -0.27221010520437156, 0.004537864100944322, -0.015606461803006722, -0.07276956237491748, 0.11527079232465308, -0.5000402965251038, 0.02134559316234932, 0.7194740081085472, -0.06287024352906599, 0.39983211536307806, 0.581610497344987, 0.399450949880835, -0.03817453937829817, -1.1327532905298494, 0.2658586087667214, 0.9223301890335664, 0.1281366194653683, 0.39568122870228467, -0.8388518302471872, -0.21684661835001023, -0.03132596111541731, -0.5285445700493138, -0.23337121747940262, 0.06482982090829299, 0.06527603721502158, -0.3041047581051788, -0.7636980989139978, -0.6306332289757363, -0.0745885871837615, 0.09004581609169342, -0.023319213421046044, 0.016306534775391787, 0.02462869971257462, -0.5079456275459141, -0.951280589025093, 0.0010556943158248188, 0.4695001201210507, -0.24586584199386927, -0.5624317250199259, -0.17270123513772956, 0.6079567820940848, 0.9905034460824221, 0.5157458153543812, 0.3979577511483152, -0.27935210383603465, -0.11426758488174549, -0.7759526999068475, 0.8853417459152917, 0.08948003416520667, -0.39528122730492765, -0.5434570848355919, -0.13025566508963246, 0.5489240689355677, -0.32815846765233975, -0.8128307262256671, -0.8201023629890979, -0.8266173234510436, -0.27174375034866266, 0.0028302191052369174, 0.015364410235971437, -0.004265521142778513, -0.19201253997289655, -0.904467815260506, -0.6551273528956664, 0.3145586900533277, -0.3099119386525881, -0.2972011685304217, 0.4390950050154666, -0.2714076794422534, 0.1194041383610756, 0.5488786300699713, -0.8806867723039316, 1.327867832508035, 0.49254055170249766, 0.14780674167723407, 0.5644779866230923, -0.6620021175075946, 0.11325785888739323, 0.17341594375934152, 0.6995555623796793, -0.2934586594655765, -0.7137104718954241, -0.6024016718262026, -1.0469638581376028, -0.7935751279054372, -0.197198709693675, -0.0026392088760737596, -0.038639502528018795, -0.07093478072779463, -0.00012844043147967305, -0.4638573547452247, -0.39744654323694345, -0.2647362716578283, 0.35620803040717464, 1.314675375063861, 0.7465033741711506, 0.42646594272361277, -0.14891654355906478, 1.264590141763848, -0.45693387707868965, -1.0626623143277116, -0.3047820561296897, 0.4397557867384216, -0.2962966754048382, 0.25834023459341987, 0.7586002911748653, 0.15986321048806532, -0.6455958071590446, -1.1054268546768122, -0.7624942088274995, -0.5610999828115577, -0.3722422007050438, -0.1769719908074927, -0.020190287145396245, -0.019231830824603793, 0.02049803105365461, 0.006307229551629153, -0.1107452771589103, -0.025799045377433525, 0.09625417265096026, 0.0022709322652614493, 0.22488909962839568, 0.33900466990825023, 0.41809147755517667, 0.239665627775656, 0.6626610779266772, 0.9847603994668382, 0.4227233451609609, 0.6287186523495036, 0.3772505127117005, 0.3870507924030179, 0.29269754553523586, 0.16155322334595137, 0.04502540367564947, -0.13836688545432033, -0.32585827547862684, -0.17628996610293976, -0.0734952705795689, -0.04052094844412447, -0.10977412838231904, -0.12743434706081458, -0.05807207670665526, 0.004218975708605171, -0.052520455367644825, 0.02437920573676325, 0.020825104860731976, 0.00918863465885458, 0.040138133803277465, 0.04169667553765924, -0.022562410537311454, 0.028837013138196824, -0.030555903205402715, -0.04477975689248215, 0.004599266687524793, -0.028203778525018805, -0.005299638001915346, -0.07836787749168327, -0.01540054966694373, 0.00791469767216315, -0.011765284130534128, 0.09022381065221279, 0.09361043792317268, -0.0021396292198755423, -0.03516211905510127, 0.0428716526437474, -0.010200302879929537, -0.002194011711685594, -0.06141466676319349, -0.02570124995794982, 0.03564441029946224, -0.00595817410887631], [0.03607194100322346, 0.013143771232084796, 0.04155850983541908, 0.014405627596593175, -0.021581493888640613, 0.020854094470813687, 0.02182869713453985, 0.016399100197665863, -0.01712971529464207, 0.013672944270289695, 0.007203148401223126, -0.02766354226041946, -0.01704010140772924, -0.024139782596281203, -5.908357200706512e-05, 0.014332882285027267, -0.02210126970422519, -0.013048905450525373, -0.0564470508760602, 0.06331012469289855, 0.07211774189489945, -0.06509071591297358, -0.1745552359126077, -0.21187913030277544, -0.2181096928681759, -0.2527156510368723, -0.23675068774386193, -0.019641885915780748, 0.06563539898247378, -0.0054724437355665135, -0.011863401539682489, -0.028066807742155777, -0.07911672647013222, 0.10330502713342905, 0.06661009457915501, 0.05865120631201225, 0.24459560475566053, 0.08899347004108506, 0.1630394640939415, 0.29739231269612365, 0.4238931792005917, 0.8975387447660996, 0.7024856291154459, 0.4303939275731233, 0.5084302820948626, 0.7235531750804796, 0.5015961080300791, 0.3199371404365972, 0.7904640762496306, 0.28594757042945007, 0.544485447595156, 0.2868561206560391, 0.08961241221872897, -0.09551592348926208, -0.232278431288683, -0.022216101174063363, -0.009010938170287185, 0.07570460821417914, -0.042060671444023826, -0.38592574488734604, -0.3699670036431826, -0.18174998215154692, 0.07790297198316978, 0.4313436719441923, 1.2199010362872444, 0.9604645317236415, 1.4414934617558193, 0.6530337943548341, 1.4800427359266857, 1.7383885084371762, 0.9096076653299082, 0.6627904096903826, 1.1580182401062946, 0.6610712524608319, 1.8170424895640407, 0.038949603449514224, 1.035125832333284, 1.1063028206357828, 0.32022198948471686, 0.17650494034304307, -0.36850582501491996, -0.49619658500429614, -0.3128131259866595, 0.007253119280580833, -0.046447756163637256, 0.006112925584496242, -0.13584658908944516, -0.5006895286953063, -0.7893052923733241, -0.5213629575988112, 0.5616978445215284, 0.05662898363110153, 0.19103589726275128, -0.610044518045942, 1.6134474936368768, 0.48491702013926946, -0.0912711749904453, 0.6019036579505744, 0.5828524622617287, 0.3008782353793621, -0.2967295829595178, 0.2949357246809391, 0.8277581602803596, -0.297469842771366, 0.6529779262106563, 0.2524328673708553, -0.3792535716828341, -0.18348921239750499, -0.051837443654576855, 0.2799249301319597, 0.05787985923899414, 0.001336264262612951, 0.030755844121422227, 0.030838964544850515, -0.1283371287320386, -0.5203569403615254, -0.9212940892463112, -0.7365311077568496, 0.0057871575556740105, -0.5992955066566961, -0.35856006862807516, 0.18669046891861757, 0.2067179175680707, -0.6585028511346257, 0.662437038516316, 0.25433291891938714, 0.2954667904887191, 0.59703876631304, 0.7079107312362491, 0.8790764072326126, 0.7134326845040622, 0.6973203054086048, 0.6585193831537723, -0.8531744904984067, -0.02638179951576994, 0.041274684312982396, 0.2303394068208289, 0.2278815617489078, 0.4153657869159011, -0.03140268597014492, -0.04395005930586293, 0.1332797030358905, 0.1678908398139132, -0.7146943210467596, -0.36462603914323066, 0.07720147696780791, 0.22384225558677637, -0.5253747691024282, 0.649483712668305, 0.009828462259404343, -1.1575387949895255, 0.7884823720965618, -0.14159093470363765, -0.40736788349069647, 0.5943375988615015, 0.597746156349023, -0.1303581732050068, 0.2528001900575356, 0.520533781725335, 0.060807071913731296, 0.34193343800706977, 0.13302979536040066, 0.4019077809101305, -0.24511809455322497, -0.10058382313481723, 0.9255032772580477, 0.4219309498601722, -0.017057133981504626, -0.013479455954548938, 0.3711950699260685, -0.04419510920685769, -0.7435108433347191, -0.13586163666902695, -0.1657914261594504, -0.1272342265935427, -0.9596494544122194, 0.22945082771274553, -0.1391043028740519, 0.31348947157442125, 0.28610218375621804, -0.26518816683698737, 0.08117478142721098, -0.21849939330609772, -0.39907871999384337, -0.08059726342273264, 1.8393804469483028, 0.1128102257235032, 1.3570411171627437, -0.16572714254796217, 0.7639530951230823, 0.7956831254937572, 0.43038179065171345, 1.0871333692836966, 1.1447786007007579, 0.3679429624135277, -0.0077154641201367165, 0.07477605486956777, 0.194802076228773, -0.6880131653663543, -1.0808083150697234, -1.1023297387816666, -0.7233053470369288, 0.3212413874884529, -0.2882554486934458, 0.7517216307509144, 0.5058251098804147, -1.1175307144123496, -1.008563463716898, -0.367259868727764, -1.1673615135927853, 0.6035041635464742, -0.6622008202392898, -0.26210672305987254, 0.5549250587572295, 0.3446082785663952, 0.09713085477858611, 0.11077954616606456, -0.17408561667429145, 0.21253214297307402, 1.2691165478128406, 1.476633787330572, 1.4350578198089818, 0.018106998481087, 0.0012670673032688677, -0.005827675382507014, -0.10241321282815827, -0.6352946971781117, -1.2107519947076826, -0.6098123934028054, 0.21546149812046497, 0.5715404486582599, 0.2346108174182127, -0.7115016942684044, -0.17350886916002592, -0.015859565217936016, 1.2528041338340374, -0.02530909508874322, -0.6728538868205247, -0.21014035931092817, -0.7828136427529642, -2.7290303019942823, 0.11727350605033769, 1.1545941212058797, 0.9203591863758196, 0.9491523146370792, 0.7075219222113978, -0.1955556754936228, 1.1051351405149126, 1.5137802213917082, 1.2644343483266063, 0.17259121885706463, -0.012437837239625365, -0.12757714138576895, -0.10887167817041686, -0.3903345457788468, -0.9630737370111139, -0.6651127960045695, -0.4702195289973621, -0.5091238257698878, 0.41550832103860985, -0.2560240193135216, 0.23883935822955543, -0.5114559586179537, 0.8731980461694215, -0.3365553546659955, 0.570936062844106, -0.09414199842816162, -0.6108532311623865, -1.4698909544953687, 0.15688965937025032, 1.7215131024987997, 0.18509209589247586, 0.8964447859446922, 0.6565941949723356, 0.3017498445640895, 0.009340346364266935, 1.472135649501278, 1.4577938516318856, 0.49307625487081935, 0.0025469319071554706, -0.1386580894234237, -0.007455087954690824, -0.13945401195523047, -0.6783269281450521, -0.2675166785601586, -0.25876287561575306, -0.4904508967090636, -0.46227733124210424, -0.3796628379715219, 0.2850956890167394, -1.036441434616502, 0.23510374041997711, -0.01029215783367282, 0.4523454773864264, -0.05621618521740025, -0.6215975051589253, -0.869504861118554, 0.816932418886471, 1.3393400771210378, 0.06755382493436382, 0.9795560544330167, 1.112071143002987, 0.5214822187925718, -0.04286764392406302, 1.5839351900246939, 1.361432399382517, 0.4280811644632953, 0.03587220362515521, -0.048976455982525105, -0.1470575429556747, 0.013158222033606374, -0.8658058792848652, -0.5899857598223464, -0.07903399457847746, -0.4935734567843019, -0.036594186469127314, -0.39481828957516096, 0.6021849533231433, -0.060732269419554584, 0.27263480251057465, -0.18045465496175306, -0.2835333091456897, 1.1478362782655929, -0.48132177405257237, -0.3497450053942421, -0.02184572438103359, 0.4607180857631552, 1.2931353048333303, 0.00772542786549202, 0.9420264719076331, 0.43612797245171325, -0.13169030706243254, 1.7419445229586978, 1.4096249821232054, 0.2199668012449742, 0.061923496658413874, -0.0053347091674611465, -0.13872929059506403, -0.3999969242211487, -1.3873885638528443, -1.254539692225192, -0.011304115231049865, -0.8725204670828212, 0.4468858497096956, -0.08328375048809787, 0.5444934881935303, 0.4377696711594899, -0.7654000332654859, -0.13355117220188545, -0.42764022638187965, 0.2654310090630338, -0.7383972026864315, 0.3708882557204687, 0.724895656497718, 0.7489477520262854, 0.9962937892472657, 0.5988588847618859, 0.6110484397568564, -0.0438291239694827, 0.20918152294177, 1.2016766129310126, 0.6993255259657039, -0.03841571494792947, -0.02731451142647044, -0.04430611935792018, -0.18328156105900298, -0.9258213327867265, -1.8345409049827164, -1.114619177141373, 0.10162342595551002, -0.630795682770892, -0.49614007623598655, 0.021486591366098384, -0.17241872154382099, 0.14975754105173844, 0.52293037805611, 0.5225017821551089, -0.25725942383835, 0.1371372702609265, 0.2607692123739286, -0.2516587788358061, 0.1314329091358118, -0.12012257727644757, 0.239706155938087, 0.7695841716235821, -1.199615965929923, 0.12380470788248102, 0.30357789573485455, 0.2389484942437205, -0.11073531909101333, -0.03351662712938615, 0.0016005931633786537, -0.07209786180328569, -0.08963680816958454, -0.8468920673556098, -1.8131529814499632, -0.44311954911991946, -0.09367293383551306, 0.13990295018441218, -0.5507519789370502, 0.6424218178568174, 0.05324429330787388, 0.33950549795293333, 0.1830112596046573, 0.12283963433423833, -0.8993641094216746, -0.3146158920889125, -0.46539653501658457, -0.04144858285431899, 0.4968783917146865, 0.21396662902673266, 0.3719947975903972, 0.16022677719766204, 0.42906944434289157, 0.8875177790242572, -0.366128619876056, -0.7956293663224817, -0.472353802468785, 0.0177060928365046, 0.02121883850202949, 0.08011003109665872, -0.1393629603209126, -1.051856353734939, -2.420589323249351, -1.3270745187117332, -0.36940964104506924, -0.26150365345096294, -0.9182007539737691, -0.1641371255305318, 1.2717058705795998, 0.3441710314421286, 0.398719857651664, 0.2281251088471141, -1.2597245502356813, -0.3675745862061716, 0.97332881114834, -0.30748988637229413, 0.6033787106004007, 0.2231703956669566, 0.38764308234728095, 0.7432388451723416, 1.0771472881038173, -0.19606851398458736, -1.4009662638595943, -1.3809682433085422, -0.5029114636761985, -0.06972813929177417, 0.000377938049744148, 0.0141834787895535, -0.07870091292639728, -0.9488384880166347, -2.319134242961251, -1.444232605459861, -0.624834589530704, -0.08802305334730674, -0.5743636883206775, 0.11606957163424211, 0.754226905473605, -0.5424512002327891, 0.9680907902193339, 0.7324439691172251, -0.6107870138961483, -1.8327309353050456, -0.6832401175617516, 0.15653381885125392, -0.07059648090406577, 0.19024423487037206, 0.5006638908880291, 0.5612417435927602, -0.34249138717792255, -1.5360790642277315, -1.6241563088959405, -0.9960867836904662, -0.3571318457261415, 0.00462163223404401, -0.0232780497427461, 0.04776765557104052, -0.007400182652459733, -0.9932306753745636, -2.123290984448784, -0.9566335169111586, -0.21403258611436962, 0.2030037672189581, -0.0068693254569621495, -0.3972543618324903, 0.29385489124640307, 0.07534612248252728, -0.03585390551360477, -0.3071523849333605, 0.0922399482538064, -1.1212982793889317, -0.8209732538071183, 0.05190038183484823, 1.0099088381528194, 0.5733421697554989, -0.3647367835186766, -1.249222842945911, -1.9867086856144929, -1.8163463474461083, -1.1401758505017723, -0.6341286646405281, -0.27838613909924975, -0.06671254973743734, 0.008953272220368104, -0.04528136363741596, 0.0709768625741715, -0.8428682284373207, -2.624428913305447, -0.14541972032278971, 0.060489010375336966, 0.22309654114282249, 0.029986959321192715, 0.5002717463282071, -0.49785243038282395, 1.1789378501250354, -0.24816563954564516, -0.7307985691874231, 0.8124829993415011, -0.5469592508610702, -1.4040434986509918, -0.44477005323848245, -0.5522772098190486, -1.3465874525926154, -1.9232443446040837, -2.2471655689226346, -2.2643377957391446, -1.479578454349539, -0.8658482417910305, -0.50171279087213, -0.3003115439306508, -0.05059939972680677, -0.008606480848123089, -0.02486305847000315, 0.08750090504517462, -0.9259693235457949, -2.1662057443939298, -0.0015506644977175857, -0.41178901532686424, 0.17237605335040487, -0.49926216810168256, -0.33698455232637087, -0.891864383206938, -0.425002116248208, -0.4282193515301599, -1.0588109941185102, 0.08206488489813484, -1.9441049527692382, -2.93918931838401, -2.804248751509014, -3.0327929550166055, -2.4233511061738615, -2.1184900099107655, -1.9041001284221324, -1.7145648790400714, -1.049481969974166, -0.8051059312912089, -0.6064412023832193, -0.2156213337363925, -0.027568104868242724, -0.015505874957442557, -0.009219541598101759, -0.1915329638370658, -0.6223299452271944, -1.698072446465754, -1.268033807057869, -1.020711804184672, 0.20603131641830552, -0.5182199681768459, -0.24686474116683585, 0.4222039873928193, -0.6546633911054559, -0.07485785615315454, -1.2355849965722951, -0.880583804113497, -2.2348946588281895, -2.6755514183864157, -2.3925824818420027, -1.8672260717006421, -1.7175521308288384, -1.6357057698243849, -1.405773509856544, -1.323515412155094, -0.9449800953527913, -0.7353758350465244, -0.5296615173371496, -0.17838697948827037, 0.03722214678443755, 0.03869104026824982, 0.007743125810865998, 0.011019655943288721, -0.07775046483965078, -0.7930951797467076, -0.6691844986845495, -0.3809061281740831, -0.4891518349241309, 0.3737622043650295, 0.21501241615366937, 0.6282408977273586, -0.004600755180673887, -0.22699977118386466, -0.2120794005767789, 0.2715799987329113, 0.2502285334631258, -1.161155736830187, -1.4856463937913433, -1.2093851286839465, -1.4121283453799307, -1.3457435110968463, -1.2152392670115875, -1.1218022301585944, -0.9364799552684347, -0.6718202468010254, -0.4840588893441433, -0.19821499239768006, -0.013613269694103168, 0.044676004496016906, -0.05402393439159267, -0.023761021103360667, -0.3738234963396398, -0.674931089659496, -0.540855113780598, -0.5871569222031993, -1.067105379755441, -0.08767784038484788, -1.2495403004879078, -1.093729383978701, -0.06634354395190728, -0.5557120068147977, -0.06244777988187915, 0.13771311361048247, 0.509193676452926, -0.7585942197646177, -2.0981446805814743, -1.8186637686209524, -1.423566099344754, -1.3222601698799017, -1.0442087484236424, -1.1245265395201138, -0.9309007706707891, -0.6494530744132918, -0.46205660688910083, -0.10385975995036788, 0.06917127820826593, -0.05653156365593206, 0.0783442477654338, 0.05534061070050487, 0.35156497222700894, 0.37220333160198327, -0.33260333236920286, -0.1613520038618523, -1.038963198186143, -0.20641515973472838, 0.21092434701123264, -0.2920991914755766, -0.6217671270273798, 0.01153278543162519, -0.06966412860531189, -0.8524568109794419, 0.014676885809390387, -1.790079588000776, -2.443860096815262, -2.171133000509357, -1.5003367942922026, -1.3433450772856526, -1.2272895921526663, -1.1210032110895176, -1.0036018198534717, -0.6477910890307786, -0.4408816739483141, -0.13496391401941893, 0.042122058671312135, -0.03693844071962454, -0.02715509449358634, 0.4606220149607138, 0.4357057002705138, 0.295084932492465, -0.14546475793194893, 0.5932191952872864, 0.7355492759394516, 0.6175277107863095, 0.7691439120163586, 1.6160677725582928, -0.6795272902051959, 0.19856287416508303, -0.2654675020645932, -0.32472348795717465, -0.2662104580210986, -1.877084421887566, -1.320009980354965, -1.4805745546988625, -1.3580089070809405, -1.277267403357366, -1.406697172527623, -1.2391464367414082, -0.9542306298063479, -0.6410971545314044, -0.432300763874001, -0.22901760096119606, -0.030753834076614323, -0.02534842692966216, 0.0712000776644213, 0.22224234605715018, -0.23849789783489958, -0.017658439124300148, 1.1060605841229938, 0.1864171658032313, 0.3579319674029215, -0.3806245699429012, -0.8488616640557204, 0.03259477583938645, -0.14374033820241827, -0.6109158400924203, -0.6715193190813233, -0.39972657025083763, -0.14677195098172027, -1.0251524843646174, -1.0076489816966354, -0.7402507697830867, -0.7948888814581159, -0.92732602081101, -1.0146913010469407, -0.7788940474228706, -0.6822770811200959, -0.3650298848773995, -0.2601030530900107, -0.06818187789430716, 0.02447672131927587, -0.02090775949825405, 0.003831436348183474, -0.26601039761287304, 0.03030859572366806, 0.3718503537375232, 0.21981947972345356, 0.2133139398292394, 0.6674178999171536, 0.08271144518494528, 0.2921723779840334, -0.009129390847610053, 0.5092324032636389, -0.19073724825220764, 0.049490783037178146, -0.02606311304215262, -0.2103435642658275, -0.436638687073046, -0.1779590341675772, -0.0906630250200964, -0.037438719710922545, -0.05922380445240458, -0.11869494741710386, -0.17675630972512402, -0.08095973631318432, -0.1260803990779002, -0.07793507772665453, -0.008276296131645934, -0.01715671925018711, 0.04286635537702922, -0.001258455247261958, -0.24958262012308263, -0.2444194757533289, -0.2409582575681968, -0.308453359655731, -0.010949047346999558, -0.002050738361337036, -0.02048948272337959, -0.08650646308125318, -0.04744917408274436, 0.0009698325797725968, 0.028747427986132543, -0.0203259547975464, -0.018112763568484132, 0.0405382164697092, -0.009706728685006367, 0.0015452807844330615, 0.03526883043786052, 0.009779022975076528, -0.06082509443667046, 0.03469656359576472, -0.020051266400861027, -0.014069970815635761, -0.008249278637607264, 0.0028543830766274, 0.006434200192516843, -0.0002007043477446371, 0.030650942185137198], [0.026740074029288675, -0.0205215842060219, 0.0020012334165569294, 0.013292533639306162, -0.008626255185844905, 0.014810278168463184, -0.0007014017253980927, -0.010408960560823192, 0.03989528140091365, -0.04583789847506642, -0.05979237347617268, 0.020950457970468368, -0.04997479924602108, -0.017151926572146443, -0.01234461308224724, 0.0311893898300258, 0.05490502143369963, -0.008531268065563534, 0.05739767972232137, -0.052753196820625126, 0.006122321364969685, 0.0051953010420594655, -0.043930243305945416, 0.032009465811529, -0.020710466596726426, 0.022377311345504847, 0.008295936405527326, -0.04261942610876952, -0.027913784470177325, -0.012018520325572732, 0.003321902625471583, 0.0481086999344593, -0.0060172120053779326, -0.021530404234393837, 0.025600933653567054, 0.0510509977590615, -0.02178627046115839, -0.053940234288491554, -0.048666098826365974, -0.10057344764732497, -0.0976204536135891, -0.09995617630776653, -0.00977165365697374, -0.08655769025440549, -0.061171095675943574, -0.11363770517189317, -0.048489132253292856, -0.054536311240528434, -7.609034187886334e-05, -0.016789686867802103, -0.04133599824921698, -0.08307929368069047, 0.010825069021654806, -0.0010434650122706425, -0.0050927296730290785, -0.04695469247987205, -0.02136777914987901, -0.0447394366747528, -0.04643737446176636, 0.06014986107921557, -0.09449237114823968, -0.16316307153113788, -0.20140533998747961, -0.295146671082937, -0.5182303498307217, -0.8765501522966033, -0.9929918452660743, -1.3383601696598473, -1.3791015441859074, -0.7647946406464861, -0.3329442692460277, -0.8251235947586866, -0.688914430370001, -0.7187100111291393, -0.43207873743765796, -0.30705013063311404, -0.09811512243570235, 0.01405915329525418, -0.2658004634327427, -0.19074131652628298, -0.09126388160008594, -0.0335811724993673, -0.012329722401696105, 0.011970914631658848, -0.028308183864365576, 0.02231345600711413, 0.015075890185189005, -0.06639817729823319, -0.25348165035951364, -0.5933992925624799, -0.9381245214621652, -1.1587292042418431, -2.2279397442066906, -2.4164313306574714, -1.654730350178149, -0.7173098383804128, -0.4485552325159832, -0.08800928139637493, -0.06286463430469388, 0.632525525856002, 0.32149461453082495, -0.3432114108821479, -0.5347415145392399, -0.772752643851402, 0.4379545127096126, 1.1210618357426096, 0.23765329320390577, -0.24293235721433193, -0.4185962458511612, -0.16227718898317015, -0.08769408645575696, -0.014054389794781868, 0.011312957204804401, 0.006802566233932155, -0.06150173406964031, -0.3667718721306116, -0.7482847802550427, -1.243733597771909, -1.5523397128073533, -1.5472651690421644, -1.6860309607471762, -1.0866269535203161, 0.05811282478141161, 0.7751394723853793, 0.6225899812024842, 1.062471699932887, 0.3909132981671947, 0.6136676394488259, 0.13911444872055428, 0.2503555714105277, 0.07809097692316336, -0.22790814463070674, -0.43427811945408445, -0.4805088855771383, -0.01316927580518285, -0.9378095064761552, -0.9813445676877539, -0.3954791328144287, -0.04395561856675036, -0.0301323957416722, -0.0717658753834905, -0.05313322402644068, -0.1674757694717378, -0.590322774413494, -0.9204392323523618, -1.4311449262984832, -1.0364370912913774, -0.44412882516383523, -0.11434607546385787, -0.11398225170636783, 0.5582362937512176, -0.0012614552769950158, -0.4363563707739453, 0.14228140502953163, 0.06980437902468278, 0.2873715373049698, 0.612164579512934, 0.7021194816294625, 0.13827764484887295, 0.7456575368125643, -0.06345500738348202, -0.7021523633274437, -0.5707429460409755, -1.295108644804167, -1.3254013283645172, -0.6625505025127141, 0.0028005801397365166, -0.01575364560616821, 0.005760762032158728, -0.002880803744665085, -0.31255690775923284, -0.9533192174233873, -1.2273668047100619, -1.0758875877585217, 0.2280509840760503, -0.014198841846902992, 0.48661938832900636, 0.16809996210054107, 0.1628865760443094, -0.09552017962209258, -0.31853731879884906, -0.1415583525009494, 0.4083177668672177, 0.20960280096054074, 1.0086621906997064, 1.2284175518692557, -0.15078667980088448, -0.05247721680736394, 0.7114456394887393, -0.056696991761509406, -0.17692642387958174, -0.2272838556473159, -0.5647362573116657, -0.8385210774929588, -0.05039137104477336, 0.03321063215170775, -0.01732078056360431, -0.026706683016946335, -0.39198983875581594, -1.287642978224606, -1.491367926687117, -0.7029655319385372, 0.04244368881245686, -0.43847535619966094, -0.37395430178353795, 0.6040164149270173, 0.0437658631554878, 0.7285433105120281, 0.49526631191278025, 0.47594442912847373, 1.3098336135487008, 1.179378968787099, -0.13440638901634802, 0.2304151914916262, -0.09530347775724446, -0.41215835869314527, 0.6254783527250112, 0.49451958642970417, 0.4167945579270789, -0.0639097432371796, -0.488867139009074, -0.4315100625097931, -0.08118474549913515, -0.06600988165264818, 0.02482572757163646, -0.14089170069651435, -0.5743795780117686, -1.355791651716715, -0.8444072450159462, 0.3719730168037499, 0.04865844881799996, 0.2543400672571556, -0.09711976313126014, 0.10324207238665799, -0.3914300869563482, -0.8089647377958932, -0.09167690397539388, 0.17498957675593022, 1.281374928549355, 0.8043719976928019, 0.34699277534025535, 0.6071807977169075, 0.8154044301497996, -0.09809611284476497, -0.9023937051329582, -0.7054596741005635, -0.0065919145982209874, -0.20024049952441603, -0.8950426830110426, -0.11341263906105296, 0.09442955710693898, 0.022241198824423797, -0.002821965126954056, -0.015846659109197643, -0.6098720877592052, -1.502960396541798, -0.417865225998269, 0.4385797438446186, -1.0362495108451752, -0.3324371062911069, -0.061748587879094256, -0.29065179897203147, 0.34933768822730676, -0.4740234448654247, 0.4325897159021602, 0.30325288956765367, 0.4540302266108167, 0.7667508388451216, 0.8888480754182022, 0.5155704736720742, 0.5794214470158627, 0.767722473553204, 0.090771058398527, -0.08386468373194313, -0.6986136226403014, -0.554792381270378, -0.33096439523509824, -0.16446497118693862, 0.06626242141195883, 0.015893462288293005, -0.041826506264820706, -0.013492881948480511, -0.5754779551619205, -1.4036549427739227, -0.4048109146517849, -0.45432735731722035, -0.9017674825991353, 0.20945470059334395, -0.5046236438887979, -0.9695645906796141, -0.5201966000010728, -1.3852734992716842, 0.43419321133742295, -0.06469707849740597, 0.017772234141384867, 0.3775309800508885, 0.01979256911696722, -0.13641871790084975, -0.012794534656778418, -0.22938313129881482, 0.18405699416940152, 0.5773313964291312, 0.7310208294702967, -0.5382402260963577, 0.3605702400990612, 0.28317476298881833, 0.1559291780947086, 0.04615707678139958, 0.0053765604071799936, -0.06183300824269178, -0.3930010607166712, -0.8362893949383776, -0.25082392692132044, -0.646788662718412, -0.13094985280329022, -0.33834161245494637, -0.18381341359336872, -0.06498708184453043, 0.777333352491993, 0.3959779083570975, 0.05300344664492312, -0.21537631258648998, -0.035180055236817304, -0.43718883623695126, -0.5928452050531977, 0.632875139450975, 0.8481001628756959, 0.07899439732890162, 0.3504284051417666, 1.0530297433100333, 1.4679198430120552, -0.1494800957384179, 0.049035666832445646, 0.26480991258175723, 0.025209575113519476, 0.06843488522512442, -0.027115664520944126, 0.009678769955023066, -0.2954654239594217, -0.18848409830105436, 0.642344475310268, -0.045433617762631516, 0.03068554352120554, 0.3331020938895249, 0.5004298226490705, 0.33997953687473653, 0.6869785351135131, -0.2155453674343401, -0.41775960555149727, 0.05345335388822487, -0.06311912877802472, -0.9308190506593446, -1.7635860587352374, -0.6920814015313568, 0.056830761462869264, -0.895424476877811, -0.005762919395824477, -0.02678437916149505, 1.2275786053976745, 0.6225962979122753, 0.9894366884355337, 0.3532701427456324, -0.004957390455385714, -0.008594474941110453, 0.028614923761480043, -0.0030818838342114604, -0.2813137410796794, 0.13091173424597777, 1.303020127635697, 0.6215169639965744, -0.21936648693294838, -0.43331926182045133, 0.006159592727094566, -0.27678291655005255, -0.4674269108718752, -0.6922496941067162, 0.8667333436544599, 1.7021152040821146, -0.2464500335549001, -1.3139866962796702, -0.41707239925284306, 1.011477174704562, 0.5403824789721013, 0.16616932108174187, 0.6715164812925288, 0.3940807342575591, 1.0485060568932776, 0.7206291266215491, 1.4010865936643424, 0.10128639825276876, -0.08742171730121175, -0.022059197152094305, -0.002128670955703706, -0.20487422640591027, -0.5565236565202234, 0.558908331828134, 0.9619997409269495, 0.3912254757840285, 0.6056779964857433, 1.1357550182545353, 0.41379424802329784, -0.1137231116169525, -0.3431008000380975, -0.25418363066306693, -0.261962609596629, -0.9579189005425934, -2.5906120679570357, -2.541812381372294, -1.2150838218228859, -0.6125049197846095, 0.21593268734131932, 0.6142968558496958, 0.8059488163497391, 0.30683111704025523, 1.1810125766520623, 1.1099849809465963, 0.878622601919467, -0.6884446911578738, -0.08833067509828314, 0.003310978964138779, -0.010568762786629375, -0.1492598128501748, -0.4600487777410049, 0.7852100720488849, 0.5866415917179699, -0.4957533301459188, 0.18802879663503025, 0.7386947569748905, 0.15475652579440527, -0.38156096970301245, 0.5568725918887703, 0.395581372932597, -1.244414080683687, -1.6492641417698508, -1.1469718755065612, -0.8892607263744571, -0.5628484930202928, -0.6449455125631196, 0.16884263779876738, 0.7972121753179067, 0.673780132429302, 0.3691507245512334, 0.57486834475102, 0.8254040054956485, 0.3982722262335338, -0.4972333528705742, -0.14648737782570664, 0.06650418793518177, -0.024561578683869455, -0.07038392795092037, 0.06673049760660796, 1.0542093647103212, 0.15304027464028006, 0.06501957785917932, 0.10789940380039628, 0.3593011648789123, 0.2108485633511599, 0.051109639145315716, 0.3365473623331256, -0.4364548854507279, -1.8968090628928307, -1.986172813110411, -0.27222795707782077, 0.006091442941225307, -0.19424135934602405, -0.0399381436412454, -0.03215326857353894, 0.4341048412930875, 0.16777251452252237, 0.4787693574655058, 0.36047276069518625, 1.0139731919332196, 0.21883337777303347, -0.45430729399157216, -0.06647199032736172, -0.01986308803944348, -0.09605081238571479, -0.043459935462905684, 0.08408378621708512, 0.08839826358466868, -0.4873878495412599, 0.2674405427586569, -0.5245057202520104, -0.377448796560606, -0.4338526981737927, -0.2559793507802682, -0.4068490674590307, -1.004775758387662, -0.06261334569230152, 0.37491446207381907, 0.9477914225174524, 0.09684477098322186, 0.5607332970324771, 0.8001693951124697, -0.3691303542156031, -0.702201392794156, 0.09882447700699704, 0.5693165974364045, 0.21042752281944369, 0.17006996646170128, -0.6003989098309506, -0.7062538770354119, -0.08323418036941131, -0.010606844667942894, 0.05357320748703704, -0.03797337627773578, 0.0013931357512646776, 0.213327443392188, -0.30909816732957696, -0.11570724638438559, 0.21160971393462402, -0.13397253422917488, -0.6922606676031559, -0.2871717689369719, 0.4409721226827148, 0.15408825047344635, 1.0661939741900297, 0.634635450657508, 0.3484045568092602, -0.7118946909226478, -0.24190531356735456, 0.4837533634922775, -0.899092904989726, -0.5664301413099319, -0.17538194591478018, 0.752280506764937, -0.4779694343768342, -0.05378269616748426, -0.5868904914153021, -0.5410722014344902, -0.04789375531060484, 0.021590561977151826, -0.024585853949857694, -0.02468848185102579, -0.6501434904618166, 0.08191509994464925, -0.20986576209737776, -0.08724662909979386, -0.08490525695011378, 0.4243579728182774, -0.7869036910569502, -0.2725497535294584, 0.5377746408396292, 0.1575792100966114, 0.5891778139971056, -0.09010355508889689, 0.07067102608384108, -0.24910199181719328, 0.0530298353313815, 0.184827753867633, -0.4325000753171014, -0.389834075230727, -0.13181614286909848, 0.008176344702193798, -0.6947160303247268, -0.2070310269604635, -0.4436985402569019, -0.3548218146007255, -0.04024070090707601, 0.04654367640811772, -0.03454479589165693, -0.02251323000143841, -0.904428402878162, 0.3500586425354907, -0.4839818922082848, -0.6907894240658498, -0.6007893051946842, -0.061412597148193276, 0.12273273026534794, -0.5923992618408638, -0.2391096878416593, 0.0885124262909322, 0.36465076903897764, 0.3261482904351887, -0.08499914484042628, 0.21101826189793085, -0.29137542080004086, 0.14850647610787804, 0.8707755500369879, -0.22016105038598824, -0.5738172578687977, -0.4465962758543641, -1.3939595254981973, -1.9151005396979977, -1.3215958565851085, -0.4248640596756007, -0.02538845004859081, 0.011459716481333128, 0.06732092731186855, -0.03827975431624122, -0.757129251181439, 0.17992451828002598, 0.17849090171062515, 0.14666931664489438, -0.5184330916595117, -0.09965333614707883, 0.6822419836617108, 0.25749649668723457, 0.5154290904389504, 0.36358780340769187, 0.3924962844569014, 1.3503114863883126, 0.3289266954210453, 0.4514356519752289, -0.11345950858809857, -0.12949548394145702, -0.05787057045374507, -0.5991742820810988, 0.22401784576577538, 0.6496969106864414, -0.9978493426791173, -2.3841690030628158, -1.355005055992538, -0.24925249809553837, 0.02739767976511723, -0.03645240578416084, -0.08416509976269775, -0.12777839986682626, -1.1324586589255181, -1.2534833496006894, -0.23237758258832458, -0.29562896595785604, -0.24595713920230766, -0.04714650556461259, 0.690865432474872, 0.4531017622015271, 0.8686090461423555, 0.7528656296055198, 0.37642825981616984, 1.1132002720252403, 0.6930475597473426, -0.06254317241192356, -0.3813038607996126, -0.6590119330996617, 0.1742377972121306, -0.08684513592430053, -0.18929347372026514, -0.8288858446516133, -1.868368712972691, -2.082849754239997, -0.8812995773180914, -0.1728087674359539, -0.05064054779888266, -0.10209132781655371, 0.03539346876108523, -0.0162013636111727, -0.7765836071099947, -2.142086223740456, -1.2080964155824505, 0.19542182875559486, -0.18392999048094866, -0.12313427498159206, 0.684167406942898, 0.49002544560985845, 0.43474952268028927, 1.162016383201752, 0.840301138712747, 0.23846208484469184, 0.07725461152878388, 0.7366462428611906, 0.37525787456000226, -0.2777153393765294, 0.3177658178118084, -0.7119684804731997, -2.099530317652353, -2.441634705698095, -1.816748486363041, -1.259604127556191, -0.35970229384265007, -0.14225391266287507, -0.07603541140091571, 0.019305502653225837, 0.005341661669211338, -0.000712956816383202, -0.3628776951395561, -1.5049509099495615, -2.553094391054943, -1.3981438771007761, -0.20207598813587416, -0.7945810764991754, -0.08641836432418668, 0.6245361265384481, 0.7707583240781496, 0.5849795086610298, 0.15882605604992528, 0.16959441681525864, 0.48285076368790947, 0.04446993069005729, -1.1921116077563225, -1.9597681778584888, -1.8096774569138214, -1.6001459475910618, -1.5714400138729703, -1.4517972300473543, -0.9192602431387462, -0.4476006248478605, -0.15175450772646093, -0.10460378979741558, 0.017670036671001223, -0.06400826663406035, 0.0305687133607124, 0.015481452888486952, 0.02370386531455562, -0.3219184500568124, -0.8638365427093314, -1.2628256916213978, -1.3837119187245834, -0.9146958247610603, 0.12630940870777177, 0.668401533788409, 0.04373358262766677, 0.018958494090300107, -0.32074424719842, -0.6996879593796866, -0.894653381372096, -1.3236112411483287, -1.4410122847988187, -1.0510658341531511, -0.9028400235748467, -0.5840550871446566, -0.4735516179191136, -0.4522203481122846, -0.21909802387429134, -0.06625920494522695, -0.03536155726827453, 0.012247894890346252, -0.026875898766299682, 0.021480819834293466, 0.04653754123473811, -0.009974882976417998, -0.014339909446211638, -0.023721489340912956, -0.043621948672765996, -0.05492768303401511, -0.02690780481803357, -0.06027693726533346, -0.06162444152859522, 0.025421196379923416, -0.12599735009459379, -0.09672042261618241, -0.09916650644396165, -0.1804852314513948, -0.06581446459544242, -0.1235542878945947, -0.11823005635023684, -0.10364906559218715, -0.03466797128686871, 0.03556023446891571, -0.08935688897626032, -0.005140717813251435, 0.03918336332228372, 0.0020415238772299297, 0.00847470348773731, 0.04509454013223311, -0.09891473008885054, -0.0570472603177607, 0.061150488857444035, 0.002738587937737965, -0.08033018981088119, 0.007535681693010987, 0.0049900157891258, -0.005066990751569174, 0.08049850061772433, -0.03745848871795227, -0.008278033614684422, 0.04091120642774987, 0.012262091040851398, -0.013569461273789404, 0.0027066008506323336, 0.021478599182221305, 0.05282535918414223, -0.009432667070457574, -0.03977190521642214, -0.025840831839177528, 0.0778136945792553, 0.06650710976412712, -0.04125935353247603, -0.013500713172175476, 0.02551810944251303, 0.01877325111721491, 0.05336532025362897, -0.0026778537684644145, -0.0194084236477517, -0.039624759092064754], [-0.03374766149173086, 0.028869225434592586, -0.03709374512537096, -0.018037598034016243, -0.021506101599904313, -0.06570451593765386, -0.06465114452875753, -0.03155168546333441, -0.06409023451359083, -0.05990428906512927, 0.01946401545562402, 0.043192631989583244, -0.036519002186243356, 0.01900580247576868, 0.024166114376527145, -0.038389100708465525, -0.02627678835616423, -0.005551872686369261, 0.02886981950117345, -0.018558745761715893, -0.054395661684309975, 0.03864260024231507, -0.03729877941339373, -0.00816489511990055, 0.0038877918396768, -0.026316362304667953, 0.021908883785619268, -0.04525393260744339, -0.036994542370118844, -0.05102269848275146, -0.06354969125848726, -0.08544372506996309, -0.007436687394248639, 0.036984549741471015, 0.022196468776844353, -0.03882060037306943, -0.12089184340294012, -0.13564366166698874, -0.1219224179803743, 0.010863868443986017, 0.3133019984948934, 0.1461875862582533, 0.5994274085867468, 0.8099699641678016, 0.7650653299244251, 0.16988938444842613, -0.2674917977640527, -0.009672678655160378, -0.029716635708784318, 0.16517060070546255, 0.1366801087096716, 0.07686978525044107, -0.043098709795087904, -0.06693014888215124, -0.05071907323010881, -0.0069681607557006, -0.003491502838783435, -0.08332565861215249, -0.10730365359479499, -0.276305915481485, -0.3491519298887376, -0.30830772615992613, -0.5246293958708006, -0.735110230244461, -0.41285003843983853, -0.7237704137801599, -0.4026614373083822, 0.9892459512961427, 1.457174136062955, 1.1157046516886289, 0.3755625278987207, -0.12356825866019132, 0.5051923885622496, 0.7856908943987908, 0.7172069030547262, 1.0454454150702825, 0.02097600116848713, 0.10142347496846359, -0.09247574425030926, -0.2072576904905808, -0.40356745976224073, -0.13783325004428545, -0.07053034224373078, -0.027143198319057215, 0.018569133220250045, -0.009733285959253294, -0.2942170683011603, -0.747969514110542, -0.9894039072494291, -1.456751388164659, -1.3580383319756928, -1.09427721653518, -0.29567776590045924, -0.3274058808445256, -0.0630256384454586, 0.5884903328362756, 0.6543148979547624, 0.14761803897231077, 1.0351931258426537, 1.651348821835004, 1.7830202832198028, 1.0633176865773746, -0.3369847670124898, 1.265957110639668, 0.3735527809435144, -0.5490512414841344, -0.03761621163758857, -0.6966369767010591, -0.11628215239947914, -0.2664560750347704, -0.014572300220903332, 0.016538364679167313, 0.003248742669813613, 0.0035068437083785775, -0.35060277253352096, -0.9667354431771024, -1.4256808109707333, -1.795573250780408, -1.4881983195273234, -0.42809186669104204, -0.25488121215603, 0.8608669214112908, 0.5517900462690173, 0.2804004745484825, -0.3077059774385863, 0.7320007067158738, 1.324066309270427, 0.3254516118216877, 0.31781982425533967, 0.6438574743383012, -0.10611453403838453, 0.44981955999131973, 0.09122170968525166, 0.5066442102018902, -0.2153705824875247, -0.5737125558918442, -0.3133430786732977, -0.24226378383819713, -0.011481658934767953, 0.0021384412065087455, 0.044821502846324565, -0.09079302293400919, -0.32367354941677945, -0.986301182907181, -1.8938790729173824, -1.5660536671787977, -0.9165294219754258, 0.041347433662765117, -0.030978031704347136, 0.022844994757907414, -0.10991394619131334, -0.5703160137474652, 1.4143788005806486, 0.4281923427499804, -0.35874437897692263, 0.4409666582988257, -0.058857369019801986, 0.21775291894125526, -0.01788601637795864, -0.2881592655217592, -0.8628978380011965, 0.6831120396138944, -0.1977486913992198, -0.4746200449879829, -0.5543262844050076, -0.34871365440460694, -0.040331817598260065, 0.0014829012282534036, 0.08816309384800948, -0.09818983859508665, -0.8733542569745559, -1.4184266535877172, -1.551848888040248, -0.24677494757717947, 0.45322236381717956, 0.7243488622205972, -0.5926259395621575, 0.7358049821354355, -0.3361424874670266, 0.9537469831895422, 0.37134372554429235, 0.16661169227748893, 0.34733391845846084, -0.3602390705489682, 0.0848436504452066, 0.2663997176489954, 0.5012958581130275, 0.12499256774808075, 0.30595174612754694, 0.441830732298887, 0.02368583740368797, 0.4922956253764574, -0.4990761177744005, -0.5567278505472792, -0.10376848263038171, -0.01186832263552211, -0.026640658090249583, -0.15660866966528666, -1.2363004632693328, -1.4290022929230781, -0.4528471479584497, 0.09606854152203195, 0.3861590717567275, -0.07747802514558506, -0.18430329425513112, 0.06978567029361409, 0.8537608326921289, -0.5840225888454662, 0.2253457981787897, -0.7083221773114879, -0.32970664485650103, -0.40549301711430397, 0.5438829855381945, 0.9035057066418936, 1.1799611847293756, 0.5720694655129168, 0.5050148648953482, 0.6505725712016897, -0.4130672141274189, 0.11919325696094671, -0.3620891266481235, -0.205178368642736, -0.17520629910996402, -0.015327887664411911, 0.011705340376121844, -0.06042674968272279, -1.406246222624407, -0.7223153474406391, 0.22133468285228117, -0.2722028502427175, -0.6771490891732922, -0.41973320794445823, 0.505417855253868, 0.3447040910163376, 0.35587189145210824, 0.8241020962145816, -1.0048796800833566, -0.7635362638203942, -0.16737873924409064, 0.6230942418618081, 0.12118112835470417, -0.16631106585934874, -0.24788863597421923, 0.5523983396268279, -0.5534403592517996, -0.16680547141773097, -0.24419880631736368, 0.6871865893264125, 0.11838974141960601, -0.4505926503295562, -0.11350772850215851, 0.011057818885834203, -0.030012011050672985, -0.06788120647930948, -1.314693572804008, 0.14179479138085063, 0.6584316734136445, 0.24015901309783924, 0.16646205023394833, 1.271098235236776, 0.19651318608906418, -1.0251916203519966, 0.0655224855994787, -0.003284899297127068, -1.0866997860656795, -0.38994718986066707, 0.3074988248387242, -0.6999663857772985, -1.4697552029564116, 1.2502649852559293, -0.24452930926006752, -0.4173166472712945, 0.3719070641837924, -0.6296336663892023, -0.009167986844496366, 0.48803392857812555, 0.5618113218377642, 0.07153215112014458, -0.05812763349734365, -0.006002053538333773, -0.02348716511689835, -0.09015544748283405, -0.37196643026341447, -0.6236521413542736, -0.47139473041302943, 0.2089874510998094, -0.5904469826641427, 0.8619856885455255, 0.6670145089849603, -0.4356332261517871, 0.11749000879889453, -0.5438179111581738, -0.49847397888683764, -0.8833366787488885, 0.29769883158368865, -0.9732199416024666, 0.2316453310421612, 0.3663388472508121, 0.36823649760679045, -0.0330653053531474, 0.39924487497607997, 0.5884538945888871, 0.446233447650172, -0.34137648764211465, -0.5629529642209934, 0.9691257624116808, -0.02211650092794099, -0.04321383122389115, 0.03182656290840504, -0.0569315872862954, 0.6101953647758731, -0.3703953388323619, 0.37165564667124046, 0.4079025493354243, 0.15705452790691496, 0.34017911219150754, 0.8507034632343313, 0.040608692309600916, 0.25836935804321676, -0.6513069543490101, -0.2021832522201103, 0.16972361398838068, -0.3135282494317869, 0.26303335619836193, 0.4404507624705026, -1.179225233262574, -0.07895551766904313, 0.22314810935405532, 0.022556471166014596, 0.5487512916829023, 1.2061808181114184, -0.12718756468664066, 0.374263726719645, 0.6278211302525691, 0.04926284426872608, 0.022279416597123042, 0.038098155768720256, 0.14295890095183644, 0.9266322953211674, 1.2326214209236397, -0.006180694969421405, 0.11459580576352366, 0.3686384545233634, 0.017826119727006973, 0.9434676635814746, -0.5892304874207308, -0.994791319117443, -0.820035279423232, 0.037355954271186174, -0.22431145630651353, -0.26406741373109766, 0.6339486947599222, -0.17435066113637077, -0.30142465424643894, -1.1243122087558965, -0.2478942197353284, -0.6216151879643277, 1.4193618203221856, 1.357295293213368, 0.7286231267504947, 0.7782639109034208, 0.9570214348129314, 0.2683605937448204, -0.0042110852096574145, 0.022269442524920562, 0.0689267951960289, 1.3293914174862156, 1.8405030141940104, 0.5628223785615711, 0.49425506993950824, 0.6288175769632924, -0.5357691385302378, 0.41261698432249905, 0.8323280511902341, -0.8694372280343499, 0.08992952121286533, 0.4605671523334073, -0.1615571236356772, -0.10640449700867693, 0.8607935951568952, -0.0321357646425802, 0.6259057333810947, -0.9533952848764757, -0.3094433217408225, -0.6311580884127312, -0.018700868366211924, 0.11050987539235439, 0.4823420327664068, 0.5245976807078324, 0.38287056532029523, 0.16135709452176272, -0.028786773434447722, 0.1675462433971212, -0.1217545246408534, 1.5538744889939407, 0.9197075435844627, -0.061081271181400755, -0.5198457251329154, 0.9923300930856972, 0.4874565785855804, -0.0647132571957309, 0.6105482633217114, -0.15606891660713845, -0.5215709691763899, -0.45681557049743454, -0.21018374564862047, 0.36643588879079, -0.8261384332009807, 0.49187826856392247, -0.2476863235237421, 0.29283944219842806, -0.25627918111206727, -0.4297429828538832, 0.0492337886398644, 0.11509021942826643, 0.152543927120808, -0.0176683866248808, -0.10959433371178791, 0.10802302463254868, 0.01621199217693789, 0.081868565732373, 0.09580999825298993, 1.534266613598882, 0.8573678469049087, 0.00669439131923288, -0.2149208686323552, -0.784347729639789, -0.6923927463996107, -0.2255585850025185, -0.12131959103778983, -0.6381274051072264, -0.9485186440458446, -0.6716558125052124, -0.1233874324683002, 1.6709895250268283, -0.11972549433675393, 0.9567879720958343, -0.0723995615488104, -0.16636166993796989, -0.16148709085938445, 0.1505122705151342, -0.27883795502314557, 0.7605366296318724, 0.0711425661412227, -0.39903833488535595, -0.4402218831169072, 0.02627180232619654, -0.041616747978427716, -0.07218221783961948, 0.31628164279013576, 1.3058837208694984, 0.07005827745638314, -0.3397893549101951, 0.48295997883783365, -0.276986146086822, -1.1348951177980438, -0.6965186760044343, -0.6733345872482088, -1.031709024335478, -0.33035450704551705, 1.0320548433797203, -0.07377012321112986, 1.3539150115820822, -0.2526068898302165, 0.2587569722693576, 0.042151639043195174, 0.04438820335754792, 0.4683352413105198, 0.09436495876148755, -1.0267980727001806, -0.7714632149408547, 0.030191170509032677, -0.3161830813197533, -0.8290219333550458, -0.005020914965748276, -0.04314225043568738, -0.2003069654253572, 0.10967976998985292, 0.8293706215303858, -1.682927200122501, -0.7852712417396763, 0.4733110864866486, 0.24535386272078674, -0.08872936122234475, 0.7392260608860308, -0.4074573563245945, -0.6576026423571465, -0.6499828908055801, -0.31478669447778845, -0.22696795742756132, 0.451024252730457, 0.17690091792703716, 0.09794853029665464, 0.5622036057666535, 0.21934322479734436, 0.3598955630180156, 0.49829527094371445, -0.7965124249528174, -0.6888144885852509, 0.9437712344739031, -0.421671788153115, -1.3159954919749892, -0.05002117924666175, 0.00841688772014877, -0.16441577355748827, -0.30485707432122655, 0.4006206108935853, -0.036336610912013095, 0.03750604791948634, -0.37174513314969737, -0.5554127808484849, -1.4363880033999947, 0.24001418357232066, -0.6333013101166283, -1.497724261795253, -0.805050137979478, 0.485879463255319, 0.9028177414732435, 0.9911476477269878, 0.23102868437860122, 0.8868004157152359, 0.7712314712226878, 0.7329298309084095, 0.20548681515710673, -0.5352213834495115, 0.16795319945022902, -0.47956545607100154, 0.22846954925707233, -1.177653233008138, -1.3422095389551842, -0.08934152833697186, 0.030053918838035428, 0.04684721507557493, -0.30053560533618956, -0.20949642395672535, 0.14487624453402376, -0.1328143558929265, -0.32302450818647865, -0.6000040236599502, -0.37623480426877937, -0.0822424329245994, -1.339140757748412, -0.10348769522545812, 1.425464955942019, 0.5860923506931464, -0.3459728913341819, -0.2913567276755188, 0.37686453788481533, 1.0188575652401408, 0.6731182140688556, -1.3270696235085104, 0.7589647705682337, 0.5887374684306533, 0.4242704246600116, -0.05481941952812195, -1.0172040875293913, -1.8622233029488096, -1.3771355247004446, -0.1497153947750508, 0.07399599424399186, -0.0008098999436758815, -0.08986535144222485, -0.5138946495015595, -0.023135982563063585, -0.3267605883000782, -0.15388557314741058, -0.5511297915737284, 0.04895613572958863, -0.09938913495771046, -1.0991311721658186, -0.6044906638863725, 0.054279834042423585, -0.25586003213527025, -0.07091364442690629, -0.10036093358671093, 1.2177993211260785, -0.44157711132304467, 0.029513993201430493, 0.8183865562610507, 0.5015130052806231, -0.5909299318347198, -0.07858171758004408, -0.03228332405915336, -0.28815857970850345, -0.2408321359776481, -0.9036996174358896, -0.0221414251697264, -0.08202925630744548, 0.06374766336341517, -0.05645578908256397, -0.6523363881617275, -0.6325109081036095, 0.006950384860888978, -0.23472613799916334, 0.0980848117943566, -0.3191349113832133, -0.9381770459306099, -0.6688838900893181, -0.6702282468939266, -0.32114079301943815, 0.5823749077537421, 0.821472977309874, -0.28831972224817587, -0.48093157326501246, -0.1025552294794724, 0.6338335218018277, 0.7287678521998278, 0.44405895611020535, -0.7068803502742782, 0.4891878014404312, -0.34766004516526794, -0.09777498630337766, 1.3538026048199354, 0.14670310474171777, 0.12420795175265935, -0.0300314443162612, -0.0072176035969091605, -0.06919769833634909, -0.42810262793980075, -1.1399709394833901, -0.3921318398214797, -0.9697642079350295, -0.46416077031051683, 0.503956531053873, -0.9740617964646193, 0.09702258905784224, 0.045450683467560656, 0.146406385295434, -0.0042353340738834995, 0.03595594926034017, 0.21730901868473, 0.11669250908271636, 0.3567393689329223, -0.02054545440157145, -0.24164308563356107, 0.24835619462878628, -0.40796262709306125, 0.7850242171262589, 0.25903683846467546, -0.6189960279778692, 2.111931843314293, 1.6074860578943713, 0.523100944521599, -0.007656806478461517, 0.015314454413064121, -0.055211006115940646, -0.5470631448346717, -1.2191331671795473, -1.0493025957175819, -0.6829695246395461, -0.8723647278521898, -0.6139203745677578, -1.3673211595745376, -0.6123888550417036, -0.9034154875334669, -0.850934878365058, -1.068548617521558, -0.37802463839619, -0.816829281717262, -0.4447639434710316, -0.06895400273270724, -0.016467450243032374, -0.17842345242687271, -0.3479157333970414, 0.13790445173615598, -0.5565622864215051, -0.5222866764029057, -0.3658073139787056, 0.6518938584548231, 0.723316933852236, -0.02852313081398991, 0.010776232308892212, 0.020176498626098785, -0.07618646135796145, -0.43795394420181766, -1.2494952184872503, -1.4255328600712482, -1.1123166463084326, -1.018046086826322, -1.2516066875191616, -1.2242231124942982, -0.5619931420783577, 0.1770963806766267, 0.1152848653277123, 0.3280677825605909, 0.4357438771646972, 0.5030361924252663, 0.013712229230677888, -0.49222793198663994, -0.1315310620544643, 0.07488471690576746, 0.17144561200224676, 0.810465738609529, 0.6281524581780122, 0.7919603697542749, 1.4053396565226777, 1.4832444280050947, 0.5043843666229302, 0.15458580121977802, -0.04007778264107257, 0.009278412314832885, 0.04864176525855153, -0.31164055060785567, -0.8182244967963485, -0.6411721298387109, -0.7193493233846927, -0.7718214669145088, -0.7458320806208224, 0.6061720642509466, 0.6689920456272445, -0.12956585501217002, -0.9931209463221398, -0.7457744387464361, 0.03461134814797591, -0.4615531857710769, -0.601064765004505, -0.03737583015621987, 0.21216318656804073, 0.7356002021828556, 1.9857643063620394, 1.4100190827553463, 1.715737108143499, 2.4360803976485443, 2.335970294942011, 1.3409353108307245, 0.11309526835064429, 0.17967060922106434, -0.028371128081858876, -0.05888622275018851, -0.01968863535462987, -0.0022990388202224236, -0.1136114147140572, -0.09289396100101294, -0.16024583742865972, -0.14399496059143913, -0.07371744203645492, -0.03979294447097853, -0.1437594060533988, 0.06745010050506527, -0.4698693919959143, -0.4170465219276746, -0.2406416199974576, -0.22956836838403316, -0.05339747238164862, 0.1133107353215912, 0.21331238084571016, 0.0638245189490118, 0.03628640510601338, -0.3855375958938956, -0.060083821905677424, 0.03925313302492454, 0.1164228151315495, -0.06016513776529251, -0.40859736872744107, -0.301698837713109, 0.03816575515413934, -0.0024385793856204845, -0.013517035350438654, 0.02763206449021935, -0.030806784475642737, 0.011902765303394605, 0.033098584118073045, 0.0024317961141935296, 0.02101794523128777, 0.06255113914510957, -0.0155339637910554, 0.001148252134180462, -0.07644270566016484, -0.04924875736929153, -0.00636722479723809, -0.007135314474426765, 0.008384457585476467, 0.030613203621294823, 0.030376460160646546, -0.013727320282350443, -0.009090566822570584, -0.05713062230948169, -0.05189032290264669, -0.059457813057478506, -0.008473003837612575, 0.004953068498827349, -0.015653581713420704, -0.02690635387743245, 0.014533472938302849], [-0.012502636453855178, -0.08106506944485183, -0.023180689559680574, -0.0379905491586111, -0.07218438862078061, 0.01758369020656638, -0.021011914509824602, -0.029010746265223795, -0.043211690033494204, 0.017270238309079214, 0.0004267051913791559, 0.012406270704241275, 0.016145510545461858, -0.00870126976497054, 0.0012031455512857702, 0.04885970697932555, 0.002076896129080988, 0.043243137507623416, 0.0468484954208879, 0.025635644828932356, 0.008011098770770865, -0.03488774554669544, -0.04041147214018117, 0.028706754494614926, 0.026444554131216408, -0.0365024908341307, -0.006399386556072963, 0.02523719658834463, 0.011140845300614035, -0.037894655630769755, 0.0378731362864212, 0.1632271658248089, 0.029514697986802268, 0.07823367052240779, -0.03033390326071793, 0.05254287417948436, 0.04971878224066192, 0.06440618603427752, 0.0384829221107605, 0.0023259855275095647, 0.01863076351506263, 0.03259116306168715, -0.01832366732190701, -0.020251010897127893, -0.06893993916196353, -0.05984212330057809, 0.02822473475625259, -0.051223152588905065, 0.026775871318909215, -0.0004347422741961077, 0.03559560809662615, -0.07444093421191753, 0.026789096702469758, -0.01638548413165208, 0.025657654209966848, -0.01320751038199623, -0.05056598585107814, -0.1166483629090833, 0.014864497778093396, 0.21789069335321876, 0.5361124939365839, 0.19257876870715598, -0.2841884160908502, -0.06356422722355817, 0.609275920160152, 0.3009923242701732, 0.2933221065057442, 0.3514276357189342, -0.008150034961655861, 0.09022774916457246, 0.4051559855817249, 0.0379752218749635, -0.25142681079168827, -0.36847651963498124, -0.6037300977441745, -0.4159046454102633, 0.19389114744344998, 0.3438268806979317, 0.5365076882603668, 0.3110651061582739, 0.30049188750197925, 0.1504237617175647, 0.010313456414199755, 0.045371654562739214, -0.04010586994229881, 0.018364512539100996, -0.028894839280423083, 0.2059879312366843, -0.011136339850218077, -0.33821510429151186, -0.79215473534408, -0.261075046798391, 0.3248880221273075, -0.37806241132245744, -0.2778645283087455, 0.01289163126507837, 0.21036020534866065, 0.2767111408214062, 0.29091924376376604, -0.2864347186793759, -0.9700453233914822, -1.3991854665873091, -1.24765162938986, -0.08749626383070189, 0.7873753621287274, 0.48576602820611436, 0.2055199367333615, -0.33444964340895605, -0.01867312475818034, -0.08671370016387198, -0.08361077187107893, 0.009611750660543072, -0.06487115384718678, -0.13359195573305968, -0.17290537676085543, -0.2857835696720782, -0.19784725838913386, 0.1248579041900393, -0.5517166975069273, -0.6367001129675922, 0.3260970325870932, 0.041289413821891156, -0.2910708715956166, -0.09995426760525634, 0.1733435653704423, 0.13393330983095786, -0.59231139428794, -0.08472061458795198, -0.854063037456463, -1.352057276261766, -1.033934246055036, 0.17797014814587075, 0.7531652823759087, 0.04606623115952192, -0.2397409804794419, 0.16466841171760846, -0.08977240353304304, -0.5032586581390784, -0.07358255640311576, -0.023216379016711256, 0.004843602568391151, -0.23614292015146712, -0.3702898222169362, 0.11707181761241002, -0.4205275971153114, 0.23767125739641515, -0.08261221458293166, -0.6175758171807708, 0.38613601387206553, 0.7015422550096169, -0.0730523595442039, 0.4104879012328465, 0.10672676063982059, -0.48470106814433905, -1.0299424439861453, -0.07593882488830032, -0.3067092249171552, -0.4081615473121206, 0.011834819711289241, -0.029356947779995028, -0.07366320814005212, -0.012511164438252169, -0.2251455356819246, -0.3132086904748263, 0.3826441084603625, -0.6029854698176069, -0.05467279458855637, 0.020335938202676658, -0.02407362842142602, -0.29792650866746506, -0.40476385861488384, -0.11499411712771959, -0.309492671948353, 0.10300368091605815, 0.3283184127792565, -0.27428044533029383, 0.1315025784585885, -0.09790893762156341, 0.24975807981608986, -0.030439744956630578, 0.7653999604130188, -0.09473011653768382, -0.5726076143410742, -0.6906072318687542, -0.3689509350636333, -0.07841736282860386, 0.2067283724160964, -0.10628101728653594, -0.19779577326051911, 0.18842288908306107, 0.31800536125914003, -0.02687064884213278, -0.09573007624909058, 0.05452928964846914, 0.1253118918976742, 0.0223313246376286, 0.038546160424976696, -0.24550982949054717, 0.0013006658657493913, 0.6354863250262808, -0.18367819791275666, 0.13503729377950222, 0.3839685960514693, -0.4814423719734139, -0.24274345366516126, 0.762074030854816, 0.4130517425567029, 0.02154302606757716, 0.5243285800387824, -0.5979837314561303, 0.08469733669469669, -0.12804956000226447, -0.24946398912190604, -0.15497381691742074, 0.5675986063997325, 0.04809044956356226, -0.5014961354657089, -0.4106120219572324, 0.025413127533303256, -0.23907473697645262, -0.014752474576651551, 0.45048977919970007, 0.30947102214157046, -0.014420255245711498, -0.06064458367260774, -0.6065238265362382, -0.07879918840288383, 0.22014456783270975, 0.21458804138190704, 0.19676302923488614, -0.3801291667891385, -0.012601432133833045, -0.18378711588630747, -0.11297776732193063, 0.018598460504439175, -0.3866280800766398, 0.7684541891576674, -0.8490903648513218, -0.05839500397603185, -0.03427109149887099, -0.34685512691833364, -0.7479240104257006, -0.23895197112228456, 0.5660629621322772, 0.05965825735041749, 0.5271336552744245, -0.3163430086532063, 0.14488197165551733, 0.09894330393248756, 0.17236669098354146, 0.3783083601740718, -0.04321251370228978, -0.04189421833424286, -0.8604041061293444, 0.38715697632745333, 0.759254890587143, -0.34752903642598915, -0.9218848136964993, 0.09674303904478752, 0.34086423515719144, 0.31286039694635753, 0.8396821151589344, -0.16549959325748131, 0.18535339759580396, 0.19952072677110286, -0.24653454080496626, -0.5284622274010027, 0.32970133009858943, 0.6339194566720069, 0.2997630397862645, -0.5667081235731816, -0.5109621116631484, 0.3082149238329553, 0.9940789679286124, -0.6743848786629036, -0.4715918385467448, 1.2877158876830932, -0.7804507925863344, -0.08348984217012473, 0.00020927865657146004, 0.0018158146419312742, 0.17732215697221604, 1.1232795517677427, -0.1546739345877528, 0.3693454405525506, 0.3334336726427561, 0.3327216439593017, 0.11451950281081824, 0.16066521314967952, -0.2876929167980052, -0.30742476056301477, 0.7482482811986856, -0.4648183557905481, -0.08902226145535401, -0.3920544203409889, 0.202321126716489, -0.29952154350892385, 0.3988338868700939, -0.25263872747712096, 0.1342690761253552, -0.024128294180569942, 0.3000365196324489, -0.9018521899149735, -0.68029721885451, 1.3021281694931777, 0.2486838132830584, 0.18560231352632883, -0.018217459514138782, 0.023298325818374672, 0.5037677039523556, 0.9010865242973202, -0.9223624676578416, 0.010517721898070301, 0.2579912997754565, -0.1255559453970102, 0.41776786732684174, 0.39623365343797856, 0.36338884049357795, 0.7016048148994032, 0.6029697982576709, -0.2648338882137192, 0.6253411904047016, 0.9959806468815094, 0.8913312318503323, 0.2653592469810666, 0.1987817843034071, 0.4858354364635098, -0.04897009396177402, 0.7019875378587866, 0.10231509132464968, -0.07692551664854873, 0.5543634399805345, 0.3623246706275086, 0.7032573129644764, 0.36092001809326424, -0.044066195978608995, 0.013462356914754779, 0.27646173758861203, 0.8027134093757546, -0.48903593750159446, -0.23433269200895784, -0.07489218741093792, 0.13551397489826134, -1.0356147954509374, -0.4559247477730542, 0.601024370649728, 0.0819838893676299, -0.08805824681618296, -0.6412618041779236, 0.6666737577695192, 0.04207761990415067, 0.26911489776087416, 0.840110515653477, 0.27427914221074123, 0.44619572704196553, 0.33659286926056936, 0.12560170977723334, 0.013236366138784187, 0.8445050623952292, 0.4728039138663176, -0.4384514698330648, 0.017058306501692284, -0.1212708529179697, -0.11654483355125364, -0.14841611800218585, 0.1565399172814602, 0.0749803773801283, 0.4461004700189728, 0.15226267679846356, 0.3212955899893796, -0.8331052698944157, 0.08726929066533448, 0.2253756444819851, 0.37089779333754347, 0.5728327245825537, -0.10917670814776183, 0.002062029629898352, -0.16034347203557284, 0.36788926212361006, 0.5542696886881069, 1.3397569616934806, 0.11202859741535429, -0.3822877372028813, -0.1875453797568581, 0.11886384746238868, -0.43337679206389695, 1.2567156458776272, 0.584489032326699, 0.43499442378928616, 0.46459939333994144, 0.4999768163822314, -0.056335866191575525, -0.015605000571033414, 0.17096527439101583, -0.8184117191969763, 0.5129623337693356, -0.25735224514912886, -0.3460677917726676, 0.8335790849230013, 0.5710103075565987, -0.5497899703557637, -0.12517530839175783, -0.4312925558179941, -0.42646893047411977, -0.2356961977824643, -0.23707734453484222, 0.6063483602968907, 0.6146477620571814, 0.8848237061233352, 0.5199909383080329, -0.2920523700745432, -0.37783148775106135, 0.25213522894499457, 0.43582036924113265, 0.8260892860820753, -0.47927945143775114, 0.7161539024637645, 0.6619289445423763, 0.43703226188692357, 0.036787166345339545, -0.024485717798593952, 0.16201212101303583, -0.19062557158685442, 0.11044173337122948, 0.26609665464769866, -0.002544345926384633, 0.12074852541421867, -0.3370898712637708, -0.2675809383415584, 0.7202703961743289, -0.944536254399312, 0.036006719204506044, 0.8402961544392884, 0.42590923024365335, 0.5716226926432253, -0.5205836875232506, 0.7393254235671207, 0.5856902777639593, -0.5276927117338425, -0.23898769294412198, 1.0171779377067918, 1.0992381318526923, -0.1141316021937905, 0.35579228485400666, 0.7767913411216405, 0.8807332463866585, 0.1733111903466499, 0.017385377488809705, 0.1405706819775375, 0.42161775384051486, 0.7853556574617825, 0.21713440970439796, 0.3265808170809014, 0.2611599376241855, 0.39874416197678275, -0.06446555678228727, -0.6267464650079819, -1.0756067463037462, -0.8189841776769385, 0.7123607585125041, 0.4414845957807537, 0.3875411930880399, 0.509005300521671, -0.56434513951965, 1.15881548499075, 0.4979610470148485, -2.2821749658327155, -0.860733502974716, 0.879910184818235, 0.7529360124320206, 0.5118040637217679, -0.13247657272879537, 0.3695694271092648, 1.4846960286185222, 0.30878821348549806, 0.030892330356270332, 0.11005352744296903, 0.3287128112654641, 0.4007853213488923, 0.07410101147355938, -0.028736769598179182, -0.183810341379756, -0.1350738887138344, 0.3589192762432356, -0.5945581967720662, -1.143222292314241, 0.5300177407126903, 1.129706522833185, -0.20507282770009233, 1.0353974000152601, -0.26764527173838976, 0.5253690476438312, 0.385171958531806, -0.10465827477242566, -1.652716514150681, -0.6990012130807398, 0.24414368905624126, 0.002120797825891608, 1.3514322854256924, 0.5148465669903214, 0.5597586031310475, 1.3843941093788537, -0.3473222225133793, 0.010689609469985876, 0.017522861799159704, -0.04152730310152482, 0.151365467176134, -0.04124325423799643, -0.32517266836751363, -0.741979759746858, 0.033324136175016006, -0.32575350860741437, -1.4416269666037271, -1.446191227362551, -0.9820614472336552, -0.26161942153199796, 0.3923703982755396, 0.3198210566232303, -0.8012393433957096, 0.7996587662017267, 0.28286911531737063, -1.8261195464034707, -1.0789891884514793, 0.21989185602239578, -0.34960394128770533, -0.05634711352316768, 0.3266772852253748, 0.5944368975441088, 1.2171201794028625, 1.1616892089055404, 0.8452537180556717, -0.016939733395678547, 0.09064936764096007, 0.04145698323702489, 0.8857410360656959, 0.35299762413034663, -0.07254551502490589, -0.20561445578242674, -0.37807096285715086, 0.6364859613870149, -1.1580052444280777, -1.259601095051586, 0.4493150250295013, 0.32419015151215413, 0.04461429062644549, -0.5263688748663089, -0.35324107472326177, 0.8700699188495672, -0.5897346615333989, -1.7859835419488348, -0.5114551079308746, 0.2340330601357351, -0.5452793904640703, 0.03755282630438789, -0.05842273174442054, -0.4161518983223225, 1.3626804523054896, 1.374432719416494, 0.14654810469004484, -0.01965552112694632, 0.09693823803824785, 0.25059941845656547, 0.6118704975211006, -0.17867568177921644, -0.0787545377791893, 0.33061335942006614, -0.4357961209539325, 0.43075625881547347, -1.8016858197367136, -1.3919921312623043, -0.2530151667819299, -0.10979943489071615, -0.3569697463676043, 0.0011756948993363078, -0.3662699308192287, 0.28382902980547997, -1.734516509558343, -1.6599070124877375, 0.1873622509119347, -0.323534404408775, -0.4205367468467239, 0.7368330908882483, 0.5445945023017624, -0.3555735916230908, -0.6848987510240144, 0.30074583328401816, 0.13825509455608576, -0.06012697965372373, 0.012378304848099861, 0.07999592624215586, 0.629251736569221, -0.033688345993810306, 0.45900144744178406, -0.19669103796880885, -0.5534322234111966, 0.4838766582434071, -0.9490515670784366, -1.633202591413065, -1.0091056171726729, -0.4928826588209802, -0.6305641474674947, 0.1790130866697623, -0.3263387895341878, -0.40016664755691855, -2.203160823505698, -0.7378149284399165, 0.535377085903685, -0.3394942901004568, -0.48288647400757206, 0.100191939441923, -0.4889754380620459, 0.2283596490894237, -0.4936473471124976, 0.5878154020302453, 0.10779240723077986, 0.03107331063175802, -0.005011636674937305, 0.08946848609279535, 1.1907474672647156, 0.08596941933324292, 0.10977183851825993, -0.0009876457706118886, -0.19861878072185396, 0.37536609579368924, -1.2989610619933623, -0.7984058876282113, -0.6629101786829026, -1.0516311283292328, -1.2698498075744928, -0.49840423376962306, -0.01744838303161056, -0.7580259940426901, -1.75365153312732, -0.27099608590704816, 0.5229353684293202, 0.7719111841021591, -0.09209405937734993, -0.35978976141306845, -0.15834371899983013, 0.4636208703599549, 0.8698247027955683, 0.8049320848090622, -0.042015392195598314, 0.06956578653448232, 0.03995834216418672, 0.06972203359522215, 0.9873390575563361, 0.0776584665040269, -0.5270237089859795, 0.5139259909104165, 0.4413472991279746, -0.10279298855835134, -1.1137820102416056, -0.7836226629580458, -0.6282755661842989, -0.546315837319728, -0.7204698126469001, -0.8611533243004259, -0.7863530626751495, -0.7361574719516888, -1.21989655110083, -0.2532119221534983, 0.12105785346287218, 0.09792452214138407, -0.07163032215231063, -0.3100041130699594, 0.3907353382210287, 0.22821096291812432, 0.35566495162094564, 0.47953346681003395, -0.41356335448759063, 0.01192556007939105, -0.0074248600792632645, 0.15385005022461437, 0.33306193243102844, -0.43737056228716853, -0.49387069639511744, 0.23936612002738977, 0.3133119488024262, -0.8355798451078251, -1.2517775609617476, -0.71954556155498, -0.5549047094672444, -0.6557047124645355, -0.6325984135869185, -1.084305674716384, -0.8638301428114096, -1.0085161051940088, -0.9851708874470979, -0.12421417024416247, 0.15406657290616, -0.4370322444690286, -0.8856116148911484, 0.028564895059544355, -0.005987571411155941, -0.3211182666364775, -0.19633584805283882, 0.4450122745362879, -0.1606858556673113, 0.025061068134907424, -0.009832726903961891, 0.1234727076539195, 0.4146149280729671, 0.3782620623704293, -0.11511950540794842, 0.3156837191144352, 0.9584411134028137, -0.22837258499405824, -0.5576149542825765, -0.3176158358456723, -0.31294642673136774, -0.33122898726016525, -0.4341520255942072, -0.5891875761394412, -0.4095916997649914, -0.5300397509232215, -0.38015938182597553, 0.0787096760067015, 0.5322395792647673, 0.17374309941061367, -0.5710407512365729, -0.1136922158698355, 0.5311130853090622, 0.5330550390532761, 0.46726828000590753, 0.2577227575292611, 0.05432642761951732, -0.035998839436747136, 0.049335197417723346, -0.017047675170920845, 0.03452002895745119, 0.07669129259353856, -0.03076347172880329, 0.07798209116637893, 0.08052687145125056, -0.05236853165466069, 0.013828248767842713, -0.011044106362691595, 0.03670690814002547, -0.003617279395715427, -0.1471447561604178, -0.07171477580882273, -0.05735553907528677, -0.07201020652172688, 0.03009687261417226, 0.0866977478523891, 0.12482397439471152, 0.13496590982142526, -0.10967843308679055, -0.1846144433516842, -0.10221527195219061, 0.09275290576571832, 0.2637650625886331, 0.15837868922762768, 0.0627141980353034, 0.053862092849205866, -0.056737852000124996, -0.020899182111096745, -0.0362566049981621, -0.021175702218861125, 0.04580612106298762, -0.012358986252330317, -0.0380806954646194, -0.0008991802565248957, -0.004429223704185203, 0.06852234939511692, -0.05236536181661544, -0.02156360680885701, -0.030078846361197918, 0.06457108524542854, 0.07385837694798973, 0.024639548494836738, -0.0015820959955839425, 0.013147760592144137, 0.007729813513137378, -0.013149368667122824, 0.046644326556209856, -0.02096457576940117, 0.021018871261069643, 0.014502326332283584, 0.05708153216208057, 0.0024360858536393703, 0.0668223061567916, -0.032765410969205266], [0.013998662414279687, -0.044729572270500895, -0.059784225618742665, -0.012255547480609672, -0.004719333669843861, 0.01008429198547714, -0.0023540444134253157, 0.033549357444566406, -0.060346672037626316, -0.05150537773941664, 0.04237596191153453, 0.07610155216888005, -0.009873212459253307, -0.03638386982413164, 0.03283591019122226, 0.06201118358517794, 0.004230514092791254, 0.055725833218143075, 0.024070866725197548, 0.015965124925586775, -0.08778118511023147, 0.013279499214176049, 0.08390679078621845, 0.05420855968898462, -0.015476039509822473, -0.04822311422316024, 