{"classifier": "mlp_classifier", "n_inputs": 784, "optimizer": "adadelta", "loss_function": "mse", "layers": [["dense", {"units": 47, "activation": "sigmoid", "weights": [[0.021734439429022524, -0.006207505728784235, -0.0022304349860005385, -0.01809117683384974, -0.03671153421454814, -0.007390475935007041, 0.04471176025042385, 0.006441916085565721, 0.020842602761105524, -0.047181367082506614, -0.037755519951141465, 0.02929011321540642, -0.025434636292760132, 0.02790641963442985, 0.01872039474694019, -0.07955501467271167, -0.03136232944962967, 0.017583260947151045, 0.05098729979785437, -0.050110095484887214, -0.008260801629312866, -0.0187675312467773, -0.07225227171245319, 0.013379785921467444, 0.015578368056486902, 0.026511513384592077, 0.026177425293287454, -0.022557300167211077, -0.026598023709293293, -0.005551244781722613, 0.016469644083168818, -0.06490792896638442, -0.05798467502017709, -0.06111571885971501, -0.030079529214753747, 0.011561028127710248, -0.06092408008202037, -0.07186525235026237, -0.0852553912038793, -0.06600396977972817, -0.11140250132946224, -0.12144806044006067, -0.11278879145915074, -0.08145444198339026, -0.04810117914396144, -0.05141876123424776, -0.06379949781934931, -0.055098067671397126, -0.09574521085244243, -0.018324907637533836, -0.07489223674186976, -0.024367878278352673, 0.015699690620968217, -0.02164539843576293, -0.014414676413648958, 0.05127075647331188, -0.015965588887821028, 0.019496370597834014, 0.03127855935506852, -0.06287188061074406, -0.16375908017336405, -0.45182468382968766, -0.4184738086410553, -0.18453434810223399, -0.43829172251787835, -0.9229508834557593, -0.5871351869071382, -0.2978312592448721, -0.700462984454257, -1.042213412346056, -0.7884516301888648, -0.5001727337732333, -0.6307773508712747, -0.20625959406927533, -0.2735066345383029, -0.3063537771262293, -0.7675813015838555, -0.9319825062872912, -0.7610743130233205, -0.49455249503664417, -0.2467347013200624, -0.05693155402229106, -0.031830129547547395, 0.009337498962342237, 0.022180115198631868, -0.020837929857689307, -0.2873573759310896, -0.1471972659776145, -0.2917519332529701, -0.5014705114212545, 0.12132384202499912, 0.5886864505625871, 0.006881907902198006, -0.6489526031107073, -0.2078238597231769, -0.13832677876607574, 0.14805377736445774, -0.27337437947419396, -0.2012966810608323, 0.19583805788228728, -0.6520566192967836, -0.5325405208819266, 0.172655496723851, 0.234629228800803, -0.3809260320848343, -0.31220789521930636, -0.7867196920045565, -0.6522446042545456, -0.9740476942755816, -0.4530522369020348, -0.0295410935971223, 0.07551963889726021, -0.008867127135483372, -0.10904309179317827, -0.4518126937000915, -0.13165944381391775, -0.0446923940912332, -0.1381558142070764, 0.6101714919605848, 0.19164097812790937, -0.2585426491287407, -0.21268477730084107, 0.48994263033850227, -0.23706701161109564, -0.07403702459311899, -0.09641313303358306, -0.23899477103755135, 0.56088342995841, -0.39951395538464474, -0.23901791607532666, 0.6806134102049932, 0.299767089823315, 0.3015801530315265, -0.12493158402345955, -0.30094407293015113, -0.18557206965591497, -1.1010919103606778, -1.1733936824708835, -0.17037096111209266, 0.0018408562236634748, 0.016108229404964532, -0.063801808408322, -0.7926058517621349, -0.3569090934515434, 0.04767873391130911, 0.4933993066507184, 0.3811668084424359, -0.5156672897225447, 0.2028583187691492, 0.31852519094597465, 0.31188951197263237, -0.3174209134574326, -0.725739464007316, -0.15119949635131957, -0.25447259850735565, 0.027527153987404705, 0.07652054468315586, -0.4792673296021947, 0.01253306878544202, -0.29297763696859985, -0.11590224566866263, -0.23512738459239876, -0.07540242974414649, 0.13972900842953026, -1.1394633414516615, -1.6366738848831128, -0.13459935003723522, -0.0438430571878018, -0.011568867501252479, -0.02530774522595446, -1.2142476481265165, -0.4241841505956289, 0.00629986108243895, -0.23128250224610503, 0.22419559908475842, 0.10102281702781588, 0.10044977540733892, -0.07987284774877525, 0.031941192885788325, -0.20347945958741134, 0.4647981239953852, 0.05542153531335616, -0.5425024152183446, -0.10084007130560964, 0.5021305199972631, -0.1124712407728797, 0.009274581742569584, 0.8465577254158154, 0.15399758437676836, 0.35045613489153826, -0.2915226053391801, -0.38600447674918176, -0.9613050615613706, -1.5992855106667345, -0.15674867524165664, 0.007068052089191566, 0.03290997201817036, -0.08048539062202095, -1.0999740033281442, -0.13244851244120973, 0.5508631825618657, -0.5280802524455777, 0.0710206417048156, 0.02182631399263977, 0.07898637237757572, -0.1617923928074089, 0.3561580249312557, -0.4140980066588454, -0.07409214540282182, -0.03580489916352733, -0.2984911068579557, -0.37607059677165683, 0.28245611408920557, -0.3630278168257742, -0.24994219398525158, -0.22055985819437302, -0.7555985591343173, -0.1866129389403626, -0.35072233788099355, 0.19205043786301307, -0.29079333069587515, -1.5683929372292085, -0.10864692619693225, -0.025604969200036378, -0.018300635690452757, -0.0690474338864601, -0.9567622619369547, -0.4743674483919956, 0.477974104945783, 0.1507016739006206, 0.16183213569898813, -0.494460635814943, -0.43752373405823797, 0.31763184342953277, 0.4941177986901037, -0.3784522594750636, -0.27893899374964876, 0.1269491158397033, 0.12128905019059573, -0.5253056130224841, -0.2996585951588953, -0.11116548217874495, 0.2637306437975198, 0.7222517352283194, 0.29949753832492, -0.19277683849475177, 0.38724942225828884, 0.18984056744305083, -0.6405895578895766, -1.5261616061211674, -0.16330237594006164, -0.006091453671890492, 0.01827631924215967, -0.0736433919717814, -1.227202967086486, -0.6350920413839307, 0.023331127497032315, 0.09399313420077637, -0.10871426972625431, -0.033830150351856984, 0.12950653522679964, 0.43872757298467097, 0.5778455287349167, -0.4716608889467983, 0.2118631567326702, 0.24966086760776246, -0.4203930463875641, 0.0293679962601439, -0.3928983574311243, -0.17672980462094526, -0.017623738280518792, 0.2417327869210084, 0.1385177459845633, -0.6241521302611154, 0.5225715808344369, -0.17418065224650786, -0.9711020167442415, -1.22496874854927, -0.14120891044394268, -2.9875849034511187e-06, 0.0035089626565190522, -0.11767595945439477, -0.9994231743299211, -0.6116452964437132, -0.1403618983942045, -0.22051787715293525, 0.1750182277999281, 0.4095125780404641, -0.2994780177901215, -0.3198944000208487, -0.16708157214228864, -0.668028629743662, 0.684222134708436, -0.6540261692843469, -0.2864235308826027, 0.5129558962648002, -0.6131104474310939, -0.12061084270712244, 0.3708515648052351, 0.21074790338955876, 0.42262869944434545, 0.4928283062301246, 0.479642476572514, 0.6504239332076562, -0.17451981909029568, -0.9819978003894918, -0.13148550365420167, -0.043658781606766894, -0.0032898113588625904, -0.14428197148025868, -1.2006140088390982, -0.7391235517803235, 0.4123023653435055, 0.5738541305375491, 0.3028854703195406, 0.10663527346170212, -0.16183822533721545, 0.6952261256651855, 0.3206813327630433, 0.3918957684778705, 0.7051847805526286, 0.030464941732494335, 0.5401554182698158, 0.21522487811950208, -1.1894063304218636, -0.8894652926339293, 0.33275118684837157, 0.008807351201545577, -0.6068914856004157, -0.01074539424797884, 0.17020770438042734, 0.6523882739360821, -0.3041303365157407, -0.5623570659254371, -0.09090825987120481, -0.020823570032698684, -0.04606215308063316, -0.053115080858050036, -0.8254099427177732, -0.30496675068883045, 0.3258846388035113, -0.1518429388136136, -0.038703164048128354, -0.20479592262946, 0.8167031427676831, 0.615803010088719, -0.2014173624187604, 0.052245685564741684, -0.09145482438441241, -0.40185664258977916, -0.5806644866263094, -0.24778150571750887, -0.832654531162978, -0.2804141810889598, 0.3218708889616303, 0.0705747063082119, 0.30906831823397957, 0.3012093116178181, 0.6725879923211676, 0.42797023165658815, -0.34049619940386694, -0.6690681842169861, -0.11047428493450263, -0.0048268603316752, 0.00010764971691841818, -0.04812354145105234, -0.780461557358241, -0.6723665544104104, 0.21911331453630795, 0.7156585061653138, -0.011682478658389372, 0.6545373248161596, 0.9859616494836618, 0.04856994373466617, -0.10149898796972993, 0.07174390847242684, -0.2601685123201028, 0.3045307720293087, -0.45188501701403383, -0.407486995383341, -0.8688013832617273, -0.06253604880551246, 0.2882942737482683, 0.13410335595782502, 0.4699372713209697, -0.07504450994389197, 0.5712795285297859, 0.728457766176053, -0.0819453925980834, -0.3724437600874637, -0.0795411593357594, -0.034751849805029066, 0.08622722855621791, -0.016220825025622092, -0.8423793645440226, -0.6202346194678913, 0.26845504502004236, 0.21893682622223656, -0.09267177184313796, 0.3991035681016477, 0.024369897335105677, -0.07426110865668079, -0.09714015802073173, 0.23890081910235877, 0.11822950108819773, 0.08346524432844295, -0.7951911632335166, -1.2458743838325248, -1.700565747338421, -1.0334477120265988, -0.40155236615609874, 0.39467644316271805, 0.7709462793616079, 0.6445195343948781, 0.948046952791261, 0.7169731750067929, 0.10162699560371574, -0.20923448526043287, -0.05735531257727823, -0.00951347733951909, -0.058007421604237004, -0.025737058534798154, -0.7518344727951057, -0.46160534534443337, 1.1775261845460796, 0.22511239247815384, 0.3656201109141487, 0.13683538996405517, -0.09669317244525102, 0.6056278391764677, -0.3946244446709548, -0.15410942244357945, 0.0574690550277889, 0.005304132980193067, -0.686773593347844, -0.7592167849038293, -0.8803459317857535, -0.6601031922905993, -0.5776915180762598, 0.1609427282441108, 0.4579453697790989, 0.25575792097736105, 0.1666838641583867, -0.17370923458020893, -0.41362906167404756, -0.46614016779199435, 0.025656807624996128, -0.0179424590026129, 0.01726783870601319, -0.09698702352196956, -1.1036840548118065, -0.2738269791217535, 0.1609797931141196, 0.10543873477484958, 0.3427199056269833, 0.5832056859182957, 0.9446007201765235, 0.7348777443567369, 0.2456235313130091, 0.5753101503228436, 0.3122092642637716, -0.09486008377546988, -0.8832195778911663, -1.6008628723383462, -1.578371145343832, -1.267728810802847, -1.1674167204111436, -0.5927573856861936, -0.5364120831624107, -0.37561053174847886, -0.9034324323732282, -1.3980990625381549, -1.2435422576078856, -0.47014119672932014, -0.06283841181636218, -0.047588798759840845, -0.017392832749204962, -0.0895727025003668, -1.5242487521510522, -0.7302321152425573, 0.8085733998254654, 0.5743556361484289, -0.037058167860054676, 0.49637817403950274, 0.4844957006111158, 0.18356050900813217, 0.1543264940993518, 0.6792969721961513, 0.31809489212640774, -0.29217563234352417, -1.3819344065227936, -1.7205706295114789, -1.2184945247794594, -1.03118170545291, -1.1104747918696103, -1.0792123683186925, -1.1947137269641173, -1.2060049931130106, -1.6946898882121513, -1.9633493792609882, -1.3451260442020379, -0.45499254339603407, -0.06921779691693604, -0.02179937124123051, -0.00037713790430842615, -0.19463179476387502, -1.6294760660859404, -0.17250018930221872, 0.31226044180543655, 0.23280031790781752, -0.5242689012706654, 0.16787320115236654, 0.2723845386225916, 0.35329100688921206, -0.014454887081181785, 0.25893681496120075, 0.23749276917048082, 0.22703234164507904, -0.7486997644786566, -1.3005535306797784, -0.994907398428547, -0.823338453725219, -0.7970256979043229, -1.0208479461471898, -1.3998140803516328, -1.7364128892261006, -1.7359924027557394, -1.7957097506304442, -1.1411028439661821, -0.3638301200383395, -0.07212682145834882, 0.0020193582404313447, -0.020377295143748666, -0.15541256120550598, -1.7907480720462179, 0.5251161425190581, -1.0161652028145323, 0.09301443384331164, -0.06715292036591272, 0.06946758710659244, 0.310546457162693, 0.4106677738112543, 0.356638705142884, 0.3134868580980486, 0.044347217597165124, 0.0615269672198708, -0.685693818279029, -1.3166399577258918, -1.3651891954580355, -1.0431808484245668, -0.777704339054407, -0.8059454750450509, -1.100308158438944, -1.391890058180473, -1.3910783086628529, -1.2637690410751419, -0.7631800077016733, -0.284669560798947, 0.007333639065627863, 0.05317292726057742, 0.024006653201447972, -0.2032912864171223, -1.415177111108745, 0.621441261457168, -0.6887156018996935, 0.058593421205605914, 0.3824775600810384, -0.2893037844559745, 0.11265203931558271, 0.05284434281663217, -0.6808796550882756, -0.588687248995153, -0.6171992197146782, 0.1630156238705872, -0.5162571570161928, -1.8096317629623841, -1.6898101935254919, -1.0559163994825786, -0.7771188510013188, -0.7280374711366039, -0.7694772826175302, -0.9173495298494688, -0.9506439425806316, -0.7901474148284562, -0.46374801943440613, -0.09339344439791206, -0.0548339736288033, 0.01186708631823283, 0.01464105119908429, -0.10633367283709516, -0.5938602843390061, 0.9424209598652016, 0.03813147912525743, 0.15376866734384406, -0.40773033952020865, -0.49317105194668465, -0.29869784647649533, -0.10717204152027857, -0.05026328442387319, 0.12907272525598257, -0.3969750728296095, 0.49352206986814323, -0.5822967546360165, -1.7538451054984823, -1.4176313364897435, -0.9379232554850218, -0.6889625548673002, -0.5224623519673641, -0.3929813929200479, -0.4468287394122826, -0.5257367877573074, -0.5338034298524649, -0.20636820128137884, -0.06668552934618645, -0.03628993799071818, 0.0238794705309265, 0.010478363340830086, -0.06797025323873293, -0.8697642292517153, -0.06958648807901212, -0.44270406316930905, 0.2981631353656161, -0.02817569766077217, -0.5823710535680586, -0.6172522182747134, -0.28328846609111896, 0.3560019275090104, 1.1108823298204853, 0.29955075462142483, 0.1836157585425849, -1.2384302206012123, -1.729211329110485, -1.1269853848902025, -0.4993023217909377, -0.3047387157898462, -0.3363627253501085, -0.4633713134444976, -0.5382626054350956, -0.4228050193687096, -0.44963292156320334, -0.15773416873748292, -0.04606824332390005, -0.0001669567387056473, -0.039700734247823125, 0.0684577099084889, -0.14485018268299193, -0.6161793186891819, 0.08290970787819367, 0.12895199715050573, 0.12403020841062215, 0.6387616152453497, 0.10986136544871412, 0.7116884644201836, -0.06772418070210022, 0.4093332040220611, 0.22151241075434336, -0.3312515012800407, -0.976946455461677, -1.5866191435803838, -1.2456411468302062, -0.7348294508293028, -0.3039950135821943, -0.13146830758064879, -0.32194289329364917, -0.4193633735044859, -0.38576771620189015, -0.4806774668341653, -0.45496685343705856, -0.14233946284470328, -0.061602191200535714, -0.014452965517124454, -0.022662096818673635, 0.05119322215968204, -0.17327093231099253, -0.5115987864700097, -0.18470349900840036, -0.6499306778593775, -0.3902840724259524, -0.5925698790046174, -0.627521158388759, -0.15063338433948287, -1.189340149142445, -0.8718780958343041, -0.5501245563581171, -0.8959740659970103, -1.2494413129221946, -1.0257367071937666, -0.6566205866790007, -0.4884985699268627, -0.18300050516257546, -0.09561160677709274, -0.31391068907840686, -0.44433959684599367, -0.352846941033562, -0.4166154549057778, -0.2679228507939754, -0.007874615685040462, 0.036980188010371395, -0.012260701601236264, -0.013789664672771818, 0.03237188354019734, -0.030035910161422454, -0.22956034789066274, -0.4695180067740481, -0.6874683908790237, -0.6696205058895565, -1.2627111041711065, -1.4066473406465756, -1.1452407527003863, -1.5305979083685144, -1.2700005552142348, -1.109246045687488, -0.9018359910423069, -0.6351301823405614, -0.364784839122679, -0.19397787419253212, -0.20024869616874683, -0.12405370614466778, -0.07479834294444472, -0.11390121814210331, -0.14596786628499853, -0.1436494838456322, -0.11317294646204334, -0.13053048663040526, -0.036801932820008154, -0.0012082549622989848, 0.08252845845413453, -0.012078545638828568, -0.001643734680262133, -0.03370783449192769, -0.007985703053377894, 0.02153856719081298, -0.05115878527418543, -0.08804276173222442, -0.09640797275714785, -0.09355654957651442, -0.10375826297844853, -0.08501220445367871, -0.07191655007095836, -0.023390940326619238, -0.09471671060943516, -0.09826755511428271, -0.10521362450444247, 0.0513202785932766, -0.03925432285212478, -0.08834923466549563, -0.01619199319366711, -0.010467061715760924, -0.013529921233544667, -0.035359961478803735, -0.054528018139558265, -0.011073069068560858, 0.07930832850668358, -0.02339405774497145, 0.07318410353690497, 0.005811011722437809, 0.016479646530684143, -0.0035917167987664675, -0.00814028450410867, -0.02947524751948546, 0.043222711555173224, -0.013945317235305019, 0.013545118356302685, -0.02338185793909833, 0.014367081851236732, -0.001051445035385625, -0.003467014683097307, 0.06133474326508606, 0.021414764995473942, 0.0648572811140176, 0.021004423523362077, -0.013090279599425896, -0.02093038171453257, 0.024634393020945132, -0.04160859767207904, 0.044881466141400886, 0.05394582091176595, 0.055895426550568686, 0.05251285934670001, -0.0293707851527182, 0.01640533174406803, 0.04757322109749955, -0.025354791522877035, 0.053263046428471655], [0.05672346556304283, 0.006954560954986978, 0.014350006607778493, -0.0408279228483179, 0.016401929603222204, 0.04165860830555613, -0.028510956056596648, 0.024098563363206555, 0.07160793737910168, 0.003030994225456788, -0.011607846664196259, -0.006797760318749827, 0.0365804742471661, -0.012218305180166174, 0.02991756829435853, -0.009405407550500393, 0.003186850265699113, 0.04105852694676159, 0.052688313885556566, -0.026532769181842462, -0.03697967885963989, 0.011391818707903035, 0.03171178450231214, 0.015219528415572519, 0.004820824905434926, 0.013309361138287094, 0.08455650232407017, 0.014779808880702294, 0.013064062119566788, -0.08574221889604673, 0.002413349105883522, -0.03484755938089206, 0.03865741987746825, -0.02315602050180711, -0.017851829517584704, -0.014386090258727962, -0.07933578141301789, -0.01823669569652218, 0.006891512178333772, -0.010813733065875545, 0.025979810754476623, -0.050096074367067076, -0.03828708758123382, 0.0006652713367344154, -0.04412540063354424, 0.008769969257261707, -0.062434835737780726, -0.0287058963975676, -0.04090557577073498, -0.005649435276762639, -0.03705589186477205, -0.05870571675055805, -0.03667107543189512, -0.005640263462987675, -0.017091679373745786, -0.040864370273232205, 0.015112027195140926, -0.031523587523410224, 0.022711309619948675, -0.015462422325195558, -0.09343642481764469, -0.06132719624968996, -0.0675469317522496, -0.08147224724079075, -0.16461869589509312, -0.12162255789685097, -0.3195936929192995, -0.36041669858307385, -0.31853034472402353, -0.6039023285974827, -0.9513632226807143, -0.8681893976476454, -0.9450873821256998, -0.8140977674885563, -0.9215458657720281, -0.8859267966164073, -0.6663035189654061, -0.2625107928545413, -0.2179222670346542, -0.26516850689763266, -0.08252867094003741, 0.006731907273040733, 0.03520220569045985, 0.004283747158048404, 0.029108222994821124, 0.0294390412201787, -0.024687550643432858, 0.03239147845323598, -0.04492713947117222, -0.13789998669294073, -0.20080326401983392, -0.32803671023807246, -0.3506625662669071, -0.5226637945473563, -0.42804602228483246, -0.26218436021053515, -0.0746817908055071, -0.6148692097157623, -0.5836218650537146, -0.3081993136325732, -0.40542269119022456, -0.46754929916952115, -0.878876920990802, -0.6198835079766527, -0.6827260899723923, -0.4915215574665709, -0.5989024505838453, -0.5903531189443592, -0.3819165859760615, -0.06615256144171618, -0.03814499185890593, -0.05781735390999699, -0.048040587582860964, -0.04555535562908119, -0.026350555756798837, -0.100861137790623, -0.3059881411921617, -0.47110015897267604, -0.4763341685926683, -0.247144627405365, 0.07858465617796884, -0.49934918941758566, -0.5206665926711084, 0.01567241779573017, -0.09178378320353414, -0.1694501972140523, -0.4844535092384191, -0.03009684400818852, 0.3412369447771862, 0.44689179975122795, -0.10438769190037651, -0.16238225777213508, -0.7056670289404677, -0.2056858731485767, -0.19123058804623136, -0.41993968292884926, -0.5727878197574177, -0.24858347796082217, -0.002551122904132882, -0.034213997853189265, -0.009962883395556855, -0.052765133959818786, -0.042575815864280595, -0.24268801206780638, -0.7189928171520635, -0.8342104770084875, -1.1922436014255506, -0.8165569805907145, -0.37703081625175294, -0.6969798046343234, -0.02327628984972157, -0.007350720735799558, -0.385634880551301, 0.5690874400346467, 0.4592254381468208, 0.015348009011763817, -0.2099960518903209, 0.42929784322460923, 0.5110240266371728, 0.4281259047090016, 0.16714953223770868, 0.24760049156911224, 0.05959789315944513, -1.0904448115049434, -1.4494952871529485, -0.660547088626346, 0.04132333372008388, 0.015792982627920223, -0.059800549458464525, 0.023983883809146286, -0.14687929257905963, -0.598293410928763, -1.0645069737423887, -1.1221923611162006, -0.619480834508622, -0.4922669090207548, -0.007618846795735671, -0.17802024453103307, 0.9036329103164621, -0.01838167248619016, -0.16799516178249327, 0.3229681932924271, -0.013840276597774806, 0.7696240968416636, 0.5512215801997891, -0.4828015488507455, -0.7136709084999664, 0.3226153424466651, 0.11606501769620932, -0.11566930610714687, -0.045064994137908876, -0.6496553759255612, -1.5428519034669488, -0.9412838878749575, -0.09097658101342686, 0.02218508963079267, 0.04353052170102448, 0.04349445726105907, -0.3202759543575749, -0.8791149751148788, -1.2224419466461975, -0.6798056162349003, 0.015100763745458459, -0.43854524500742875, -0.258650391756916, 0.10237267678836168, 0.07275130854511667, -0.17397767178574433, 0.5430562118564262, 0.29015737701017313, 0.27678999478440114, 0.23458850878328144, -0.4417419563962181, 0.04862612756332874, -0.6630844066846037, 0.4579026176930083, -0.02227561092898781, 0.08974316131390353, -0.11822962682831463, -0.3054712063433823, -1.0397868115851407, -0.7811790298609291, -0.06127608507861781, -0.0544280314011434, 0.025562145190109378, 0.02732724064171097, -0.7166076681393473, -1.518054475554768, -0.8165733454874419, 0.823948848394853, 0.4945846620590759, 0.06074398871611101, 0.7771955432158173, 0.9450664599013618, 0.15066570475219626, 0.03594100537515978, 0.3503337115450971, 0.010332721836364989, -0.1298668951008931, -0.1465158237263439, 0.17185056154305364, 0.1770801632172135, -0.5960462505786914, 0.2221153436830296, -0.5599198911317209, 0.34045031461955977, 0.07146845187072577, -0.4641052834789339, -0.8541073281700827, -0.9625865441483921, -0.05252526443305184, 0.0019928812322478565, -0.06565930591499153, -0.09980317258918668, -0.8887685125256848, -0.48648896782450324, -0.030283985088786564, -0.4955781263973069, -0.18344780858237023, -0.011432800566217377, -0.4407256988985429, -0.41821955439406416, 0.2815587160275078, 0.20128295246108172, 1.5972523354631747, 0.7378389987807537, 0.518552362625088, 0.5016908970949614, 0.08468668180778899, -0.06213804867077137, -0.24148043566793487, 0.04443238271535147, -0.4801301390485909, -0.029642486067855453, 0.21884104669027318, -0.329410096800114, -1.0033460175906073, -0.8649962699482424, -0.018880584787687872, -0.03884349481973209, -0.003718443683501692, -0.04970357928291224, -0.41390076434667367, 0.05641972968413356, -0.1386795191423241, -0.3192587864612226, -0.46336895055914257, 0.006336909256278254, -0.03760976428792796, -0.0034471508613104947, 0.06308406312911115, 0.0988713300449509, 0.20207130985860491, 0.03353968393001393, -0.11402455188319567, 0.30584060654738215, -0.3325903611585113, 0.11070222222443185, 0.31293025372144806, -0.09848738436904919, 0.2695378063887306, -0.2856015318740527, 0.06895191626810994, -0.06138477548133839, -0.6622274041833531, -0.42810559163540945, 0.01798292893221146, 0.012825556943391317, 0.03995685068406839, -0.09395522886614857, -0.2325167462835, -0.7012250506431545, -0.10277653295455143, 0.1698480309910776, -0.3457516560805103, 0.18829712284542494, 0.20691535023455876, 0.5310995748849929, 0.5858664260837319, 0.44339273035553733, 0.1758470222149918, -0.09887946682231287, 0.424711759689405, 0.21936979374367244, -0.4265362098929995, -0.16252474728567834, 0.29908224666443983, -0.4131466693482124, 0.18677545591140465, -0.6099314435971066, 0.17408438045695293, -0.418651494079584, -1.1113255699833524, -0.3327721902248579, -0.024381486513757156, -0.07656685850375454, 0.020370996778290195, -0.10359205788044594, -0.26529592196551777, -0.5616355807642112, 0.027002475440937042, 0.1753944185741471, -0.39690328276334585, -0.16161266578941097, -0.3605758479401512, -0.2761854951273389, -0.13913535266331722, -0.46947119406311244, -0.3716956085685984, -0.24192010142587045, -0.15978934849910023, -0.03593624933034843, -0.1134654008585186, -0.1495608869184134, 0.07832628878258885, -0.8777386941543603, 0.27580252134013683, 0.2652187221995223, 0.01704214811621152, -0.7553580770601267, -0.8953590635539734, -0.28895918938565834, -0.0010314732310741932, -0.011528149500962903, -0.032960493704506634, 0.036290385364901735, 0.9249982402532773, 0.6250531257606904, 0.18053573095134137, 0.22231326368302037, 1.0905235976233598, -0.6440778089834477, -0.33052627539420537, 0.06690958381164616, -0.2826524841144367, -0.9077580580252509, 0.011448025463745178, 0.8370980202058618, 0.4849143183577647, -0.39887648877799203, 0.5103142193851474, 0.4130017631080762, 0.5626417550343015, -0.41167320834389454, 0.1320131901912814, 0.03642924684999348, -0.8954191225573762, -1.2224910123473418, -0.6043500392887895, -0.47448412422822905, -0.10088235742429251, -0.03512885916497158, 0.027854675010695457, 0.12427903324295374, 1.0949297247087968, 0.28347105624105035, 0.17140495016950996, 0.35813549439934, 0.23668714728985515, 0.08113779038331854, -0.4211382922797126, -1.1319026618976817, -1.1606885333719204, 0.36862367219348674, 0.4280455113574106, -0.976197951393503, -0.0009697465319559756, 0.25115614987957185, 0.29180347887062286, 0.020478655262802323, 0.4357727916795929, -0.1101235802341966, 0.5970201915181089, 0.177024228615899, -0.7818612758346903, -1.1819434615075355, -0.21082418086345667, -0.11512460783734027, -0.07708341364962522, -0.04508153205656181, 0.023140674938589498, 0.05208690168447549, 0.6740348305834911, 0.0553575682910266, 1.7070822044733864, 0.9300424552760033, -0.03875071086617628, -0.13825807869446038, -0.34173138413034154, -0.4783986206470645, -1.208748070465176, 0.6455575801549427, 0.32152983062356444, -0.13778692070562065, 0.011864388228442338, 0.4944978473889623, -0.4210593445411961, -0.06801877944847659, -0.10685305519229743, -0.09957894284943872, 0.023764007564888192, -0.46366560804265516, -0.7544677186764374, -0.07645193117674, 0.4402867150844813, -0.44939268978230273, -0.3328001489436748, -0.007134896893607476, -0.025464536972093412, 0.15911432671343506, 0.8396239521875862, 1.0749578425231354, 1.2754516674087586, -0.09915427684204733, 0.2756258705147364, 0.593102287411676, 0.11192394444441632, 0.4900700380430043, 0.011395811143154877, -0.6639028089358325, 0.011725495175623848, 0.5557450721200816, 0.7456786638514004, 0.4131224594895997, 0.07756548465819812, 0.257780004951668, -0.10372612555573026, 0.6162728428044386, 0.7779014842769537, -0.8274904782348381, -0.5107660491734887, -0.8428656263047594, 0.6244120563965629, 0.6535809157758254, 0.016554226760031134, -0.04522380446988902, -0.03620441465970342, -0.12335572388043488, 0.43606493964190035, 0.30645718217161605, 0.40594255063614454, 0.16827478196741277, 0.7612589430019728, 0.26656353311586245, 0.5777558228100138, 0.10620084580284876, -0.3769668691904702, 0.04767753910273004, 0.127480369078183, 0.18842959317005636, 0.4251825111765149, 0.3659384103263978, 0.12798935193472116, 0.6948256484440087, 0.3297571040019743, 0.26783559925631395, 0.057539038488648324, 0.1811339935962009, 0.2333619604730388, -0.6941106924548276, 0.2475068730388008, 0.7418793180422366, 0.06239805613672354, 0.0066997931128677515, -0.017477678334190262, -0.13005550295828336, -0.8679840337589056, 0.41650753485661174, 0.5251549787351526, -0.01604077544139942, -0.09949872916111928, -0.552692528023002, -0.2732978395703742, -0.5791449890916769, 0.14284419959643838, 0.10827731598829948, 0.06481887950613194, 0.4407904618717114, 0.6601113519882588, 0.8855197229949715, -0.003584770367572002, 0.051467176974579566, 0.40695417163323866, -0.45424408570405306, -0.2555261034140902, -0.010214108443567084, -0.1681707347404208, -0.539591879156573, 0.01577528208996823, -0.23458262544039107, -0.08989561847451412, -0.01830995632884368, -0.004760039145701474, -0.17398721518635785, -1.6845590983668444, -0.5188487976088133, -0.4651158435025111, -0.7787533968446307, -0.03419700996121565, 0.7011427952643405, 0.22304645867404885, 0.14263171196026728, -0.5742917651255298, -0.6985123732154618, 0.06178985673487773, 0.13359905017610277, -0.4357238333844375, 0.2610823824200552, 0.048802716152125857, -0.7991758864490077, 0.34870122393172676, 0.04824405411211651, 0.04917872732338684, 0.9810672319280755, 0.24027344738853879, -0.5805802776395939, 0.8444962659787733, 0.04153720032253983, -0.1344924024905429, 0.013931147812961066, -0.02024071151732984, -0.04371233266351077, -0.8907573835409447, -0.16557535133010623, 0.4054602096999074, -0.025561253524654874, -0.4516101696338828, 0.13298754768482088, 0.48426117251819706, 1.0709525861919262, 0.06349044305812195, -0.9665717071578717, -0.38113036812698503, -0.13838719012002967, 0.3385247475788172, -0.1375448663808109, 0.021267591695692777, -0.22308738601625705, 0.24369089947269928, 0.022859121760877146, 0.16514680421732764, 0.47029720204299613, -0.35378102846489073, -0.6952899428947152, 0.7106593560785265, 0.11683398383045085, -0.06456522109539664, -0.09393892456039488, -0.005360311098605066, 0.003276791350264619, -0.14126829989565143, -0.19514762733628283, -0.2752205059404194, 0.5312176438827605, 0.10114573166585449, -0.2488731179041759, -0.17137920193837744, 0.45866685047701766, -0.14331246501999917, -0.5634538239312257, -0.5496923558125778, -0.5946124164733255, -0.3414448268858978, 0.29378057425804877, -0.5544079009901747, -0.583178838052756, 0.4387914560105092, -0.2129147516966243, -0.5304157081640302, 0.7151915401221262, 0.5904453516837065, -0.3024914956888034, -0.648969850705153, -0.9599900267050845, -0.12533986718593512, 0.027297908395821753, 0.058053510579333154, -0.020947193357503783, -0.2562171356767102, -0.625152444519972, -0.6926444965506235, -0.2517416395108131, 0.20154997247110834, -0.13887264707693106, -0.3572742916300894, -0.033178941702824746, 0.6304373271007901, 0.676325700319283, 0.288376650198744, -1.28535895943525, -2.305661913584009, -1.4230117303355474, -0.2630730424140785, 0.9104854591293057, 0.6359575743859908, 0.24615495794645906, -0.07126477703230323, 0.2533535479551166, 0.7209464000266015, 0.3394029990830389, -1.1999770876704197, -1.4432478581923387, -0.1546345089386257, -0.01487220572497761, 0.027787182051182184, 0.007432776259109228, -0.2322305170263631, -0.2535591535498808, -0.31416121375969186, -0.4452008288013313, -0.038154296075000586, -0.2392549471254399, -0.06660374420942537, 0.49214796490724694, 0.6439015125800539, 0.22319333274011288, -0.4564688401126772, -1.7084853663320025, -1.7689769519123728, -0.7765315868670538, -0.13556028188021704, 0.8089126216197928, 0.5474746624917998, -0.35771440583926145, 0.06330606818113732, 0.36435849105218415, 0.659047671833657, 0.6118173646597651, -1.6039296295766396, -1.2383972593026702, -0.09772592428743113, 0.059723676218877496, 0.018073753268852816, 0.03591871002654243, 0.03404176340681869, -0.12005219283872026, -0.3430035047673534, -0.49816760399196125, -0.5000104355582584, -0.6681853917265971, -0.7571125434603752, -0.5892538401319559, -0.6734350823342468, -0.6561213668936366, -0.6249752145179248, -0.7212122087439706, -0.7410321658732634, -0.41639192179137985, -0.5861449354990336, -0.6874264129694976, 0.006910544169479049, -0.23676949255466942, 0.04550578724610562, -0.29302818549826243, -0.6034039542281927, -0.890874542948763, -0.9975366977141842, -0.5041646216410428, -0.048574217250470016, 0.012647729204996913, 0.026404213226084685, -0.004817827958663338, -0.06728091995155737, -0.08910642631186194, -0.14389075207543472, -0.2785025647544558, -0.41880161015528966, -0.38966373804106963, -0.34557364704883586, -0.3561558722868127, -0.41994769523633385, -0.3925126210061024, -0.26596650638070585, -0.2521735029495797, -0.19743885922463542, -0.17491512361373304, -0.20526559334441158, -0.33930171376593116, -0.6266474203314172, -0.65733985105859, -0.6117926862737497, -0.6890537242054273, -0.7199570405063412, -0.6516301804190198, -0.37852093807197507, -0.09329792964252372, 0.004165925032089195, 0.016451934466872428, -0.01859961393264417, -0.014560062004489968, -0.07768496292171057, -0.02457505260126221, 0.03249443105416822, 0.046531356517310045, -0.07754056378872638, -0.07440234940325317, -0.026575781796218535, -0.08447959823999328, -0.044455605366621624, -0.016506485954715124, 0.0372398677870058, -0.03316315572468338, 0.03598288221096242, 0.016294247606066434, -0.007845638797547173, -0.043307724244753064, -0.05090441085143257, -0.019283665759043098, -0.04882190104384639, -0.03823185077076038, -0.05417004100560806, -0.014543111257397552, -0.004442968316176958, 0.03561169217637955, 0.01811597460696489, 0.018269839048600436, -0.031026100865829888, -0.03518080329447203, 0.05812201417504366, -0.030906550730221104, 0.0328747877851906, 0.031158385376714406, 0.04331510423179392, 0.05213368738638008, -0.0035467385334973277, -0.026445607545525066, 0.01560024625807209, -0.023039108877128737, -0.05266554005445279, 0.016208861551107324, 0.010172820333573553, -0.006935784014560414, 0.019472381158942526, 0.012360174361088114, 0.03461783326534921, 0.013783394660118534, 0.031323447116741975, 0.047075036665106575, -0.017467658199965385, -0.010924443200213475, 0.024831304346029568, -0.020278195126899573, 0.0005398669041702316, -0.012243203197309848], [-0.05583218546994712, 0.02448372884575579, 0.02925263637355828, -0.010437371135361128, 0.008807924518866571, 0.0002666782865922131, -0.015310968912555433, 0.03254067899827936, -0.009963478707757968, -0.025722427477861885, -0.0021055885416181547, -0.03627852219919218, 0.04004488222040727, -0.05223565175093249, -0.007224447312300141, -0.03296074925647057, -0.001207362156008436, 0.011878637525312725, -0.021866556624639252, 0.031068868127859126, 0.024693850816339208, 0.0395354439338178, 0.003020468491204196, -0.0032999397708536058, -0.008727380813957283, 0.0025484020978251997, -0.024314634702395112, 0.096546326577925, 0.034616521077676, 0.07978110178979278, 0.007009313623652031, -0.016594508336942555, -0.003896037031129369, 0.025015062655499864, 0.0476527992003028, 0.004743206967903639, -0.036185374128298635, -0.11242246623051941, -0.0060719773715719036, 0.026977094232906024, 0.020728303685018244, -0.08245349836568527, -0.11219509328735591, -0.011522106384508823, -0.05171206484202446, 0.04054744589886474, 0.013991538011738256, -0.043637101022769645, -0.010605250644295955, -0.019103758765525655, 0.006448383544591875, -0.009763168003403377, -0.0592232374923551, -0.027419046329676042, -0.09709057764509411, 0.021293490912321147, 0.021958297967736483, 0.031079143503416777, 0.0006863282504213082, -0.3006836855525714, -0.23888906910516378, 0.012942388682600904, -0.47988220950287974, -0.6846092563548384, -0.5549521124642025, -0.5469675455299962, -0.23854292968204446, -0.19348955146475336, -0.2465873124866318, -0.11219614797341686, -0.18034836367071386, -0.3796770840534419, -0.5129385997831262, -0.38679872208263516, -0.2877793401727134, -0.21940152586663048, -0.15409811155627937, -0.31060906187198095, -0.30184397156373555, -0.19921655646027744, -0.28090050741531974, -0.19293273853072604, -0.033327214858548074, -0.054303304652827546, 0.03960001743023468, 0.01663109776429843, -0.1276840479192714, -0.7077081366224095, -0.4570254616001432, 0.09708282733073907, -0.5342522717589869, -0.7098887113930199, -0.36182238203570327, -0.5967274098975139, -0.34839419029024987, -0.09779005790869018, -0.6684408286386514, -0.1390109138064093, 0.34364029746353525, -0.2682912070466326, -0.47289708675937053, -0.02490844201989687, -0.03578815343792274, -0.030825038166216585, 0.20428453409007183, 0.0678198256370188, -0.2875587915382813, -0.17626914645165756, -0.317971653357523, -0.37296991742166735, -0.01645277785332461, 0.020426499351990327, -0.0100749417159981, -0.018777072618128412, -0.06124732879777936, -0.42966168824852047, 0.01452227132907552, 0.10222456243878449, -0.3471076799522109, -0.4002122108512728, 0.5007079824024848, -0.2468426682071568, 0.20820046729873598, -0.2078634370506585, -0.5671832085154164, 0.03212784215178646, 0.1038931850083947, -0.6158380152841979, -0.22180653626252447, 0.36731047699874875, -0.26604187526386935, -0.39537864370889886, -0.07478243117569124, 0.04658798469149359, -0.2212346372623508, -0.5510660280658116, -0.3702246814834948, -0.6759855462090352, -0.07758893852980396, 0.057225317773497146, -0.019648738196598344, -0.010213692961309412, -0.24296344913809426, 0.1600059290687698, 0.2877255156354737, -0.07243611966795, -0.18409044368595756, 0.5472894937471955, 0.6751124027224181, -0.2983674040933472, 0.08668998264175622, -0.06969257395145124, 0.2267054731117596, 0.019350187529840204, 0.15092741849037142, 0.29994837809789265, 0.25187025097159743, 0.3183292221206299, 0.12782432745888797, -0.5772361545328689, -0.3929670644653333, -0.13088324044666974, 0.054237228547487894, -0.10426819884097484, -0.7781749246305406, -1.0030322746964344, -0.0754813028512257, 0.013239286217029897, -0.030555646076688463, -0.06593340242287961, -0.8296371605191439, -0.11562860476530493, -0.007159278562699751, 0.2546755624679502, 0.40726027103013246, 0.03819162127677515, 0.09637006041650936, 0.06711295299951832, -0.4014514136568281, 0.17102333618967416, 0.5306951019961115, -0.6139251310929008, -0.04064080604938807, 0.06030182791183185, -0.4249785335951758, 0.1838876017893573, 0.340386678376954, 0.16387586317738634, -0.3261115028181733, -0.12201275231014128, 0.030323757982628995, 0.1045589064292216, -0.5686482294460853, -0.9689229753159403, -0.07567589115531889, 0.009750481304375133, -0.012294091278495465, -0.12783964160249836, -1.2692995347149267, -0.33525826392734176, 0.07530528762064195, -0.5308586391562021, -0.28760745812350874, -0.5758798978703461, -0.44736958882504607, 0.5989712596397433, -0.10971115890387795, -0.37310808770377674, 0.3708942882196609, 0.12028044267501713, -0.18115635613569323, 0.25367138232246167, -0.5855826908268854, -0.4632573993124851, -0.11650194065631948, 0.247113749477614, 0.07428062559366602, -0.009715276383474306, -0.5175986231706506, -0.13144235403279883, -0.3113575733466124, -0.7721738809728653, -0.0834677767170201, -0.004971578251583296, -0.006039034918552249, -0.24663261029299688, -0.5048183536247285, 0.5923943688097251, 0.4558640050241825, 0.2703217477543403, 0.08943674273887953, -0.04254321446107303, -0.054754833079017455, -0.3853894810069603, 0.3926151032639738, 0.3364803769139471, 0.20391745277224602, 0.34463428093313425, -0.7203813160466185, 0.9502468657854521, 0.34675520766890927, 0.3492724382974036, -0.19653270732609726, -0.10128395585664063, 0.020216034728528905, 0.027685948174420535, -0.006104099120079609, -0.42742483537543935, 0.1958585962529563, -0.7350086262881675, -0.0937111352135966, -0.06791571086474772, 0.009276682578100364, -0.09149670727484459, 0.22438838130917346, 0.471002649826062, 0.06623611973318612, -0.41814512175597385, 0.09235476668422668, 0.05349709226004712, 0.6766134843374658, -0.34403826055031944, 0.10846782484853451, -0.6426843194884716, -0.2088906924053736, 0.17975046607430312, -0.523454549958991, 0.1595907847501949, 0.26803702749705366, -0.08692818922126341, -0.13452293808931437, -0.21281980393117708, -0.42415332657174587, -0.02799106485912604, -0.11077336162583494, 0.011224858516993688, -0.11822638777536582, -0.7134819674143767, -0.033230962806173894, 0.0013149337240756847, 0.07250651938215087, -0.1517836991274882, 0.3360373151539239, 0.06117847991402527, -0.3814373035483377, -0.1027640719576187, 0.23931369489723617, 0.01669943458116982, 0.6609342007908472, -0.45893427877176773, 0.6251460654718823, 0.261949503889269, 0.33132701313660695, -0.37460847659495783, 0.4813804178778571, -0.056749909236190096, 0.13390003699109715, 0.03092891126554478, 0.4541733913425238, -0.247245910170973, -0.4675040024714121, -0.23180526447422714, 0.038679671981511995, 0.2737109164704213, 0.13969873077248957, -0.15622748851706417, 0.010096700135244363, 0.005426999920449863, -0.018425940007501654, -0.15346110300821328, 0.6899692607069773, 0.1812155329332985, -0.3181728871084957, -0.1473978144272887, 0.2223069504703535, 0.13590834479687883, -0.07216879944728494, -0.30969707348910325, 0.29904922085693564, -0.2864222606650466, 0.15268620162459187, -0.2963136585217258, -0.38507100280115847, -0.8706862770823699, 0.3861723164346137, 0.6629088776101055, 0.18227130450832094, -0.29341717027979836, 0.2677406380271343, 0.3112910218400255, -0.4957631093365519, -0.35745846704353335, -0.03828210335705418, 0.38656385041092034, 0.11772043430665446, -0.01773353866235932, -0.023124678800188044, 0.0026095659662649998, 0.11362744065449898, -0.20557145449727024, 0.5359878745034512, -0.3438153281490729, 0.026497936360644923, -0.08603910592388837, -0.21898979512465008, -0.2567904823369105, 0.08595771979087863, 0.012555014343090585, -0.17716012676553317, -0.4161310209187077, -0.8817828997023088, -0.6492692436866557, -0.37135817551427913, -0.42526094264717973, -1.4126643025344225, -0.885594195741072, 0.25400140508176405, 0.35043608124697795, 0.22384321269445995, -0.16022637600570525, 0.15434132891409155, -0.11947413115370764, -0.0279722569913518, 0.04773942090538523, -0.07541745148695586, -0.010580280785106852, -0.48933275061779535, -0.7282338293966093, -0.07674500805600581, -0.2333608253942916, -0.15593005711612917, -0.1542734613124785, 0.6880503545930281, 0.12524538406576344, -0.41965748594883256, -0.17166593326357396, 0.04981556040776923, -0.034978620185061524, -0.464528121717193, -0.7409355150885489, -1.0833811422818942, -0.9340535709306861, -0.6412095191553686, -0.3262483408587876, -0.10086976278158953, 0.007171149331617741, 0.3123431138798298, 0.13264781570990508, -0.07607622269039832, -0.5699300752177554, -0.09516385334390476, -0.008840919679176835, 0.036676042942668116, -0.012733500385547361, -0.4153162952369618, -0.5512547089992399, 0.2597137647018385, 0.3750701466004398, -0.3922444754903875, -0.22580842924397923, 0.4357063579744765, 0.2606895906376719, -0.2376339455832589, 0.2762975497863629, 0.6925857366004923, -0.06817751820327646, -0.18486474080546764, -2.1999659791923167, -1.7890319692537233, -0.7030564580778484, 0.4634194891314447, 0.6758837049976649, -0.02107358302320542, 0.0767559861294654, 0.6211164945719664, 0.010116094935233078, -0.49176739199333336, -0.8992060357127595, -0.024796172841525906, -0.023815766158728317, -0.002000346717305299, -0.055196727111933984, -0.5310170932269924, -0.5730192462014717, 0.23566900886427833, 0.24055547350853707, -0.05179429597272085, 0.49447361442413396, 0.1479875344494352, 0.38778328640957743, 0.024516087997291373, 0.5708432352150109, -0.48591378432247523, -0.168198247516606, -0.8113239270226127, -2.774938737938764, -1.483438258068543, 0.5055760069271447, 0.8051227285865347, 0.46645874601684956, -0.18364929866138285, -0.16188881766697652, 0.4004695295189618, 0.7431513808284049, -0.541735651399301, -1.168566351517773, -0.12300667518698771, -0.025527879485310826, -0.012814594329663313, -0.039497719711377444, -0.7430039478821536, -0.08647212757791346, 0.5966674824369914, -0.0427720424971468, 0.3142844998510229, 0.9714504475952169, 0.2659700050956512, 0.07876071752428822, -0.0002126369763162728, 0.05987557086774446, 0.8632455411824728, -0.052707246993738355, -2.408976012445549, -2.982488754404378, -0.9058255935381534, 1.082542365010771, 1.0920419657350275, 0.7090166351938528, 0.14660895115024528, 0.1957815691829837, 0.23272333318837357, 0.4109820029467785, 0.12367413744168233, -0.819911444781418, -0.13467988844010864, 0.01870518226375101, -0.047988892798423555, -0.003330628806940802, -0.8495538814930452, -0.002411200969068259, 0.24024472446316253, -0.38872278663051596, -0.14527587681578802, 0.38931342280616194, 0.1257017621823137, 0.34760820907976686, 0.20220613456481212, 0.9159276935919257, 1.3557614162331042, -1.5074670483411794, -3.811578417272412, -2.0662124932239108, 0.3925024726060002, 0.9282520855257688, 0.7178846098655592, 0.6929907144877041, 0.6370771966782122, 0.3160123854464104, 1.4591082416881782, 0.20117449281920788, -0.027267438056915425, -0.9767496282767819, -0.1663925772802872, 0.03710111669060094, 0.04332708040272173, 0.06979422100104604, -0.3975677790790751, 0.7880159063527093, 0.12297337452377302, 0.4683356905445553, 0.19219827777509166, 0.7064232331603015, 0.42155767300476904, 0.06048534175633856, -0.47383452983080393, 0.1030138739908587, 0.14557493330718757, -2.678166570066468, -3.8105070664107776, -0.6728653098360858, 1.1863322976230886, 0.6389489549436241, -0.6419493775062803, -0.10679197761371613, 0.832428145529197, 0.24602803124945077, 0.7264609183533196, 0.5875734496849976, 1.2868775054383677, -0.1552760225058137, -0.08659501949682907, -0.0027089277567912766, 0.07056140649165438, -0.09481812450650894, -0.7294654179821077, -0.19672589504094168, -0.7298654734966191, 0.46130563875618624, 0.27317050537295473, -0.18687231943161942, -0.0551052032425634, 0.6318607448241149, 0.9197723438995878, 1.1897641276424167, -0.15093336728523524, -3.0189330746156684, -3.0688158556335168, 0.2691491251455958, 0.8579335665156, 0.12625433527393926, 0.11976707295812632, 0.755735818054529, 0.39954761339170364, 0.30261341997575486, 0.06469325450992885, 0.48658301698909395, 1.2395378102739059, -0.16603262333790958, -0.07786050518656083, -0.0005157772477661976, -0.025231971717009232, -0.1553552171033942, -0.5510221007558059, 0.08322360178449302, -0.5168595902632999, 0.33248004424605604, 0.09824238517156485, -0.6471687367514865, -0.1005554619044621, 0.422041676471223, 0.3541479047003168, 0.40920512414041554, -1.4501238103923626, -3.1192661493429203, -1.6918044166287938, 1.2112547991404894, 0.7462540490504211, -0.37872040151490366, 0.33358199773103736, 0.6885707916849234, -0.2758503281868379, 0.005727537450584904, 0.5969586806622613, 0.8425315767105425, -0.3019764297469282, -0.3586529010925998, 0.0031445190670141856, -0.0008504223416348857, -0.04942309641189718, -0.03575455371996656, 0.05459349316394664, 0.43359909959974263, -0.06581035290232948, -0.40904195624118195, 0.036123665956451494, 0.37227823491077194, -0.46952864976034403, -0.252912870082271, -0.1153847993046025, -0.3017650465814149, -1.7711861500885084, -2.6427208833494404, -1.2890302247888281, 0.5078545290241033, -0.12845592949058923, -0.2543113750842392, 0.28711239253220217, 0.3538128528451518, -0.19007838995395157, 0.12348465596530926, 0.573844698690713, 0.5330716250522382, -0.32831974161666055, -0.6769388212918677, -0.043872507616658736, -0.019770494925299493, 0.015342977693587464, 0.008976377206380948, 0.16812184230283436, 0.16836135128520008, -0.12201088918437325, -0.35220430953000276, -0.19635605966621456, 0.17165754807005323, -0.46576273771917964, -0.4096476983825563, -0.1487739856714295, -0.5868417495547061, -1.3670289002160636, -1.8215558238791407, -0.6627588952906918, 0.7331528184785304, -0.03494188125237657, 0.5730560285300643, 0.5555895809151931, 0.03362966093116654, -0.6479791182565641, -0.03267443864102607, 0.5360633806303793, 0.15255135847674123, -0.2553125878534522, -0.4258440214462776, -0.03559981523240077, 0.015110461269735713, -0.03245519184404162, -0.14412858139538104, 0.04758887988717164, -0.05250205788717588, 0.03361882892760031, 0.3795936563856518, 0.09372545214233544, -0.050402513222221716, -0.2306047018582625, -0.41194481887238316, -0.411749935352136, -0.8258770331478497, -1.415444683684594, -1.3906681497773339, -0.5565692230073767, -0.08083228736562974, -0.8654725149956962, -0.23424890630094877, -0.27390451062710786, 0.3941903649348673, 0.1981234257985085, 0.15734181707232364, 0.9997027927387185, 0.06425028391156014, -0.19665829859826423, -0.14087789918312732, -0.044434962537164606, 0.025748839505095076, -0.04565983287076209, -0.039138481557978985, 0.07727759328671499, 0.08031266531663628, -0.1722898709049206, -0.567779172396258, -0.6050883059344416, -0.8409996529436711, -0.6684334003339375, -0.5452276793176596, -0.4063460535457163, -0.6138315289337621, -0.9861188591428945, -0.9778436812358898, -0.7194246620596303, -0.6771569162162877, -1.1746106672694807, -0.5992269486742128, -0.3826731393413458, -0.697070005819639, -0.8426976633592546, -0.6725357771014442, -0.5575421317156372, -1.2216112628746782, -0.8172662532687206, -0.07615962141474855, -0.016215467926793257, 0.04021423317029506, -0.008976691998706385, -0.013873520755969936, 0.04172848604388227, 0.016729647704324065, -0.18853254904781266, -0.6013549832443954, -0.6427323235457926, -0.3646470702961489, -0.3198341011130538, -0.4028839498046049, -0.26522440470971065, -0.2981477585532051, -0.3739024741366863, -0.3178350489102996, -0.22842791688706243, -0.28503161834638774, -0.41422175648679355, -0.19859520596579877, -0.4128705552854647, -0.6291122963928802, -0.5408477765893336, -0.3150479208566164, -0.2756611846698568, -0.5639442984608632, -0.32511787765489636, 0.018568692941128586, -0.010027372827555503, 0.0725804409659878, -0.007035266463318216, -0.006933449113008062, -0.10180548096387805, -0.043358396676349595, 0.05087725202964995, 0.011865967259258429, -0.012641016032014606, -0.0747740419132376, -0.026950177379553766, -0.0299513220944388, -0.0513274141329113, 0.03851042287143001, -0.09996041315922598, -0.0574690430332969, -0.043718171539077984, -0.022639964758364623, -0.04588993554477261, 0.023572272979317233, -0.05707608308060322, -0.015263226603602423, -0.048413757673239854, -0.05107657871047985, 0.03668812383866576, -0.03289441916222857, -0.04833406117890052, -0.024115907131360925, 0.011564088528700623, 0.019682757528196277, -0.07250642973885477, -0.012205624480228227, 0.01920548295604449, 0.02728694135467942, 0.013981233854809667, 0.05961818742528452, -0.038461184958194304, -0.009878079417044425, -0.018263867389589742, 0.03597873369449694, -0.047044333039093215, 0.017784543658736576, -0.005698287201746248, 0.014127981392497298, -0.024784604683087262, -0.024618669675342215, 0.01337969553194226, -0.007894977298897932, -0.05910001715862078, 0.01038074892783024, 0.018469420891106068, 0.06955471928693904, 0.010728530459292288, -0.055556479892326927, 0.036241607972892144, 0.07515958459854122, 0.03309132186654395, 0.04087997443507747], [-0.03192404376839828, 0.021035724688962587, -0.010281260494113246, 0.0024888987355876973, -0.007334158571426957, -0.10274012787747358, 0.026904954330336867, 0.01981288234891345, -0.02405008620368457, -0.06782458977533436, 0.03415536570004657, 0.012805594688442267, -0.005301458153019532, 0.028160139231559838, 0.0031279374400176602, 0.06186083838832069, 0.03551625352263184, 0.0747968923125675, -0.20060942800205397, 0.06301691092168467, 0.18924065415187732, -0.010996682018847135, -0.007840072073421796, 0.021679680981686017, 0.03828363891637932, -0.00991962761544161, 0.002936080722389042, 0.0016222441112327287, 0.056692919091244375, -0.005609457220326903, 0.03040417129923169, -0.05614953657689591, -0.046826860021894616, -0.14420129564290562, -0.09547782062564804, -0.09051613506973866, -0.10235620755915602, -0.07758068435113552, 0.18830865748942693, 0.041820870780042145, -0.14951596558583602, -0.12152680181617918, 0.42132235864108936, 1.379994142608515, 1.1825543228950421, 1.808675162583224, 1.2295016931170681, 1.2033233605513638, 0.7124307445520093, 1.2044357606856244, 0.55672204436859, -0.06127748887733401, 0.04503071617345351, -0.05162134411644095, -0.10431780284879882, 0.01707462347742519, 0.0393364339105815, 0.021577171153825448, -0.08469155598595793, -0.2525261508664068, -0.25728710466126514, -0.25463190031538807, 0.14257388437331722, -0.04584919241740417, 0.5327569742831647, 0.16926051066687572, -0.05191171790382908, 0.3094734927578225, -0.2856843922172432, -0.020094208283512105, 0.5004309618792753, 0.2264199868568376, 0.10366459296462661, 0.5367937988786888, 0.2850001315930421, -0.40342068302575257, 0.2859895927621645, -0.27077884425616255, 0.5444129484723896, 0.0358458598782379, 0.329590182597277, 0.35460152780573595, -0.061017783045105446, -0.020614229547061647, 0.012710607489559708, -0.04368119208925499, -0.23728379834563662, -0.5377150734202346, -0.5475190406899322, -0.2561003949499296, 0.2252833374804169, -0.7123180508728204, 0.0797259871210327, 0.6156792075076198, -0.21522334637879034, 0.6781992819201431, -0.01576525823786664, -0.03350403484091538, -0.5633789497309628, 0.16662196471731552, -0.0753971644387353, 0.21245019200314075, 0.6734255268643798, 0.1190330583606858, 0.024358545781192006, -0.3475004225864074, 0.26714242020639173, 0.36318940012954953, -0.2882294034268932, 0.04546598691435858, 0.014609506057171715, 0.015774301463543625, 0.02207650805721722, -0.031446473464066114, 0.048326216695357194, -0.39249361146769984, -0.36461859134225827, 0.04127730404150859, 0.5134660259752236, -0.26556386487956024, -0.059147384363587276, 0.20482751718420011, -0.18151441700090853, 0.54114492082572, -0.21706920888810838, 1.014832147365364, 0.05437938161946279, 0.14768435340125977, -0.2832674964521871, 1.3692115536131406, -0.02232927429146833, -0.03859547043285441, 0.9131581950403943, 0.5173063318616128, -0.40274287285565813, -0.24902985340333803, 0.4715648617739462, -0.3466800032380835, 0.13311805166742635, -0.03995640573898108, 0.07378250074316182, 0.009105435210859105, 0.15788074758621742, -0.539377388618611, -0.7402056019283397, -0.1797663476137517, 0.6067238437758857, -0.17648487438347327, -0.0004385438152894615, 0.1469656331898158, 0.216291630312376, -0.4456472371379462, -0.23862338132622363, -0.17015733345020795, 0.37495364643889034, 0.7451055283187249, -0.5474329304597563, 0.06884168732613193, 0.043125556478712336, -0.34963664561055013, -0.44361422877693224, 0.954067351559728, -0.4166796569384083, 0.7841827734463361, -0.04202537629384956, -0.6911550854358605, 0.18767397174908426, -0.03084986647125311, -0.007473897819909532, 0.07908600860678947, -0.013088568829473535, -0.283705068637483, 0.11978379100923697, 0.045035896425501876, -0.051472887102948846, -0.24626003437400584, -0.17463732125218964, -0.5078054243300707, 0.3741917825681459, -0.635831101469279, 1.07720933390861, -0.6309388917449952, -0.43985700591211363, 0.3666377747801563, 0.29592652234318545, -0.5851022269717894, 1.117901786004521, 0.21539119541252488, -0.02945561482388876, 0.5747900288248473, -1.149586434609376, 0.1635641253226155, 0.786382569813263, -0.5569732834115726, 0.032566200130939416, 0.011201955805511052, -0.050611685040002956, 0.10249259198289415, -0.2776432680093778, -0.5519671554719108, 0.23141959629102657, -0.0203621654265311, -0.32419065961571764, -0.1162221681970847, 0.1420761150668284, -0.4368943156742392, -0.1938230338631448, -0.11431063961733356, -0.18253578586196081, -0.25655752279355953, -0.17582136102291038, 0.032270726575149046, 0.426962157154111, 0.2927634425966757, 0.11251170833659593, 0.17497845660779476, -0.19650873390455076, 0.40173565394902494, -0.1232293138907843, 0.12004067568506438, 0.8056778237712926, -0.15711961940464828, 0.1969480500553746, -0.030351989206667526, -0.0009673056166450544, -0.04403982221745666, -0.5373926860576533, -0.7407186771494167, -0.016408939190714494, 0.24321959057748935, 0.19710051163202924, 0.39286977956766667, 0.3610723399929662, -0.3554635970432792, -0.3964886771571088, -0.21899248135360247, 0.34732046240639564, -0.8722658248401107, 0.3174341944104872, -0.4876741649466182, 0.017890425662246696, 0.5203741351836423, -0.16536147194730455, 0.8960058926913357, -0.057291610228669694, -0.24375691221810472, 0.3838000132994561, -0.5124243770820417, 0.4160161583553408, 0.04466158020232798, 0.0061661899126245695, -0.047140218158871615, 0.07842304836340412, -0.05904865582098814, -0.5376779975083243, -0.8710022352452058, 0.34357726883275236, 0.022976679783384475, -0.2500466780300383, 0.27718262362168505, 0.04000407017327909, -0.10668555470518037, -0.023227163819240577, -0.6970580496565313, -0.30207013011487727, 0.1584939326949396, 0.5889980853081728, -0.8836779320217304, -1.9236744007736488, -1.2508825621743964, -1.6185763849992847, -1.0675163629115034, -1.1239530235677746, -1.0936428362253205, -1.524015135792327, -1.3456543341313845, -0.5992669001978502, -0.508777848658944, -0.135677024178691, 0.0200004484785226, 0.022010020161613644, -0.058949800139463764, -0.7665782387223434, -0.74993511567945, 0.1215400334436066, 0.1283874513261654, 0.26257686871204117, 0.06422909458625681, 0.1138094987139729, -0.321804772676053, 0.45470215627295035, -0.42347625400022026, -0.8854034388004177, -1.0155038082156722, -1.3009336282506394, -1.8020497511817308, -1.2995224326187014, -1.135528921407829, -2.10814268186186, -1.337217546005972, -0.9042717766968694, -1.3116769332919747, -1.6645392571650155, -1.528182116372416, -1.5448716024467457, -0.6445955259261971, -0.11415837915274411, 0.022016622504856587, -0.007785948974869904, -0.08415624913125863, -0.49294133983691335, -0.31521118911368406, -0.17463513252489518, -0.08669052932168962, 0.12083467261337925, -0.5529774680898571, -0.6802405620564801, 0.44715653705150565, -0.024707284868957412, 0.5509476025759367, 0.2378984190436334, 0.6411593064241117, 0.7852245870512794, 0.9873354820080049, 0.66392247856321, 0.6057455152368006, 0.37630476438264004, 0.31122441965708975, 0.4111731622517364, 0.7806060611872987, -0.20727681521244004, -0.5789195133395908, -0.795292146438295, -0.7499083749648205, -0.2920618013488044, -0.01714279621642079, -0.019823777120710085, -0.08315791406616213, -0.10413402407722203, 0.08258719317164993, -0.5063409721494642, -0.6468299496716522, 0.22365010833585966, -0.0863698287018137, 0.38135785257267424, 0.43607903261043923, -0.5098367730310247, -0.09024103477250893, 0.08988323917206334, -0.10085042519415587, 0.1757946571463035, -0.18860292121073693, 0.4560899614734054, 0.3113965286831442, -0.92311084644846, 0.3276184283044626, -0.5106400107518418, -0.484681222933897, 0.31294815111379215, 0.3004306282635512, -0.07764360510724597, -0.29068772868434173, -0.1487797408000525, -0.027327978012732002, 0.02565292732965463, -0.14088625525837556, -0.02138791609991283, 0.3711352977001862, 0.7966245146118445, 0.35077015235652376, 0.4152597429082487, -0.18699909635721074, -0.4540075362988333, -0.26406007946325394, 0.10680925698718743, 0.40851564520844896, -0.0157553385156026, -0.16023424474546533, 0.548487869130193, -0.7416612429379805, 0.3890287940780206, 0.2205272382579962, -0.5475876762634254, 0.2836679513058283, -0.3394765401497833, 0.4769312778833164, 0.0066498589405384854, 0.4071076328226768, -0.15246965995671805, -0.3642379352959471, -0.3600616543342681, -0.02861243919399749, -0.048411842183653395, 0.05443461163824554, -0.2876067904338599, -0.1891230771903715, -0.026403337974305354, -0.3539316722280678, -0.0573804413471526, 1.0309636980043633, 0.6990906280286433, 0.4801936416176757, -0.30522153133102475, 0.2546043383122528, 0.7204052630436036, 0.5341817497568604, 0.3104281050442663, -0.2237030398479827, 0.228967656997418, 0.3323793183507388, 0.35171296932109647, -0.1373320005171606, -0.32818068508455356, -0.08530429221837314, -0.4419798380889831, -0.12443789975817528, -0.45849607123364583, -0.02002808806673738, -0.13198317098727635, -0.009092428689483503, -0.11219766575043776, 0.063122581104563, -0.21509049136863645, -1.0049963406938365, -0.3162590814754923, -0.051241865951026505, 0.35986824899372616, -0.16433706702297884, -0.7728609387302162, -0.3021447601168427, 0.01913337186646457, 1.3790620988776954, -0.05564437944007543, -0.2470218693510417, 0.25810627552653265, 0.3501073380362592, 0.35363958574960896, -1.119915250825084, 0.22619882668263902, 0.18296002835441663, -0.011802576434855383, -0.049742556508269406, 0.4461103045181643, 0.07028616757950133, -0.6060183683150184, -0.3049082418552462, -0.12071175575534769, 0.007777216865055908, -0.05181835400499146, -0.13663593172499663, -0.1409626137935013, 0.09085707051944872, 0.6305457834447534, 0.16058915182704678, -0.5367012534948405, 0.2985369822371885, 0.6025821018943498, 0.8420412577146725, 0.09255287751096639, -0.5843397431362959, -0.1352798214272277, 1.1655223229720721, 0.7169541443377413, -0.39855779958718357, 0.29544091175729853, 0.5629387279813015, -0.1637426469086918, -0.32431848383884665, -0.08046517237658275, -0.4747769125725477, 0.730268231373544, -0.02283700455928726, -1.096616939829511, -0.7072441566469068, -0.12386611626070704, 0.02348800587024379, 0.02508403778970173, -0.12769395093283448, -0.4387397648522606, -0.7834793534164827, -0.5623691055105625, 0.5594644476420214, -0.04203430531174376, -0.14958316228163385, -0.10512713191950518, -0.021063204761471898, -0.42591224318713045, 0.8922939314427489, 0.4947252895467216, 0.16486935029704963, -0.1464459150232524, 0.7271412891882848, -0.5764359787128629, -0.7760856410557124, -0.45720796447432255, 0.26497854899045625, -0.15472041803332487, -0.4816263474106477, -0.26297840362968383, -0.6469330416556011, -0.9658385830039324, -0.6017692334058607, -0.05810325402753874, -0.002830948564894107, -0.019225043203984955, 0.05846289963032114, 0.039167686122261895, -0.7763851021875858, -0.26438493950161546, 0.34412053962285094, -0.7084059649632831, 0.2346150880670318, -0.19836591891237976, 0.35888475550283666, -0.4508998381785069, 0.3284979914026327, -0.6305789921706746, 0.6980937872238748, -0.39929162280561736, 0.5409919053842577, 0.7209095565859784, 0.4649048119699954, 0.4111116108009874, 0.5542261304566805, 0.305845455454354, -0.6282017976686125, -1.1607319139431589, -1.0582606367397176, -0.7748815979160841, -0.2837381422727756, -0.08596711454605527, -0.004849985577586882, -0.015969508549286922, 0.1756632712319568, 0.12120406697442788, 0.20656464724682005, 0.15824386264994494, 0.0715951093555558, 0.7053783236075936, -0.40791166114028693, -0.15524217533044044, 0.5574402709996725, -0.436793232924062, -1.011534044127483, -1.7373160496842026, 0.25720751127644426, -0.7489164673212784, -0.3131258880896221, -0.30111401992492626, -0.40718215959916276, -0.7323384138270822, -0.5658951575968476, -0.2810211759166392, -0.6639798171928736, -0.8091691284463276, -0.7495881081443699, -0.5127115171597412, -0.21523639778860623, -0.02314346092151727, -0.03825418500139377, -0.00563101081900283, 0.06166241296374506, 0.30052260018615473, -0.11665808723054463, -0.054045512438915096, -0.5647439371038592, 0.40930134840573756, -0.6190081492663291, -0.09901279664438137, -1.021004260772552, -0.4213946216134885, 0.08367607031625991, -1.3446313834443038, -0.9488600723682938, -0.4956610924546895, -0.3761645555391606, -0.5188007791787929, -0.1424081537982386, -0.2905648579845496, -0.7978844012165287, -0.6001674367942239, -0.6259904042336721, -0.5345706303694094, -0.3064810821828069, -0.15716934069242752, -0.07113942220597673, -0.013516701003919664, 0.0003596720830972578, 0.01230223522188383, 0.04804379649053384, 0.4810788056004477, -0.25319703473075206, -0.2121358822066605, -0.21395189635311823, -0.037652970275168285, -0.6418516633842448, -0.1920418342233509, -0.18048207386794668, -0.3141965922108236, 0.8054953508610202, 0.025124061999715088, -0.0937194628059437, -0.565929789791051, -0.3744674626482212, 0.028065925557230524, -0.11612370837807771, 0.20479825346344843, -0.5339415366039034, -0.5071317257283938, -0.5460351134713246, -0.39293371664131166, -0.26128676115239136, -0.12798545294705319, -0.022972430346677404, 0.06044622424382098, 0.05409769795084476, -0.03938076790746903, 0.1897438820965464, 0.702086221163109, -0.21935699192412145, 0.06893645895547292, 0.06150188110117534, -0.37241015246923626, -0.5846257160741668, -0.306288378727925, 0.284661524382462, -1.0912618820084095, -0.3899110701517782, -0.2519103196419039, -0.45812630842634694, -0.23472562476562334, -0.8660608347030965, -0.6732665797645908, -0.3803066948921228, -0.12425528511057655, -0.1999352618261036, -0.15561551299627632, -0.4635655303500062, -0.3620348747678872, -0.25030062065284153, -0.1298241527938515, -0.0309126368964965, 0.05298417256284657, -0.016732569326887072, -0.09025176750519498, 0.20297314361861998, 0.6138084312066459, -0.007863778121661653, -0.12090391885296033, -0.30551400071675205, -0.19039560149447707, -0.12412304560923401, -0.3343595838813569, -0.14319696840672058, -0.38958152008535, -0.06646562470024919, -0.29495664492180035, 0.45732345026005244, 0.05467892666704839, 0.26808577635288894, -0.9147320714784637, -0.31734377204588327, -0.3166173753727526, -0.25067238748278853, -0.2762518710927577, -0.7301580976467379, -0.45527896764706977, -0.20667168004126923, -0.14724076581141146, -0.07415038241922413, -0.030007914914487167, 0.009222188012230733, -0.010012623305807008, 0.0539783752594269, -0.44732148387482074, -0.33623976789143084, 0.11048948041201449, 0.3243276808375656, -0.3711563555773332, 0.025918705838766227, 0.14004275035339833, -0.8928929313097623, 0.48839891184031997, -0.6324483368274755, -0.219168345833668, -0.6042071113159952, -0.4232809381045944, 0.4968114767316266, -0.4056313017524251, -0.12240596817107602, -0.10493159106276666, 0.048881277264780545, -0.13312084056222728, -0.7567687431623651, -0.451393347602214, -0.15153035147931665, -0.11812890640589117, 0.016230005802672157, -0.09221007922550192, -0.019602002394236977, -0.010318883369520616, -0.1404186652110552, -1.0188232865462903, -0.35839920545774917, -0.3934549333771861, -0.87974392759416, -0.6155538167761634, -0.23841641285523166, 0.22999703230081311, -0.0920929783390171, -0.13748763569097894, -0.4504370002734242, 0.20090185791969462, -0.24369597576196658, -0.16147758991743108, 0.11503953657166154, -0.6167505564376622, 0.09208492817962642, -0.3949193772548699, -0.6088211222843163, -0.7660597735842549, -0.8109172568636753, -0.5175868931866401, -0.297566766520564, -0.08416533973711499, -0.03749002939277587, -0.032846542954794895, 0.030807117591612202, 0.025032977414966028, -0.08581055992839588, -0.16047096418893725, -0.07052763127952495, 0.2527552847260917, 0.4313488812658761, 0.40498977951288506, 0.3799769499302409, 0.5262810824277117, 0.6302238055623196, 1.0235737859755711, 0.813810922195638, 0.7610085107922693, -0.040293819881700096, 0.031413005332291535, 0.4063004427548531, 0.027435352663500133, 0.027000983157283494, -0.0033463579826246083, -0.10538956099142847, -0.18862031396394977, -0.19451833126360651, -0.23955261281801105, -0.13677847724506909, -0.024118548533162355, -0.11690429413885033, -0.029401097064802362, -0.0028126648818974204, 0.009894927169522325, -0.054452680774668485, 0.011908197505161472, 0.007541338347120307, -0.008210969923624961, 0.04642830271507014, 0.01639324039554011, -0.027233961130374008, 0.03118441375792905, 0.015951542946342653, 0.06749572595140461, -0.008655636364724113, -0.0369853348615232, 0.02848263993507616, 0.0877154408384379, 0.07376193556010333, -0.04820636654790161, -0.00653522160028762, -0.004224709444514396, -0.026030643899530928, -0.01567682657530892, 0.012138712624615659, -0.048013926538836814, -0.03040327050081817, -0.04852200424283961, -0.025097359305365274, -0.007943235323520169, -0.02260473497552994], [-0.02000792432675652, 0.015919122106527808, 0.02853788896330173, 0.004679574686818857, -0.007963297262888906, 0.0011890092684923895, -0.0596295057980462, -0.03557237737718765, -0.003521293136607796, -0.08734534461123068, -0.02920919260977625, 0.008972477801648178, -0.06135105120260927, -0.02294953121564971, 0.00910715852185309, -0.015298936034491064, 0.02443189133979942, 0.020825077290563338, -0.007734574941107037, -0.00558777698654194, -0.019023299586562018, 0.00567261245504247, 0.0658586076094072, -0.007542173471766201, 0.06327774565163424, 0.02789163319738674, 0.0680097208061612, 0.019447858878066018, -0.02920452436751537, 0.02043116443379688, -0.11775606346237819, -0.024047858250929914, -0.09363177092764248, -0.04346049161263006, -0.09459317165260765, -0.14657890918096037, -0.10460059673472433, -0.4022977263946663, 0.0011353157921203435, -0.11376149126286568, -0.05873797883481604, -0.05261464219528538, -0.04635392272278054, -0.12685564995074228, -0.06288132059181209, -0.23119933287527872, -0.24825004843679935, -0.13563399694662673, -0.1621893216434047, -0.18627819116809824, 0.006463922690251328, 0.0070547648315952855, -0.08259619684748878, -0.07130094371725057, 0.025655230588301426, -0.004515460343899658, -0.05795227378835024, -0.0015175720136518809, -0.21544544031908996, -0.15043486570813147, -0.1564765213718715, -0.1600153349014052, -0.7274363445362311, -0.15566381158640027, 0.09708952316056836, -0.39246330982159, 0.2680499358907696, 0.49232980422493544, 0.05918994411399855, -0.2892000218070404, -0.8345916257360402, -1.2621541122508593, -0.5642174954579655, 0.2558557212597164, -0.3288735447133881, 0.5153218764414473, 0.4453534260192913, 0.546766574477749, 1.0617068819649447, 0.9441884860440196, 0.9204539483757853, 0.35695726179993, -0.010691272237141704, 0.03579639223075747, -0.014753712716303682, -0.02195247893664857, -0.04449894007815447, -0.03825825035220295, 0.10058498933027464, 0.311599026997073, 0.03394576224434107, -0.0038162618940811915, 0.5564151505200415, -0.16267983847370837, 0.09783935093806466, 0.9905181405079883, 0.16939201642250953, -0.5105452271803191, -1.365053894627563, -2.22348816316868, -0.35488463334449305, 0.5290452538137733, -0.07684210708827141, 0.3689416557799254, 0.032723226167952965, 0.5971310635698764, 0.26868469562969854, -0.10845007125783082, 1.0805155831604383, 0.7444209448454986, -0.07351374880463303, -0.06294750416984575, 0.0251327269258408, 0.013635036513933609, -0.14778011884546804, -0.12200784089331275, -0.0674659229361923, 0.3031592661589748, 0.2768998193503534, -0.7880940392388048, 0.24074055269779362, 0.35435642599931466, -0.023033324183454877, 0.35078459202426393, -0.22241567916963578, -0.2477448777535265, -1.9313196161614907, -2.2489741847677798, 0.2911397033910099, -0.33412043411429276, -0.5461242515540392, 0.32577394525664777, -0.2126942930668699, -0.6927398433784958, 0.1071080306644957, -0.10419531231724699, 0.6949900350549723, 0.4279669301392476, -0.13309356361194932, -0.08279137628906577, -0.0136860491357065, -0.032658043324426775, -0.34936221460685496, -0.495439979913794, -0.5964880325862949, -0.2830294409690412, 0.021533167351138846, -0.4526944415368869, 0.4090207281360595, -0.27392404511796464, -0.6493161219559673, 0.13869650533066585, 0.3924511579102642, 0.3694157732774227, -2.483880436855183, -1.2476105080038797, 1.0929350121918342, -0.23962012026606863, -0.10901301116905272, 0.08285627689130787, 0.5706705443041258, 0.037930412061476966, 0.047081351471998205, -0.0007159761732480369, 0.5024635905417234, 0.37541910572491405, -0.06262539398249894, 0.04887787680990231, 0.02009703183159744, -0.03995920133995067, -0.3061407394847499, -0.8601485720880531, -0.4311262570770028, -0.47152625380335056, -0.2789176003217141, -0.2812672757424563, 0.5759019568785775, 0.1509593783977738, 0.3486066549918346, 0.1535773570909242, 0.7743525789573236, 0.4791614069121234, -3.598137950941086, -1.2328505862345316, 0.523924680204984, 0.2103195451071809, 0.044309811109899754, 0.21487055717101655, -0.361971950345716, 0.25609463298243573, 0.32461963731692395, 0.44213868522541755, 0.5022487401230284, 0.35994419530135746, 0.01700810104896471, -0.01973900949382255, -0.048375162099095634, -0.13250331417531286, -0.45229896018776655, -0.8393415661133964, -0.5634698367338414, -0.00850592071023618, 0.796145159881231, -0.4591838208760759, 0.033340164359020714, 0.4520776395884112, 0.8657988307930818, 0.31506139082938883, 0.2722972229964597, 0.42582500198479334, -3.64884959131059, -0.26451468543062845, 0.7535843613147301, 0.49540170729647676, -0.049372852435231124, 0.07026298575407589, 0.04200444575599544, -0.06153699383348221, 0.062444743702652517, 0.0008273002450695114, -0.8318607058258282, -0.5724194525000822, -0.09143304777784093, -0.0076701337438338625, -0.07207294053142281, -0.17634366471440538, -0.6155286655003259, -0.6628983055681492, -0.1575382228871064, -0.3080418640337569, 0.10025984545820603, -0.6947130569002149, 0.7863041617290661, -0.2991067354145437, 0.10216462647137887, 0.2070016450094941, 1.0562743957047844, -0.4873765270444989, -2.8897984389120706, 0.5266216057897329, 0.12890491931431752, -0.13215307983323876, 1.1809758553647598, -0.06616335602071062, 0.6063546917238875, -0.03163916117960661, -0.20229310516018267, -0.6846768843857018, -1.0871440448553662, -0.564461903020274, -0.04000446816724676, 0.021936761840951065, 0.03595131770732712, -0.03361785177648727, -0.6977239325262516, -0.5661358541904336, 0.4212070428626908, 0.43829914766047773, 0.704501436533023, 0.4257681105407954, 1.3140652089207048, 0.58775142666673, -0.26733170512406357, 0.45554496852366766, 0.1532786695185424, -2.532311301192348, -1.3156640737479006, 0.46459613871626204, 0.14915866427033292, 0.8151660254125626, 0.4115949626756805, -0.09565287905784879, -0.5302199586549401, -0.6586986645640961, -0.08758343946300609, -1.0766848056416858, -0.7603138336175161, -0.3248269841844715, -0.08363836881764229, 0.04758835573048464, -0.04712209237878064, -0.1391175738885704, -0.8841781894454764, -0.6166052004875198, 0.590130397923871, 0.0891548421105187, 0.5973938712962639, -0.2100408324533169, 0.14409520215884258, -0.804504611928299, 0.6652148708649929, 0.6291971650083467, -0.539001229903461, -2.1925751683080787, 0.3322336962523888, -0.008394315588682666, -0.6068686125313337, 0.006085664407815189, -0.5557274311059035, 0.3657960836050363, 0.4215539767557728, 0.02607400893482023, 0.08126196371473152, -1.065057517370489, -0.6848785709216374, -0.36024941403049016, -0.03136541104019163, 0.03343420728323206, 0.0529322079009634, -0.08564224200518337, -0.40284672894649814, -0.34913489392849695, 0.10745685610842184, 0.3493499566728024, 0.3230418825002705, -0.3354377639089732, 0.19975347024301088, 0.3865891553541974, 1.1432594850109772, 0.01808936927914558, -1.2452829857074659, -0.7057209621281748, 0.6078957488227278, -0.786894205668346, 0.2578484351876761, -0.7724572553245868, -0.18868361232510827, -0.5665830065888989, 0.56955260906801, -0.35651039927358197, -0.05240276604623682, -0.7023498157471495, -1.0192227318559202, -0.7137019829206486, -0.493255919540931, -0.19090171264017924, 0.006772975957521405, -0.07399303526541966, -0.09713153375708991, 0.5364539114945265, 0.2836634163589322, 0.7754008311543692, 0.8734622160052794, -0.02669074074068783, 1.5680559722754097, 0.9311486440549546, 0.37953400178892005, -0.8094014324706503, -1.0190707465076394, 0.44068026645512015, 0.5931578686983473, 0.04694097674114309, 0.45818383844958915, 0.4559224849905961, -0.25058362715615196, -0.45034832480752296, 0.45186308605577835, 0.05714984382109614, 0.4425140595561822, -0.5864988118714111, -0.9778831007693287, -0.772075104020907, -0.35789495873861255, -0.029096333887026992, -0.029504556783392914, -0.1693436829429902, 0.2198615112273915, 0.5698401028080322, -0.12255343298829363, 0.12714082123247158, -0.1414488528325375, -0.1320393944634809, 1.1243804376753361, 0.15636746583651387, 0.14644529143606858, -0.9172948336919605, -0.46133288558923136, -0.31533034305095914, 0.1591732104347964, 0.09625271409302841, -0.6016033983977029, 0.7367470658351543, 0.44027321249077794, 0.12347303434864317, 0.07316312502533931, 0.041718886067892785, 0.13264135512253375, -0.41577444444919726, -0.8929302591358003, -1.1220750852990031, -0.4482845918445107, 0.013341118717052923, -0.026129136292501166, -0.17257618883071593, 0.327056211700545, 0.329999928980157, 0.4354896193738055, 0.4062471036932611, 0.5289138747094361, 1.1871373849247755, 0.5115195518858442, -0.92829490722349, -0.36398268262307426, -0.7023213886922092, 0.05112347666702734, 0.10261380857648744, 0.28876306534367124, 0.008944638757772306, 0.5088371125101881, 0.34945900214069375, -0.33808865798012316, 0.004972967742163809, -0.21232675356619213, 0.25438867803428805, -0.20202947747584243, -0.08927725223348557, -0.8721110534269386, -0.967592543141868, -0.3210141980970175, 0.03035516151592717, -0.3310604808250213, -0.2959827083826609, -0.189306961848961, -0.208174483943978, 0.2781528727882606, 0.08508919399054714, 0.01124799811201085, 1.2744793781589363, 0.2704680119271074, -0.23694336047818476, 0.047437928735661966, -0.3358169015944126, -0.04664315794387677, 0.39485436237424376, 0.7578249532955764, -0.28959069052863223, 0.3544311729830285, 0.6881236172605562, 0.303731303534343, 0.8731171089691936, -0.3609968594790238, -0.22614957271270147, -0.44966709958254275, -0.8063148987199439, -0.8221096779749992, -1.1558088970828169, -0.070250807355412, -0.0037503019685074007, -0.33902324821090346, -0.43084318695587004, -0.8752010567052814, -0.49561232250064274, 0.5871461571519763, 0.6408074896707988, 0.5885958607325288, 0.406625318997435, -0.0012720192712138646, -0.5871048864638714, -0.6258734639751975, 0.29904422679713916, -0.2709324501368725, -0.20143938061616615, -0.060232870755107845, 0.35420144400168263, 0.2781368342303884, 0.14856770204833608, 0.584034199853397, 0.15324214755950957, -0.1228581851298319, 0.6864895397267987, 0.20085475454538562, -0.7733370463158561, -1.6739831332971593, -1.0363918309968763, -0.2612317338756115, 0.01699932144652167, -0.23889033475168953, -0.5099963983066187, 0.06412590075786805, -0.018920852595145796, -0.5255089936486169, 0.15114603837534626, 1.0243483128554773, 0.03302571746154445, -0.5214115680768295, -0.7000605970691964, -0.09838284398612515, -0.5670758159294911, 0.3690899367165198, 0.26552982217649657, 0.0871760455297993, -0.11729238523168399, 0.16443207314639163, -0.1544353987340757, 0.047145612904122, -0.10959174841289625, 0.2460187488907225, 0.9732487398697401, -0.10771382812224144, -1.2761247121155677, -1.8416151805953356, -0.8552221953783784, -0.10217911649754009, -0.001518762226504884, -0.051384894871704764, -0.19974492463233084, -0.009548987829589876, -0.7143224338485389, -0.8724233991988597, -0.20087879955815782, 0.29279234944364657, -0.9706079007361548, -0.8031800785263239, 0.15052979602171523, 0.7178421175821653, 0.3612367751008982, -0.4710788566124017, 0.017224326017595444, -0.3483146973344651, -0.19899534775792935, 0.4454559236486572, 0.32702527084860944, 0.008833046979832544, -0.026756875652463225, -0.280885817235655, -0.32168448803314426, -0.9421746559180915, -2.058378873798295, -1.9119583339183324, -0.6262828862684011, 0.045273452668153524, -0.034015799104470446, 0.005797348601865916, -0.011514171267062714, -0.8904922787543214, -2.0226523283116147, -2.0473085926844656, -2.1892727772761296, -2.565634349923097, -2.957242455171674, -1.4284077197432037, -1.1857719370382183, -0.5782422631002178, -0.6844763418352156, 0.2236438589964397, 0.046079111871510425, 0.23150369516729163, 0.40173346055791426, -0.2482022616813618, -0.0793197859846461, -0.41560068408952777, -0.2776828759971303, -0.11036462355859028, -0.13741454245875512, -0.31495347109292243, -1.4982926633760818, -1.4368717194530287, -0.381067075250667, -0.0050842461657388685, 0.0003421917280476081, -0.027571958068230006, -0.12358159604324145, -0.7550527144817547, -1.5063290769196118, -1.781183486828023, -2.250794466441199, -1.9171382312649676, -1.5153489681268066, -0.7842238971713476, -0.7581203295283462, -0.732902362631448, -0.6450425725620113, -0.647576470414278, -0.9237665602901236, -0.27462032510829326, -0.2532758091572689, -0.5607240367963539, -0.6461508029085506, -0.07210240781625005, -0.17675936473267895, 0.028312807055370853, -0.49386759218608633, -0.6332445138098292, -1.5981601936106482, -1.3209711092721403, -0.32326961059475623, 0.016363656838385334, -0.07190765787868088, -0.003447405550196742, -0.04324084654398076, -0.6840382962940603, -1.1360359866797238, -1.0837629437552716, -0.8715748723434613, -0.1233639995556241, 0.28573454295602135, 0.34972988363984436, -0.509151498977342, -0.06670400628350595, 0.020821874017668805, -0.41857145377793553, 0.09602805223529168, -0.5379153045947308, 0.13112314783509194, -0.24260124685702572, -0.37476844442463436, -0.3285533288405281, -0.7484796680655446, 0.0009168267878520751, -0.1577261103372662, -0.3152465665292549, -0.8023669148203012, -0.9187759776713235, -0.23414931349138904, 0.02711706851455724, 0.016953861852331917, 5.641072024754348e-06, -0.041481166845484634, -0.6550806617793375, -0.8296912830294928, -0.580182934778293, -0.006312256496559824, 0.08222128686578921, 0.7590161281692542, 0.08135700160079921, 0.29860213428524096, 0.40768516375423736, -0.18480801790744347, -0.1912325840342731, -0.3404212480543497, -0.3024749345220364, -0.34161786890428447, -0.10587615864679065, 0.11205792378957866, -0.3132406796581302, -0.43671502937426193, -0.3277811643757956, 0.04195635825875137, -0.11758436690403627, -0.09320332857505048, -0.4704403003283339, -0.3177113574634916, -0.0020333969721354817, 0.01443709397369449, -0.052406287959451285, -0.02487263552824818, -0.40927146404794607, -0.6315234279887706, -0.31538383688775623, 0.04864300929952292, 0.20941560324174996, 0.1323383384050972, -0.27060758830074333, -0.34969950686272316, 0.2751160028337949, -0.20260246106913754, -0.29307185955290393, -0.044011687412904836, -0.5698450141413025, -0.5048138401945602, 0.16525391015936977, 0.11944961688187916, 0.11405885153682743, 0.017148872697007628, -0.3308254836117292, 0.15912003914981082, 0.18804352508068137, -0.014191584168904621, -0.27110875321140154, -0.32043663187874205, -0.1435973311592286, 0.013561493459744021, -0.04358165350766881, 0.011183149136254183, -0.3111201532290734, -0.5068176392208285, -0.4799034239707103, -0.31101348652298844, -0.7248654131957775, -1.2136040248654296, -0.34088669174671027, -0.5984683917555873, -0.34759835867628336, -0.41938416386733257, 0.4064276148068216, -0.1469977783811384, 0.3564476934837331, -0.2318600865355375, 0.2825965439612592, -0.3422723356519657, 0.013599969607064239, 0.4254995349614485, 0.06671072048804914, 0.2977409391635432, 0.2750961328359057, -0.008299001683888032, -0.13731129384440985, -0.21588194635135832, 0.021211452187086983, -0.03038587248779979, 0.011069434815209868, -0.08728403193566465, -0.06064197801342213, -0.08598425535376718, 0.06671496735378715, 0.3701846506468099, -0.23566893946827722, 0.011437022679226484, 0.5392781046743738, -0.12513456970478984, 0.42768442216217106, -0.22831718842959256, -0.2198973780580293, -0.4550020864337219, -0.29656241333998257, -0.1722487453973399, 0.1789953058186943, 0.27255836616380674, 0.03780453959471251, 0.08615403244026562, -0.21606551750125158, -0.2866603646233519, -0.19842654314683197, -0.1472679584454939, 0.01934447278196721, -0.041685665178657, -0.004060752697372177, 0.03733414796024604, 0.02260215335305584, 0.06853003152098619, -0.03492001239233227, -0.07629763953926895, -0.030131789905904503, -0.0567749834216599, -0.14020499929748026, -0.04786107190780469, -0.04197115849852976, -0.2590100599504528, -0.27455420869407166, -0.36836772761309733, -0.17566597006969042, -0.21150828064961585, -0.4734574604697409, -0.09785409061691716, 0.029065045301483072, 0.0038917254901247086, 0.032129379194059365, -0.11406857394725835, -0.1360492859116272, -0.09967642877620346, -0.11883394632707851, -0.023033324480882227, 0.011771021553575423, -0.052224128145156375, -0.006985750833843409, -0.057433519074643086, -0.00990387821782017, 0.05494991139629237, 0.05086956889732618, -0.007500274631201286, 0.0013204112925968962, 0.027557122525267163, -0.02628895233517035, 0.03895543932045209, -0.0021099673224241463, 0.05645989594540286, -0.005727420916807013, -0.07353533442021691, -0.05319015681203431, -0.022919254258036793, -0.03653084951908044, -0.010816745331792511, 0.012414754965538633, -0.008100706834323604, 0.028369643537976035, 0.02126856748397638, -0.014451727379132055, 0.014454185361639617, -0.04947332880111291, -0.05784284593445879, -0.005975282816894406, 0.010750160848041397, -0.004776174148842544, 0.041617355366074256], [-0.01023544387538321, -0.010541553536584694, -0.03849176708371863, 0.019251009520850203, 0.0064238991370945756, 0.043913651405213916, 0.057699284575911745, 0.07353817718560297, 0.0392847883117411, 0.029219077252584564, 0.0015816294890104833, 0.009304897078407223, -0.04852352938706535, -0.010858822183690721, -0.05492051843949718, 0.011704002410651452, -0.04126369741615395, -0.046629211593206765, -0.024708105266751348, -0.027423337662439127, -0.004210690505566814, 0.040179566125433525, -0.040953967372779364, 0.055692831872574684, 0.01664068611321169, 0.03340593150248044, -0.011004751955844353, 0.03453566189372284, -0.019199618165123913, -0.05244295699467795, 0.030897835616909505, -0.013285329734908228, -0.04798817986416438, -0.17727171027014862, -0.4465171315301252, -0.22827487539121588, -0.001818445407138514, 0.2621038041748733, 0.04187263509735057, -0.09448236996396375, -0.17344829062650788, -0.13222933457254016, -0.1261810748375975, 0.048222095591475805, -0.016265565184116617, 0.027805377900331257, -0.15332167516405737, -0.05506379048402579, -0.1714426591819342, -0.12991511703633157, -0.10782949867315775, 0.03335649291654031, 0.0032675061191703926, 0.015270577410605808, -0.050582782738855754, -0.07895045597635508, 0.045546155498461756, 0.027931890623752755, 0.1294871428188631, -0.017302282268795724, -0.12707027462865392, 0.22990179258496926, 0.061555636973647805, 0.3675416706206979, -0.24756015932178493, 0.5210997329810029, 0.09837352558222245, -0.21703798018448034, -0.388814144505857, 0.12405607367144512, -0.15442989415616157, -0.5953090932340077, 0.2731132191913756, -0.08862656216175073, -0.17259727331709332, 0.41160809252984154, 0.30796671766376765, -0.26551629109066416, -0.11828085759287382, -0.03670316760457959, 0.0538178655001178, -0.06683002948767501, -0.0333358520934954, -0.011128513328974481, -0.0348800092542627, 0.0823085821763566, 0.5646215424023265, 0.31466379749346246, -0.009895522764219039, 0.24775698650652933, -0.12859248446828547, 0.5334265272337448, -0.1869046702001047, -0.18313378472454936, -0.22434019408756412, -0.13382775010089148, -0.44299098872850246, -0.08312856115283848, -0.23368019607145174, -0.41635611305397424, 0.07344426562958851, -0.45645504580641283, -0.020541204766692082, -0.3567887521129637, -0.10234793611755408, 0.34223770455369645, -0.20249615416791514, -0.3628747618292268, -0.21912400579397598, -0.18001574565988251, -0.023368948333740248, 0.013949110153745897, -0.04169414211681585, -0.03482483311211149, 0.3250365248343449, 0.3285181461989044, 0.19548778740363335, -0.05080288884710766, -0.4729303665471316, 0.07245887768904206, -0.40139208426522727, 0.01704280124460543, -0.13768196626269305, 0.04039353201320342, 0.08968592693229534, -0.13323151266784974, -0.586333195677362, -0.2213807561226941, -0.5833242332791921, -0.5908735705606807, -0.33203157654061805, -0.6069476134651304, -0.4177623024897039, -0.21677473810629988, -0.14515825053608375, -0.6626247930639136, -0.6319971255346487, -0.4270355369616943, -0.04995015635985484, 0.009321993343687635, 0.020838993503321638, -0.05683762513628138, -0.06782653415647334, 0.46866014036183107, 0.5186285716618674, -0.13744223941995953, -0.5470194069732104, -0.7612631829863425, -0.3254529936685795, 0.02653780294940981, -0.12876394833851723, -0.42654029537852894, -0.20635484802666942, -0.49966138619339195, -0.25158099689757235, -0.15668166779076145, 0.25473437043952957, -0.35507764698698274, -0.1605805288258874, -0.40490155967709685, -0.2790532400619991, -0.6316162128686169, -0.5747124748654736, -0.9408227776700196, -0.9920811643530256, -0.6914730292425493, -0.0019272625175839797, -0.02354990884790478, 0.045359407716614904, -0.08381784878312505, -0.3206196624035892, -0.06323205775069486, -0.24747850421595777, -0.5529692139501973, -0.10137948075107525, 0.2923823714766414, -0.2130481333190821, -0.36100244700606343, -0.31367180488393853, -0.7917100522986851, -0.7013528309173261, -0.2773826094392296, -0.34260424279339413, -0.24663095166185464, -0.15349089138404776, -0.12115617278305751, 0.2683945008631102, -0.19224402759809422, -0.12283127122606655, -0.8100282081696465, -1.0430912463112465, -0.9148127898216716, -0.9373353061664551, -0.6321044830189964, -0.09734380355956349, 0.01956527565681285, 0.02656801689130882, -0.008371886653174149, -0.3772842949487982, -0.36583460862230677, -0.6428166284401443, -0.12392786881096653, -0.4975454461089586, -0.31912039151595806, -0.6319306086338156, -0.34831561897676117, -0.5208361424886516, -0.2120235013669595, -0.16456997823051128, -0.2949161489041207, -0.7571881906759346, -0.8740431787307675, -0.9526255776252375, -1.0410176450938062, -0.38336327367756395, -0.7638965532157453, -1.1203821269244711, -1.5844437052246099, -1.4594789625270213, -1.1225271568999113, -0.9253450082874417, -0.5827538224241895, -0.07018471246124683, 0.0049106622456185, 0.056905191217789114, -0.07276154741384713, -0.4468084092630023, -0.5825246388325622, -0.5491269926373746, 0.039702683563846757, -0.8404331182386985, 0.07292628930422657, -0.16243542759606888, -0.22578849764539702, -0.37071538686866384, -0.15130672987274507, -0.5005190687199577, -0.5525813050867194, -1.1354646563088153, -0.5517506880720672, -0.9054901054976886, -1.3835158000338545, -0.4363692567357211, -1.19934685164394, -1.7473781279218694, -1.9349361510990282, -1.637673395846802, -1.3803588356226402, -1.1029587236292533, -0.4121104002245097, -0.00186541624665495, -0.0026078771389544376, 0.003690303336932679, -0.03314870241937586, -0.4378214622100204, -0.6474362763937624, -0.5900566861931209, -0.41830919888320073, -0.9113295216296905, -0.2607752546739023, -0.3715881219088193, -0.21983664107912604, -0.1645180798825149, -0.29877207502863457, -0.9862656114806574, -0.17479999022989995, -0.3547075409778128, 0.005587520623188042, -0.3772355273326011, -0.8099016390627601, -0.19628311710393512, -0.5408863789252734, -0.6191088389867332, -1.0808298101776126, -1.0874212802665044, -1.6159477948203753, -1.0340861252048628, -0.5537043210014488, -0.05696441312679771, 0.0023320213684744737, 0.04276719854103694, -0.07508937847307974, -0.42736469771493474, -0.6816325455515351, -0.2574460813518986, -0.21739048261032876, -0.2701656309647744, 0.23503484187270807, -0.184755254426398, -0.19770361682750043, -0.2324733258669447, -0.400110602594056, -0.5257787985601446, 0.21689777614030034, -0.20032369476305548, 0.2709160635864371, 0.3648595759079773, 0.2902928540128807, -0.07009291709145998, -0.8903826673159657, -0.37898624587076546, 0.0601139425436927, -0.17476242903591532, -1.293620561754454, -0.9976063817243749, -0.5577028610679116, -0.09988468458948449, -0.024025051402358884, -0.04934142588089323, 0.014080137197880812, -0.38076819024055125, -0.5205506894735474, 0.15316001809251548, -0.1517911293438403, 0.2905336668648584, -0.2242169267935656, -0.0579376878747657, -0.2526692555665042, -0.043650824630987545, 0.2718179593201518, 0.031049893952252897, 0.9646460665335007, -0.0016966068929490927, -0.17333489110347622, 0.050094383466374695, -0.31150193410728455, -0.5528891836870222, -0.2465071938839674, -0.5072507853653688, -0.09548608107960112, 0.22879542894887556, -0.8235441048986789, -0.9714765164319931, -0.540087009147553, -0.0786511705481773, 0.034205481285354986, -0.07811172700579908, 0.008214856451351393, -0.1798608483638094, -0.3571160563417355, -0.00505724065419309, -0.03499843091842701, 0.13839838467831939, 0.1675355311109004, 0.23425241545365308, 0.09309795632138307, -0.06310611463083707, 0.36198066942465074, 0.012312065498254376, -0.3608199643914029, -0.04041638261039531, -0.5216722771005344, 0.3547456379031769, -0.2657792316830097, -0.793788467322092, -0.2460120810037485, -0.35664970822489644, 0.1305201111978686, -0.04438431466769252, -0.825213411834609, -0.6023380758105302, -0.34600019895663386, -0.009388382988910687, -0.025044270283324545, -0.116229756226959, -0.027891134270879008, -0.2348669413130093, -0.4821684039330878, -0.11713672529556994, 0.023003606423363476, -0.13074214862216424, 0.21899987544501834, -0.3818041988649531, 0.24026775604128256, 0.0189780684455536, 0.1889701181104587, -0.28144240196506615, -0.2736660645692577, 0.47607398791811406, -0.06700558359384239, 0.07749050102227867, -0.8468549704970848, -0.27754753767270524, 0.4775627933713866, 0.6664883034675831, 0.23418045068662338, 0.320705864212029, -0.18767807783595544, -0.43594299362907646, -0.3107939680291224, -0.004803178834664796, -0.03796024343048377, 0.04170966996668592, -0.07662252775774349, -0.12484358695031154, -0.16852948311842825, -0.23714533748362884, -0.20171998237238292, -0.11900135830787133, -0.19300472046795342, -0.8889094202087544, 0.00836272390395773, -0.24226032208286974, 0.30108800575784367, 0.05701229652589726, 0.3063636315438251, -0.06405046525851688, -0.12324487318436003, 0.030382941218829496, -0.2403695506055585, -0.3373414454700344, -0.4866023339967125, 0.31071471175980486, 0.15509965818673185, 0.7420426287577071, -0.13721520054290243, -0.7422942868757636, -0.44386606517369365, -0.040112109019042115, -0.017309022144134014, -0.035405852849302824, -0.04501949246614412, -0.25527734942224495, -0.23457589413776997, -0.15019510454032392, -0.3239524616599391, -0.2234853625165708, 0.4288887936688198, 0.12306544862274509, 0.6463962594845308, 0.4960905441751545, -0.24587991471477352, 0.06956170317074402, 0.09765939858587755, -0.674895836811094, -0.1918197669878244, -0.08677550964353432, -0.13632719498114015, -0.23326577252481712, 0.33047060293067615, 0.28297104602193995, 0.14578301862958046, 1.085534624796018, 0.353059542538386, -0.6598600636164531, -0.6035934055008478, -0.07892985187415773, 0.007610466238899119, 0.009437744846840746, -0.1264227104872001, -0.37101752515655395, -0.46690095434285117, -0.11916397181056938, -0.3741954937949509, -0.710142559903879, 0.3076365758694507, -0.06420739694750295, 0.19132155110728466, -0.26426519157296186, 0.034909733798744444, 0.5426248065966978, -0.05655164204655803, -0.1769679865900987, 0.024963876495494985, -0.20600175418266625, -0.22845288421233398, 0.381996766328174, 0.6240698483563001, -0.3934877655385199, 0.3592118251603684, -0.07374386256640172, -0.08022245231380691, -0.07527823670685625, -0.3064093802947103, -0.06441215917805701, 0.022201919115018585, 0.06001690013490736, -0.0888146559465244, -0.39208044882466186, -0.6979766039349641, -0.010179488753060153, -0.2742885010608847, 0.13405873880662636, -0.33605467162335145, -0.6877569429234025, 0.1982723416304208, 0.06040973636809021, 0.5619886820471723, -0.031039208314021266, -0.35788942132856444, -0.06596672475065236, -0.26476807135249536, -0.7412232248656253, -0.016029896671510672, 0.13918752394976144, 0.9468439035358527, 0.0634632372145899, 0.9813290806221809, -0.00885777735734113, -0.25808215752061164, -0.1651307479484774, -0.022581240132557027, -0.1203194907693317, 0.03632490410050803, -0.03479705126037466, -0.11792003687438322, -0.3860527688023604, -0.5453246340613068, 0.06741700612000774, 0.44029597527858305, 0.06199333527882579, -0.2877097767513208, 0.2248805849652621, 0.45404350201779725, 0.2229302800944624, 0.18335591520413552, 0.32442221985454117, 0.07219472464152418, -0.3306096737909622, -0.5858789857335046, -0.2800626686397119, -0.013464774254523687, 0.0932532350469401, 0.42584956462960455, 0.49323428978122763, 0.4365718832107768, -0.09379216872959507, -0.06900466523569805, -0.3330832820110387, 0.11677366584547356, 0.03565703140276826, -0.03291975529113535, 0.006134638293463578, -0.02370883506559684, -0.2796293594053444, -0.5229319254864037, -0.07723866617415397, 0.25383533446823636, 0.39794071904221284, 0.1834004249099596, 0.4521834895732749, 0.6322222822982663, 0.32930554071768, 0.5253928864700629, 0.6742919888746532, 0.9541698161748191, -1.8231663178503708, -1.616083760364127, -0.12307410563617603, 0.17931632174702303, 0.9039031534047958, 0.4002582816134661, 0.5124467092743424, 0.3537834358530112, 0.27265752794883147, -0.05933624135312849, -0.44422395050547964, 0.3196654427486084, 0.049437533166493956, 0.002219254592684581, -0.014120372377404548, 0.01098173170015382, -0.10006851716948768, -0.6951610316875617, -0.22959643206018687, -0.046541217587733816, 0.01270026430159495, 0.8817380523873308, 0.1774873523696857, 0.11169162727248344, 0.13957810737766047, -0.3563001107987449, 0.18808047115432672, 0.7087962253181042, -3.684961124725924, -1.2368185653380976, 1.021491983536681, 0.8297759963195668, 0.6727973698759308, 0.3303455183310986, -0.5083560156015882, -0.1540599272299397, 0.22624242895329297, -0.5046921715870168, -0.14924466089945057, 0.44204177228915487, 0.022447665579257772, 0.03398177087445803, 0.03609279383040217, 0.05357987144947298, -0.2104265242965012, -0.4607929266030894, 0.5960306610171726, 0.2635727538232434, 0.013086448535393523, 0.09113195953228959, 0.052721043862393964, 0.12779996713040215, 0.5034172798956086, 0.8402718073783807, 1.9576105885476682, -2.2423492446403537, -5.698600039026803, 0.780076090013839, 1.5362993969828107, 0.40776805697374063, 0.24752105209101194, 0.3974191322980156, 0.4662061378950707, 0.554747629036215, 0.6897137955628144, 0.5192574302636661, 0.3676694436848203, 0.4040922372081983, -0.05505610735267621, 0.0016653792285407736, -0.0554624389279883, -0.07887077587798466, -0.38930008667272603, -0.3439367688737886, 0.6232194666550578, 0.27641717616455064, 0.31594875631484126, 0.3925837398940484, 0.22379987166177379, 0.18465913657356064, 0.6671850622200564, 0.39941243821215333, 0.4786266115648118, -4.737606848052004, -4.16874066942447, 1.6625166621144654, 1.7205324448035935, 0.2673770224847345, 0.4018776942734291, 0.15872454177093298, 0.37552869712537124, -0.13091097899422688, 0.10063439505722428, 0.038081690730174166, 0.22091674473100714, 0.06562304959866479, -0.13138359950337522, 0.0348887793009598, -0.09066502395889281, -0.09050025165107742, -0.6002391441219168, -0.7093971680490511, -0.020864903738298905, -0.18689318939622, 0.7992984605813115, -0.3352050288712492, -0.07720528037852911, 0.47965981406592634, -0.03110311435828632, -0.08616711126061175, -0.35066793666993923, -4.4809862662182045, -2.0796463101524423, 1.4443085094591315, 1.5205429713466878, 1.012368705588592, 0.9539515891074605, 0.32947152395839807, 0.25975438240750665, 0.07026566312431798, 0.07405337028822262, 0.20161106448298022, -0.2932448606352081, -0.11749389152527678, -0.041451393023528724, 0.06964882736242513, 0.01471617295511453, 0.02981619251409075, -0.28481403596659716, -0.44837502952074243, -0.07090326229442345, -0.5424631891150427, -0.07164113652231213, 0.09503666340791632, 0.2867783193656773, -0.14974883288310512, -0.9797688064243609, -0.7790352927051365, -1.3367745786675886, -4.353117356303931, -1.523669662318363, 0.5889829412739835, -0.8388576864317502, -0.25240884514182854, 0.08380769209789306, 0.4473431932528442, 0.9166799479931902, 0.4488334943069101, 0.296290467429378, 0.3812234159167636, -0.4873936107967527, -0.10095191288296895, 0.049104542275710025, 0.013783243318290566, -0.05332856220623824, -0.008119334536190098, -0.0644653897041167, -0.2073714439217204, -0.2596810597828773, -0.625148971199591, -0.427850106887073, -0.19272913453982424, -0.8264331126878828, -0.10861173769701851, -0.7776963208539327, -0.387874072192335, -1.953747975174003, -2.84716663229754, -1.1159231080159642, -0.35741562391972254, -0.6646350789999105, -0.044131560362294486, -0.14986322520183226, 0.15946157782057155, 0.012524398485912256, -0.5493897666308794, 0.14411726582805962, 0.1897522316104132, -0.17511921303143377, -0.1270060377169229, -0.04046397496365789, -0.023449387960611797, -0.03458186859060261, 0.06201074014959309, -0.0037475414999229998, -0.06605228386282566, -0.023438587510088902, -0.13424234076742353, -0.11438101600162989, -0.19451229742093434, -0.29241863163145293, 0.025237908843996827, 0.1916805226661779, 0.10058349075343265, -0.16902809970668126, -0.2906031878169014, -0.12217143407174809, -0.011324205759757032, 0.12445401830608596, 0.10351747049063835, -0.2174454947656467, -0.12113422126425105, -0.3645631024747547, -0.4324392484660883, -0.13993362652010924, -0.05539746574990356, -0.12152685192498675, -0.15196289214823167, -0.10630765785097233, -0.07857767208374815, 0.0006994473005545307, -0.0450973085294203, 0.057864149950145924, 0.0650192226910991, -0.07321521500543593, -0.0005638055117113622, -0.022079984727265526, -0.005861422862765971, -0.03166642435849544, -0.0001457379658245142, 0.03270812694845933, -0.020341620659887275, 0.00019524939677565206, 